{"type":"NeuralNetwork","sizes":[26040,3,5],"layers":[{"weights":[],"biases":[]},{"weights":[[-0.07278179377317429,0.032529931515455246,0.09966856986284256,0.16215182840824127,0.11649768799543381,0.0465211383998394,-0.16922959685325623,0.006765460595488548,-0.08066060394048691,0.1751321256160736,0.1679801046848297,-0.020053325220942497,-0.11692070960998535,-0.09052039682865143,0.11961019784212112,0.07106107473373413,-0.05324636772274971,-0.010945565067231655,-0.0023902864195406437,0.10359088331460953,-0.15116208791732788,0.21015383303165436,0.07353747636079788,-0.04132533445954323,-0.0997215285897255,0.1615523099899292,0.023044589906930923,0.14071670174598694,0.045638471841812134,-0.06343311816453934,-0.3774115741252899,-0.15219560265541077,-0.04551921412348747,0.013711070641875267,-0.021056966856122017,-0.15367670357227325,0.1904323548078537,0.11981642246246338,-0.14669345319271088,-0.19371208548545837,-0.026662936434149742,-0.13177146017551422,-0.06411530077457428,-0.06091580167412758,0.1653880774974823,-0.03875727578997612,0.015161418356001377,0.1504204422235489,-0.10983552038669586,0.04394983872771263,-0.017074255272746086,-0.022841650992631912,-0.18473994731903076,-0.09544582664966583,0.10457772761583328,0.06608235836029053,-0.044029757380485535,-0.06154787540435791,0.03741121292114258,0.014013960026204586,-0.5748700499534607,-0.1641693264245987,-0.11765431612730026,-0.1975174993276596,-0.09657038003206253,0.05420568585395813,0.07747051119804382,-0.15293943881988525,0.03338843584060669,-0.05741331726312637,-0.032257724553346634,0.13411015272140503,0.09378468245267868,0.08237532526254654,0.19531454145908356,-0.1776207536458969,0.1890835464000702,0.03111928701400757,-0.19126619398593903,0.05982235446572304,-0.09739743918180466,-0.09254118800163269,0.0631750077009201,-0.05933435633778572,0.18626907467842102,-0.019643228501081467,-0.046484243124723434,-0.02009613625705242,-0.056994762271642685,-0.12564723193645477,0.6642408967018127,-0.12336955219507217,-0.016038479283452034,-0.16481484472751617,0.11120051145553589,-0.07799029350280762,-0.06906268000602722,-0.20467610657215118,0.1452757567167282,-0.03852016106247902,-0.12490354478359222,0.06464213132858276,-0.1469874083995819,0.12950162589550018,-0.09373050928115845,-0.20346654951572418,-0.0007338750292547047,-0.11871987581253052,0.0915236547589302,-0.08584088087081909,-0.0778750404715538,-0.10441089421510696,-0.002885081572458148,0.0436747744679451,-0.16379719972610474,0.05302083492279053,0.19791777431964874,0.16752831637859344,0.12607614696025848,-0.13130109012126923,-0.5689986944198608,0.14186975359916687,0.14567144215106964,0.05019807815551758,0.1919960379600525,-0.033866893500089645,-0.15984149277210236,0.17359265685081482,-0.1973482072353363,-0.1668737679719925,0.006014123558998108,0.05479440838098526,0.09939568489789963,-0.1636718511581421,0.10121841728687286,0.03827226534485817,-0.06781256943941116,-0.19159762561321259,0.06558387726545334,-0.14729703962802887,-0.19310936331748962,0.1666092425584793,-0.10924579203128815,0.17292025685310364,0.07464674115180969,0.1207612082362175,-0.17154556512832642,-0.051236897706985474,-0.17621809244155884,-0.15931256115436554,-0.5953068137168884,-0.020606497302651405,0.15618453919887543,-0.1008041501045227,0.07903844118118286,0.1848844438791275,-0.02271565981209278,-0.16423389315605164,0.024583326652646065,0.13752420246601105,0.18152093887329102,0.09738709032535553,-0.16149850189685822,-0.016062654554843903,0.17383545637130737,0.1627090722322464,-0.06639360636472702,0.19865921139717102,0.07101594656705856,0.07288835197687149,-0.07472570985555649,0.14532354474067688,-0.09656132757663727,0.1174423098564148,-0.023118412122130394,0.08209448307752609,-0.01219699252396822,-0.09025339782238007,0.20816297829151154,0.10684255510568619,-0.300305038690567,0.0390942208468914,0.02431768923997879,0.04205015301704407,-0.1485520303249359,0.19339659810066223,0.11815571039915085,-0.17135903239250183,0.1486639380455017,-0.1888704150915146,0.0400434173643589,-0.15346522629261017,-0.023794900625944138,0.02796037122607231,0.022870508953928947,-0.11935079097747803,-0.1714286506175995,0.03434908017516136,-0.12211130559444427,0.10373394191265106,-0.06750921159982681,-0.05782535672187805,0.10450638830661774,0.11960398405790329,-0.09268594533205032,-0.03598703071475029,-0.14510652422904968,0.0813901498913765,-0.001078444765880704,-0.11028372496366501,-0.3430626392364502,0.20098541676998138,-0.17138351500034332,-0.2215661108493805,0.029554925858974457,-0.18552269041538239,0.09691011160612106,-0.01811915822327137,0.08720351755619049,-0.07385454326868057,0.13746675848960876,0.11159583181142807,-0.03362220525741577,0.04849473759531975,-0.13060344755649567,-0.09663983434438705,0.1339251846075058,-0.10986808687448502,-0.017921335995197296,0.0966978371143341,0.21908216178417206,0.19569191336631775,-0.09761230647563934,-0.048619069159030914,0.13769997656345367,-0.11907847970724106,-0.06090180575847626,-0.05742201209068298,0.17660976946353912,-0.03149671107530594,-0.6765842437744141,0.0672379732131958,-0.2252875417470932,-0.0600736066699028,0.11364549398422241,-0.054631635546684265,-0.019927145913243294,-0.09671131521463394,-0.16982156038284302,-0.17770065367221832,0.16919969022274017,-0.11677708476781845,-0.10443884879350662,-0.11854864656925201,0.15729032456874847,0.1815117597579956,-0.0949171781539917,-0.09467332810163498,-0.08950375765562057,0.05549109727144241,-0.021188905462622643,-0.05222439020872116,0.05548528581857681,-0.007977841421961784,0.11950545758008957,-0.12807302176952362,0.021831126883625984,-0.07626457512378693,0.19164399802684784,-0.03393571078777313,-0.5104557275772095,-0.00968045275658369,-0.1701517254114151,0.083561971783638,0.13429303467273712,-0.1980677992105484,0.13396550714969635,0.12742751836776733,0.17135053873062134,0.018266847357153893,0.19428615272045135,0.03847898542881012,-0.04358116537332535,-0.11024551838636398,0.0544157475233078,-0.09370028972625732,-0.13077163696289062,0.17131198942661285,0.01707223430275917,0.19825831055641174,0.19349288940429688,-0.054538022726774216,-0.20766505599021912,0.14330589771270752,0.10871143639087677,-0.012770199216902256,-0.014452975243330002,-0.1260247528553009,0.21671026945114136,-0.08733493089675903,-0.25606653094291687,0.19857724010944366,-0.13743242621421814,-0.24896115064620972,0.043954744935035706,-0.1345868855714798,-0.14449848234653473,-0.18484936654567719,0.11489114910364151,-0.19196884334087372,0.06788432598114014,-0.06207187473773956,0.018681857734918594,-0.06352274119853973,-0.11202593892812729,-0.09627915918827057,-0.1226586401462555,-0.03273366391658783,0.13634973764419556,0.17382493615150452,-0.08401115238666534,-0.14897291362285614,-0.1731744110584259,-0.1131439059972763,0.10072344541549683,-0.07119777053594589,0.0060734529979527,0.08301600813865662,0.006976489908993244,0.04060693830251694,0.3610004186630249,-0.09623027592897415,0.11632571369409561,0.07118923217058182,0.15549863874912262,0.05408085137605667,-0.06409872323274612,-0.04170825332403183,0.14445145428180695,-0.07569276541471481,0.1508939564228058,-0.04671624302864075,0.09338051825761795,-0.029187481850385666,-0.055934302508831024,-0.16740383207798004,0.03248671442270279,0.1658504605293274,-0.028148183599114418,-0.16737768054008484,0.17937234044075012,0.09167683124542236,-0.100547194480896,-0.16481074690818787,-0.18664495646953583,0.16618534922599792,0.19447489082813263,0.11058701574802399,-0.0355537049472332,-0.026427529752254486,0.8841004371643066,0.15906791388988495,0.0734485611319542,0.07839624583721161,-0.03476984426379204,-0.12054731696844101,0.17685061693191528,0.08520811051130295,-0.10391421616077423,-0.18584993481636047,-0.08354958146810532,-0.016459569334983826,-0.10349905490875244,0.18721707165241241,-0.029461616650223732,0.18890929222106934,0.07164540141820908,-0.16364628076553345,-0.16515764594078064,0.17581598460674286,-0.1213378757238388,-0.025644997134804726,-0.09555216878652573,-0.0207426305860281,0.1797236055135727,-0.18071995675563812,-0.03094279207289219,-0.12617310881614685,-0.1684040129184723,0.06255937367677689,0.7507815957069397,-0.09824112057685852,-0.17330871522426605,0.10440152138471603,-0.011345160193741322,0.14044153690338135,-0.121771901845932,0.14797160029411316,0.141936257481575,0.12194451689720154,-0.020770790055394173,-0.13445733487606049,0.11411983519792557,-0.06365359574556351,0.19182218611240387,0.0915033295750618,-0.022049399092793465,-0.09498867392539978,0.13986368477344513,0.14851127564907074,0.15387478470802307,-0.08735809475183487,-0.09907226264476776,-0.10294888913631439,0.1917986273765564,-0.005432021338492632,0.04912975803017616,-0.10713512450456619,-0.1113637313246727,0.15915226936340332,0.693382978439331,-0.0840519517660141,0.05077961087226868,0.06415016949176788,0.04433505982160568,0.17167390882968903,0.003714710008352995,0.11146527528762817,0.002882817992940545,0.02081533707678318,-0.07112213224172592,-0.12910255789756775,0.12320822477340698,-0.14715448021888733,-0.016548918560147285,0.027066197246313095,-0.13849402964115143,0.12135203927755356,-0.016057731583714485,-0.010443000122904778,0.005368688143789768,-0.054536428302526474,-0.176993727684021,-0.09125489741563797,-0.05556177720427513,-0.16744393110275269,0.17674581706523895,0.0618312694132328,-0.14234699308872223,-0.12082678079605103,0.10089784860610962,-0.05088892951607704,-0.09090547263622284,-0.09050348401069641,-0.0834159255027771,-0.1003606840968132,-0.1997501254081726,-0.14709016680717468,-0.10614528506994247,-0.08740783482789993,0.13395991921424866,-0.10213933140039444,-0.06357041001319885,0.10703665763139725,-0.08122368156909943,0.12084469199180603,0.0365215539932251,-0.042165275663137436,-0.17512719333171844,0.07665536552667618,0.009491747245192528,-0.056071024388074875,0.05174466222524643,0.18482495844364166,0.13480244576931,0.042338233441114426,0.1302526742219925,-0.01851232536137104,0.21178391575813293,-0.1011381447315216,0.16380678117275238,-0.11565906554460526,0.01854773797094822,0.12459854781627655,-0.1889198124408722,-0.1127205565571785,0.01127690076828003,-0.13957105576992035,-0.12511692941188812,-0.043209150433540344,0.08038313686847687,-0.16279816627502441,0.004001263994723558,0.16627764701843262,-0.12347248196601868,0.04371889308094978,-0.17911958694458008,-0.19558751583099365,0.15893034636974335,0.07364022731781006,-0.04938175901770592,0.014308128505945206,-0.06684182584285736,0.05098807439208031,-0.1346987783908844,-0.15064890682697296,0.03941373899579048,0.0767291784286499,-0.17488649487495422,-0.05589683726429939,0.7429341673851013,-0.1456749141216278,-0.17733976244926453,-0.05477136746048927,0.1771015077829361,-0.1927843689918518,0.09551343321800232,-0.1531781256198883,-0.011316918767988682,-0.03135373443365097,-0.07924122363328934,-0.0100626265630126,0.16541197896003723,0.15685658156871796,-0.04860609769821167,-0.07784173637628555,-0.0163746178150177,0.14257843792438507,-0.09581045061349869,0.0020926794968545437,0.13905982673168182,-0.03032350353896618,-0.05842546001076698,0.05429564043879509,0.03999277204275131,0.1730428785085678,0.18537358939647675,0.04365828260779381,-0.028703397139906883,-0.07195273041725159,0.762322187423706,0.08672275394201279,0.1360497772693634,0.010330100543797016,0.15145468711853027,-0.10643714666366577,-0.0334019809961319,-0.19547010958194733,-0.1768137514591217,-0.19851276278495789,0.13325369358062744,0.12781532108783722,0.09625157713890076,-0.13548538088798523,-0.10272817313671112,-0.17732295393943787,-0.17742614448070526,-0.025632213801145554,0.12786602973937988,0.1737401932477951,-0.07678620517253876,-0.011852814815938473,-0.15103912353515625,-0.15286073088645935,-0.17544817924499512,-0.0649995505809784,-0.15560701489448547,-0.04227893799543381,0.15832972526550293,-0.09489405155181885,1.0871837139129639,-0.1390368789434433,-0.12144821137189865,0.02161741629242897,0.05498730391263962,-0.06199177727103233,0.17191758751869202,0.1653936207294464,-0.11502864211797714,-0.16024178266525269,0.04484632983803749,-0.14563170075416565,0.031924329698085785,0.03788011521100998,-0.13036543130874634,0.1752914935350418,-0.0346236526966095,-0.10732676833868027,-0.20081360638141632,-0.03201071918010712,0.17273084819316864,-0.07092734426259995,0.007437549065798521,-0.028855573385953903,0.1136147752404213,-0.11639338731765747,0.06682701408863068,-0.07205633074045181,-0.06905225664377213,-0.026457717642188072,0.05228811129927635,-0.08132071793079376,-0.011600594967603683,0.04206763952970505,0.05697334185242653,0.16985628008842468,-0.044055141508579254,-0.027223020792007446,-0.060074761509895325,0.13258057832717896,0.14160721004009247,-0.054768238216638565,-0.07271341979503632,-0.003699312685057521,-0.11003012955188751,0.02219238318502903,-0.12764205038547516,0.17154467105865479,-0.13138273358345032,0.16714461147785187,-0.07551135122776031,-0.0832727700471878,-0.17617180943489075,-0.01485666073858738,0.03640161454677582,0.02005115896463394,-0.19740751385688782,-0.17770825326442719,-0.01981712132692337,-0.16562770307064056,0.9785469770431519,-0.005811889190226793,0.21089567244052887,0.15682774782180786,-0.12828439474105835,-0.1208307072520256,-0.0028205213602632284,-0.1741095781326294,0.007412259932607412,0.0032096661161631346,-0.054226234555244446,-0.04404112696647644,-0.027008533477783203,-0.09446971863508224,0.13560765981674194,0.18235406279563904,0.138095423579216,-0.020546069368720055,-0.039472293108701706,0.18363133072853088,0.15443606674671173,0.10611379891633987,0.14238299429416656,0.017273709177970886,0.13650375604629517,0.13371267914772034,0.09711098670959473,0.18169131875038147,0.20423518121242523,-0.07676886022090912,0.278251051902771,-0.16116923093795776,0.0922003909945488,-0.16832244396209717,0.18990495800971985,0.18295587599277496,0.1390419602394104,0.08925608545541763,-0.09695953875780106,0.06977352499961853,0.08339499682188034,-0.14845232665538788,-0.11006160080432892,0.0354134738445282,-0.18498972058296204,-0.07759374380111694,-0.12248804420232773,-0.01673908531665802,-0.08639702200889587,0.10551702976226807,-0.19056622684001923,0.0576043538749218,-0.08227384835481644,-0.031983476132154465,0.15507368743419647,0.15121570229530334,-0.06144804134964943,-0.04904121533036232,-0.12877942621707916,0.14557042717933655,0.028355814516544342,-0.18200106918811798,-0.011612039059400558,-0.08682534843683243,0.05576827749609947,-0.022044386714696884,0.16949446499347687,-0.004984749481081963,0.08700896054506302,-0.18866415321826935,-0.010824048891663551,0.11164538562297821,0.17160238325595856,0.061931103467941284,0.06606560945510864,-0.1579461693763733,-0.14229555428028107,-0.1605197936296463,0.05946023389697075,0.11144161969423294,-0.1360507607460022,0.12489708513021469,-0.16444988548755646,-0.0949634313583374,0.06254614144563675,-0.15389396250247955,0.15572673082351685,0.11611300706863403,-0.06308411806821823,0.10813164710998535,0.9133053421974182,-0.1883823722600937,-0.03784312680363655,0.14326870441436768,-0.038497887551784515,0.05049564689397812,0.04676780477166176,-0.0938258096575737,0.05201781913638115,0.029575062915682793,-0.1766614466905594,0.03457207977771759,-0.04248417913913727,-0.14912688732147217,0.18777619302272797,-0.1953098326921463,-0.17614449560642242,-0.069802425801754,0.11836149543523788,0.10017000883817673,-0.08886957913637161,0.1760292798280716,-0.027222028002142906,-0.0792682021856308,0.12929964065551758,-0.10648523271083832,-0.17410916090011597,-0.14533044397830963,0.04658101871609688,0.09203215688467026,0.10998193919658661,0.07314515113830566,-0.1041322723031044,-0.015248351730406284,-0.10846226662397385,0.17304885387420654,0.06648586690425873,0.08028881996870041,-0.166966050863266,-0.14774957299232483,-0.19874997437000275,0.11711233854293823,0.04418501257896423,0.17402273416519165,0.0802876353263855,0.1471368670463562,0.04623626172542572,0.0464327298104763,-0.1849583387374878,0.19662320613861084,-0.11234698444604874,0.1886463761329651,-0.1119016632437706,0.03469918295741081,0.1691681146621704,0.10219940543174744,-0.06401313096284866,0.1600833684206009,-0.11626990884542465,0.005715802777558565,1.040104866027832,0.12158100306987762,0.17694950103759766,-0.10114280879497528,-0.04933609813451767,-0.1905713528394699,0.0815419852733612,0.0039517842233181,0.165464848279953,0.026984630152583122,0.029777413234114647,-0.18006974458694458,0.05813136696815491,0.20367580652236938,-0.044039200991392136,-0.18567852675914764,0.08019094169139862,0.16265635192394257,-0.09160050749778748,0.11402454227209091,0.04041852429509163,-0.015330336056649685,0.17178860306739807,-0.1040012314915657,0.12509188055992126,-0.14348506927490234,0.045099686831235886,0.1841006875038147,-0.09175748378038406,0.15012875199317932,0.5966852903366089,-0.033834245055913925,0.09146726876497269,0.09166231006383896,0.19824163615703583,-0.1985081434249878,-0.006185820326209068,-0.12431374937295914,0.10198395699262619,-0.028078334406018257,-0.0652967169880867,-0.13998539745807648,0.06725190579891205,-0.1576259285211563,-0.08421576768159866,-0.06539659947156906,-0.046324219554662704,0.0241157915443182,-0.0030641406774520874,0.04205930605530739,0.08107408136129379,0.16650916635990143,0.09551052749156952,0.1381174474954605,-0.001833229442127049,-0.12808486819267273,0.14902077615261078,0.18012608587741852,-0.125523641705513,0.18765889108181,0.9176464676856995,0.11107497662305832,0.20381876826286316,0.09059727936983109,-0.07566642016172409,0.13124503195285797,-0.17363488674163818,-0.16640333831310272,0.12152153253555298,0.15002836287021637,0.06803350895643234,-0.14459937810897827,-0.18699118494987488,-0.09267355501651764,-0.19795119762420654,0.16156035661697388,-0.18634922802448273,-0.11427222937345505,-0.06504197418689728,-0.15781737864017487,0.07170239835977554,-0.013163561932742596,0.011868882924318314,0.033612895756959915,0.011922900564968586,0.060258399695158005,0.13167254626750946,0.15308798849582672,0.046120282262563705,0.16579484939575195,1.0534790754318237,-0.142730250954628,0.002231922931969166,-0.11812785267829895,0.12493892759084702,-0.1806449145078659,0.18020310997962952,-0.07763504981994629,-0.029551638290286064,-0.07320588082075119,0.20776526629924774,-0.03320736810564995,-0.06522755324840546,0.09464200586080551,-0.025628160685300827,0.15670941770076752,-0.165409654378891,0.04921812564134598,0.06377169489860535,0.058807045221328735,0.08331847935914993,-0.10980936884880066,-0.08746214956045151,-0.05844961479306221,-0.12306389957666397,-0.17906047403812408,0.20715191960334778,0.016739290207624435,0.11948203295469284,-0.027509791776537895,0.7747058272361755,-0.01125336717814207,0.0825379341840744,0.05450134724378586,0.02337406948208809,-0.010505001991987228,-0.10742364823818207,0.14256718754768372,-0.006553353741765022,0.11696987599134445,-0.055667974054813385,-0.034500543028116226,-0.05476284772157669,-0.05379519984126091,0.03833356499671936,-0.11508292704820633,-0.1891927719116211,-0.08306743949651718,0.15912671387195587,0.07820620387792587,-0.08781018108129501,-0.07198711484670639,-0.07758064568042755,0.1720343381166458,0.18295560777187347,0.05246258154511452,-0.12328948080539703,0.1569647192955017,0.0394480898976326,0.169289231300354,-0.03929078206419945,0.002589235780760646,0.13358382880687714,-0.06777902692556381,0.09283478558063507,-0.1590411514043808,0.16380953788757324,-0.06474204361438751,0.14933888614177704,-0.03390383720397949,0.1548268049955368,0.13966208696365356,0.19808316230773926,-0.007902918383479118,-0.07374507188796997,0.0019620992243289948,-0.05045285075902939,0.04318324849009514,0.03249799460172653,0.19382841885089874,-0.11808246374130249,0.130430206656456,-0.20070286095142365,-0.17781753838062286,0.18079382181167603,-0.05786751210689545,-0.1718045026063919,0.1314479261636734,0.07909590005874634,-0.08548661321401596,0.198650062084198,-0.11611020565032959,-0.08426576107740402,-0.1703328639268875,-0.07284559309482574,0.1557118147611618,-0.1080833300948143,0.12423335760831833,0.06758984178304672,-0.022997189313173294,-0.13858699798583984,-0.19456587731838226,0.023960838094353676,-0.013592278584837914,0.04498349875211716,0.11055834591388702,0.05260666087269783,-0.055650219321250916,-0.18829427659511566,-0.07285856455564499,-0.19123326241970062,0.1282888650894165,-0.17513766884803772,-0.18776503205299377,-0.007664813660085201,-0.1759965568780899,-0.056681230664253235,-0.03624223545193672,0.051325973123311996,0.1100560650229454,0.9210538864135742,-0.048951808363199234,-0.1402561217546463,-0.08956842869520187,-0.06517071276903152,0.18362651765346527,-0.08890827745199203,0.14083467423915863,0.068052276968956,-0.1595432460308075,0.15065662562847137,-0.060064494609832764,-0.19016095995903015,0.16076165437698364,-0.17460428178310394,-0.02575819194316864,-0.1839960366487503,-0.08278404921293259,-0.09767111390829086,-0.08858327567577362,0.20713485777378082,0.0022410948295146227,-0.0760388895869255,-0.17772230505943298,-0.09708151966333389,-0.19513413310050964,-0.0727904662489891,0.0267915241420269,-0.09931685030460358,0.017184555530548096,0.12591618299484253,0.032636262476444244,0.13152344524860382,-0.09937641769647598,0.015215965919196606,0.13570256531238556,0.18403489887714386,-0.08761933445930481,0.10531364381313324,-0.1755703240633011,-0.10744360089302063,0.18610018491744995,-0.05324225872755051,-0.10253429412841797,0.053019896149635315,0.038278743624687195,-0.06919630616903305,-0.0020355351734906435,0.1824326068162918,-0.13825206458568573,0.13712705671787262,0.13626813888549805,-0.030872242525219917,0.125150665640831,-0.03585187718272209,0.10776122659444809,0.17752975225448608,-0.1350177675485611,0.14444191753864288,-0.0018824725411832333,0.018217891454696655,-0.1045817956328392,-0.06303758919239044,0.18924862146377563,0.18452824652194977,-0.19499285519123077,0.0044561391696333885,-0.19442030787467957,-0.018409671261906624,-0.14313384890556335,0.17209672927856445,0.09794524312019348,-0.02522941119968891,0.07991257309913635,-0.1801995038986206,-0.0975421667098999,-0.19173146784305573,0.1054593026638031,-0.0869322419166565,0.06291954219341278,-0.14336615800857544,0.18274566531181335,0.13324205577373505,0.18537770211696625,-0.12859567999839783,0.0153443468734622,0.0694364607334137,-0.19123880565166473,-0.025531724095344543,-0.07216399163007736,0.7822651863098145,0.01804744265973568,-0.012830467894673347,-0.0203830786049366,0.0005733619909733534,0.11850980669260025,0.042644206434488297,0.08835116773843765,0.01441364549100399,0.1567610651254654,-0.18204014003276825,-0.05136062577366829,0.09041334688663483,0.011480124667286873,-0.15697301924228668,0.1627958118915558,0.146194726228714,0.09096331894397736,0.115341417491436,-0.08527360111474991,-0.0963473916053772,0.017130618914961815,0.1629195511341095,0.04184040427207947,0.11995567381381989,0.09536971896886826,0.02857828512787819,-0.11426723003387451,0.05171304568648338,0.060561686754226685,0.943545937538147,-0.1714540272951126,0.059241026639938354,-0.13016457855701447,-0.15025381743907928,-0.16958504915237427,0.1161397323012352,0.1852399855852127,-0.14035707712173462,-0.146115243434906,-0.005876410752534866,0.0312669575214386,-0.16087588667869568,0.1628812551498413,-0.13182851672172546,-0.07232266664505005,-0.004039164166897535,-0.1412629932165146,0.04132096469402313,-0.06189168989658356,0.10093500465154648,-0.027941420674324036,-0.12674590945243835,0.12368851900100708,-0.1667540818452835,-0.10954122245311737,0.04067038372159004,-0.12695570290088654,0.07214140146970749,-0.1488880217075348,-0.05870664864778519,0.16533756256103516,0.06796548515558243,0.023108001798391342,0.14372467994689941,0.14134405553340912,-0.11546322703361511,0.09646813571453094,-0.008191228844225407,-0.06566673517227173,-0.09309451282024384,0.0629582479596138,-0.167326420545578,0.12467457354068756,0.05601789429783821,-0.0916750580072403,0.10580719262361526,-0.011823514476418495,0.1171850711107254,0.1702626645565033,0.08941388875246048,-0.06917740404605865,-0.10750453919172287,0.06588491797447205,-0.18062980473041534,-0.16806921362876892,0.1500610113143921,0.09305033087730408,0.1634906679391861,0.05277153477072716,0.7700363397598267,0.13233165442943573,0.1793828308582306,-0.1798650324344635,0.11099214851856232,0.017073070630431175,0.032844360917806625,0.1582159399986267,0.16879084706306458,-0.02929089032113552,-0.18355681002140045,0.029995517805218697,0.10058935731649399,0.1931220442056656,0.0990591049194336,0.019078882411122322,0.12791474163532257,-0.0791214108467102,-0.15704195201396942,0.11385542899370193,0.09888625890016556,-0.12615807354450226,-0.0945873036980629,0.06662419438362122,0.1920638084411621,-0.03398063778877258,-0.19219177961349487,0.15166884660720825,-0.11743296682834625,-0.05582711473107338,-0.11906927078962326,-0.18274836242198944,0.12281273305416107,0.13397181034088135,-0.18810121715068817,0.16197557747364044,0.188688263297081,-0.05685947462916374,-0.11563920229673386,-0.16052398085594177,0.11068923771381378,-0.16287720203399658,-0.08320421725511551,0.17316831648349762,0.024632032960653305,0.07620326429605484,-0.09766016900539398,-0.11985564231872559,0.021499359980225563,-0.0421496145427227,0.14236576855182648,0.05854981765151024,0.16845884919166565,-0.019294926896691322,-0.071324422955513,-0.13119223713874817,0.03223264962434769,-0.10114540159702301,-0.03730118274688721,-0.02229815162718296,-0.0842389240860939,0.1544375717639923,0.15749642252922058,-0.0775415301322937,0.106190986931324,-0.17509590089321136,-0.05562221631407738,0.0707288309931755,-0.1916123479604721,0.16309352219104767,0.1774611622095108,-0.16531071066856384,-0.005859936587512493,-0.040903717279434204,-0.01974601484835148,-0.07948894798755646,-0.11134139448404312,0.1843564510345459,0.09829704463481903,0.18335400521755219,-0.10260535776615143,-0.15772128105163574,-0.16256412863731384,0.169429212808609,-0.16911596059799194,0.19197532534599304,-0.08050651848316193,0.18654309213161469,-0.09372332692146301,-0.09587941318750381,0.2578631043434143,0.10590245574712753,0.07265593856573105,-0.10374122858047485,-0.18183140456676483,-0.056615494191646576,-0.011633751913905144,-0.1137785091996193,-0.16300225257873535,-0.13256630301475525,-0.08657902479171753,0.04118932783603668,0.036498479545116425,-0.018723048269748688,0.12246862798929214,-0.09998904168605804,0.1320379227399826,0.024887561798095703,0.010163621976971626,-0.1232469379901886,-0.07152283191680908,0.0565202459692955,-0.09588298201560974,-0.07307786494493484,0.17936356365680695,0.09599965810775757,0.05519348382949829,0.01885032281279564,-0.16116327047348022,0.20558951795101166,0.10961657762527466,0.12136410921812057,0.1492157131433487,-0.09681776911020279,-0.14138728380203247,-0.025618311017751694,0.15413996577262878,0.19461695849895477,0.09549516439437866,0.023471774533391,0.14715547859668732,0.08549486845731735,0.11284325271844864,-0.16507236659526825,0.2012697458267212,0.0763765498995781,0.011725420132279396,0.1764698624610901,0.05166153237223625,0.07814338058233261,0.15185315907001495,-0.1674548238515854,0.09680555760860443,0.13641171157360077,0.10624081641435623,0.04726659879088402,-0.09923017770051956,0.1772119402885437,0.0340978242456913,0.016825154423713684,0.4392770826816559,-0.003101624548435211,-0.10402745753526688,0.11872252076864243,-0.0473552867770195,-0.1480044722557068,0.1778191179037094,0.040588073432445526,-0.030951542779803276,0.05123044177889824,-0.0356929674744606,-0.16950134932994843,-0.19042980670928955,0.14540044963359833,-0.08162322640419006,0.13437291979789734,0.03828924894332886,0.1125188022851944,-0.13829655945301056,0.060286764055490494,-0.1761813461780548,-0.11484110355377197,0.17597676813602448,-0.17385339736938477,0.1073550209403038,0.19341768324375153,-0.15779010951519012,0.11487212777137756,-0.14280055463314056,0.15241065621376038,0.14161986112594604,0.17793962359428406,0.09852471202611923,0.13584302365779877,-0.09348972141742706,0.19000788033008575,-0.09367842227220535,-0.007473359815776348,-0.18592528998851776,-0.04157371073961258,0.1514139473438263,-0.06239999085664749,-0.1887533962726593,0.14959025382995605,-0.045528896152973175,0.07009150832891464,-0.017210284247994423,0.1930440068244934,-0.07720781117677689,0.09413089603185654,-0.020339732989668846,0.013608107343316078,-0.16685079038143158,0.032790858298540115,-0.06505505740642548,-0.06376863270998001,-0.060764726251363754,0.010022795759141445,-0.10164988785982132,0.026768770068883896,0.6090524196624756,0.0985565036535263,-0.006282476708292961,-0.15544363856315613,-0.16859404742717743,-0.18722932040691376,-0.1922582983970642,-0.11527114361524582,0.13837963342666626,0.07893656939268112,0.1936236172914505,0.155527263879776,-0.06790941208600998,-0.048831645399332047,-0.20098167657852173,-0.08270400762557983,-0.015587004832923412,0.051331132650375366,0.08188097178936005,-0.10871633142232895,0.07415018230676651,0.1401396542787552,0.13657933473587036,-0.11277302354574203,-0.01639137603342533,0.01876380667090416,-0.12752214074134827,0.1394456923007965,0.05096876248717308,0.009253411553800106,1.005239725112915,0.09730874747037888,0.0882430449128151,-0.17736683785915375,0.020474538207054138,-0.02390807680785656,0.013571844436228275,0.06784220039844513,-0.1468125879764557,-0.15750792622566223,0.062106262892484665,-0.0813162699341774,-0.09496757388114929,0.11355818063020706,0.11139530688524246,-0.08955052495002747,0.008128865621984005,-0.08397176116704941,-0.09375499188899994,0.1388789415359497,-0.051137618720531464,-0.049789294600486755,-0.14218559861183167,-0.12360408157110214,0.008079390972852707,0.1298970878124237,-0.08777885138988495,0.09271595627069473,0.13523009419441223,0.1294112354516983,0.14126914739608765,0.1269443929195404,-0.07332441210746765,0.020137969404459,-0.028489047661423683,-0.03864544630050659,0.019573403522372246,-0.1907573640346527,-0.02519032545387745,0.15746493637561798,-0.16900178790092468,-0.08089818805456161,0.04206448048353195,0.09743919223546982,0.00779880303889513,0.017224770039319992,0.051273781806230545,0.18620099127292633,-0.08718554675579071,0.1987546682357788,0.004138193093240261,0.08182459324598312,0.04581490159034729,-0.1276366114616394,0.16373439133167267,-0.15804758667945862,-0.04207152500748634,0.15855073928833008,-0.17739346623420715,-0.023791324347257614,0.43134331703186035,0.04914196580648422,-0.15960466861724854,0.10691547393798828,0.05520280823111534,0.03723086416721344,0.17894504964351654,-0.015462156385183334,-0.18823190033435822,-0.1619502604007721,-0.07427769899368286,0.14614589512348175,0.03154598921537399,0.015111073851585388,-0.1524558812379837,0.17333541810512543,0.07755452394485474,-0.17514769732952118,-0.022329440340399742,-0.052007973194122314,0.14388003945350647,0.034525588154792786,0.11436913907527924,-0.02296229638159275,0.11678341776132584,0.08568044751882553,0.06460127979516983,0.02562972530722618,0.16314947605133057,-0.16675153374671936,0.03803405910730362,0.10859926789999008,0.168338805437088,0.15972378849983215,0.12094253301620483,-0.12141785025596619,0.0989142432808876,-0.06533046066761017,0.026423603296279907,0.09889635443687439,0.07001958042383194,-0.14097176492214203,0.018594687804579735,0.161762535572052,-0.11132995784282684,0.12127784639596939,0.11646832525730133,-0.08011645078659058,0.01137343980371952,0.11774978786706924,-0.16593019664287567,0.12359274178743362,-0.12934643030166626,0.17749270796775818,0.07450658828020096,0.08503135293722153,0.19880758225917816,0.08777469396591187,0.21543914079666138,-0.09688568115234375,0.5154781341552734,-0.10941880196332932,0.1266556978225708,0.11827238649129868,0.06663932651281357,-0.19883982837200165,0.0867718905210495,0.08298547565937042,-0.08715377002954483,-0.18929347395896912,0.03480067104101181,0.06389088928699493,0.03900104761123657,-0.10121756047010422,-0.12593159079551697,0.11000096052885056,0.17483536899089813,0.089309923350811,-0.20274467766284943,-0.21530476212501526,-0.14147251844406128,-0.07703812420368195,-0.040153663605451584,-0.009418822824954987,-0.022336971014738083,0.03428322449326515,-0.10673008114099503,0.10113885998725891,-0.053992804139852524,-0.17938528954982758,0.8483110070228577,-0.06969887018203735,0.031036026775836945,0.011571576818823814,-0.10667502135038376,-0.04071050137281418,-0.1028124988079071,0.18907028436660767,-0.04651277884840965,0.06313662976026535,0.005468927789479494,-0.12373875081539154,0.18042168021202087,0.017779717221856117,0.1399126797914505,-0.060898736119270325,0.017565928399562836,-0.11202239245176315,0.047632742673158646,0.15489105880260468,-0.008444237522780895,-0.18401402235031128,-0.1730465590953827,-0.1797744482755661,0.04745655506849289,0.003936583176255226,0.13607513904571533,-0.08624447137117386,0.08619815856218338,0.0361257940530777,0.06808354705572128,-0.028932198882102966,-0.017776072025299072,0.043777137994766235,-0.19940423965454102,-0.15431298315525055,0.006204117555171251,0.05416658893227577,0.058123767375946045,0.058962613344192505,-0.08490921556949615,-0.07195904105901718,0.13236936926841736,-0.08512251824140549,-0.18253864347934723,0.19608131051063538,-0.04096145182847977,-0.18755950033664703,0.11101403832435608,-0.12185489386320114,-0.015392785891890526,0.027120549231767654,0.15919262170791626,0.1639958620071411,-0.024072930216789246,-0.17646032571792603,0.12775422632694244,-0.1762290745973587,0.12156263738870621,0.10876968502998352,0.15645341575145721,0.14938616752624512,-0.14174692332744598,0.03324751555919647,0.181521937251091,-0.052407000213861465,-0.06735261529684067,-0.14431267976760864,0.10979872196912766,-0.14287808537483215,-0.062369201332330704,-0.15202876925468445,0.04189678654074669,-0.1135878637433052,-0.15048104524612427,0.04401195049285889,-0.16395416855812073,-0.17949660122394562,-0.09809304773807526,0.09346657246351242,0.08819442987442017,-0.14406386017799377,-0.058620385825634,0.08347625285387039,0.07126197218894958,-0.07276413589715958,0.036532219499349594,0.031681809574365616,0.01793009787797928,-0.13803395628929138,1.0296283960342407,-0.04647713899612427,0.10951829701662064,0.01371872890740633,-0.051175184547901154,-0.05433209240436554,-0.060438044369220734,-0.11529160290956497,0.09973923861980438,0.16686180233955383,0.046002160757780075,-0.05976823344826698,0.03252881392836571,-0.1885760873556137,0.07456737011671066,-0.11452555656433105,0.11578228324651718,-0.07057876884937286,-0.11870790272951126,0.1376871019601822,-0.008715737611055374,0.06546708196401596,0.1319098323583603,-0.13689649105072021,0.057218749076128006,-0.1828448623418808,0.05974874645471573,-0.1862124651670456,-0.07779239863157272,-0.05403407663106918,0.780606210231781,-0.0464857816696167,0.12134819477796555,0.13554395735263824,-0.07454012334346771,0.00599274318665266,0.1845274269580841,-0.07743170857429504,0.14737172424793243,0.11358286440372467,0.11743967980146408,0.014692635275423527,-0.01506198663264513,-0.12455517798662186,-0.1317405104637146,0.14110398292541504,0.16672708094120026,0.07065428048372269,0.14168021082878113,-0.04981430992484093,0.17115257680416107,-0.009928123094141483,-0.15853001177310944,-0.07343698292970657,-0.05639427900314331,-0.04153924062848091,0.0881802886724472,-0.10626719892024994,0.1683589667081833,-0.028261540457606316,0.082085981965065,0.05318386107683182,0.13384591042995453,0.15666300058364868,-0.021769797429442406,-0.10259908437728882,0.11073334515094757,0.16237376630306244,0.13326118886470795,-0.12689070403575897,-0.2060578167438507,-0.031307999044656754,0.05655605345964432,0.13857990503311157,-0.1680067479610443,-0.10258835554122925,-0.011283365078270435,0.18416474759578705,0.086617112159729,-0.1471135914325714,-0.022874295711517334,-0.1112176924943924,0.18724893033504486,-0.04874799773097038,0.12011440098285675,-0.09700915962457657,-0.1199207454919815,-0.12376092374324799,0.009690853767096996,0.06351812928915024,0.002735327696427703,-0.074004165828228,-0.13160249590873718,-0.13828496634960175,0.19243039190769196,-0.12901055812835693,0.21135932207107544,-0.026453882455825806,-0.09144234657287598,-0.08535441011190414,0.12758992612361908,-0.06798581033945084,-0.0005723242065869272,-0.18690314888954163,0.17725732922554016,0.0007617055671289563,-0.09641742706298828,-0.035959091037511826,-0.08080137521028519,0.0347895473241806,0.10596243292093277,0.11214827001094818,-0.0567476861178875,-0.025278661400079727,-0.12542229890823364,0.011379859410226345,-0.15084367990493774,-0.18315929174423218,-0.12707631289958954,0.020294547080993652,0.959517776966095,0.05908835306763649,0.07866799086332321,-0.1588095724582672,-0.1436590850353241,-0.10457096993923187,0.0936223492026329,-0.10710807889699936,-0.19506604969501495,-0.11166520416736603,0.13014885783195496,0.1942048966884613,-0.12320796400308609,-0.1214047521352768,0.1284722536802292,0.12992601096630096,0.046551674604415894,-0.05766234174370766,0.10603798180818558,0.18195220828056335,0.19437754154205322,-0.035916831344366074,0.013002527877688408,-0.07250575721263885,-0.15407180786132812,0.10875247418880463,0.22188185155391693,0.04669227823615074,-0.06960345804691315,0.19140368700027466,0.029278824105858803,0.05195224657654762,0.03945830091834068,-0.09231740236282349,0.06715589761734009,0.12257770448923111,-0.14624348282814026,0.12995724380016327,0.11761064827442169,-0.1341075897216797,0.0268501378595829,-0.04589752107858658,0.08261855691671371,0.12030018121004105,-0.10650667548179626,-0.007854301482439041,0.1735539436340332,-0.13074283301830292,0.07060706615447998,-0.09375843405723572,0.1346784085035324,-0.1490418165922165,-0.09874135255813599,-0.09237959235906601,-0.022410351783037186,-0.17349761724472046,-0.08878932148218155,-0.11243882030248642,-0.11333445459604263,0.12425046414136887,0.5695581436157227,-0.02499365247786045,0.1447799950838089,-0.0019089713459834456,0.1688942164182663,0.1893601417541504,-0.11552620679140091,0.11642581969499588,-0.08899243175983429,0.16848549246788025,-0.013679513707756996,-0.11166395246982574,0.023075556382536888,-0.18479928374290466,0.12816095352172852,-0.009704136289656162,-0.016911743208765984,-0.041099075227975845,0.06824444979429245,0.05156392976641655,0.03732949495315552,0.13943636417388916,0.05622866749763489,-0.15070697665214539,0.1308928281068802,-0.04038666933774948,-0.1617581844329834,0.04509642347693443,-0.11684684455394745,0.12449542433023453,0.1652664691209793,-0.1723567545413971,-0.011956924572587013,0.1941932737827301,-0.011160091497004032,-0.07497073709964752,-0.0328257754445076,-0.18168646097183228,0.057777661830186844,-0.17910759150981903,-0.00969770923256874,-0.03860548138618469,-0.08621053397655487,-0.13540863990783691,-0.07008500397205353,0.1575435996055603,-0.07341126352548599,-0.1759530007839203,0.07449626177549362,0.07622413337230682,-0.05567767471075058,0.12719708681106567,0.17209883034229279,-0.03495512902736664,-0.005402287933975458,0.14615049958229065,0.02175813354551792,0.012830805033445358,0.1959843784570694,-0.03867458924651146,0.006620241794735193,-0.007692235987633467,0.204697847366333,0.1510983556509018,-0.1867368370294571,-0.18101388216018677,0.028762798756361008,0.07553675025701523,0.10424245148897171,-0.18891051411628723,-0.12333208322525024,0.14928509294986725,0.10634676367044449,0.0932190865278244,-0.1669631153345108,-0.10829343646764755,-0.13438715040683746,-0.025070834904909134,-0.13367357850074768,-0.10439831763505936,-0.17375187575817108,0.04807894304394722,-0.08581624925136566,-0.007625894621014595,-0.008093840442597866,-0.1551496535539627,0.08582523465156555,0.001785433734767139,-0.014216537587344646,0.12800806760787964,0.6877928376197815,0.16986584663391113,-0.09100888669490814,0.061453308910131454,0.12500450015068054,0.05814862996339798,-0.035770025104284286,0.011496228165924549,0.07845496386289597,0.02550695464015007,0.04340062662959099,0.19110587239265442,0.01949532888829708,0.15563589334487915,0.17815911769866943,-0.005275089293718338,0.009052316658198833,0.038892652839422226,0.15165874361991882,-0.14225542545318604,-0.08581174910068512,-0.16117271780967712,0.010664471425116062,0.17193035781383514,-0.15970757603645325,0.11939834803342819,-0.12716341018676758,-0.0034607492852956057,-0.0740208849310875,-0.1838725507259369,0.8090587258338928,-0.07806316763162613,0.10423821955919266,0.1479489654302597,0.15559455752372742,-0.1282595992088318,-0.0406041219830513,-0.17139336466789246,-0.13832856714725494,-0.10069109499454498,-0.022738970816135406,0.11277122795581818,-0.18102069199085236,-0.14802852272987366,-0.1010601818561554,-0.1726110428571701,-0.14108552038669586,-0.029896194115281105,0.20689813792705536,0.02400069311261177,-0.18493811786174774,-0.10577156394720078,-0.0275765098631382,-0.041202738881111145,0.1113819032907486,0.020923463627696037,0.17369207739830017,0.14896832406520844,0.05536262318491936,-0.15678894519805908,0.3400896191596985,0.1743493676185608,0.1397041380405426,0.07718872278928757,0.15652620792388916,0.05551474541425705,-0.2046687752008438,0.09408918023109436,-0.13953222334384918,-0.11596456170082092,0.13078655302524567,0.03421672806143761,-0.0762561708688736,0.0463063083589077,-0.07730086892843246,-0.18483400344848633,-0.1827372908592224,0.08324941992759705,-0.117695651948452,0.08318617939949036,-0.0675460696220398,0.007938090711832047,0.15595006942749023,0.11971680074930191,-0.10205785185098648,-0.16110466420650482,0.16387298703193665,-0.1667773425579071,0.07105666399002075,-0.12509936094284058,0.3489583432674408,-0.048384618014097214,0.038257867097854614,0.015070251189172268,-0.0979016125202179,0.11563222110271454,0.18756166100502014,0.16754092276096344,0.1561567187309265,-0.14415395259857178,-0.07956359535455704,0.1796044111251831,-0.14915359020233154,0.21247340738773346,-0.0553462989628315,0.16081920266151428,0.18757136166095734,0.12456213682889938,0.10905937105417252,0.03854145482182503,-0.10369806736707687,0.16012437641620636,-0.013339055702090263,0.03305361792445183,-0.053537625819444656,-0.035426925867795944,-0.021472057327628136,0.18142621219158173,0.07878463715314865,0.03666205331683159,0.8985551595687866,-0.06061360239982605,-0.06352338939905167,-0.10975748300552368,-0.007459018845111132,0.039413947612047195,0.08185399323701859,0.17044547200202942,-0.006550719030201435,0.04107102379202843,-0.19135767221450806,0.054840609431266785,-0.14391610026359558,0.02360849268734455,0.029472267255187035,-0.1588750034570694,-0.15538710355758667,-0.11502078920602798,0.03129703924059868,-0.09416986256837845,-0.06691357493400574,-0.11281374841928482,-0.11758780479431152,-0.038254790008068085,0.11973921954631805,0.10992329567670822,-0.042346272617578506,-0.11669820547103882,0.06603051722049713,-0.1116764172911644,0.5973032712936401,-0.16831152141094208,0.10315161943435669,-0.04456666111946106,-0.07378727942705154,0.09572093933820724,-0.1771620362997055,-0.13409630954265594,0.008091102354228497,-0.05756309628486633,0.08459309488534927,0.036330729722976685,-0.09763870388269424,-0.0855395495891571,-0.06786879152059555,0.17695973813533783,-0.05016709491610527,-0.05681803449988365,-0.19401946663856506,-0.16459226608276367,-0.029453357681632042,0.16833755373954773,-0.061336684972047806,-0.17429368197917938,0.10720645636320114,-0.06207035481929779,-0.02884499728679657,-0.12341194599866867,-0.051527757197618484,-0.1899694800376892,-0.029891060665249825,0.08133341372013092,0.11407361179590225,0.17496098577976227,-0.025172319263219833,0.19572915136814117,0.009714150801301003,-0.14249776303768158,0.05156292766332626,0.010060791857540607,0.09463558346033096,-0.07551820576190948,-0.05283999443054199,0.1807621419429779,0.04298309609293938,0.06064128130674362,0.16552512347698212,-0.17355984449386597,-0.1668216586112976,-0.06950914114713669,0.10144869983196259,-0.11580190807580948,-0.07853585481643677,-0.11126231402158737,-0.07488279789686203,-0.17605538666248322,-0.12292274832725525,-0.0528872087597847,-0.13178420066833496,-0.15375947952270508,0.000011655262824206147,-0.05624580755829811,0.05022959038615227,0.07402598112821579,-0.11178221553564072,0.12436102330684662,-0.18100541830062866,0.10736647248268127,-0.001802258426323533,-0.1804751306772232,-0.020053962245583534,-0.15130721032619476,-0.21130147576332092,-0.11489763110876083,-0.07340995967388153,-0.0050869956612586975,-0.01795421540737152,-0.11977079510688782,-0.015379884280264378,-0.04493878036737442,-0.1253374069929123,-0.2009160965681076,-0.163140669465065,0.011541804298758507,-0.029029227793216705,0.025671178475022316,-0.0520474910736084,-0.14745943248271942,0.12261947244405746,0.10496867448091507,0.8358005881309509,0.04283474385738373,-0.16263696551322937,-0.11939126253128052,-0.14910873770713806,0.13238491117954254,-0.12806428968906403,-0.19597236812114716,0.180328831076622,0.04413039982318878,-0.1571698933839798,0.14215335249900818,0.0027920708525925875,0.03982250764966011,-0.05089251697063446,0.057520393282175064,-0.03329654783010483,-0.05832698568701744,-0.13422197103500366,-0.061348892748355865,0.12143728137016296,-0.11097747832536697,-0.10739528387784958,-0.16047783195972443,-0.17880761623382568,-0.17191848158836365,0.11773517727851868,0.011310781352221966,0.09876193851232529,0.1511983871459961,-0.11989523470401764,0.055943720042705536,0.20675428211688995,0.16010423004627228,0.1833593100309372,0.06168212741613388,-0.0690608099102974,-0.19388817250728607,0.19519874453544617,0.02556893229484558,0.00016025610966607928,-0.02468443661928177,-0.16126172244548798,-0.1866789311170578,-0.004948026966303587,-0.07584921270608902,0.1742401123046875,0.009762286208570004,-0.10557197779417038,0.16618148982524872,-0.16968218982219696,0.017777753993868828,0.0063221943564713,0.17586283385753632,0.1417694240808487,0.08324763923883438,0.026143193244934082,0.07718192040920258,-0.10097455233335495,-0.027293415740132332,-0.09442146867513657,0.017494741827249527,-0.07775092124938965,-0.17873436212539673,0.019976748153567314,0.19528624415397644,-0.07229650020599365,-0.047272250056266785,-0.12434068322181702,0.071534164249897,-0.04736517369747162,0.16290830075740814,-0.0658068060874939,-0.18838663399219513,-0.07582519203424454,0.13218897581100464,0.05775631591677666,-0.08544864505529404,-0.02619916945695877,0.18405656516551971,0.22120749950408936,0.06905112415552139,-0.04613175988197327,-0.0971643328666687,-0.10188131779432297,0.031243668869137764,-0.056893058121204376,-0.14662469923496246,-0.13833141326904297,0.010828663595020771,0.8276468515396118,0.042616695165634155,0.012135235592722893,-0.11631888896226883,-0.15838226675987244,0.09805934876203537,0.10865063965320587,-0.009551712311804295,0.09057792276144028,-0.09843450784683228,-0.03823778033256531,-0.14443430304527283,-0.013083992525935173,0.13175077736377716,0.015388177707791328,0.0481603778898716,-0.15773320198059082,0.03837472200393677,0.11139985918998718,0.1074545830488205,0.19834257662296295,-0.01912732794880867,-0.09264837950468063,0.00037109237746335566,-0.13462062180042267,-0.022673243656754494,0.15191000699996948,0.12943898141384125,0.20029182732105255,-0.13456115126609802,1.2041640281677246,0.053902458399534225,-0.1781211793422699,-0.062438808381557465,0.1779455840587616,-0.13647307455539703,0.08937293291091919,-0.16834737360477448,0.1799936592578888,0.11795230954885483,0.028801849111914635,-0.1778474748134613,0.032308660447597504,-0.1704963892698288,-0.19189175963401794,0.006436545867472887,-0.009515160694718361,0.07898988574743271,0.14679396152496338,-0.16379451751708984,0.179763525724411,-0.07492591440677643,0.040540844202041626,0.09915649890899658,0.18659740686416626,0.08729244768619537,0.0005528552574105561,-0.13480930030345917,-0.15858624875545502,0.13437685370445251,-0.0623040646314621,0.18712365627288818,-0.1204281896352768,0.01683247648179531,0.17436204850673676,-0.01765434630215168,0.19517627358436584,0.07067640125751495,0.12893348932266235,0.005936062894761562,0.1674230843782425,-0.022122595459222794,-0.08310438692569733,-0.008466601371765137,0.15202811360359192,0.10566796362400055,0.12308376282453537,0.20532527565956116,-0.10468132793903351,0.1491025686264038,0.03409677371382713,-0.12526898086071014,0.04877295345067978,-0.06767266243696213,0.0034380031283944845,-0.021812692284584045,0.08091415464878082,-0.04586093872785568,-0.09556291997432709,-0.13510872423648834,0.18242883682250977,0.1792083978652954,0.0683077871799469,-0.12538519501686096,-0.08611102402210236,0.02813468500971794,-0.0040629953145980835,-0.18304443359375,0.05746673792600632,0.011014370247721672,-0.07933932542800903,0.12356483936309814,0.08920793235301971,0.004962857812643051,-0.13760873675346375,0.18193559348583221,0.027075013145804405,-0.13881395757198334,0.11412546783685684,-0.08262063562870026,0.18341539800167084,0.15828298032283783,0.07630981504917145,-0.1511705070734024,-0.018150195479393005,0.15181943774223328,-0.05763629078865051,0.15029112994670868,0.1890231966972351,0.06001492217183113,0.2866463363170624,-0.16920310258865356,0.12849806249141693,0.19957467913627625,-0.053370121866464615,-0.15483498573303223,-0.17721925675868988,-0.09127908945083618,-0.08309125155210495,-0.16622301936149597,-0.14249292016029358,0.019653180614113808,-0.14073561131954193,-0.1625332534313202,0.09765034168958664,0.12207535654306412,-0.09932109713554382,0.047323595732450485,-0.1844024956226349,-0.18744169175624847,0.14602547883987427,0.02850504405796528,0.05559592694044113,-0.01804281957447529,0.18919408321380615,-0.07651356607675552,-0.0035482191015034914,-0.04988532513380051,0.12491200119256973,0.10598637908697128,-0.019063815474510193,0.06604638695716858,0.17677946388721466,-0.037245042622089386,0.12989461421966553,0.11262892931699753,-0.0896589457988739,-0.04719756916165352,0.07557240128517151,-0.08152829110622406,-0.09183623641729355,-0.08976652473211288,0.10624632239341736,-0.16343919932842255,-0.08394299447536469,-0.03528006374835968,0.1537383794784546,-0.1164017990231514,0.0217849500477314,0.1449948251247406,0.03788395971059799,0.16231600940227509,-0.035639747977256775,-0.1107322946190834,0.16461904346942902,-0.15733729302883148,-0.052008647471666336,-0.11340753734111786,-0.057311367243528366,0.20663541555404663,0.23133374750614166,-0.1548505425453186,0.15149836242198944,-0.11939069628715515,-0.034053727984428406,-0.07921285927295685,0.17379768192768097,-0.08159816265106201,0.1178969070315361,-0.06653276085853577,0.13322947919368744,0.08059140294790268,-0.17703309655189514,0.13831211626529694,0.18851600587368011,0.14653757214546204,-0.1407030075788498,-0.09251358360052109,-0.024094058200716972,0.09051521867513657,-0.16082189977169037,0.07714927196502686,-0.19309407472610474,0.04569105803966522,0.129739448428154,0.07998840510845184,0.008925305679440498,0.10138089209794998,-0.15585945546627045,0.04612353816628456,0.16061896085739136,0.040005188435316086,-0.14114119112491608,-0.12866079807281494,0.056290652602910995,-0.07994649559259415,-0.1789473295211792,0.11979708075523376,-0.002494544954970479,0.06567558646202087,-0.05122682452201843,-0.01641586795449257,0.029425520449876785,-0.17079555988311768,-0.02046758495271206,-0.15534786880016327,-0.19664688408374786,-0.06005158647894859,-0.19608113169670105,0.1508895456790924,0.1370425820350647,-0.023890459910035133,0.18582642078399658,-0.05407872796058655,0.059322696179151535,0.05421900749206543,0.08785545825958252,0.1330718696117401,0.04322986677289009,0.15221519768238068,0.03565871715545654,-0.16614079475402832,0.08380204439163208,-0.11913749575614929,-0.0919707790017128,0.032343123108148575,-0.05910494551062584,0.18378788232803345,-0.17603082954883575,-0.13772112131118774,0.09887465834617615,0.12533098459243774,-0.1475926786661148,0.0710599273443222,0.16910205781459808,-0.039933595806360245,-0.058844007551670074,-0.05463271588087082,-0.14687658846378326,0.19506986439228058,-0.049486998468637466,0.008907364681363106,0.0009467168129049242,0.1392386257648468,0.021364770829677582,-0.17051123082637787,-0.13553625345230103,-0.07581444829702377,0.11917370557785034,0.16462208330631256,1.1315034627914429,-0.060277633368968964,-0.05856647714972496,-0.11639320105314255,0.1836995929479599,-0.012809062376618385,-0.06898137181997299,-0.08846715092658997,-0.022845705971121788,0.07952965050935745,-0.15097014605998993,-0.04792991280555725,0.11530879884958267,-0.10872641205787659,0.10682523250579834,0.14117531478405,0.013330424204468727,-0.046282097697257996,-0.04056729003787041,0.09626270085573196,-0.14920271933078766,0.0701305940747261,0.1071011871099472,0.12246708571910858,-0.027502531185746193,0.12473398447036743,0.21401895582675934,0.1624840646982193,-0.046501729637384415,0.0960167720913887,0.009381521493196487,0.011501657776534557,0.0027556337881833315,0.09579955786466599,0.024552883580327034,0.050324518233537674,0.028893932700157166,-0.06957215815782547,-0.18396472930908203,0.01626277156174183,-0.01588541828095913,-0.073944590985775,-0.07018542289733887,-0.06576070189476013,-0.1914263516664505,0.16917407512664795,0.1487918347120285,0.05979094281792641,-0.19106830656528473,0.06155536323785782,-0.16555237770080566,0.05422290042042732,0.10723758488893509,-0.016522400081157684,0.17290595173835754,-0.18935663998126984,0.12601684033870697,-0.04384592920541763,0.21086476743221283,-0.1992364376783371,-0.06869697570800781,0.03205965459346771,0.01132677961140871,-0.12615033984184265,-0.19366778433322906,0.19080428779125214,-0.08325403928756714,-0.09113741666078568,0.08964864164590836,0.16193760931491852,0.016782036051154137,-0.08421891927719116,0.16440986096858978,-0.09810511022806168,-0.07504581660032272,-0.1135781779885292,-0.10263191908597946,0.17574980854988098,0.1358046531677246,0.0808735340833664,-0.020039428025484085,0.039187245070934296,-0.1900479942560196,0.025483381003141403,0.1338718831539154,0.05447649955749512,-0.01771567016839981,0.09743805229663849,0.019762491807341576,0.06337705999612808,1.0447443723678589,-0.068343386054039,-0.06108490005135536,-0.042042091488838196,0.10076207667589188,0.10453297197818756,-0.16960445046424866,0.1859264373779297,-0.1306086629629135,0.1618565171957016,0.009259304963052273,0.02955857291817665,-0.07280275970697403,-0.029729235917329788,-0.13389962911605835,-0.13707800209522247,-0.10798851400613785,-0.14457467198371887,0.1610177457332611,-0.1034131869673729,-0.15653203427791595,-0.03205988183617592,-0.030884943902492523,0.07294689118862152,0.026400163769721985,-0.1607232540845871,-0.00463005481287837,0.0016728851478546858,-0.14421802759170532,0.16845948994159698,0.2300238013267517,0.11688969284296036,0.17147475481033325,-0.19362621009349823,0.0013041684869676828,-0.1583806574344635,-0.07346116751432419,0.09568353742361069,-0.15588818490505219,-0.20495669543743134,0.13694843649864197,0.09232550859451294,0.08266443759202957,-0.072945736348629,0.19401530921459198,0.1522655487060547,-0.18785393238067627,0.20333194732666016,-0.11520431190729141,0.012806853279471397,0.041406743228435516,-0.1606898307800293,0.08084262907505035,0.0018029289785772562,-0.16364255547523499,-0.05398618429899216,-0.014212689362466335,-0.07658933103084564,0.05404198169708252,-0.073768250644207,-0.012742946855723858,0.016417525708675385,-0.1738404929637909,-0.07082191109657288,0.19304336607456207,-0.17159028351306915,0.17372821271419525,-0.02795492485165596,0.03277163580060005,0.15060608088970184,0.0247420035302639,0.0520813874900341,0.07000964879989624,0.036603573709726334,0.1623690128326416,0.15953059494495392,-0.14823144674301147,0.060385122895240784,-0.19603575766086578,0.03937811031937599,-0.059645261615514755,-0.14296859502792358,0.0028653473127633333,-0.1983674317598343,0.09860266745090485,-0.012312980368733406,0.07756783068180084,-0.14955702424049377,-0.1321554332971573,-0.17054209113121033,0.033927906304597855,-0.02262762188911438,0.07141584903001785,-0.0763503909111023,0.11791601777076721,-0.09282390028238297,0.03840312734246254,0.14982053637504578,0.02671198919415474,0.029068268835544586,0.037108585238456726,0.0950355976819992,-0.15315614640712738,0.18464790284633636,-0.19563069939613342,-0.015723351389169693,0.18426550924777985,0.16212613880634308,-0.04347207024693489,-0.03887211158871651,-0.15795882046222687,-0.060275763273239136,-0.13928453624248505,0.19086451828479767,0.162985160946846,-0.07528810948133469,0.02247472107410431,0.06869042664766312,-0.053095538169145584,0.0600418783724308,0.23918384313583374,-0.027309823781251907,-0.14726166427135468,0.0667455866932869,-0.11526906490325928,-0.17196929454803467,0.011389821767807007,0.13424620032310486,-0.03803952410817146,0.11971274018287659,0.16687647998332977,0.14650872349739075,0.06622344255447388,0.043363023549318314,-0.028562987223267555,-0.07709495723247528,0.11229155212640762,-0.08578664064407349,0.16547232866287231,-0.10909280180931091,0.045382604002952576,-0.13140958547592163,-0.05309637635946274,0.0755772665143013,-0.18995025753974915,0.06300078332424164,0.07750149071216583,0.03479322791099548,0.055048324167728424,-0.10341918468475342,0.04442005977034569,-0.11072878539562225,-0.0686999037861824,0.19853851199150085,-0.1460389792919159,-0.030378052964806557,0.022234970703721046,-0.19364739954471588,0.12500779330730438,0.03869692236185074,0.11589755117893219,0.1641422063112259,-0.026860278099775314,0.008665653876960278,0.13535469770431519,0.054621633142232895,-0.00532598327845335,-0.0713411271572113,-0.16106051206588745,0.037820227444171906,-0.1912790685892105,-0.011222433298826218,0.09168212115764618,-0.155664324760437,-0.18636058270931244,0.0719296783208847,-0.09112989157438278,0.008519896306097507,0.0900912657380104,0.056521568447351456,0.04471630975604057,-0.11280539631843567,0.19374914467334747,0.1028224304318428,0.14175376296043396,0.07391766458749771,-0.18450818955898285,0.17492768168449402,-0.0792856439948082,-0.09630770981311798,-0.0905652865767479,0.014513205736875534,0.08614002913236618,0.031041188165545464,0.030558625236153603,-0.004821370355784893,-0.1337207704782486,-0.18406139314174652,-0.08928249776363373,0.17297059297561646,0.11126597970724106,0.05862615630030632,-0.05631789565086365,-0.06491078436374664,-0.12734846770763397,0.16454556584358215,-0.1381983757019043,0.09328626096248627,-0.0926688089966774,-0.17507299780845642,-0.16757850348949432,0.03245535492897034,0.0002455092908348888,0.05844660848379135,0.05357663705945015,0.019714152440428734,0.1661636084318161,-0.08624961972236633,0.14511674642562866,-0.07822331041097641,-0.1526353508234024,-0.09834442287683487,-0.014170527458190918,-0.08457734435796738,0.15293407440185547,0.06670558452606201,-0.1735561192035675,-0.1620761603116989,0.1667795479297638,0.11313328146934509,0.15669991075992584,-0.022587191313505173,-0.1019594669342041,0.006432484835386276,0.13252060115337372,0.013366538099944592,-0.08262088894844055,0.13681797683238983,0.16348843276500702,-0.09838371723890305,-0.15397197008132935,0.1127336248755455,-0.05361642688512802,0.007364918012171984,-0.06142732873558998,0.15744610130786896,-0.09310463815927505,-0.06766796857118607,-0.03848636895418167,-0.10374418646097183,-0.0923408642411232,-0.10484324395656586,-0.1481194645166397,-0.0486326739192009,-0.1029508039355278,-0.037985868752002716,-0.004481744021177292,-0.1130300909280777,-0.18758292496204376,0.07467444986104965,0.030415015295147896,-0.19459573924541473,0.12182150036096573,-0.020999476313591003,-0.14715610444545746,0.18903085589408875,-0.052151381969451904,-0.08074653148651123,0.15287427604198456,0.009212016128003597,0.05784623697400093,-0.03541631996631622,-0.1688339114189148,0.07932408154010773,-0.021621426567435265,-0.1101200059056282,-0.019435551017522812,-0.14048895239830017,-0.1645696461200714,0.1595783680677414,-0.09118117392063141,-0.1340359002351761,0.04276410490274429,-0.012315236032009125,0.14561986923217773,-0.18940018117427826,0.04579055309295654,-0.16686521470546722,0.1467558741569519,-0.0952363908290863,-0.17234334349632263,-0.08197993785142899,-0.18575553596019745,-0.08163490891456604,0.10833122581243515,-0.18783681094646454,0.12143746018409729,0.09690739214420319,0.19014427065849304,-0.17091628909111023,-0.02341504953801632,-0.06331106275320053,0.10366737842559814,-0.12799787521362305,-0.07941833138465881,-0.09591594338417053,-0.11973553150892258,-0.14097285270690918,0.1405257135629654,-0.1138988733291626,0.03213135153055191,0.18621718883514404,-0.01980706676840782,0.04465116932988167,0.13665549457073212,-0.02385708875954151,-0.02382076159119606,-0.10480254888534546,0.1961817890405655,-0.11555424332618713,0.1193821132183075,-0.03955389931797981,0.0981101244688034,-0.14663977921009064,0.044884227216243744,0.035839296877384186,-0.1826808601617813,0.16217003762722015,0.15049999952316284,-0.1849396526813507,-0.018036887049674988,-0.09689465910196304,0.19187873601913452,-0.1495646834373474,0.07086841762065887,-0.1128818467259407,0.11420578509569168,-0.15466231107711792,-0.04805844649672508,0.1613357961177826,-0.10034137964248657,-0.0772453248500824,0.19596654176712036,0.12888716161251068,0.17674943804740906,-0.0546821728348732,0.15577156841754913,-0.09565646201372147,0.09426634013652802,0.18781845271587372,0.13178619742393494,0.14310352504253387,-0.16627535223960876,0.03513782471418381,0.14210250973701477,0.13220664858818054,-0.04807927832007408,0.1878373920917511,0.18552687764167786,-0.032685283571481705,0.025447987020015717,0.11881043016910553,-0.0015413943910971284,0.05733675882220268,-0.1682206243276596,-0.11437778174877167,0.14880049228668213,-0.11373742669820786,0.1766710728406906,-0.02902318350970745,0.13389690220355988,0.1966959685087204,-0.16297611594200134,0.08246300369501114,0.0029723267070949078,-0.1669536978006363,0.0762569010257721,0.0663529634475708,-0.17563076317310333,0.052646562457084656,0.04986964166164398,-0.07449788600206375,-0.005743895657360554,-0.19663584232330322,-0.1644124537706375,-0.07899914681911469,-0.08331272006034851,-0.13236506283283234,0.11619605123996735,0.06428644806146622,-0.13149364292621613,0.04729815199971199,-0.09682363271713257,-0.11984997987747192,0.08567651361227036,-0.10751553624868393,0.014386841095983982,0.18872465193271637,-0.1272098571062088,-0.05340186133980751,-0.08200673758983612,0.0175578985363245,-0.08054696768522263,-0.013650377281010151,0.039878394454717636,0.12424682080745697,-0.003891437081620097,0.1898505538702011,0.09507802873849869,-0.1330365240573883,0.03227313980460167,0.1063511073589325,0.11846144497394562,-0.051469381898641586,-0.08550412207841873,-0.17784419655799866,0.06282085925340652,0.1201544925570488,-0.18593759834766388,0.10133600234985352,-0.053188975900411606,-0.0326504223048687,-0.0095057999715209,-0.002451367909088731,0.04779823124408722,-0.09522973001003265,0.11977856606245041,-0.03440936654806137,-0.19907332956790924,-0.04863817244768143,-0.03814287483692169,-0.15914204716682434,-0.05452614650130272,0.16988509893417358,0.1698482483625412,-0.008094373159110546,0.08112868666648865,0.16794367134571075,0.0695100799202919,0.0975588709115982,-0.13049688935279846,-0.08496201038360596,-0.06185177341103554,0.04540193825960159,0.17652443051338196,-0.03185763210058212,0.06773808598518372,-0.10366539657115936,0.01642020419239998,0.1881447434425354,-0.05495711788535118,-0.1848909854888916,0.03703325241804123,-0.13304869830608368,-0.08640509098768234,0.09067528694868088,-0.04251379147171974,0.11121605336666107,-0.09959293156862259,-0.19318930804729462,-0.0707191452383995,0.018354961648583412,-0.11892805993556976,-0.016289792954921722,-0.1433635801076889,-0.12013635784387589,-0.02901250496506691,-0.12418745458126068,0.10383649170398712,0.09673765301704407,0.15739154815673828,0.05368293449282646,-0.18010689318180084,0.10845635831356049,0.08309400826692581,-0.0132964588701725,-0.05233244597911835,-0.1810993105173111,-0.05982311815023422,-0.12107674032449722,0.18904557824134827,-0.06436461955308914,-0.19382154941558838,0.15314000844955444,-0.04931290075182915,-0.06759663671255112,-0.1856725811958313,-0.085066057741642,-0.03228083252906799,-0.18777184188365936,-0.0988052636384964,-0.1794687658548355,-0.12959417700767517,0.12810713052749634,0.0784764215350151,0.14364831149578094,-0.12879206240177155,-0.16992369294166565,0.06062205135822296,-0.002722322940826416,0.1329389214515686,0.17815402150154114,0.1951553076505661,0.05853968858718872,-0.05655413493514061,0.11203967779874802,-0.17666514217853546,-0.09594879299402237,-0.03912987932562828,0.034543197602033615,-0.18073032796382904,0.09823888540267944,-0.0656055137515068,-0.0057539185509085655,0.12551093101501465,0.19644573330879211,0.1666073352098465,-0.10521892458200455,0.11426972597837448,-0.044659826904535294,-0.005736584309488535,0.1114940270781517,0.17903058230876923,-0.15258105099201202,-0.08272245526313782,0.08976871520280838,0.1905357986688614,0.15319636464118958,0.18543049693107605,-0.047597162425518036,0.15788806974887848,-0.09712935239076614,0.16707004606723785,0.07670476287603378,-0.1055801585316658,-0.15656042098999023,-0.0563281811773777,-0.00014256814029067755,-0.11183576285839081,-0.0034374347887933254,-0.1571197658777237,0.02750554494559765,-0.10469023883342743,0.0016436910955235362,-0.07172641903162003,0.05117952451109886,-0.1269380748271942,0.09048006683588028,0.04784097149968147,-0.05185582488775253,-0.18482491374015808,-0.09196341782808304,0.14530380070209503,0.10433471947908401,-0.12575402855873108,0.05857391282916069,0.013872540555894375,0.08255381882190704,-0.048523057252168655,-0.15301328897476196,0.06974471360445023,0.13277393579483032,0.12874475121498108,-0.1887015998363495,-0.1405462920665741,0.039005495607852936,0.1461334526538849,0.02262609638273716,-0.16350270807743073,0.19375616312026978,0.1247408464550972,-0.08333716541528702,0.16937202215194702,0.02026798203587532,0.12783627212047577,0.04152620583772659,-0.043676696717739105,-0.10032995790243149,-0.06387410312891006,-0.05180659145116806,-0.13888199627399445,0.15813955664634705,0.14536893367767334,-0.03192495182156563,-0.19079476594924927,0.10398361086845398,0.05667541176080704,0.1682700365781784,-0.0017753042047843337,0.03717218339443207,-0.11585088819265366,-0.07069892436265945,0.056403450667858124,-0.19718410074710846,0.023058608174324036,0.09781017154455185,0.19323857128620148,-0.017786873504519463,-0.1214199960231781,-0.19085343182086945,0.027194617316126823,0.08149915933609009,0.18157857656478882,-0.12031809985637665,0.059746235609054565,-0.18590322136878967,-0.07590196281671524,0.015680687502026558,-0.09158914536237717,-0.19459496438503265,-0.12273778766393661,-0.06839796155691147,-0.007478128187358379,0.18125970661640167,-0.1805417835712433,-0.16000398993492126,-0.06336234509944916,-0.00876673124730587,-0.17439216375350952,0.039946045726537704,0.0201080534607172,0.1633094698190689,0.05913924053311348,0.118281289935112,-0.06965767592191696,-0.19582761824131012,-0.1626669317483902,0.05690898001194,-0.1150897741317749,0.002219011075794697,0.019493114203214645,0.08379224687814713,0.02594352699816227,-0.007054151501506567,0.08965274691581726,-0.052221231162548065,0.20248207449913025,0.19143939018249512,-0.1855599582195282,-0.0021412973292171955,-0.053546175360679626,-0.1718069463968277,0.056993793696165085,0.04928770288825035,0.01084177941083908,0.14319540560245514,0.13960789144039154,-0.11228618770837784,-0.1697508990764618,0.16835953295230865,-0.03696277737617493,-0.2000872790813446,0.13277584314346313,-0.1541251689195633,-0.09614016115665436,-0.19376564025878906,-0.007156841456890106,0.11573491245508194,-0.1183164194226265,-0.15779273211956024,-0.13778318464756012,-0.08786290884017944,-0.05677400901913643,0.15613390505313873,0.0775444507598877,-0.010379128158092499,0.1125175952911377,0.17725028097629547,-0.13517771661281586,-0.14046433568000793,-0.19172944128513336,-0.1901978701353073,0.011194439604878426,-0.09381476044654846,-0.14241771399974823,0.014744002372026443,0.15319524705410004,0.014675313606858253,-0.19553419947624207,-0.00636993208900094,0.017183227464556694,0.05626136437058449,0.015577741898596287,0.08094169944524765,-0.1324750930070877,0.15498994290828705,-0.04763520509004593,-0.024387143552303314,0.07035340368747711,0.1531754732131958,-0.07926664501428604,-0.007310682442039251,0.0718078762292862,-0.12797066569328308,-0.1139146015048027,-0.11468015611171722,0.19808749854564667,0.011010805144906044,0.086096853017807,-0.007003149017691612,0.11101020127534866,0.13695062696933746,0.18171678483486176,-0.01097696740180254,0.054678235203027725,-0.15581448376178741,0.1453831046819687,0.12076106667518616,0.04945515841245651,-0.08447084575891495,0.13339541852474213,-0.11009034514427185,-0.004112200811505318,-0.08549674600362778,-0.010694503784179688,-0.12995511293411255,0.14422227442264557,-0.12667012214660645,0.060688383877277374,0.045068006962537766,-0.008280155248939991,0.0701141208410263,-0.012125181034207344,-0.08389334380626678,0.11539969593286514,0.0644039735198021,0.03895040601491928,0.07057704776525497,-0.1776498556137085,-0.1721898913383484,-0.20008523762226105,-0.08883979171514511,0.04634816199541092,0.12033981829881668,-0.0756404772400856,-0.035509899258613586,0.1653117835521698,-0.11324024200439453,0.14312057197093964,0.12380604445934296,0.12380409985780716,-0.12689802050590515,-0.011173560284078121,0.1970144659280777,-0.06258804351091385,0.053100764751434326,-0.0431746169924736,0.039651237428188324,0.14514361321926117,-0.13338664174079895,-0.05278127267956734,-0.024515818804502487,-0.1855924427509308,-0.0220477357506752,0.1821567267179489,-0.03608394041657448,0.08316993713378906,-0.1015126034617424,0.06457826495170593,-0.17379112541675568,-0.12943604588508606,0.09697035700082779,0.08927462249994278,-0.09722498059272766,0.1700560599565506,0.10867694765329361,0.08619866520166397,0.000025152683519991115,-0.011139297857880592,0.08076328039169312,0.001066149678081274,0.01028154045343399,0.13007301092147827,0.00990259274840355,-0.044390834867954254,0.008969485759735107,-0.13016536831855774,0.1471889466047287,0.06723295152187347,0.20039016008377075,-0.14931492507457733,-0.01484938059002161,-0.044270098209381104,0.1979200690984726,-0.14603139460086823,0.19787073135375977,-0.10043152421712875,0.18844172358512878,0.015340249054133892,0.052073072642087936,-0.10919107496738434,-0.01290861889719963,-0.19549348950386047,-0.1252252161502838,0.01386931911110878,0.09464497864246368,0.13204410672187805,0.1628163605928421,0.15209795534610748,-0.13498300313949585,-0.09938037395477295,-0.06946125626564026,-0.05137430876493454,-0.03893283009529114,-0.03140657767653465,0.17821811139583588,-0.1381261646747589,-0.1606292873620987,0.17201121151447296,0.13466554880142212,-0.07984932512044907,0.1601824015378952,-0.12940865755081177,-0.05670778825879097,-0.05443047732114792,0.03941033408045769,-0.09793329983949661,0.17018291354179382,0.04334663599729538,0.020825020968914032,0.017977122217416763,-0.19775992631912231,-0.02533167041838169,0.07920387387275696,0.16214118897914886,-0.06933479756116867,0.07456975430250168,0.028585895895957947,0.11386609077453613,0.1317618489265442,0.08668893575668335,-0.01242618728429079,-0.15815585851669312,0.1594666838645935,-0.07921769469976425,-0.17017993330955505,0.021292129531502724,0.06309156864881516,-0.06279712915420532,0.1547444611787796,-0.05851045623421669,0.013240726664662361,-0.16203808784484863,0.13417598605155945,0.08828612416982651,-0.0028160526417195797,0.1456502228975296,0.1106722503900528,0.20155955851078033,0.004685371648520231,-0.015256592072546482,-0.03184354677796364,-0.16530130803585052,0.025684017688035965,0.09824403375387192,0.0636100098490715,-0.01940838247537613,-0.16741937398910522,-0.026677966117858887,-0.14394158124923706,-0.1583520919084549,-0.18955840170383453,0.10730492323637009,-0.022298144176602364,0.17398512363433838,0.1922447234392166,0.08048738539218903,-0.16430054605007172,0.11209094524383545,0.1177741289138794,0.19637449085712433,-0.09223584830760956,0.12718041241168976,-0.059357937425374985,0.06546598672866821,0.017730392515659332,0.14371952414512634,-0.09342880547046661,-0.11602412164211273,-0.039930060505867004,0.15263447165489197,0.015864748507738113,0.015667542815208435,-0.10733956843614578,-0.0810341164469719,0.14423877000808716,-0.09363674372434616,-0.023831214755773544,-0.1712353527545929,0.10613420605659485,-0.05378509685397148,-0.01246269978582859,0.1665087342262268,0.1530521959066391,0.005449740681797266,-0.01136873010545969,-0.15624020993709564,-0.13245153427124023,0.015848733484745026,0.13013342022895813,-0.04034867882728577,-0.19482581317424774,-0.15074408054351807,-0.021282322704792023,-0.13485659658908844,0.14919821918010712,0.18502464890480042,0.03197752684354782,-0.14810922741889954,-0.05811473727226257,-0.05861610174179077,0.014581880532205105,0.11622688174247742,0.10743190348148346,-0.13506220281124115,-0.09869088977575302,-0.08677931129932404,0.15470558404922485,-0.09141014516353607,-0.08857899904251099,0.022977570071816444,0.015968158841133118,0.04438558220863342,0.07907067239284515,-0.13684481382369995,0.14004667103290558,0.08877821266651154,0.14392608404159546,0.059088084846735,0.06750549376010895,-0.12437038868665695,0.14256572723388672,-0.07846595346927643,0.056285761296749115,0.08981248736381531,-0.1691051423549652,0.1344730705022812,-0.14995147287845612,0.06975133717060089,-0.046465396881103516,0.1217561736702919,0.16066938638687134,-0.07097970694303513,0.148285374045372,-0.008061563596129417,-0.03469181805849075,0.04347606375813484,0.0014897828223183751,-0.07029781490564346,-0.1526646614074707,0.16313548386096954,-0.18787363171577454,-0.16637001931667328,0.09350591152906418,0.0769558697938919,-0.1682894229888916,0.004511247854679823,0.0394815057516098,-0.033261388540267944,0.08742944151163101,-0.03275163844227791,0.09644028544425964,0.1700335592031479,0.1753448098897934,0.09844106435775757,0.19042225182056427,-0.17991667985916138,-0.10866355895996094,-0.09716221690177917,-0.19294863939285278,-0.12996233999729156,0.14346937835216522,-0.008783836849033833,0.05204039067029953,0.041939038783311844,-0.046630967408418655,0.1417623609304428,0.006350868381559849,0.10973059386014938,0.03517356514930725,-0.04434572160243988,0.12506741285324097,0.1096506267786026,-0.19725605845451355,0.1679987609386444,0.13491913676261902,-0.04775220900774002,0.1830531656742096,0.09522076696157455,-0.1481161266565323,-0.15117572247982025,0.08080257475376129,-0.07428014278411865,0.18735787272453308,-0.06917758285999298,0.16843651235103607,-0.12926414608955383,-0.14227913320064545,0.005325323436409235,-0.19359226524829865,-0.08930615335702896,-0.03398454189300537,0.18529260158538818,0.13888227939605713,-0.10346941649913788,0.032722555100917816,-0.04704117774963379,0.016636371612548828,0.021188756451010704,0.14564669132232666,0.1210857406258583,0.028659189119935036,0.11881374567747116,-0.19485940039157867,0.09176988899707794,-0.16553723812103271,0.17500607669353485,0.19063332676887512,0.1332658976316452,-0.1880931705236435,-0.05303368717432022,0.058997198939323425,0.07351657003164291,-0.04113582894206047,-0.015026533976197243,0.1631099283695221,0.16535206139087677,-0.17558132112026215,0.07898957282304764,0.049680523574352264,0.04798225313425064,0.1478327363729477,-0.02257414162158966,0.007362654898315668,-0.014702445827424526,-0.0740467980504036,0.16135545074939728,0.0563012920320034,0.03175816312432289,0.17971743643283844,0.04304642230272293,-0.03363975137472153,0.1190866082906723,0.12911193072795868,0.08656369149684906,0.012968294322490692,0.14691977202892303,-0.061159681528806686,0.017236175015568733,0.10828732699155807,0.2502528429031372,0.06233999505639076,-0.001138194464147091,-0.19274255633354187,-0.11237815767526627,0.08774497359991074,0.08473079651594162,-0.1847541332244873,-0.15747417509555817,0.15454833209514618,-0.054422777146101,0.0885956659913063,0.17693430185317993,-0.04865553602576256,-0.0019761656876653433,0.06387749314308167,0.013734431937336922,-0.16967913508415222,-0.11170899122953415,0.16893860697746277,-0.17702700197696686,0.17628321051597595,0.07548034936189651,-0.021587161347270012,-0.20248593389987946,0.14066378772258759,-0.13692167401313782,0.07585365325212479,0.11000673472881317,-0.03952333331108093,-0.032152511179447174,0.041771627962589264,0.13211335241794586,-0.026680275797843933,-0.1245376318693161,0.06810858845710754,0.16892419755458832,-0.1526971161365509,-0.00026969885220751166,-0.032584454864263535,-0.02614118717610836,-0.17525354027748108,0.1254243105649948,-0.1828058809041977,-0.09711409360170364,-0.08059128373861313,0.031236791983246803,-0.03221828117966652,0.06506434082984924,0.137508362531662,0.15159150958061218,-0.023785926401615143,-0.18404759466648102,-0.1949232667684555,0.002665481297299266,0.1800651252269745,-0.1911865621805191,0.17093752324581146,0.0942135602235794,0.1436464488506317,0.19230571389198303,0.16081340610980988,0.17819634079933167,0.12208905816078186,-0.024331029504537582,0.02538948878645897,0.16371583938598633,-0.005132716149091721,0.11455336213111877,0.1541013866662979,0.15022516250610352,0.032145239412784576,0.0601913146674633,0.1816815435886383,-0.2011784166097641,-0.15190577507019043,-0.05191682279109955,0.018634742125868797,-0.018607603386044502,0.1033642590045929,0.07148396968841553,-0.12262482941150665,-0.033867888152599335,-0.13626141846179962,-0.05729116126894951,0.08276214450597763,0.050635069608688354,0.14892607927322388,-0.09008949995040894,0.019619466736912727,0.12865658104419708,0.17147661745548248,0.18234220147132874,0.16230012476444244,-0.11889638751745224,-0.07357728481292725,0.16610822081565857,0.05696111544966698,0.1277562528848648,-0.0483536422252655,-0.011517006903886795,0.09038468450307846,0.1229659765958786,-0.03360876068472862,0.16640602052211761,0.026975736021995544,0.08519148826599121,-0.13584890961647034,-0.18347789347171783,0.1577126830816269,0.013786856085062027,-0.16192953288555145,0.10583300143480301,-0.04384264722466469,0.005990919657051563,-0.027042822912335396,-0.05829919874668121,0.12155259400606155,-0.02502470836043358,0.07148228585720062,0.19483594596385956,-0.12171634286642075,-0.11820230633020401,0.058638494461774826,-0.05466347932815552,-0.10355331003665924,-0.17542989552021027,0.11627865582704544,0.008126662112772465,-0.0013114504981786013,-0.09183760732412338,-0.11701226979494095,0.1471884697675705,-0.18408320844173431,-0.17872123420238495,0.16701547801494598,0.047029588371515274,-0.027054553851485252,-0.017533572390675545,-0.18876254558563232,-0.08022072911262512,0.15463054180145264,-0.05243292450904846,-0.020360510796308517,0.07460445910692215,0.13189902901649475,-0.046153463423252106,0.16870339214801788,0.11715970933437347,-0.11533267796039581,-0.02359599806368351,0.13441307842731476,0.20314818620681763,-0.15706901252269745,-0.10347863286733627,0.1158144474029541,-0.15799352526664734,0.017164479941129684,-0.07045304775238037,-0.1837993562221527,0.051974229514598846,-0.18795378506183624,-0.13720175623893738,0.13634935021400452,0.19657115638256073,-0.02111310139298439,0.1670040488243103,-0.02953343838453293,0.1692981868982315,0.14949707686901093,0.10701297968626022,-0.14243772625923157,0.10064604878425598,0.1419718861579895,0.14275000989437103,0.10757650434970856,-0.144150972366333,-0.06513767689466476,0.15665142238140106,0.16104304790496826,0.03745247423648834,-0.12960270047187805,-0.13598765432834625,-0.1909237951040268,-0.15544261038303375,-0.15883880853652954,0.06946476548910141,0.05363360047340393,0.0011170977959409356,-0.18000489473342896,0.19382798671722412,-0.09485194087028503,0.008315402083098888,0.12219605594873428,0.14054222404956818,-0.04538882523775101,-0.042603202164173126,-0.18783709406852722,-0.014327087439596653,-0.0298334788531065,-0.10349754989147186,-0.17626430094242096,-0.19120952486991882,-0.08582830429077148,0.023485029116272926,-0.1947295069694519,-0.060817401856184006,0.11532045155763626,0.06121699512004852,0.1999249905347824,0.058042362332344055,0.05248137190937996,0.07754557579755783,-0.08227060735225677,-0.18812651932239532,0.004583773668855429,0.07731077820062637,0.19607770442962646,0.0009746956638991833,0.08646616339683533,-0.07009405642747879,0.07891238480806351,-0.016357537358999252,-0.10351069271564484,-0.1311541348695755,0.03335604816675186,0.18400880694389343,-0.06411349028348923,-0.1524600088596344,-0.04755871742963791,-0.014635243453085423,0.0980900302529335,0.14460591971874237,-0.19171661138534546,-0.1449577808380127,0.09012292325496674,-0.08834396302700043,0.06224158778786659,0.10481555759906769,-0.19065336883068085,0.19457951188087463,-0.17302370071411133,0.19379684329032898,0.1399713009595871,-0.017202934250235558,0.12672415375709534,-0.021436817944049835,0.13060110807418823,0.1947886049747467,-0.0742347314953804,0.15524767339229584,-0.14437153935432434,0.027875933796167374,-0.1009339690208435,-0.1906309425830841,-0.04448476433753967,-0.0926884114742279,0.19117052853107452,-0.017454490065574646,-0.12010437995195389,-0.0928734764456749,0.04366099461913109,-0.08601070195436478,0.0298395287245512,-0.1910887211561203,0.07668595016002655,-0.08139253407716751,0.008766946382820606,-0.08726010471582413,0.11706185340881348,0.22951440513134003,0.09943854808807373,-0.17539523541927338,0.19745975732803345,0.0728142261505127,-0.07939361780881882,-0.03886045888066292,-0.08516794443130493,-0.04367717728018761,0.11459403485059738,0.17055752873420715,-0.011961019597947598,0.030468324199318886,-0.005292475689202547,0.12561747431755066,0.10213307291269302,-0.01379636861383915,-0.1927102506160736,0.05990961939096451,-0.1689091920852661,-0.15022778511047363,0.0645696371793747,-0.07628049701452255,0.0633787140250206,-0.12123587727546692,0.05814444646239281,0.1846960037946701,0.01705041341483593,0.09769602119922638,0.19633632898330688,0.15860910713672638,-0.17846105992794037,-0.032167863100767136,-0.12361454963684082,0.07105911523103714,0.15370365977287292,0.07608012855052948,-0.1601399928331375,-0.006592903286218643,-0.04932045936584473,-0.02783936634659767,-0.1910349577665329,0.1638149917125702,0.17842546105384827,0.1670244038105011,-0.030355138704180717,0.19435982406139374,-0.10538220405578613,-0.07943932712078094,-0.0969022810459137,0.19583000242710114,0.08409284800291061,0.16399288177490234,-0.013607215136289597,-0.17136628925800323,-0.1962558925151825,-0.0884498655796051,-0.0913333147764206,-0.11743634939193726,-0.08137133717536926,-0.09996277093887329,0.07452322542667389,-0.09907739609479904,0.00848429650068283,0.08548370003700256,-0.08466785401105881,-0.18627844750881195,-0.056101471185684204,-0.06866228580474854,0.03536996617913246,-0.035425759851932526,-0.15193408727645874,-0.1908809244632721,-0.038904234766960144,-0.13450367748737335,0.14684908092021942,0.0011914401547983289,0.06693264096975327,-0.1001870408654213,0.04144890606403351,0.059024885296821594,0.023679710924625397,-0.10113688558340073,0.15404033660888672,-0.12361783534288406,0.1779717355966568,0.039566054940223694,0.005524165462702513,0.13464200496673584,-0.12962137162685394,0.16934578120708466,0.1999877393245697,0.09136471152305603,0.05907014012336731,-0.04278267174959183,0.0421641506254673,-0.00872465968132019,-0.17374113202095032,0.10316852480173111,0.11466202884912491,-0.12018561363220215,0.027063781395554543,-0.1349603831768036,-0.002451835898682475,-0.18966427445411682,0.1380363255739212,0.17071008682250977,-0.08074285089969635,-0.13206389546394348,-0.07896164059638977,-0.17893864214420319,-0.06886857002973557,-0.1620110273361206,0.11492358893156052,-0.11666273325681686,0.0798414871096611,-0.10098590701818466,-0.03402359038591385,0.01158159039914608,-0.12653429806232452,-0.14445334672927856,-0.05442693457007408,-0.048801470547914505,-0.134981170296669,0.14875854551792145,-0.08540870994329453,0.1778186857700348,-0.19253860414028168,-0.19006229937076569,0.13362830877304077,0.1124710887670517,-0.12820720672607422,-0.13102604448795319,-0.11068443953990936,0.005283443722873926,-0.025562530383467674,-0.01857563480734825,-0.13825587928295135,0.03523191437125206,-0.08512505143880844,0.1870296150445938,0.16856786608695984,0.1537618339061737,0.036650702357292175,0.19314761459827423,0.09211746603250504,-0.013271093368530273,0.013641230762004852,0.014125649817287922,0.08932702988386154,-0.17527543008327484,-0.09312433749437332,-0.180952787399292,0.1706094890832901,0.012089462019503117,-0.11088345944881439,0.09313780814409256,-0.03420962765812874,-0.10500292479991913,0.060929298400878906,0.012103738263249397,-0.09318743646144867,-0.15063263475894928,0.032089587301015854,0.18968352675437927,-0.11271487176418304,0.014667023904621601,-0.016024088487029076,0.12452641129493713,-0.07257401943206787,-0.07391955703496933,0.15027537941932678,0.015965167433023453,0.15723837912082672,-0.11605259031057358,-0.16989941895008087,0.08528022468090057,-0.10872731357812881,0.1152149960398674,-0.039388079196214676,0.15762735903263092,-0.061280541121959686,-0.081157386302948,0.17863111197948456,-0.13045890629291534,0.039261262863874435,-0.14000381529331207,-0.08405670523643494,-0.07939273864030838,0.17362725734710693,-0.1951942890882492,0.16298139095306396,0.02337544970214367,-0.010983848012983799,0.11025858670473099,-0.009875381365418434,-0.12686766684055328,0.03598940744996071,-0.04927629977464676,0.04979081451892853,-0.19869154691696167,-0.11435674130916595,0.1748451441526413,0.19388574361801147,0.1947416365146637,0.1684534102678299,0.181838721036911,-0.06413731724023819,0.03554397076368332,-0.0055848085321486,-0.06351791322231293,0.16897644102573395,-0.15506945550441742,0.062329355627298355,-0.06274648010730743,-0.06105363368988037,0.1276058405637741,-0.15635457634925842,-0.19292056560516357,0.08448169380426407,0.11885683238506317,0.12801456451416016,-0.11303387582302094,0.09505616128444672,0.18408769369125366,-0.18450063467025757,-0.015619920566678047,0.17319731414318085,-0.08579957485198975,0.005312149412930012,-0.056623972952365875,-0.029824763536453247,0.1758837103843689,0.1529901921749115,0.022395042702555656,0.13526107370853424,-0.19625090062618256,0.11555924266576767,-0.1856866329908371,-0.19079796969890594,0.08882822841405869,0.11640726774930954,0.04826635867357254,-0.0038338685408234596,0.16028551757335663,-0.029704097658395767,0.17890045046806335,-0.05821600556373596,-0.09398780018091202,0.12278314679861069,0.15061452984809875,0.07988366484642029,0.16749320924282074,-0.027801772579550743,0.18882687389850616,0.01884162612259388,0.10355538874864578,-0.10509534925222397,0.004586020018905401,-0.03637067228555679,-0.06126655265688896,0.033503420650959015,0.11918439716100693,-0.1901993304491043,0.05122540891170502,0.06485865265130997,-0.16826489567756653,0.1925075352191925,-0.12490622699260712,-0.1066257581114769,0.010074447840452194,-0.13516610860824585,-0.01833771914243698,-0.07192473113536835,-0.1623484045267105,-0.02193387970328331,0.09592136740684509,0.1246933564543724,-0.0988072007894516,0.19647754728794098,0.09570461511611938,0.15257999300956726,0.09632113575935364,0.09809965640306473,-0.0019543308299034834,-0.053868941962718964,-0.12586084008216858,-0.1639491319656372,-0.06260910630226135,-0.07316631078720093,-0.0625465139746666,-0.09383677691221237,-0.19241192936897278,-0.1604403406381607,0.058920759707689285,-0.019040748476982117,-0.06598913669586182,0.10751309990882874,0.07882829010486603,0.0335393026471138,0.06550827622413635,0.18610815703868866,-0.09494740515947342,0.17410311102867126,-0.10676756501197815,0.12714190781116486,-0.03222348541021347,0.19610750675201416,-0.1498391032218933,0.05351312458515167,-0.03730523958802223,0.10147377103567123,0.137215718626976,-0.1797088235616684,0.20274722576141357,0.03832632303237915,0.13214115798473358,-0.017827872186899185,0.15837976336479187,-0.09116929024457932,0.0718889907002449,-0.11599757522344589,-0.03843625262379646,0.004192037973552942,0.04044010862708092,-0.002226520562544465,0.024197226390242577,0.10928904265165329,0.13722379505634308,0.18507488071918488,0.16948269307613373,-0.05915984883904457,0.09200946986675262,0.12514086067676544,-0.03020644560456276,0.19054843485355377,-0.1372016817331314,-0.13511118292808533,-0.1440298706293106,0.021093105897307396,0.1777903139591217,0.10595154762268066,0.06258148699998856,-0.014424020424485207,0.08216512203216553,-0.1902250349521637,0.09965318441390991,-0.07869350910186768,0.15897443890571594,0.10533184558153152,0.16353902220726013,-0.09245762974023819,-0.057793889194726944,0.18060292303562164,0.08228977769613266,0.09299386292695999,-0.041602566838264465,0.06792759150266647,0.029319021850824356,0.1324450522661209,0.0631994679570198,0.08504089713096619,0.15234848856925964,0.1043386459350586,-0.10281047224998474,-0.11137297004461288,-0.05402739718556404,0.20064203441143036,-0.059858448803424835,0.18039768934249878,0.15831390023231506,0.0943422019481659,-0.028552420437335968,0.18035559356212616,0.13550712168216705,-0.19760124385356903,0.12788771092891693,-0.1357453465461731,-0.15908826887607574,0.074137844145298,-0.0065710097551345825,0.019637856632471085,0.18509061634540558,0.1476033329963684,-0.0775003656744957,-0.04168657958507538,0.024610962718725204,0.028425730764865875,0.13794870674610138,-0.16787821054458618,-0.13464565575122833,-0.08042790740728378,-0.18377390503883362,-0.18282020092010498,0.025086527690291405,0.027764752507209778,-0.012861824594438076,0.0494377501308918,-0.11594248563051224,-0.1948181539773941,-0.07151934504508972,-0.04930473491549492,0.05920163914561272,-0.13621419668197632,-0.053740110248327255,-0.10047724843025208,-0.09967420995235443,-0.11092250049114227,-0.029620647430419922,-0.09464840590953827,-0.17844241857528687,0.11052660644054413,-0.13590100407600403,0.07804059237241745,0.13078893721103668,0.14146512746810913,-0.0017039889935404062,0.04681971296668053,0.1817493736743927,-0.15476521849632263,0.11152829229831696,-0.12825873494148254,-0.04726210981607437,0.039806216955184937,0.1577838957309723,0.14206050336360931,-0.08709386736154556,0.029420683160424232,0.16189530491828918,-0.1142503097653389,0.03627884015440941,-0.12903186678886414,0.087253637611866,0.04283915460109711,0.18928365409374237,-0.18705008924007416,0.1453561782836914,-0.17624220252037048,-0.15140140056610107,0.0018697424093261361,-0.1023501306772232,-0.10247790068387985,0.050477705895900726,0.10027889907360077,0.11182406544685364,-0.00057957973331213,-0.06354426592588425,-0.09346001595258713,0.16133131086826324,0.14824432134628296,0.13687874376773834,0.010631751269102097,-0.11131587624549866,0.010007609613239765,0.10973932594060898,0.019979944452643394,-0.07824458926916122,0.0011869367444887757,0.1933913379907608,0.016750497743487358,0.04949672147631645,0.022337501868605614,0.10474906116724014,-0.05146626755595207,0.12001600861549377,0.06526018679141998,0.031081359833478928,0.19355110824108124,-0.11033289134502411,-0.1757126748561859,0.08896639943122864,0.08217059075832367,0.16399358212947845,-0.05757497623562813,-0.08299464732408524,-0.14845511317253113,-0.0881747379899025,-0.0892837643623352,0.08715693652629852,-0.08521128445863724,-0.003064096672460437,0.11897534877061844,0.016191132366657257,0.09912734478712082,-0.1789160966873169,-0.06372103840112686,-0.16298186779022217,0.1925531029701233,-0.06615418195724487,-0.0669536143541336,0.1221855953335762,-0.035630594938993454,-0.15533512830734253,0.15683262050151825,-0.17958584427833557,0.10941106081008911,0.04684417322278023,-0.1419910043478012,0.0760846808552742,0.06697939336299896,-0.18486067652702332,-0.1424216777086258,-0.07555551081895828,-0.05116579309105873,0.14380575716495514,-0.07559040933847427,0.004829009063541889,-0.10649479925632477,0.11041462421417236,-0.10295737534761429,0.0022334973327815533,0.12160065025091171,0.08711408823728561,0.02564956806600094,0.06528585404157639,0.10596508532762527,-0.0070271119475364685,-0.11834942549467087,0.12430053949356079,0.1870499551296234,0.11416450887918472,-0.014467388391494751,0.03325594589114189,0.015983453020453453,0.1402420848608017,0.20435379445552826,0.06699244678020477,-0.0941503494977951,0.04729382321238518,-0.17065221071243286,0.10186561197042465,0.04244709759950638,0.08361954241991043,-0.04932558164000511,-0.11909220367670059,-0.1315552145242691,-0.06536518037319183,0.13060671091079712,0.0018014060333371162,0.04511610418558121,-0.17612434923648834,0.012951415963470936,0.08638446778059006,0.1702626645565033,0.01098656002432108,-0.19044014811515808,-0.016307462006807327,0.024470334872603416,-0.09441182017326355,-0.1761922538280487,-0.08068707585334778,-0.10207892209291458,-0.07925009727478027,0.11673872172832489,-0.1890421062707901,0.00754232332110405,0.03449046239256859,-0.14419467747211456,-0.1652202010154724,0.020369363948702812,-0.08656518906354904,0.042746637016534805,0.014133868739008904,-0.19274300336837769,-0.139926016330719,-0.0888342410326004,-0.09602203965187073,-0.18349213898181915,-0.04464639350771904,0.19126735627651215,-0.009817004203796387,-0.16517087817192078,0.05286169424653053,0.08609132468700409,0.17280593514442444,0.14917731285095215,-0.14584684371948242,-0.10874225199222565,-0.14999085664749146,0.0467427521944046,-0.09970501065254211,0.06051104515790939,-0.06784696131944656,-0.04836469888687134,-0.01683664135634899,0.14883393049240112,-0.037478815764188766,0.10843053460121155,0.1248597502708435,-0.19943919777870178,-0.13266076147556305,0.1555495709180832,-0.11394154280424118,0.06620857119560242,-0.04678734019398689,-0.13705700635910034,0.016438264399766922,-0.01424176711589098,0.08453264087438583,-0.1888403445482254,0.10478655248880386,0.09848809242248535,-0.04502284899353981,0.14846956729888916,0.19566909968852997,0.007193215191364288,0.18279001116752625,-0.11728508770465851,0.053358566015958786,-0.02778078243136406,-0.1710611879825592,0.11850632727146149,0.13275295495986938,0.1165987029671669,-0.16995593905448914,0.058823563158512115,0.1285024881362915,0.007461583241820335,-0.00707397423684597,0.09924858808517456,0.10198046267032623,-0.05299504101276398,0.10474151372909546,0.004802444484084845,0.18440435826778412,0.02246144972741604,0.001789902220480144,-0.08953385055065155,0.14862507581710815,0.02362247183918953,0.1273065060377121,0.051712874323129654,0.16167961061000824,0.007859763689339161,-0.19577330350875854,0.07801152020692825,0.05099870264530182,0.08050426095724106,0.1686307042837143,-0.10131175816059113,0.009730268269777298,-0.02205238863825798,-0.04642605409026146,-0.04452483728528023,-0.044906921684741974,0.05307481437921524,-0.08496163040399551,0.16089385747909546,-0.02889135479927063,0.04640664532780647,-0.046778757125139236,-0.13728024065494537,-0.018377909436821938,-0.054218221455812454,-0.15047703683376312,-0.17947344481945038,-0.13664357364177704,-0.17292866110801697,0.12872254848480225,-0.021067287772893906,-0.13272824883460999,0.04998311400413513,-0.14250649511814117,-0.09469899535179138,-0.06669609248638153,-0.19948668777942657,0.009262630715966225,0.043653134256601334,0.15713100135326385,0.020787518471479416,0.09962694346904755,0.11786378175020218,0.16389641165733337,-0.0791827142238617,-0.07366658002138138,0.11354387551546097,-0.03998945653438568,-0.10838999599218369,0.16690723598003387,0.17182354629039764,-0.1022116094827652,-0.06521499902009964,-0.08154572546482086,0.18584641814231873,-0.11534113436937332,0.05227270349860191,0.1561184525489807,0.179282546043396,0.11522053182125092,-0.17418305575847626,0.07172872126102448,0.0673532485961914,0.06974777579307556,0.15914423763751984,-0.08258738368749619,0.1401052623987198,0.04227370023727417,0.16890157759189606,0.0644071027636528,-0.0358571819961071,-0.09628374129533768,-0.1646442711353302,-0.17926692962646484,-0.06856837123632431,0.044262003153562546,0.018349040299654007,-0.13100777566432953,-0.18278725445270538,0.04255509376525879,0.0013072689762338996,-0.03980761021375656,0.006259221583604813,0.05369064584374428,-0.1971304565668106,0.1298808604478836,-0.01577332615852356,-0.18188488483428955,0.14313961565494537,-0.10780774056911469,-0.04803080856800079,-0.07864850759506226,-0.0620165579020977,-0.172846719622612,-0.18521936237812042,0.14271849393844604,0.1904299408197403,0.16534343361854553,0.17784498631954193,0.047495413571596146,0.12148606032133102,-0.19112104177474976,0.043274886906147,0.020639095455408096,-0.00005901087570236996,-0.12314869463443756,-0.11019078642129898,-0.09884721785783768,0.0836615189909935,0.07146886736154556,-0.019946636632084846,-0.1740771234035492,0.06622779369354248,0.02100752480328083,-0.1607658565044403,0.05256194621324539,0.04933219030499458,-0.0039288876578211784,-0.17191065847873688,-0.12232429534196854,0.20199626684188843,-0.07522562146186829,0.030315836891531944,-0.19306586682796478,-0.05032757669687271,0.04898418113589287,-0.1292751282453537,-0.18174315989017487,0.0957304909825325,0.0646902471780777,-0.12536901235580444,-0.13664661347866058,0.13398854434490204,0.04319195821881294,-0.056556250900030136,-0.19034232199192047,0.09558229148387909,-0.16110870242118835,0.15550972521305084,-0.024839527904987335,-0.12543323636054993,0.12371807545423508,0.025727149099111557,-0.19613870978355408,-0.10562963783740997,0.18769654631614685,0.03646491840481758,0.04915982484817505,0.14108197391033173,-0.14122836291790009,0.06562189757823944,-0.15609605610370636,0.1592676341533661,-0.04806991294026375,-0.04554020240902901,0.16672343015670776,-0.06496406346559525,-0.18604549765586853,-0.09387954324483871,0.1626083254814148,0.1374363899230957,0.09112042933702469,0.18536558747291565,-0.1915067583322525,-0.10821407288312912,-0.04753240570425987,0.1177680566906929,-0.18005484342575073,0.0812724232673645,-0.13482150435447693,-0.00019976957992184907,0.09421248733997345,0.060699161142110825,-0.03429534286260605,0.10942119359970093,0.17236019670963287,0.13071157038211823,-0.1840510219335556,-0.029408400878310204,-0.12571987509727478,-0.12542298436164856,0.06604813784360886,0.13751040399074554,0.15384314954280853,0.0017973146168515086,0.15420792996883392,-0.004477282520383596,-0.063301682472229,0.08212379366159439,0.0468812957406044,0.0599837526679039,-0.17292220890522003,0.07556372880935669,-0.061604250222444534,0.012821068055927753,0.09404435753822327,0.1351638287305832,0.007568455766886473,-0.008397450670599937,0.11080008000135422,0.1291748285293579,0.036376163363456726,-0.11847054958343506,-0.06272105127573013,-0.13885991275310516,-0.11279760301113129,0.1546107530593872,-0.15916243195533752,0.03730231523513794,-0.07674753665924072,0.19903801381587982,0.08627728372812271,0.1813860535621643,-0.1652875691652298,0.14581508934497833,-0.143999382853508,0.1048644632101059,-0.19673185050487518,-0.04690633714199066,0.18213717639446259,0.03763497620820999,0.08174826204776764,0.1797662079334259,-0.14473174512386322,-0.048440467566251755,0.030328813940286636,-0.18938925862312317,0.1834029108285904,-0.08400612324476242,0.1732640266418457,-0.18295931816101074,0.0011482170084491372,-0.021632187068462372,-0.10113617032766342,0.10929422825574875,0.14716006815433502,-0.08742038905620575,0.07803623378276825,0.05326835811138153,-0.061357900500297546,-0.0988331139087677,-0.05017481744289398,0.06144726648926735,-0.018541190773248672,0.1345711648464203,0.05536828190088272,0.04173177853226662,0.16335543990135193,0.11350088566541672,0.12707744538784027,0.01143296342343092,-0.10094667971134186,0.17274650931358337,-0.1478486806154251,-0.027831751853227615,0.02790219336748123,-0.09630134701728821,-0.16259899735450745,-0.08960165083408356,0.07923390716314316,-0.1807001382112503,-0.03812119737267494,-0.008673438802361488,0.06681734323501587,-0.11246225237846375,-0.02045172080397606,0.017538074404001236,-0.03903979808092117,0.026437580585479736,0.03346259146928787,0.058401163667440414,-0.12453395873308182,-0.04814014956355095,-0.011429861187934875,0.004843780770897865,-0.05593482777476311,0.18250681459903717,0.1398751586675644,-0.15842288732528687,-0.0028260701801627874,-0.039092015475034714,0.011411231942474842,0.09763900190591812,0.1888386309146881,0.07122775912284851,-0.15181152522563934,-0.136029452085495,0.1293170303106308,0.022033439949154854,-0.08969920128583908,0.14462913572788239,-0.0655025765299797,0.04155229404568672,-0.011716433800756931,0.03550605848431587,0.2017347663640976,0.02960372157394886,-0.015181466937065125,0.1559114009141922,0.0885896161198616,-0.00047763119800947607,-0.08699296414852142,0.011386482045054436,-0.1713653951883316,0.054720066487789154,-0.06352010369300842,0.005113291088491678,0.16309547424316406,-0.1887439340353012,-0.012245706282556057,-0.15593427419662476,0.061859652400016785,0.10933218896389008,-0.18262694776058197,-0.17238926887512207,0.03384009003639221,0.1907765120267868,