{"type":"NeuralNetwork","sizes":[15624,3,5],"layers":[{"weights":[],"biases":[]},{"weights":[[-0.09480564296245575,0.1834384649991989,0.08385313302278519,0.014457585290074348,0.08620193600654602,-0.7370675802230835,-0.10170604288578033,-0.10919994115829468,-0.07574087381362915,0.08451220393180847,-0.12669695913791656,-0.16600511968135834,0.08554714918136597,-0.0707213506102562,-0.207465261220932,0.10199352353811264,0.08841831237077713,0.05271521210670471,-0.8963851928710938,-0.07439890503883362,-0.08025394380092621,-0.08385005593299866,0.08069177716970444,0.024348538368940353,0.1277220994234085,0.14077331125736237,0.10859039425849915,-0.0449492447078228,0.039976973086595535,-0.07454391568899155,-0.05866239219903946,-0.10947675257921219,0.11756671965122223,0.06038651242852211,-0.07861509174108505,-0.05416217818856239,-1.135654091835022,-0.23234422504901886,-0.018682483583688736,0.00041178465471602976,-0.16022758185863495,0.06542621552944183,0.06387206166982651,-0.047034766525030136,-0.1500493735074997,0.0376497283577919,0.13429641723632812,-0.01743616722524166,-0.13289785385131836,0.1648900806903839,0.14080315828323364,-0.17028535902500153,-0.1329585313796997,0.12939408421516418,-1.1808135509490967,0.16380399465560913,0.11374403536319733,-0.07109972834587097,-0.06878691911697388,0.06486061215400696,0.00466417521238327,-0.17214541137218475,-0.06575939059257507,-0.1526809185743332,-0.15969416499137878,0.005910293199121952,0.13240894675254822,-0.09743035584688187,-0.1841077357530594,-0.1864316761493683,-0.12736685574054718,0.20470808446407318,-0.5375887751579285,0.12799076735973358,0.018181070685386658,0.17412611842155457,-0.09258174151182175,-0.01069230493158102,0.07454757392406464,0.13110844790935516,0.03645098954439163,-0.07665283977985382,0.08316963165998459,-0.07843474298715591,-0.06225787103176117,-0.16221512854099274,0.037748463451862335,0.06393421441316605,-0.11418566852807999,0.04341971129179001,0.24649199843406677,-0.04567670822143555,0.022341609001159668,0.10458847880363464,-0.019494997337460518,-0.08535056561231613,0.057580169290304184,0.09832245856523514,0.03732740879058838,-0.08905375003814697,0.087049700319767,0.1528088003396988,0.1765812486410141,-0.14875957369804382,0.1400921791791916,0.19393135607242584,-0.10783198475837708,-0.11228369176387787,-0.9743566513061523,0.18153946101665497,-0.1195545420050621,0.08012647926807404,-0.01277323067188263,-0.11943171918392181,-0.08837741613388062,0.07153365015983582,-0.13821828365325928,0.1196862980723381,0.042064592242240906,-0.10228542238473892,0.19021490216255188,-0.08968492597341537,-0.05379614979028702,-0.09326546639204025,0.21030771732330322,-0.047033991664648056,-1.0784393548965454,-0.08198996633291245,0.03652139753103256,-0.027850428596138954,-0.10625652968883514,-0.04234922677278519,-0.0011773285223171115,-0.10569370537996292,0.03020711988210678,-0.14486807584762573,0.1572541445493698,0.1833707094192505,0.03393678367137909,0.12779711186885834,-0.04434768855571747,-0.06929372996091843,0.142428457736969,0.01068361196666956,0.20201025903224945,0.11673032492399216,-0.2618446350097656,-0.18015837669372559,-0.0449027456343174,0.19743217527866364,0.047940485179424286,0.11729193478822708,-0.02033955603837967,-0.14041973650455475,0.20630840957164764,0.046066973358392715,0.043270718306303024,-0.04092274606227875,0.0939815491437912,0.19200702011585236,0.19000932574272156,-0.07973432540893555,0.05533372983336449,-0.014831289649009705,-0.09833802282810211,-0.22742561995983124,0.022027719765901566,-0.05999663844704628,-0.1868276447057724,-0.08398458361625671,-0.06649348884820938,0.1840279996395111,0.09687655419111252,0.11816413700580597,0.01989206112921238,0.09178504347801208,-0.013832726515829563,-0.16949114203453064,-0.04598965123295784,-0.08935384452342987,-0.0016554943285882473,0.10055398941040039,-0.12318641692399979,0.04484088718891144,-0.05054827034473419,-0.12055512517690659,0.036240432411432266,-0.03675957769155502,0.08454018831253052,0.1041855663061142,0.08375388383865356,-0.15436886250972748,-0.21072177588939667,-0.016944827511906624,-0.053448569029569626,-0.14378388226032257,0.021580953150987625,0.039265990257263184,-1.052861213684082,-0.14081992208957672,-0.0976562649011612,-0.11890335381031036,-0.14938406646251678,0.08428242057561874,0.05340906232595444,0.10215643048286438,0.12370048463344574,-0.06825572997331619,-0.011765378527343273,0.16550303995609283,0.14106279611587524,0.06793919950723648,0.041646089404821396,-0.01695992983877659,0.209773987531662,-0.04277864471077919,1.5276294946670532,-0.15100222826004028,0.19956989586353302,0.11451075226068497,-0.12974032759666443,0.034992802888154984,0.05820862948894501,-0.08921991288661957,0.23545843362808228,0.057482216507196426,-0.0913652777671814,-0.19660334289073944,0.09719808399677277,-0.10196387022733688,-0.08829424530267715,0.09974543750286102,-0.14067338407039642,-0.15475352108478546,0.2595522999763489,0.169953390955925,0.0004800575552508235,0.1354195773601532,0.0572904609143734,0.08569564670324326,0.15309029817581177,-0.1809522658586502,-0.08737451583147049,0.0226507056504488,-0.22806021571159363,-0.00902301725000143,-0.029920853674411774,0.1525494009256363,0.12982572615146637,-0.0000439242685388308,0.1766238808631897,-0.028033405542373657,1.143225073814392,0.11191817373037338,0.14521938562393188,-0.04876675084233284,0.03977862372994423,-0.09457691013813019,0.17486907541751862,-0.15338897705078125,-0.14202570915222168,0.03860475867986679,-0.1438881754875183,0.09081044793128967,0.09217651188373566,-0.028921155259013176,0.08548706024885178,0.02102407068014145,-0.0993870198726654,0.11866285651922226,2.09875750541687,0.012523345649242401,0.04097971320152283,0.03228698670864105,-0.1399216204881668,-0.08829282969236374,0.1693422496318817,0.011800099164247513,0.04398227110505104,-0.22630475461483002,-0.12539023160934448,-0.029107382521033287,0.15936221182346344,-0.14908839762210846,-0.11506053060293198,0.004485507030040026,0.16048426926136017,0.19803358614444733,2.0964622497558594,0.16096115112304688,0.00909496657550335,-0.15943655371665955,0.15071013569831848,0.05804156884551048,0.045958977192640305,0.07848113030195236,0.06396176666021347,0.13285772502422333,0.07922586053609848,-0.05680415779352188,0.0825018435716629,-0.02314760908484459,-0.11872690171003342,-0.15767058730125427,0.18169981241226196,-0.013069567270576954,0.1747765988111496,-0.19324254989624023,-0.14539876580238342,-0.13131457567214966,-0.008945781737565994,-0.09158992022275925,0.07788336277008057,-0.15098215639591217,-0.06811811774969101,0.030785690993070602,0.1496700495481491,-0.11257859319448471,-0.23096466064453125,-0.15641388297080994,-0.09505225718021393,0.16203467547893524,-0.015458565205335617,-0.0897931382060051,1.8726431131362915,0.2010788768529892,-0.1336684674024582,-0.011700493283569813,0.03987715765833855,0.11855533719062805,-0.1693749576807022,-0.0462355874478817,0.12169481068849564,-0.02344822697341442,-0.2003764808177948,0.00826575793325901,0.016125310212373734,0.035599712282419205,-0.1429956704378128,-0.163877472281456,-0.1195702776312828,-0.004657089710235596,1.6378785371780396,-0.11373249441385269,-0.04776018112897873,0.00633914303034544,-0.0914807990193367,0.031809549778699875,-0.05185895040631294,-0.10004507750272751,-0.08623940497636795,-0.016047419980168343,0.1105281412601471,0.0026512194890528917,0.03207377344369888,-0.07268425822257996,-0.06863103806972504,-0.08891158550977707,0.09190089255571365,0.01684683933854103,1.4062464237213135,-0.05445946007966995,-0.052559711039066315,0.1621582806110382,0.09580598026514053,-0.10209663957357407,0.062125515192747116,-0.19764313101768494,-0.12311013042926788,0.13558745384216309,0.20159472525119781,0.17608538269996643,0.12431032955646515,-0.01615033484995365,0.08443722128868103,-0.07521045207977295,-0.11237803846597672,0.043642979115247726,1.8108863830566406,-0.09519268572330475,-0.1100444570183754,-0.1282951682806015,0.021119721233844757,-0.012290019541978836,0.04337803274393082,-0.030449682846665382,-0.1154637336730957,-0.055535897612571716,-0.04492662847042084,0.14382892847061157,-0.19060154259204865,-0.04786325991153717,-0.06665831804275513,0.1914493292570114,0.07997499406337738,-0.021229945123195648,-0.01826479658484459,0.16323833167552948,0.04629217088222504,-0.0346280038356781,0.06343413889408112,-0.1663965880870819,-0.22165051102638245,-0.11592619866132736,0.1655883491039276,-0.15892373025417328,0.11926224827766418,-0.16818486154079437,0.10556177794933319,0.1912745237350464,0.16474276781082153,-0.1839165985584259,-0.1469326615333557,0.16541314125061035,0.20876114070415497,0.16364099085330963,0.018286114558577538,-0.11822646111249924,-0.015866270288825035,-0.17614957690238953,0.04439486190676689,-0.052294373512268066,0.08057933300733566,0.1581745147705078,-0.1349286437034607,-0.17427560687065125,0.05512762442231178,-0.1688704639673233,0.03442325070500374,0.035801224410533905,0.1810699701309204,0.08461669087409973,0.6524385809898376,0.18527854979038239,0.0445459708571434,0.07227843254804611,-0.1356945037841797,0.11162427067756653,0.04032125696539879,-0.18319109082221985,0.15860702097415924,-0.14567182958126068,0.15444901585578918,0.18056164681911469,0.19514241814613342,-0.07181751728057861,0.1846242994070053,0.09438773989677429,0.10880765318870544,-0.13660559058189392,0.02551007829606533,-0.13850237429141998,0.2020530253648758,-0.13902275264263153,-0.2088598608970642,-0.14013412594795227,0.11821449548006058,0.20837411284446716,-0.10101617127656937,0.1519489735364914,-0.013331066817045212,0.03404601663351059,-0.0691918134689331,0.0975392684340477,0.068698950111866,0.17825564742088318,-0.07024383544921875,-0.1685550957918167,0.5514217615127563,-0.005082965362817049,-0.020296268165111542,0.07081390172243118,-0.16051623225212097,-0.13350287079811096,0.10098931193351746,0.07904167473316193,-0.04682690277695656,-0.0641745775938034,-0.018587354570627213,-0.002023229142650962,0.06801226735115051,0.07746526598930359,0.15593215823173523,-0.18220852315425873,0.11637835204601288,-0.0928758755326271,0.3092907667160034,0.1406380832195282,0.10842256993055344,-0.1858374923467636,0.036501605063676834,-0.15050217509269714,0.0688757598400116,0.1194486916065216,-0.04038764536380768,0.13204865157604218,-0.04433942958712578,0.11022190004587173,-0.14071421325206757,0.11259611696004868,-0.061584919691085815,0.10941089689731598,-0.020130222663283348,-0.02710786648094654,1.7477144002914429,0.0442361980676651,0.12002608925104141,-0.0052185626700520515,-0.07942532747983932,-0.03347545489668846,-0.12630681693553925,-0.22219432890415192,0.10781186819076538,-0.18224264681339264,-0.06687869131565094,0.07237650454044342,0.0796552523970604,0.05403647944331169,0.12708230316638947,-0.04484463855624199,-0.1637537181377411,-0.10460007190704346,1.627278447151184,0.13558168709278107,-0.0068852161057293415,0.12841039896011353,-0.11833611130714417,-0.09601988643407822,-0.17996716499328613,0.08065620064735413,0.08835675567388535,0.17520597577095032,0.054618123918771744,-0.12519830465316772,-0.17239873111248016,-0.11549647897481918,0.14098884165287018,-0.0816056877374649,0.06031415984034538,0.020643742755055428,0.6323479413986206,0.07826266437768936,0.23920534551143646,-0.08038430660963058,-0.08991825580596924,-0.007025439292192459,0.10071262717247009,0.08875785022974014,0.013869551941752434,-0.19346022605895996,0.1737862080335617,-0.15585018694400787,0.16817934811115265,0.1649017184972763,-0.02885572426021099,-0.10306494683027267,-0.019173521548509598,0.16269628703594208,0.8516295552253723,0.14674362540245056,0.050110820680856705,0.1151283010840416,0.17650513350963593,0.1694558709859848,0.1388193964958191,-0.14130902290344238,-0.1234525591135025,0.125033438205719,0.0214480422437191,-0.10049739480018616,0.14540454745292664,-0.014847801066935062,-0.03770469129085541,0.18738770484924316,0.06478194147348404,0.20808878540992737,0.7711063027381897,-0.01939498446881771,0.08440923690795898,0.02277798019349575,0.18220765888690948,0.14200960099697113,0.18512015044689178,0.04062657058238983,0.15687702596187592,0.14608310163021088,0.05596800521016121,0.14745745062828064,0.12348496913909912,-0.07304445654153824,-0.16154885292053223,-0.13259173929691315,-0.037733495235443115,-0.08859939873218536,0.8500626087188721,-0.12644004821777344,-0.13328805565834045,0.12809589505195618,0.1943987011909485,0.05224931612610817,0.14313171803951263,-0.22141864895820618,0.13215778768062592,-0.20892071723937988,0.16820114850997925,0.19496795535087585,-0.06583184748888016,-0.1039179340004921,0.14619550108909607,0.10695836693048477,0.009409665130078793,0.0018587539670988917,0.040778882801532745,-0.11358217149972916,0.1528136432170868,-0.16875481605529785,-0.15874263644218445,-0.10286103188991547,0.18139298260211945,0.07887738198041916,-0.13381628692150116,-0.0723317489027977,0.15400435030460358,0.07005085796117783,0.02864360436797142,0.07410338521003723,0.05807198956608772,0.003324536606669426,0.033823639154434204,-0.04258409142494202,1.6188645362854004,-0.15395644307136536,0.07884693145751953,0.09673838317394257,0.03709089756011963,0.15097114443778992,-0.05202484875917435,-0.06778210401535034,0.15479910373687744,-0.08013501763343811,-0.1423191875219345,0.04158339649438858,0.14148251712322235,0.1965388059616089,0.01315240003168583,0.11398724466562271,0.01297064870595932,0.0604330375790596,1.4561702013015747,-0.08444162458181381,-0.01737232320010662,0.1533450335264206,-0.0609627291560173,-0.23078961670398712,-0.1027788519859314,0.0731038749217987,-0.05637641251087189,-0.11518269777297974,-0.16336147487163544,0.08913717418909073,-0.10246941447257996,0.05275752395391464,0.07425360381603241,0.10352816432714462,0.06663034856319427,-0.10289846360683441,0.2751820981502533,-0.1435815542936325,0.1634567826986313,-0.13321925699710846,0.15192587673664093,0.1873791515827179,-0.03589218482375145,-0.13861767947673798,0.034101180732250214,-0.08647525310516357,0.14280551671981812,0.07409272342920303,-0.14738532900810242,0.06353462487459183,-0.14316536486148834,-0.2064848691225052,-0.01147579774260521,-0.0174067672342062,1.2721549272537231,-0.17617188394069672,0.09453604370355606,0.15004688501358032,0.14080370962619781,0.10479895025491714,-0.1438966691493988,-0.011385798454284668,0.2038416713476181,0.12199316918849945,0.09819921106100082,-0.10476180911064148,0.019320271909236908,0.19489355385303497,-0.1675061732530594,-0.09399429708719254,0.1986824870109558,0.03591621667146683,0.015319581143558025,-0.05753947049379349,-0.16263704001903534,-0.12079015374183655,-0.06984224170446396,0.14319384098052979,-0.13045546412467957,0.19759666919708252,0.08329235762357712,0.12805308401584625,-0.15365202724933624,0.14003929495811462,-0.06445411592721939,-0.038593586534261703,-0.14132022857666016,0.1080247089266777,0.07637453824281693,0.1796359419822693,0.8445292711257935,0.1406489610671997,-0.016593264415860176,0.17800983786582947,0.13977648317813873,0.10900423675775528,0.13944745063781738,-0.16731353104114532,0.09669851511716843,-0.09678233414888382,-0.0016430598916485906,0.17018288373947144,0.061831749975681305,-0.18444795906543732,-0.00912599265575409,0.1293175220489502,0.049795057624578476,0.14343340694904327,0.27849069237709045,0.03643130138516426,0.19935044646263123,0.06486237049102783,-0.08474545180797577,0.03876114264130592,0.009060639888048172,-0.04865333065390587,0.1404065191745758,0.10151368379592896,0.09599151462316513,0.03970913216471672,-0.05826752632856369,-0.05889951065182686,0.14051774144172668,-0.08571550250053406,0.18764515221118927,-0.14698851108551025,0.5828297138214111,0.04771563038229942,0.1309576779603958,0.04900822415947914,-0.021936360746622086,0.14626538753509521,0.0881500318646431,0.1265009194612503,0.15349580347537994,0.14634309709072113,0.016527151688933372,-0.21716758608818054,-0.23489953577518463,-0.06687350571155548,-0.06994087994098663,0.16843175888061523,0.013802390545606613,-0.07256677746772766,0.2512621283531189,-0.03923116624355316,-0.12547257542610168,0.21070879697799683,-0.1365252137184143,0.013688161969184875,-0.1507345288991928,-0.07448737323284149,-0.002678046701475978,0.12729036808013916,-0.012474220246076584,-0.1801414042711258,-0.14603552222251892,0.14584030210971832,0.07620788365602493,0.14606812596321106,-0.1226394847035408,0.10007064789533615,0.06960571557283401,-0.09385795891284943,0.15780054032802582,-0.07362475991249084,-0.07984548062086105,0.09671931713819504,-0.1457948386669159,-0.012308330275118351,0.18467597663402557,-0.21894365549087524,0.09666134417057037,-0.1103813499212265,0.07032233476638794,0.004449690226465464,-0.07656623423099518,0.10087797045707703,0.20757216215133667,0.08162645250558853,0.1846044808626175,0.05445057153701782,0.039481088519096375,-0.0002840255619958043,-0.06457756459712982,0.04249089956283569,-0.00573931448161602,-0.20792102813720703,-0.13273976743221283,-0.058738645166158676,0.10752996802330017,0.11187990754842758,-0.2129356861114502,-0.05471276119351387,-0.025187112390995026,0.11008220165967941,-0.15200567245483398,0.08213412016630173,0.423798143863678,0.11235365271568298,-0.15472964942455292,0.04878580942749977,-0.003250508802011609,0.008313239552080631,0.22106511890888214,-0.018617713823914528,-0.09671895205974579,0.06835216283798218,0.12670831382274628,-0.1864910125732422,0.10378902405500412,-0.10321568697690964,-0.09334392845630646,-0.19751480221748352,0.05689578503370285,0.05230570584535599,1.6773680448532104,0.12666259706020355,-0.10817810148000717,-0.16927781701087952,0.0010290953796356916,-0.12063204497098923,-0.10381985455751419,-0.11276675760746002,-0.0683874860405922,-0.023321479558944702,0.09185252338647842,0.040128447115421295,-0.0986931174993515,-0.17205998301506042,0.13277636468410492,0.1899975836277008,-0.04854091256856918,0.0935630202293396,0.3137877881526947,-0.009700202383100986,0.15010127425193787,-0.08693171292543411,0.11491333693265915,0.13749617338180542,0.0032637601252645254,-0.04537319391965866,-0.09847307205200195,0.08565930277109146,0.11836667358875275,-0.06151086464524269,-0.1818368136882782,-0.04912431538105011,-0.05780287832021713,0.06942682713270187,0.008359919302165508,-0.0742507055401802,0.44419246912002563,-0.07390109449625015,-0.03422079235315323,0.11566133052110672,-0.1887991726398468,0.0552348755300045,0.13188691437244415,-0.004749986808747053,-0.02315833419561386,-0.17320887744426727,-0.09164658188819885,-0.10908540338277817,0.1526583880186081,-0.016242483630776405,-0.013293001800775528,-0.07103900611400604,0.1897800862789154,-0.00506892055273056,0.28986656665802,-0.1387636512517929,0.0705653578042984,0.15268574655056,0.12359626591205597,-0.09004399925470352,-0.05942186713218689,-0.2067205011844635,0.1412322223186493,-0.03879418969154358,0.09514176845550537,0.09398584067821503,0.12259472906589508,0.196141317486763,0.06598006933927536,-0.034602776169776917,-0.017235975712537766,0.05349309742450714,1.5217870473861694,-0.05121295526623726,0.19728374481201172,-0.05253037065267563,-0.06550908833742142,0.022861124947667122,0.1253703385591507,0.17038598656654358,-0.011738089844584465,0.06365717947483063,0.10572648048400879,0.08720511198043823,-0.01636705920100212,0.11285635083913803,-0.13049039244651794,0.10556197166442871,0.11784841120243073,0.10282457619905472,1.7647392749786377,-0.13567982614040375,0.051617540419101715,-0.1884830892086029,-0.09820433706045151,-0.018847551196813583,0.05617840588092804,-0.05948076769709587,-0.16801896691322327,0.038379255682229996,0.1363954246044159,0.17242331802845,0.059258367866277695,-0.1533059924840927,0.10050349682569504,0.1531429886817932,0.06981300562620163,0.08406153321266174,0.6129739284515381,-0.06491228193044662,0.07790616899728775,0.03374744951725006,-0.1639430820941925,-0.1598837971687317,-0.027312280610203743,-0.06698085367679596,0.07071924954652786,-0.026461569592356682,0.08380012214183807,-0.07990170270204544,-0.19676610827445984,0.173165962100029,0.13449738919734955,-0.033068299293518066,-0.1694418042898178,0.16209876537322998,1.440663456916809,-0.12494596093893051,0.06898240000009537,0.1488090455532074,0.12083976715803146,-0.03401826694607735,0.16989417374134064,-0.017490897327661514,-0.19203971326351166,-0.23063963651657104,0.13447268307209015,0.19104884564876556,0.010224509984254837,0.10565649718046188,-0.04505457356572151,-0.11453919857740402,0.06787542253732681,-0.1732524335384369,0.5092886686325073,-0.14568419754505157,0.07456346601247787,0.06358806043863297,0.07971904426813126,0.021344702690839767,0.17310570180416107,0.07173715531826019,0.0157500971108675,-0.05099226534366608,-0.08480634540319443,0.09289003163576126,0.13761159777641296,-0.11773034930229187,0.09222932159900665,-0.1203937903046608,0.22286905348300934,-0.030006419867277145,0.7860016822814941,0.1522698700428009,0.11100480705499649,0.10093313455581665,-0.15017351508140564,-0.19646501541137695,0.15802839398384094,0.1554938703775406,-0.020344430580735207,-0.06771428138017654,-0.14620733261108398,-0.06005168706178665,-0.041314497590065,-0.0705019161105156,-0.008106161840260029,0.06231310963630676,0.06566985696554184,0.12344836443662643,0.5110267996788025,0.08626812696456909,-0.005571740213781595,0.1583157181739807,0.04662342742085457,0.13714765012264252,0.0702381357550621,-0.07425837218761444,0.222752645611763,-0.09597139060497284,0.12907163798809052,-0.1836470514535904,-0.19592849910259247,0.012408709153532982,0.1602756381034851,0.1421462446451187,-0.07398917526006699,-0.05510145425796509,0.07565136253833771,0.08912033587694168,0.18306869268417358,-0.04047171771526337,-0.07351966202259064,0.20394949615001678,-0.13075675070285797,0.10513225197792053,-0.11571859568357468,-0.10241279751062393,-0.16903406381607056,0.07708852738142014,0.11568303406238556,0.2169235497713089,-0.051754385232925415,0.11157450079917908,0.14389152824878693,0.15844155848026276,0.40843939781188965,-0.0796121209859848,0.21396197378635406,0.1370861679315567,-0.17632059752941132,-0.07500488311052322,0.0019141300581395626,-0.0526922233402729,0.19433626532554626,0.1261691302061081,0.012901701964437962,-0.024993833154439926,0.1795267015695572,-0.07368186116218567,0.010929137468338013,-0.10492128878831863,0.016175322234630585,-0.09302239865064621,0.2594914436340332,0.12515731155872345,-0.16753815114498138,0.05798017978668213,-0.11874878406524658,0.11443246901035309,0.19360953569412231,0.06128894165158272,-0.16371023654937744,-0.14739899337291718,0.06710394471883774,0.14997567236423492,-0.053182292729616165,0.22314445674419403,-0.1610036939382553,-0.058401286602020264,-0.004863807000219822,0.09470749646425247,0.5149305462837219,0.17439576983451843,0.03489099070429802,0.06056857854127884,0.056775692850351334,0.2540030777454376,0.11751329153776169,-0.037281278520822525,0.09363921731710434,-0.046483080834150314,0.03415648266673088,-0.018296685069799423,0.1609312742948532,-0.05370861291885376,0.18856604397296906,-0.1628211885690689,0.11160948872566223,0.164866104722023,0.12640446424484253,0.09060192853212357,0.05494844168424606,0.0581798255443573,-0.057151250541210175,0.06470359861850739,-0.09293585270643234,0.16861538589000702,-0.07980237156152725,0.09591839462518692,-0.10407930612564087,0.03730463981628418,0.059116579592227936,0.09731973707675934,-0.1388934999704361,-0.04266119375824928,0.14144331216812134,-0.0027330683078616858,0.14723961055278778,0.08479851484298706,-0.09512633830308914,0.11087736487388611,-0.1314655840396881,-0.01663823425769806,-0.12986941635608673,-0.18936023116111755,-0.12664948403835297,0.016305001452565193,-0.032467495650053024,-0.07869251817464828,-0.07369570434093475,-0.04978381097316742,0.07883436977863312,-0.11904789507389069,-0.09735554456710815,0.1639050543308258,0.35999318957328796,0.06856773048639297,-0.16120710968971252,-0.07659176737070084,-0.0053405179642140865,-0.08193080872297287,0.1598099172115326,-0.11657410860061646,-0.07967930287122726,0.06980869174003601,0.13373976945877075,-0.02510218136012554,0.010510285384953022,-0.09045403450727463,0.13377510011196136,0.03766337037086487,-0.11378788203001022,-0.19917802512645721,-0.027855727821588516,0.18993724882602692,0.12773354351520538,0.15947486460208893,-0.03390716016292572,0.07622452825307846,-0.039382606744766235,-0.06524880975484848,-0.15172727406024933,-0.16803595423698425,0.031869057565927505,0.06451443582773209,-0.011136564426124096,0.11198770999908447,-0.15608572959899902,0.044569358229637146,-0.07304849475622177,-0.06436967849731445,0.13605894148349762,0.13384084403514862,-0.008977403864264488,-0.18296805024147034,0.19524505734443665,0.04159080609679222,0.10080323368310928,-0.042193420231342316,-0.04582945629954338,0.11925899982452393,0.00005287419116939418,0.11345774680376053,-0.09929760545492172,0.017661573365330696,0.10463449358940125,-0.10016471147537231,0.20072734355926514,-0.10397619754076004,0.4249495565891266,-0.08457591384649277,-0.14027363061904907,0.16550108790397644,-0.025195952504873276,0.0369846411049366,0.21051239967346191,0.0661381185054779,0.19742484390735626,-0.18460878729820251,0.10066691786050797,-0.032406002283096313,0.07593236118555069,-0.1255698949098587,0.13947416841983795,-0.1006479561328888,0.08857981860637665,-0.06700079888105392,0.2724810540676117,-0.1825898289680481,0.049397096037864685,-0.15836024284362793,0.17681892216205597,-0.1666770875453949,0.040038179606199265,0.14488448202610016,0.1894211620092392,-0.024878576397895813,0.10437693446874619,0.10028515756130219,0.09059498459100723,0.1843911111354828,-0.11463548243045807,-0.04169110208749771,0.15587548911571503,-0.05648697912693024,0.5000123381614685,-0.028266174718737602,0.21060696244239807,-0.15272638201713562,-0.09522949904203415,-0.1503545194864273,-0.020287996158003807,-0.17986422777175903,0.037392981350421906,-0.15652599930763245,-0.014003483578562737,-0.19501319527626038,0.09597417712211609,-0.015195347368717194,-0.06980796158313751,-0.03960389271378517,0.016383597627282143,0.16264258325099945,0.08802611380815506,-0.10000047087669373,0.1764449179172516,-0.08149735629558563,0.04869729280471802,-0.0005686445510946214,0.13750913739204407,-0.16995875537395477,0.17460617423057556,-0.20425473153591156,0.1628010869026184,0.09049008041620255,-0.19210730493068695,-0.07290927320718765,0.006646927446126938,-0.07542774826288223,0.184759721159935,-0.060222379863262177,0.24858151376247406,-0.12586718797683716,-0.07854688167572021,-0.10988723486661911,-0.03209676221013069,0.08030910044908524,0.0897943526506424,-0.011319760233163834,0.1991478055715561,-0.09884320199489594,-0.1817355751991272,-0.048147764056921005,-0.19561767578125,0.06162342429161072,0.010646077804267406,-0.0002708948450163007,-0.13726583123207092,0.15300603210926056,0.0017284484347328544,0.07793233543634415,0.18731190264225006,0.09700667858123779,-0.09020142257213593,0.05452386662364006,0.11898555606603622,0.10687222331762314,-0.03929577395319939,0.10421755909919739,0.06853237748146057,0.05337667837738991,-0.0987379178404808,-0.11670216917991638,-0.032561447471380234,0.164632648229599,-0.017012668773531914,-0.07734036445617676,0.1609847992658615,-0.02252628095448017,0.0836232379078865,0.03946377709507942,0.05430905893445015,0.07811148464679718,-0.020744573324918747,-0.05778902769088745,0.042182810604572296,-0.08051455765962601,0.00599747896194458,-0.021555421873927116,-0.1327086240053177,-0.2006291151046753,-0.0921785905957222,0.12931467592716217,-0.12020312994718552,-0.0043784985318779945,0.47343406081199646,-0.03660685941576958,-0.01245315745472908,0.019164450466632843,-0.06510897725820541,-0.03075500950217247,0.04543793573975563,-0.19536590576171875,0.11073360592126846,0.1085580363869667,-0.144255593419075,0.01924927718937397,-0.03641502559185028,-0.05433782935142517,-0.07928312569856644,0.17355035245418549,-0.09349652379751205,-0.12716323137283325,0.045277610421180725,0.10317697376012802,0.0015384178841486573,-0.1935991644859314,-0.05068187043070793,-0.09194454550743103,-0.07015296816825867,0.1668444126844406,0.11474135518074036,-0.0028002304024994373,-0.1736062467098236,0.08434832096099854,0.10234221816062927,0.10402818769216537,-0.14034897089004517,0.14174646139144897,-0.0626998096704483,0.08957620710134506,0.06361415982246399,-0.010759158059954643,-0.08203617483377457,-0.1475333869457245,0.10730722546577454,-0.09362088888883591,-0.05719691142439842,-0.029645027592778206,0.006268191151320934,-0.1360032856464386,0.03261786326766014,-0.02277115173637867,0.05358177423477173,-0.13219012320041656,-0.06611425429582596,0.17646099627017975,-0.16352379322052002,0.1734888255596161,0.04677111655473709,0.175508514046669,-0.06807881593704224,0.16571204364299774,-0.11746790260076523,-0.0420604944229126,-0.16857440769672394,-0.17077505588531494,0.15104512870311737,0.14218416810035706,-0.12345492094755173,-0.021493293344974518,0.0706736296415329,0.1562487781047821,-0.07468586415052414,0.13340149819850922,0.18479576706886292,0.0371701605618,0.12465962022542953,-0.12968917191028595,-0.06876897066831589,0.10918541997671127,-0.1913486272096634,0.15190821886062622,-0.09286351501941681,0.15464667975902557,0.12026290595531464,-0.19233746826648712,-0.1550072729587555,-0.08710254728794098,0.11880354583263397,0.11924246698617935,-0.19798964262008667,0.09290112555027008,0.1228943020105362,-0.06114180386066437,0.2283751219511032,0.04436279833316803,0.07650464028120041,-0.002174842171370983,-0.1515251249074936,0.2554793655872345,-0.09911342710256577,-0.020899662747979164,0.19445809721946716,-0.034213993698358536,0.04787342622876167,-0.045905109494924545,0.18448615074157715,-0.07368012517690659,0.1779654324054718,-0.1360768973827362,0.06449760496616364,-0.06798338890075684,-0.011691567488014698,-0.12079991400241852,-0.1625761091709137,0.07485397160053253,-0.11840679496526718,-0.016273729503154755,0.1039762869477272,-0.1707964539527893,-0.03291061893105507,0.12757718563079834,0.12185809761285782,0.19639019668102264,0.08390140533447266,0.08411732316017151,-0.08224660158157349,-0.07691511511802673,0.023387333378195763,-0.10976161062717438,0.0285080187022686,0.01116554718464613,0.06211920827627182,0.0847371369600296,-0.0022161805536597967,0.09043395519256592,-0.06759388744831085,-0.05852322652935982,-0.030795257538557053,0.06452400982379913,0.10438858717679977,0.15074099600315094,-0.047623567283153534,-0.12153713405132294,-0.12236318737268448,-0.11564460396766663,-0.0849769189953804,0.19832788407802582,0.1784432977437973,0.04024922847747803,-0.11794863641262054,-0.03851495683193207,-0.10689476132392883,0.175262913107872,-0.19262191653251648,-0.07413571327924728,-0.03780375048518181,-0.05557767674326897,0.1442515254020691,-0.17765916883945465,-0.12070728093385696,0.09506934881210327,0.08906289935112,0.07514972984790802,0.021694166585803032,-0.19385439157485962,-0.08023535460233688,-0.13850611448287964,0.10545318573713303,-0.03130539134144783,0.16258575022220612,-0.18527920544147491,0.09143006801605225,0.10416252166032791,-0.07063964754343033,-0.16336479783058167,-0.10265859961509705,0.09849920868873596,0.16558773815631866,0.007707902695983648,-0.13251221179962158,-0.17231030762195587,0.15497364103794098,0.1070791557431221,-0.14454182982444763,-0.02247942052781582,0.19876399636268616,0.021140433847904205,-0.050012391060590744,0.060811981558799744,0.18310627341270447,0.12353348731994629,-0.16188684105873108,-0.1924421489238739,0.019064418971538544,0.060320429503917694,-0.0570233091711998,-0.12693168222904205,-0.008299161680042744,0.18751339614391327,0.025170130655169487,-0.13482284545898438,0.009782168082892895,-0.1929078847169876,-0.1531674712896347,0.0709901750087738,0.05755237862467766,-0.14392957091331482,0.10220009833574295,0.16347454488277435,-0.15511691570281982,-0.03955478593707085,-0.03989472985267639,-0.16593031585216522,-0.19130371510982513,0.15882804989814758,-0.03315550088882446,0.007383756339550018,-0.0911276638507843,0.04786129295825958,-0.0906834602355957,0.007552754133939743,-0.010849564336240292,-0.0316614992916584,0.006931524723768234,0.1900636851787567,-0.06877490878105164,-0.012247431091964245,0.1915055811405182,0.08465069532394409,0.07058367878198624,-0.09826108068227768,0.05582442507147789,-0.17090058326721191,0.1427394151687622,-0.08173848688602448,0.1776033341884613,-0.06841735541820526,-0.06433187425136566,0.12224708497524261,-0.013577851466834545,-0.06096659600734711,0.019638998433947563,-0.06452696025371552,-0.019443174824118614,0.052888233214616776,0.14167122542858124,0.16307653486728668,0.1720854490995407,-0.01894412562251091,-0.06703513115644455,0.01027422770857811,-0.05700591579079628,0.022239377722144127,0.11814545840024948,0.11790449172258377,-0.04621143266558647,-0.02534983493387699,0.13544347882270813,-0.08377674967050552,-0.024656109511852264,0.14273867011070251,0.05410797521471977,-0.15949957072734833,0.0033265501260757446,-0.13303238153457642,-0.1767425239086151,0.16645801067352295,0.1618337482213974,0.17624661326408386,-0.02532094344496727,0.1780664175748825,-0.039335235953330994,0.0803825706243515,-0.02224428579211235,-0.19746704399585724,-0.057230137288570404,-0.032449088990688324,-0.09929311275482178,0.03834407404065132,-0.05544844642281532,0.06810208410024643,-0.0986742228269577,0.12368807941675186,-0.06928620487451553,-0.1855517476797104,0.007842566817998886,-0.03150233253836632,-0.08392756432294846,-0.16852760314941406,-0.18866515159606934,-0.14138604700565338,0.1320088654756546,-0.12107464671134949,0.18482446670532227,-0.15884517133235931,0.010530015453696251,0.11689424514770508,0.0779661312699318,0.07307743281126022,0.13718365132808685,-0.19600439071655273,-0.022872699424624443,-0.1688256710767746,0.08959471434354782,-0.07228577136993408,0.09115037322044373,-0.06481913477182388,0.1971464902162552,0.04573746770620346,0.13535068929195404,0.09965428709983826,-0.04957928881049156,-0.15025584399700165,0.1072157621383667,-0.0026668361388146877,0.11004040390253067,0.11619091778993607,-0.11657436937093735,0.1507280170917511,0.18755382299423218,0.1315637081861496,-0.17923949658870697,-0.014657626859843731,-0.053163278847932816,-0.07592087984085083,-0.0359669029712677,0.10546804219484329,0.1275387555360794,-0.18460610508918762,-0.18931332230567932,-0.03739234060049057,0.17106124758720398,0.027666885405778885,0.1340065747499466,-0.19023561477661133,-0.12695471942424774,-0.12362434715032578,0.11676159501075745,-0.20142227411270142,-0.07487065345048904,0.025520047172904015,-0.10117718577384949,-0.13673093914985657,0.1006326973438263,0.11452506482601166,0.19836758077144623,-0.02915732003748417,-0.08362849801778793,-0.13291725516319275,-0.17741596698760986,-0.1693083643913269,-0.034292031079530716,0.1407892107963562,-0.022666310891509056,-0.033533643931150436,0.06233171001076698,-0.1154203787446022,-0.011133436113595963,-0.0040802014991641045,0.09598606824874878,-0.12584160268306732,0.050074879080057144,0.034569237381219864,0.20705503225326538,0.159892737865448,-0.19159339368343353,-0.008596993051469326,-0.14394795894622803,0.1869615614414215,-0.02980629913508892,0.1660311073064804,0.15280035138130188,-0.201465904712677,-0.12959514558315277,0.09081844985485077,-0.08072560280561447,0.1362987607717514,-0.19111233949661255,0.15688352286815643,0.05752357468008995,0.1800861656665802,0.008167666383087635,-0.06739624589681625,0.058572545647621155,-0.09116632491350174,0.17383895814418793,0.00866666715592146,-0.08448687940835953,0.012324736453592777,0.15525324642658234,-0.18565049767494202,0.1438070386648178,0.00004174746572971344,0.06359373033046722,0.05352051183581352,0.024124909192323685,0.16253241896629333,-0.1053740456700325,0.04594575613737106,0.01863090880215168,0.027097439393401146,0.12918230891227722,-0.16445297002792358,0.12701420485973358,0.3371903598308563,0.05455128476023674,0.1796579211950302,0.09077209234237671,-0.009182739071547985,-0.12897925078868866,-0.038029853254556656,0.12633390724658966,-0.12454903870820999,-0.008544868789613247,0.08592252433300018,-0.19392232596874237,0.04188654199242592,0.16449816524982452,0.03157094866037369,0.06066017970442772,0.07744552940130234,-0.1347527801990509,-0.17038746178150177,-0.1283293515443802,0.03718402981758118,0.026876812800765038,0.04332057014107704,-0.0533326156437397,-0.08142787218093872,0.005905889440327883,0.08556877821683884,-0.12513798475265503,-0.11804331094026566,0.12188059091567993,0.13458427786827087,0.19556786119937897,-0.19263774156570435,-0.005378215108066797,-0.13291329145431519,0.16148222982883453,-0.03176369145512581,-0.12412063777446747,0.13661813735961914,0.15325388312339783,0.18303300440311432,-0.014523813501000404,-0.07116079330444336,0.11952690035104752,0.05887177214026451,0.008350850082933903,0.18294669687747955,0.11082784086465836,0.0468842089176178,0.09831256419420242,-0.095182865858078,0.09395649284124374,0.16525155305862427,-0.04571002721786499,0.1549830138683319,0.027311624959111214,-0.16683192551136017,0.14120571315288544,-0.09435512125492096,0.15923552215099335,-0.04339903965592384,-0.133990079164505,0.1487421691417694,0.008683793246746063,-0.12240761518478394,-0.077799491584301,0.2148139327764511,0.013566244393587112,-0.05939679965376854,0.14076504111289978,-0.15867997705936432,0.19540168344974518,-0.048811063170433044,-0.11338376253843307,0.1495875120162964,-0.0785321369767189,0.0940495952963829,-0.07551717758178711,-0.023555487394332886,-0.029231326654553413,-0.04301018267869949,-0.06335850059986115,-0.0004222663410473615,-0.03811901807785034,0.020731555297970772,0.14572222530841827,-0.07423029839992523,-0.06213751435279846,0.14688175916671753,-0.08367729932069778,0.06649202853441238,-0.012593911960721016,-0.06680350750684738,-0.0317729189991951,0.08011174947023392,-0.09092900902032852,0.059578005224466324,0.17887263000011444,-0.03975541517138481,-0.16378816962242126,-0.06284122914075851,0.06333798170089722,-0.17153693735599518,-0.02144470252096653,-0.014919893816113472,-0.05983349308371544,-0.15329550206661224,-0.01575225591659546,-0.08606748282909393,-0.04294094815850258,-0.07852087914943695,0.14385677874088287,0.1687782108783722,-0.09046054631471634,0.0005508587928488851,-0.16444000601768494,-0.15690115094184875,0.11293193697929382,0.11505530029535294,0.14401641488075256,-0.04328196123242378,-0.11995258927345276,-0.13443590700626373,-0.05234987288713455,-0.1505330353975296,-0.1762988418340683,-0.01305333897471428,-0.12044089287519455,0.17261606454849243,0.029314348474144936,-0.0799800455570221,-0.110840804874897,-0.17504416406154633,0.012775703333318233,-0.1651068776845932,0.0600607693195343,-0.14606179296970367,0.012222032062709332,0.004024859517812729,0.15797574818134308,-0.13331861793994904,0.15998703241348267,0.09120117872953415,0.11187060177326202,-0.17995986342430115,-0.03535344824194908,-0.018047699704766273,-0.05430678650736809,-0.0744905173778534,0.04635760560631752,0.0812469869852066,-0.04331982135772705,0.011779441498219967,-0.11568181961774826,0.060778241604566574,-0.15051789581775665,0.14796218276023865,0.1530253291130066,-0.13671942055225372,0.0678289607167244,0.08251622319221497,0.025595497339963913,0.1780931055545807,-0.024419892579317093,-0.03375747799873352,0.09933596104383469,-0.08727309852838516,0.10691436380147934,-0.11477870494127274,0.09524133801460266,-0.2085287868976593,-0.11176960915327072,0.08706919103860855,-0.11493173241615295,0.09680131077766418,-0.16576537489891052,0.05630536377429962,0.08969470113515854,0.18982400000095367,0.1087629571557045,-0.16063393652439117,0.17127598822116852,-0.16461719572544098,0.14993682503700256,-0.11071079969406128,-0.009664176031947136,-0.06892689317464828,0.07511764019727707,-0.035361241549253464,-0.048149626702070236,0.09165117889642715,-0.1580108255147934,0.127266988158226,-0.10454004257917404,-0.03639670088887215,0.11574466526508331,0.027371130883693695,0.14552776515483856,-0.13370202481746674,-0.06795207411050797,-0.08324296027421951,-0.1315355896949768,-0.11552505940198898,0.0734051987528801,0.18703427910804749,-0.10254273563623428,0.02333277091383934,-0.07131294906139374,-0.17173321545124054,-0.031021112576127052,0.010031016543507576,0.11530276387929916,-0.024925773963332176,-0.13463249802589417,0.08900769054889679,0.09305329620838165,-0.16607770323753357,-0.1403232216835022,0.01264823880046606,-0.09853705763816833,0.08699730038642883,-0.10506188124418259,-0.014050901867449284,-0.1660071760416031,0.16309012472629547,-0.17981122434139252,-0.0031079452019184828,0.03734661266207695,0.07874937355518341,0.21197481453418732,-0.18529222905635834,0.20549030601978302,-0.08236414194107056,0.1680840253829956,0.034857869148254395,0.12781818211078644,-0.13066142797470093,0.04728980362415314,-0.11016646027565002,-0.1342448592185974,0.14936833083629608,-0.0000503319752169773,-0.10029260069131851,-0.05897707864642143,-0.049015630036592484,-0.10549358278512955,-0.13945259153842926,-0.08939146250486374,-0.02817566879093647,0.18950803577899933,-0.08977437764406204,0.11309649795293808,-0.051507528871297836,-0.1681530624628067,-0.13730895519256592,0.19489707052707672,0.01475420594215393,0.17264872789382935,0.16706068813800812,0.06881562620401382,-0.08590810745954514,0.04774336889386177,-0.050596386194229126,0.19840168952941895,0.21682927012443542,0.028916116803884506,0.1511632651090622,-0.02941417507827282,0.1606643795967102,0.013471843674778938,-0.08704566210508347,-0.1279488354921341,0.17421381175518036,0.13856792449951172,-0.17028993368148804,0.09266876429319382,-0.059445444494485855,0.12675172090530396,0.1839427649974823,0.14365917444229126,-0.12187819182872772,0.025617102161049843,-0.09109845757484436,0.14091697335243225,0.1886460781097412,-0.14902529120445251,0.1593187302350998,0.06326080858707428,0.08992770314216614,-0.009277584962546825,0.05980030819773674,-0.10533902794122696,-0.09674598276615143,-0.15480783581733704,0.18837444484233856,-0.1309528648853302,0.054776787757873535,0.1255008727312088,0.017267048358917236,0.20831298828125,-0.07078039646148682,0.13387662172317505,-0.0855957642197609,-0.04364490509033203,0.09075149148702621,0.03186666592955589,0.1367495059967041,-0.013083133846521378,-0.18536897003650665,0.07955675572156906,-0.04555540531873703,0.09829587489366531,-0.15655335783958435,0.031079722568392754,-0.013486318290233612,-0.025720864534378052,-0.07708272337913513,0.1067134439945221,-0.17574621737003326,0.02474183775484562,0.02536560781300068,0.14594697952270508,0.1101083979010582,0.16537389159202576,-0.06026647239923477,0.13915038108825684,0.08284836262464523,0.19223938882350922,-0.037103019654750824,-0.11384837329387665,0.037102051079273224,0.047459375113248825,0.19069615006446838,0.1731371432542801,0.17059487104415894,0.09011934697628021,0.02305026724934578,0.22541256248950958,0.17553429305553436,-0.1845030039548874,0.16678225994110107,0.12006846070289612,-0.19077128171920776,-0.07483351230621338,-0.13972480595111847,-0.13602793216705322,0.20362813770771027,-0.17775484919548035,0.05613086000084877,-0.14888864755630493,0.07249420881271362,0.129240944981575,-0.1607944816350937,0.07141589373350143,0.011180752888321877,0.1338646113872528,0.15077637135982513,-0.17386101186275482,-0.1406010538339615,0.04593123123049736,0.03336390480399132,0.06457771360874176,0.11958396434783936,0.005814285483211279,0.1349477767944336,0.07199134677648544,-0.019266625866293907,-0.05255770683288574,-0.010338762775063515,0.18130610883235931,0.12652409076690674,0.0310410987585783,-0.17314450442790985,0.14151614904403687,-0.14968138933181763,-0.1755255162715912,0.02130759321153164,0.15863989293575287,0.0955011323094368,-0.02630532719194889,0.16820192337036133,0.03336102142930031,0.10460160672664642,-0.10529600828886032,-0.13797789812088013,-0.06095963343977928,-0.03544324263930321,0.11571312695741653,0.10445918887853622,0.1828092485666275,-0.03450307250022888,-0.06553781777620316,-0.07316306978464127,0.057137925177812576,-0.09054441004991531,-0.020266788080334663,0.1242767870426178,0.002184641547501087,-0.014563716016709805,0.16959916055202484,0.14023201167583466,0.1805906742811203,0.09592016041278839,0.12020422518253326,-0.14734730124473572,-0.01428383868187666,-0.060185644775629044,0.1006278544664383,-0.07197009027004242,0.0509844534099102,0.11458431929349899,-0.1917237639427185,-0.19205959141254425,-0.19844189286231995,-0.044072989374399185,-0.1074909195303917,0.16063576936721802,-0.019329292699694633,0.07591645419597626,0.02922128327190876,-0.17398051917552948,0.0025369508657604456,0.045373424887657166,-0.0013181277317926288,0.02961675263941288,-0.07051029056310654,-0.14146530628204346,0.04530271887779236,-0.051698774099349976,-0.08524838835000992,-0.18730783462524414,0.0810311809182167,0.01217337790876627,0.12660326063632965,0.07662711292505264,0.13747358322143555,0.018325477838516235,-0.20624715089797974,-0.030567362904548645,0.14616379141807556,0.10415150225162506,-0.043119534850120544,-0.11093208938837051,0.19322429597377777,-0.07241465151309967,-0.021761883050203323,-0.09826996922492981,-0.0056846183724701405,0.09131576865911484,-0.10784464329481125,0.06385846436023712,0.06795855611562729,-0.1346919983625412,0.045779697597026825,-0.1890445351600647,-0.0858430564403534,0.13734273612499237,0.11745661497116089,0.09365653991699219,-0.08405519276857376,0.05516725406050682,0.1744043529033661,0.039322949945926666,0.16087797284126282,0.05087604373693466,0.05207329988479614,0.07333257794380188,0.054424311965703964,0.12894754111766815,0.03906102851033211,0.18526911735534668,-0.08456744998693466,0.06862249970436096,-0.17956209182739258,0.02351275458931923,-0.14758853614330292,-0.17737002670764923,-0.0026869215071201324,-0.15559718012809753,-0.08328351378440857,-0.1693672239780426,0.029076550155878067,0.014128538779914379,-0.18226471543312073,-0.0378117598593235,0.07436308264732361,-0.09600464999675751,-0.13512571156024933,0.012476388365030289,0.06536403298377991,-0.0736917182803154,-0.11843574047088623,-0.12470126152038574,-0.17202629148960114,0.06432241946458817,0.009670416824519634,0.0259842611849308,-0.17256590723991394,-0.16265089809894562,0.046040087938308716,0.015061039477586746,0.05392325296998024,0.16121114790439606,0.1866822987794876,0.00810874905437231,-0.004281316883862019,-0.206081822514534,-0.15721182525157928,0.0329904668033123,0.12432734668254852,-0.03994610905647278,-0.04931601881980896,-0.08887838572263718,0.17065413296222687,0.015619071200489998,-0.17222540080547333,0.019048890098929405,0.09420671314001083,0.07240124046802521,0.20126767456531525,0.17613060772418976,0.06636670231819153,-0.0723656639456749,0.10273922234773636,-0.16413834691047668,0.205428346991539,-0.04866417869925499,-0.09857363253831863,-0.08803843706846237,0.13013966381549835,-0.1687578558921814,0.12037491053342819,0.05371484160423279,-0.14298909902572632,-0.1566273421049118,-0.12550024688243866,-0.16739444434642792,-0.025770438835024834,0.108163982629776,0.16681429743766785,0.2056504189968109,0.06800200045108795,-0.21276195347309113,0.1176566556096077,0.10055448114871979,-0.04817194119095802,-0.0919034481048584,-0.16195741295814514,-0.11719565093517303,-0.136183500289917,0.18816280364990234,-0.06725440919399261,0.0712461844086647,0.08571283519268036,0.030391056090593338,0.10561250895261765,-0.19851304590702057,0.040295034646987915,-0.14917752146720886,0.15315037965774536,0.05603330209851265,0.0019583164248615503,0.11521545052528381,-0.11401040107011795,-0.20682558417320251,-0.1465085744857788,-0.18027643859386444,-0.1135520339012146,-0.028311187401413918,0.024143796414136887,0.09608815610408783,-0.14129655063152313,0.11114882677793503,0.14658582210540771,-0.16479262709617615,0.1671738177537918,0.06795506179332733,0.10699249804019928,-0.007885785773396492,-0.05103139206767082,-0.03760751709342003,0.023741351440548897,-0.09330973774194717,0.1459876298904419,0.21031959354877472,0.06243152543902397,0.013395339250564575,-0.08323128521442413,-0.09072291851043701,-0.012743155471980572,0.09620902687311172,-0.08509716391563416,0.08088256418704987,0.05767108500003815,-0.009963965974748135,0.008334596641361713,-0.004956561606377363,-0.033311549574136734,-0.017636869102716446,0.0567157082259655,0.02381882257759571,-0.09326141327619553,0.09282846003770828,-0.03807496279478073,0.02541331574320793,-0.058275364339351654,-0.07513190805912018,0.22677414119243622,-0.04909263551235199,-0.15944020450115204,-0.04958047345280647,0.03840312734246254,0.18152466416358948,0.19871284067630768,-0.050409622490406036,0.1733728051185608,0.17391781508922577,-0.1134696751832962,-0.007840958423912525,-0.16554570198059082,0.13272841274738312,-0.032837171107530594,0.04637143388390541,0.0818023532629013,-0.009922033175826073,0.18814778327941895,0.10802451521158218,0.08718112111091614,0.09907888621091843,-0.11006926745176315,0.060915667563676834,0.1828385293483734,-0.1411052942276001,-0.07876096665859222,0.16302764415740967,-0.020741786807775497,-0.0368640311062336,-0.11394016444683075,-0.17519553005695343,0.038572683930397034,0.09890284389257431,0.03631669282913208,0.0016713300719857216,-0.03966300189495087,0.06375806778669357,0.00810591597110033,0.07719090580940247,0.10832781344652176,0.08003190904855728,-0.029404204338788986,-0.04284941032528877,-0.11272793263196945,0.07191278785467148,0.08508843928575516,0.06350035220384598,0.025203943252563477,-0.1585402488708496,0.06305322051048279,-0.17793835699558258,0.144642174243927,-0.012815880589187145,-0.10341644287109375,-0.058463554829359055,-0.11267615854740143,-0.07504767924547195,-0.15400980412960052,-0.04581979662179947,-0.039351459592580795,0.07777852565050125,0.07307662069797516,0.1642926037311554,-0.029348837211728096,0.08068560063838959,0.19338521361351013,0.16746442019939423,-0.13513295352458954,-0.047324199229478836,-0.053133122622966766,-0.15394434332847595,-0.1166316494345665,0.1868213564157486,0.0038820740301162004,-0.026240896433591843,-0.19516205787658691,0.11115680634975433,0.1898711919784546,-0.019681382924318314,-0.13472068309783936,-0.20670533180236816,-0.11074119806289673,-0.0383652001619339,0.012967908754944801,-0.10415520519018173,0.09212254732847214,-0.16456463932991028,0.19888688623905182,-0.14616957306861877,0.23209485411643982,0.1526428461074829,0.03574436157941818,-0.19176624715328217,0.08369703590869904,0.11436474323272705,0.12674462795257568,0.08348839730024338,-0.07967400550842285,-0.13713088631629944,0.06177177280187607,0.18295888602733612,-0.1510116457939148,0.13572202622890472,-0.12313592433929443,0.03175210952758789,-0.025608815252780914,0.1951909214258194,0.02439163625240326,-0.11519533395767212,0.15312235057353973,-0.01818191446363926,-0.13494141399860382,0.19184410572052002,0.19411157071590424,0.048120297491550446,-0.05414646863937378,-0.134065642952919,0.07037699222564697,-0.04907814413309097,0.043969906866550446,0.17515818774700165,-0.11110591143369675,-0.07349463552236557,-0.08042718470096588,0.09160511195659637,-0.07569685578346252,-0.007325444370508194,-0.023306215181946754,0.18150252103805542,-0.10122267156839371,0.065324567258358,-0.06913507729768753,0.007019368000328541,-0.1809518039226532,0.17393909394741058,0.1338701844215393,0.12717682123184204,0.13200151920318604,-0.1838688999414444,-0.19531381130218506,0.19200044870376587,0.1683959662914276,0.19616423547267914,-0.043135493993759155,0.033418428152799606,0.11076701432466507,0.10385482758283615,0.1286613792181015,-0.13081587851047516,-0.10875144600868225,-0.022264033555984497,0.007917250506579876,-0.1538238674402237,0.1586923748254776,-0.12532709538936615,0.1772289127111435,0.12058768421411514,0.058613065630197525,-0.08821866661310196,0.06069507449865341,0.13779352605342865,0.1823636293411255,0.0361282154917717,0.054898642003536224,-0.09856612235307693,-0.1981487274169922,-0.0487118624150753,-0.049447350203990936,0.11933650076389313,0.21071957051753998,-0.0028097142931073904,0.01019663829356432,-0.015497909858822823,0.03524266555905342,-0.12894025444984436,0.0168821532279253,0.13670261204242706,0.09682732820510864,0.09769005328416824,0.21727032959461212,-0.09198398143053055,-0.12809832394123077,-0.0058637578040361404,0.1847541183233261,0.13210822641849518,-0.018371935933828354,0.0868975818157196,-0.12759028375148773,-0.1611374020576477,-0.013085104525089264,0.16642963886260986,-0.1309364140033722,0.030482415109872818,-0.14650359749794006,-0.1474250704050064,-0.1469014436006546,-0.03493981063365936,0.14356881380081177,-0.018186043947935104,-0.172433003783226,-0.13116700947284698,0.15368923544883728,-0.11570736765861511,-0.11277581751346588,-0.022516891360282898,-0.0013076683972030878,-0.01886059157550335,-0.11810452491044998,-0.1985776424407959,0.018700677901506424,0.19212564826011658,-0.09887192398309708,-0.08339913934469223,-0.12164109200239182,-0.05285089090466499,0.07551378011703491,-0.10823173075914383,-0.03226998448371887,0.046282995492219925,0.10098510980606079,-0.16135810315608978,-0.18810033798217773,-0.11307553201913834,0.03494558110833168,0.14731383323669434,-0.1210956946015358,-0.09776778519153595,0.09129821509122849,-0.16075395047664642,-0.07055006176233292,0.1905118077993393,0.08205225318670273,0.19241081178188324,0.13230910897254944,-0.14955338835716248,0.06868769228458405,-0.08254843950271606,0.05323101580142975,-0.026927391067147255,-0.08792360126972198,-0.17993447184562683,0.031800031661987305,-0.20275504887104034,0.17455822229385376,-0.03176676854491234,-0.009720605798065662,0.05053459480404854,0.16368839144706726,-0.019612817093729973,-0.022937647998332977,0.06045584753155708,-0.021431254222989082,0.03264634683728218,0.1286155730485916,-0.08825859427452087,0.09261956810951233,0.08194871991872787,-0.043062373995780945,0.10255304723978043,-0.049556128680706024,-0.0036199314054101706,-0.13397765159606934,-0.13062123954296112,-0.17220236361026764,-0.08050379902124405,0.05539466068148613,0.14418545365333557,0.00893441867083311,0.10157749056816101,-0.013377910479903221,0.17819233238697052,-0.07694090157747269,-0.10462984442710876,0.07646135240793228,0.007555295713245869,-0.05933732911944389,-0.20060139894485474,0.15614280104637146,-0.03950272127985954,-0.12236373126506805,-0.11619356274604797,0.136443629860878,0.046942416578531265,-0.05989352613687515,0.18671561777591705,-0.0813344344496727,-0.16349424421787262,0.15231190621852875,-0.18201468884944916,-0.15354987978935242,0.19347205758094788,0.14199872314929962,0.2059251219034195,0.10782380402088165,-0.18529918789863586,0.08214794844388962,-0.14231233298778534,0.17331120371818542,0.03387319669127464,0.19636975228786469,-0.13335177302360535,-0.19497542083263397,-0.02840101532638073,0.07316236197948456,0.06086818501353264,0.03355618566274643,-0.03998641297221184,-0.1575065702199936,-0.18736334145069122,0.0983152687549591,0.00923346821218729,0.04542023316025734,0.06249518692493439,-0.018929539248347282,0.10883723199367523,0.13602475821971893,0.07106800377368927,-0.0033100470900535583,0.10751698911190033,0.0005384173709899187,0.10199295729398727,-0.11544159054756165,0.15895023941993713,0.2600354552268982,0.18536338210105896,0.04135614261031151,-0.021277086809277534,-0.024150105193257332,-0.17734980583190918,0.09316510707139969,0.15542380511760712,0.18654774129390717,0.11264719814062119,-0.11658865958452225,0.013519156724214554,0.07511995732784271,-0.0967523530125618,0.17445987462997437,0.05833936110138893,0.10552646964788437,0.021274197846651077,-0.035094574093818665,0.008669151924550533,0.09699597954750061,0.178688645362854,-0.17164947092533112,0.07247468829154968,0.003996343817561865,0.07145052403211594,-0.11254674941301346,-0.09800037741661072,-0.0041510798037052155,-0.10634958744049072,0.017291629686951637,0.14079798758029938,0.030951881781220436,-0.019761109724640846,-0.09132610261440277,-0.15694229304790497,-0.0874653086066246,-0.15950490534305573,0.10293249785900116,-0.03378327563405037,-0.089830182492733,0.127278134226799,0.05252164974808693,-0.07799471914768219,0.055309947580099106,0.0961424857378006,-0.17567192018032074,0.15368017554283142,0.0024109482765197754,0.19509601593017578,-0.029515579342842102,-0.1289697289466858,0.034805845469236374,0.16793644428253174,0.08073403686285019,-0.0819815993309021,-0.05109115317463875,-0.1502416431903839,-0.00041436063474975526,-0.10787911713123322,-0.03399208188056946,-0.19899384677410126,-0.02010117657482624,-0.12516069412231445,0.09638791531324387,0.010601690039038658,-0.015696080401539803,0.018646758049726486,-0.12169148027896881,-0.03683783486485481,-0.18954308331012726,0.10722710937261581,0.1996261179447174,-0.1054292619228363,0.039882633835077286,0.16904529929161072,-0.008658742532134056,-0.031473107635974884,0.10571686178445816,-0.20068468153476715,-0.08663010597229004,0.13756541907787323,0.163153275847435,0.14171196520328522,-0.13896578550338745,-0.015116818249225616,-0.02367328107357025,0.19440658390522003,-0.030745776370167732,0.007452402263879776,0.13322146236896515,-0.08834763616323471,0.15331147611141205,-0.13869288563728333,-0.13399305939674377,-0.18181400001049042,-0.05792782083153725,-0.19172987341880798,0.0688784271478653,-0.044604379683732986,-0.025976471602916718,0.1456725150346756,-0.11840717494487762,0.01015695184469223,0.1367201805114746,-0.16283586621284485,-0.05392729863524437,0.09813734143972397,-0.025924505665898323,-0.06805630773305893,0.02495182305574417,-0.016892019659280777,0.14217963814735413,0.04771224036812782,0.07323549687862396,-0.1735362857580185,-0.12020519375801086,0.12680788338184357,-0.04538307711482048,0.08763330429792404,0.1519325077533722,-0.16434432566165924,0.14301998913288116,-0.08100099116563797,0.19726572930812836,-0.17043153941631317,-0.03211409971117973,-0.10239441692829132,-0.03980838879942894,-0.11106345802545547,0.1802930235862732,0.02273036353290081,-0.17417342960834503,0.09483091533184052,0.14992065727710724,0.06524137407541275,-0.09171149134635925,0.17511704564094543,0.029949694871902466,0.21314093470573425,-0.07312221825122833,-0.13293854892253876,0.05533057451248169,-0.061567522585392,-0.05980859696865082,-0.06777691096067429,0.12176793813705444,0.17953339219093323,-0.14234718680381775,0.12603868544101715,0.08598659932613373,0.12050767987966537,-0.058391716331243515,-0.20523183047771454,0.1758395880460739,-0.18246148526668549,0.14114442467689514,-0.036882877349853516,-0.04722212627530098,0.08666754513978958,-0.04153471812605858,0.06101685389876366,-0.04303959384560585,0.03421815112233162,-0.04412657395005226,-0.15772823989391327,-0.1157950758934021,0.037486813962459564,0.07863081991672516,0.08938883990049362,0.15632669627666473,-0.020882392302155495,0.18762990832328796,0.14919044077396393,-0.1356087177991867,-0.038591742515563965,-0.0361618734896183,-0.15961311757564545,-0.09656280279159546,0.1773632913827896,0.05417046323418617,-0.19064882397651672,0.1853867471218109,-0.023246074095368385,-0.18637025356292725,-0.0386069230735302,0.11089669167995453,-0.1692001223564148,0.2030436247587204,0.1500091850757599,0.18715889751911163,0.07666736841201782,-0.09819060564041138,0.18970586359500885,-0.1758321076631546,-0.09610753506422043,0.20198306441307068,-0.10950465500354767,0.17962537705898285,-0.048177678138017654,0.15561038255691528,-0.09774387627840042,0.03835725784301758,0.061446260660886765,-0.1081019788980484,-0.04326658323407173,-0.09390319138765335,-0.16485820710659027,0.05820075422525406,0.18545368313789368,-0.1624017357826233,0.05353928357362747,-0.009343666955828667,0.19413702189922333,-0.1686963438987732,0.01493071112781763,0.08820422738790512,0.05237613245844841,0.14875277876853943,-0.16899697482585907,0.08977258205413818,0.16910257935523987,-0.11308744549751282,0.15548817813396454,0.18461865186691284,0.14980866014957428,-0.10802121460437775,0.19582895934581757,-0.08415453135967255,0.10449729859828949,0.12239167839288712,-0.017350176349282265,-0.11723316460847855,-0.028981657698750496,0.04417356103658676,-0.01823299191892147,0.1334853321313858,0.10201821476221085,0.16694431006908417,0.05544527247548103,-0.0228715967386961,0.17533425986766815,0.15603023767471313,-0.1599835604429245,-0.18635445833206177,0.02922888658940792,-0.03595416992902756,0.07753802835941315,0.1737656593322754,0.07306922227144241,0.07179106026887894,-0.013246799819171429,-0.08929447829723358,-0.11311041563749313,0.20770865678787231,0.04490281641483307,-0.06273984163999557,-0.025089291855692863,-0.05665925517678261,0.13827630877494812,0.15640246868133545,0.017516592517495155,0.10176131129264832,-0.04623608663678169,-0.11388698220252991,0.04823170229792595,-0.18729864060878754,-0.18619252741336823,-0.005277158692479134,-0.03774915635585785,0.21029099822044373,-0.045043595135211945,-0.14399993419647217,0.11805260181427002,-0.055434104055166245,-0.004776685498654842,0.0016898189205676317,-0.034667257219552994,0.1436098963022232,0.18383359909057617,0.13523726165294647,-0.06040871888399124,0.08742602169513702,0.10858969390392303,0.09613165259361267,0.11205247044563293,0.09895714372396469,-0.07283230870962143,-0.053023602813482285,-0.11572202295064926,-0.18203018605709076,-0.08610155433416367,0.10505392402410507,0.11242982745170593,-0.029207170009613037,0.1033865362405777,0.137906014919281,-0.005089294631034136,-0.0020295330323278904,-0.0946979895234108,-0.1484919637441635,-0.17877672612667084,0.10842809081077576,-0.08159429579973221,0.0724855437874794,-0.17150059342384338,0.08907970041036606,-0.1022736057639122,-0.15945062041282654,-0.009092169813811779,-0.1434279829263687,-0.1887153536081314,0.06740943342447281,0.13301295042037964,-0.0889938697218895,-0.030837953090667725,-0.17735418677330017,0.0010353411780670285,-0.037808869034051895,-0.12485209852457047,-0.12410283833742142,0.04351745918393135,-0.1519538313150406,0.1376214623451233,-0.13116058707237244,0.0335162952542305,-0.014799440279603004,-0.16811566054821014,-0.022698303684592247,-0.001487770932726562,-0.08543992787599564,-0.1823878139257431,0.12380503118038177,-0.044642411172389984,0.08894217759370804,0.13464437425136566,-0.07291540503501892,0.06767628341913223,-0.12550215423107147,-0.03252369165420532,-0.0754380077123642,0.16168710589408875,-0.005131316836923361,0.1605653166770935,-0.011663837358355522,0.08859403431415558,0.04419366642832756,-0.052089955657720566,0.14514349400997162,-0.07334643602371216,-0.14500251412391663,-0.12393610924482346,-0.14543654024600983,-0.12536171078681946,0.1551748812198639,0.009706258773803711,-0.07720835506916046,0.13030189275741577,0.017000265419483185,0.01948944851756096,0.017092473804950714,0.14123855531215668,0.10324522852897644,0.03937764838337898,0.18352727591991425,0.11802953481674194,-0.0450376458466053,0.06401525437831879,-0.04371782764792442,0.11792022734880447,0.06262298673391342,0.20453912019729614,0.015407436527311802,-0.12323317676782608,0.13589981198310852,-0.1596021205186844,0.026486730203032494,-0.17283794283866882,-0.1357138454914093,0.06102241203188896,-0.12941031157970428,0.08756311237812042,-0.1005561500787735,-0.027693945914506912,-0.06885825842618942,0.08864497393369675,-0.16464200615882874,-0.08707091212272644,0.1989600509405136,-0.1839190125465393,0.036754220724105835,-0.08749749511480331,-0.14361201226711273,0.20666120946407318,-0.02252824418246746,-0.09665150195360184,-0.013243298977613449,-0.09674462676048279,-0.017988350242376328,-0.056174956262111664,0.11782322078943253,0.01065339520573616,0.08410602807998657,0.15142598748207092,0.03590012341737747,-0.1877642720937729,-0.05475030839443207,0.05469401553273201,0.04326680675148964,0.17312844097614288,-0.15192481875419617,-0.011202355846762657,0.022034484893083572,0.20213483273983002,-0.14471252262592316,-0.13297250866889954,-0.1623726636171341,0.1892823576927185,0.02660524658858776,0.06823781877756119,0.13742797076702118,-0.13508586585521698,-0.18954448401927948,0.09817414730787277,0.12690357863903046,-0.0949292853474617,0.17795267701148987,-0.06870463490486145,0.08088207989931107,0.01598876528441906,0.20789024233818054,0.0657159686088562,-0.01221656147390604,-0.0631575733423233,-0.06621061265468597,0.1344580054283142,-0.15673907101154327,0.006158938631415367,0.14599443972110748,0.17249779403209686,-0.017936410382390022,0.16136418282985687,0.06856077164411545,0.16094058752059937,-0.17898359894752502,0.018387477844953537,-0.19632473587989807,-0.07774972915649414,0.15497329831123352,0.006436474621295929,-0.004500080365687609,-0.08344519883394241,0.08045682311058044,-0.18887685239315033,0.05491233244538307,-0.175424262881279,0.0016546297119930387,-0.17336870729923248,-0.19458428025245667,-0.06420140713453293,0.08066291362047195,0.13811834156513214,0.03488060086965561,-0.0007023823563940823,-0.10925932973623276,-0.004857454914599657,-0.05725101754069328,0.19268165528774261,0.16216608881950378,-0.10956588387489319,0.0163864828646183,0.16565801203250885,0.11702049523591995,-0.04433954879641533,-0.10358346998691559,0.054487742483615875,0.1463508903980255,-0.0808749794960022,0.07285283505916595,-0.06301222741603851,0.1385289877653122,-0.07632756233215332,-0.1947765052318573,0.18718786537647247,-0.06884706020355225,-0.17660273611545563,0.058198556303977966,-0.009597544558346272,0.08631501346826553,-0.10809888690710068,0.010483792051672935,-0.002368125831708312,-0.025914369150996208,0.1721528321504593,0.12975016236305237,0.037773143500089645,0.09429901093244553,-0.1421266794204712,-0.026799650862812996,-0.0926566794514656,-0.12476243823766708,-0.1093500554561615,0.030580734834074974,-0.19402559101581573,-0.08611593395471573,-0.11882390081882477,0.09661345183849335,-0.002234079409390688,-0.12455906718969345,-0.0870419517159462,0.08338115364313126,0.181984081864357,-0.009305432438850403,0.1831888109445572,-0.12135391682386398,-0.12511131167411804,0.07820974290370941,0.0823771059513092,0.04148957505822182,-0.09556283056735992,-0.06517341732978821,0.043297380208969116,0.23913992941379547,-0.10634258389472961,-0.008661879226565361,-0.050729408860206604,-0.06774189323186874,0.037240106612443924,0.06780818849802017,-0.19581007957458496,0.1975633203983307,-0.07395206391811371,-0.06259075552225113,0.034837573766708374,-0.04643247649073601,-0.09115579724311829,-0.021083509549498558,-0.09158428013324738,-0.14781533181667328,0.07785167545080185,0.21372786164283752,0.09994516521692276,0.12270891666412354,-0.09268879890441895,0.13141438364982605,-0.008523743599653244,0.08951778709888458,-0.018713025376200676,-0.049009039998054504,0.13338159024715424,0.14915944635868073,-0.15800321102142334,0.18577423691749573,0.15425442159175873,-0.11098922789096832,-0.1832847148180008,-0.18942055106163025,0.16419333219528198,-0.043205805122852325,-0.033857546746730804,0.036899130791425705,0.13249798119068146,0.16292650997638702,-0.01833232305943966,0.06729334592819214,-0.14860223233699799,-0.14905805885791779,-0.17893332242965698,-0.0845862627029419,-0.07337341457605362,-0.12462007999420166,0.014028243720531464,-0.10139100253582001,0.16681219637393951,0.02392466552555561,0.12333157658576965,-0.11749011278152466,0.0006358797545544803,-0.11219871044158936,-0.07228456437587738,0.09769119322299957,0.08632885664701462,0.04348643869161606,0.0742584764957428,0.07472239434719086,-0.13242435455322266,-0.03748541697859764,-0.07829668372869492,0.09489389508962631,0.06223471090197563,-0.130605086684227,-0.0002407912106718868,0.03912387788295746,-0.15370804071426392,0.061939217150211334,0.15728089213371277,0.06528100371360779,-0.10306034237146378,-0.18081867694854736,0.19504903256893158,-0.008955209515988827,-0.21185041964054108,0.1489662528038025,-0.01870065927505493,0.1556026190519333,-0.1339607685804367,-0.18201372027397156,0.14627812802791595,0.0065305521711707115,0.1149340346455574,0.14819179475307465,-0.17461219429969788,0.03304814174771309,-0.14889957010746002,0.15155208110809326,0.015476382337510586,-0.056328486651182175,0.13996830582618713,0.14197185635566711,-0.014513526111841202,-0.0387369766831398,-0.16799356043338776,0.09952166676521301,0.13229888677597046,0.03483622148633003,0.062015436589717865,-0.19412104785442352,-0.04986085742712021,-0.011167866177856922,0.04166087135672569,-0.1227874755859375,-0.13657788932323456,0.11782564967870712,-0.029191190376877785,0.1969357132911682,0.19058267772197723,-0.05088774859905243,0.15898971259593964,0.02094835229218006,-0.06657731533050537,0.08140138536691666,0.14882588386535645,0.11556275188922882,-0.15497182309627533,-0.015027503482997417,-0.143717423081398,0.03718040883541107,-0.06173394247889519,0.1959044337272644,0.1318730115890503,0.039701495319604874,0.14286111295223236,-0.006141700781881809,0.0482187494635582,-0.060446690768003464,0.07919610291719437,0.0526219941675663,-0.01595281809568405,0.05926923081278801,0.02757568284869194,0.021718574687838554,0.03855780512094498,-0.10582057386636734,0.04360906779766083,-0.1065041571855545,0.10868552327156067,-0.09082947671413422,-0.05187641456723213,0.04683947563171387,0.08176084607839584,0.07375695556402206,0.07670768350362778,-0.10334212332963943,0.044629547744989395,-0.06149614602327347,-0.008433730341494083,-0.06848552078008652,-0.10232122987508774,0.00332429725676775,0.07617492973804474,-0.036553069949150085,-0.04342002049088478,0.20493777096271515,-0.0933556780219078,0.18628829717636108,0.07517029345035553,0.1330772191286087,0.18950454890727997,0.10687179118394852,0.18305115401744843,-0.05457742139697075,-0.2085866928100586,-0.1758870631456375,-0.1204303428530693,0.1465427577495575,0.049010053277015686,0.12709932029247284,-0.15986593067646027,0.09833694994449615,0.10765043646097183,0.19099946320056915,-0.05287015438079834,0.18314968049526215,0.02609119936823845,0.17081336677074432,0.16924235224723816,-0.0030213119462132454,-0.13496538996696472,-0.007378007750958204,-0.07793986052274704,-0.028306923806667328,0.09003642201423645,-0.1660093367099762,-0.11719988286495209,0.12150764465332031,-0.0173538438975811,-0.04588731750845909,-0.0075528244487941265,0.20217449963092804,-0.10199272632598877,-0.11691878736019135,0.17503756284713745,0.023356981575489044,0.08796290308237076,0.07641160488128662,0.047058891505002975,0.16122128069400787,-0.15582792460918427,-0.16275446116924286,0.052778154611587524,0.021740537136793137,0.09156181663274765,0.04070077836513519,0.11695460230112076,0.037851184606552124,-0.1954398900270462,0.13356493413448334,-0.12615586817264557,0.23107872903347015,-0.014782530255615711,0.12739461660385132,0.07504153251647949,0.05938567593693733,-0.04648158699274063,-0.047640472650527954,0.03754463419318199,0.18937252461910248,-0.005963119212538004,0.19827669858932495,-0.04025363177061081,-0.019093787297606468,0.17475107312202454,-0.16468441486358643,-0.14385175704956055,0.16949652135372162,0.20581381022930145,0.201836496591568,0.15524812042713165,0.058403003960847855,-0.10259999334812164,0.15689289569854736,0.19171276688575745,-0.1702270656824112,-0.15218164026737213,-0.11081188917160034,-0.2103225439786911,0.07952460646629333,-0.01514845434576273,-0.21829992532730103,-0.1106095016002655,-0.06070085987448692,0.15476329624652863,-0.14935757219791412,0.16933190822601318,0.20593462884426117,-0.08849114179611206,0.03612000495195389,0.17266802489757538,-0.10893944650888443,0.10182543843984604,0.2034868597984314,-0.11471815407276154,0.05638837069272995,-0.10167060792446136,0.09825319796800613,0.16070011258125305,0.08468461036682129,-0.11776456981897354,0.13823552429676056,-0.04214203730225563,0.15209805965423584,-0.0037458394654095173,0.16382917761802673,-0.023850975558161736,0.13593395054340363,0.035848915576934814,0.1411592811346054,0.005754604935646057,-0.04765861853957176,-0.14004842936992645,0.20428432524204254,-0.09135293960571289,0.12398827821016312,-0.14560462534427643,0.05166572332382202,-0.006793405395001173,-0.059042736887931824,-0.029247665777802467,0.19480381906032562,0.07055745273828506,-0.11295081675052643,0.05283508822321892,-0.13161659240722656,-0.19745418429374695,-0.036593470722436905,0.012508672662079334,0.03962291404604912,0.16901323199272156,-0.0686618983745575,0.1072840616106987,-0.047296058386564255,-0.051790185272693634,-0.15119098126888275,-0.15582148730754852,-0.19259242713451385,0.15289996564388275,-0.02909833751618862,0.1616874486207962,0.1268986612558365,0.06347990036010742,-0.0681154876947403,0.17301607131958008,0.024651678279042244,0.1968989223241806,-0.18197126686573029,-0.051091935485601425,-0.0542193241417408,0.10357995331287384,-0.14464285969734192,0.01685641147196293,-0.11456198990345001,-0.03256354108452797,0.18389010429382324,-0.18094810843467712,0.05935944244265556,-0.054805055260658264,-0.026936862617731094,-0.09742873162031174,-0.1524139791727066,0.1386815756559372,-0.16428370773792267,-0.1616901010274887,0.20491129159927368,-0.05966886505484581,-0.12058378010988235,-0.009545975364744663,0.1261921226978302,-0.006695911753922701,-0.14701296389102936,-0.1002388522028923,0.07959392666816711,-0.10231892019510269,0.19089250266551971,0.18287181854248047,-0.16744545102119446,0.09291292726993561,0.19068647921085358,-0.003921350464224815,0.019956303760409355,-0.10950013250112534,-0.09701717644929886,0.12213562428951263,-0.1347939819097519,0.1319606751203537,-0.09704340994358063,0.1107802540063858,0.03577753156423569,-0.15732543170452118,0.028661184012889862,0.17625178396701813,0.01198836974799633,-0.04565321281552315,-0.06698143482208252,-0.1945059597492218,-0.09994678199291229,0.04167350381612778,-0.0508418083190918,-0.16276146471500397,0.09874287992715836,0.18425139784812927,-0.04047761484980583,-0.02508031390607357,-0.052310653030872345,-0.0788986012339592,-0.007350210566073656,-0.14020492136478424,0.12198112905025482,-0.1285199373960495,-0.06871204823255539,-0.11706770956516266,-0.08771099895238876,-0.17504538595676422,0.1734827607870102,0.11662164330482483,-0.15749448537826538,0.19737954437732697,-0.11770080775022507,0.15577144920825958,-0.016648389399051666,0.16735418140888214,-0.10783450305461884,-0.07957465946674347,0.14093855023384094,-0.008847861550748348,-0.07273455709218979,0.1304832249879837,-0.04231477528810501,0.13628429174423218,0.04862285777926445,-0.19779136776924133,-0.13936755061149597,-0.1910872906446457,-0.0792321041226387,-0.03979438915848732,0.051601968705654144,-0.1380922794342041,0.1928342580795288,-0.011639265343546867,0.04279906302690506,0.1266404092311859,0.019584141671657562,0.11255176365375519,-0.04538086801767349,-0.1752115935087204,-0.12161023169755936,0.13921082019805908,0.2510266602039337,-0.061326295137405396,0.1161707267165184,-0.04853346198797226,-0.13497334718704224,0.12272194772958755,-0.15054941177368164,-0.04554048925638199,0.1272231638431549,-0.1368817239999771,0.021605001762509346,-0.18120136857032776,-0.028126468881964684,-0.006228580139577389,0.05399284511804581,0.07963160425424576,-0.12012079358100891,-0.12358792126178741,0.025745650753378868,-0.16483467817306519,-0.05477633327245712,-0.07752680778503418,-0.12734545767307281,-0.17460578680038452,0.1328487992286682,-0.01589745283126831,-0.01980443485081196,-0.11269178241491318,0.11577606201171875,0.11396012455224991,-0.0901871845126152,-0.16251403093338013,0.16011950373649597,0.09388484805822372,-0.02507263794541359,-0.009975140914320946,0.07341809570789337,0.0288874339312315,0.14898519217967987,0.03408650681376457,0.16758254170417786,0.1734226942062378,0.15083128213882446,-0.135064035654068,-0.02243088185787201,-0.04491037502884865,0.016695497557520866,0.10319728404283524,0.20264366269111633,0.12717211246490479,0.033310241997241974,0.07698414474725723,-0.01976032182574272,0.03588640317320824,-0.15740655362606049,-0.14468075335025787,0.1849622279405594,0.0517427958548069,0.0010019746841862798,0.0033240134362131357,0.1182965636253357,0.16045190393924713,0.04986171796917915,0.15360529720783234,-0.1552686095237732,-0.17870822548866272,0.1326860636472702,-0.08612304925918579,-0.03957749158143997,0.08965913951396942,-0.17100106179714203,-0.046280790120363235,-0.11829487234354019,0.19001954793930054,0.17047441005706787,-0.04479968547821045,-0.08339124917984009,-0.1249902993440628,0.014244245365262032,-0.13193197548389435,0.11349578201770782,0.05811574310064316,0.11402633786201477,-0.15554745495319366,-0.06406883895397186,-0.17844343185424805,-0.03175829350948334,-0.08785166591405869,-0.05042177066206932,0.1091134324669838,0.18092526495456696,0.08435506373643875,-0.040344130247831345,0.14527440071105957,0.048157937824726105,0.1964852213859558,0.05583013594150543,0.01628226973116398,-0.0490579791367054,0.08500020951032639,0.13832904398441315,0.06112988665699959,0.06194884702563286,-0.17857959866523743,0.08461690694093704,-0.1524096578359604,0.09841053187847137,0.13369525969028473,-0.11082680523395538,-0.03162440285086632,0.06621331721544266,-0.14067450165748596,0.1670093685388565,-0.15686021745204926,0.10202385485172272,-0.002683660015463829,0.05246669426560402,-0.0891488641500473,0.20872654020786285,-0.1209382638335228,-0.1428479701280594,0.03261919319629669,-0.17121002078056335,-0.11249590665102005,-0.029979417100548744,0.10152505338191986,0.16055358946323395,-0.01873750053346157,-0.024103987962007523,-0.1444384902715683,0.16578900814056396,-0.1253218650817871,0.18171824514865875,-0.02028011716902256,-0.06843836605548859,0.07960791885852814,-0.1286746859550476,0.05536888539791107,0.1739327758550644,-0.04433413967490196,-0.025334561243653297,0.06606515496969223,0.12821657955646515,-0.07349793612957001,0.2255161702632904,-0.06226330250501633,-0.16965104639530182,0.002030841540545225,0.1902245730161667,0.19799916446208954,-0.05908350646495819,-0.04661338031291962,0.13691872358322144,-0.11462347209453583,0.12097308784723282,0.15440553426742554,0.06226164102554321,0.11968375742435455,0.10009681433439255,-0.11549878865480423,-0.10873743146657944,0.0077454037964344025,0.01039139088243246,0.15353207290172577,0.00034827625495381653,0.1823744922876358,0.1441502720117569,0.015731601044535637,0.01513513270765543,-0.07752196490764618,0.105985127389431,0.07486990094184875,0.004431716166436672,0.002305109053850174,0.06663332879543304,0.1536855399608612,0.02718367613852024,0.08252660930156708,-0.11735353618860245,0.17204712331295013,-0.1481553316116333,-0.02436325140297413,-0.015107188373804092,-0.024789700284600258,-0.1098410040140152,-0.16421903669834137,0.13962982594966888,0.02272438257932663,0.1768973022699356,-0.15543986856937408,-0.06189747899770737,-0.08275280892848969,0.09407864511013031,-0.1272498071193695,0.051744211465120316,-0.0929107666015625,-0.06692805141210556,0.10658953338861465,-0.13039368391036987,0.09721989929676056,-0.08730491250753403,0.1748463213443756,0.0072672441601753235,0.18919460475444794,-0.16684500873088837,-0.16099323332309723,-0.09869033843278885,0.1610807180404663,0.1341601014137268,0.17461992800235748,-0.11446026712656021,0.051534950733184814,0.11002342402935028,0.07992523163557053,-0.06744816899299622,0.1183212473988533,-0.12800076603889465,-0.059162687510252,-0.14258930087089539,0.13455140590667725,-0.007628503255546093,-0.18575331568717957,-0.15638388693332672,-0.13961046934127808,-0.0681426078081131,0.054608266800642014,-0.010339305736124516,0.12957333028316498,-0.021927373483777046,0.03875436633825302,0.13492976129055023,-0.13355612754821777,0.11247864365577698,0.01003485918045044,0.06627283990383148,-0.147144615650177,-0.0148074422031641,-0.07965076714754105,0.0576254166662693,0.06108833849430084,0.2064499855041504,0.05943930894136429,-0.10352252423763275,0.003593810135498643,0.0287761390209198,0.13820019364356995,-0.05849606171250343,0.15356992185115814,0.060436829924583435,0.2004128396511078,-0.14164228737354279,0.1818295419216156,0.17720970511436462,0.07309439033269882,-0.11938710510730743,-0.093097023665905,0.1382244974374771,0.13874302804470062,0.005418193992227316,-0.04993661865592003,0.1239534243941307,-0.04491198807954788,-0.11471215635538101,-0.00024329136067535728,0.10056167095899582,0.04266153275966644,0.1204969584941864,-0.12519508600234985,0.11050257831811905,0.018077611923217773,0.06499335169792175,0.08862186968326569,-0.04197562113404274,-0.17850647866725922,0.06268113851547241,-0.011239868588745594,0.19303175806999207,-0.11236636340618134,-0.17552895843982697,0.16455039381980896,0.13247893750667572,-0.09931273758411407,-0.1419048011302948,0.20462721586227417,-0.13724347949028015,-0.16854238510131836,-0.04542580991983414,0.15720202028751373,-0.04182785749435425,-0.025893261656165123,0.15051108598709106,0.052265457808971405,0.08618229627609253,-0.053519949316978455,0.15661591291427612,0.05963825806975365,0.15596944093704224,-0.1697358638048172,0.04592668637633324,0.00035821791971102357,-0.17952443659305573,-0.013905341736972332,-0.1634567379951477,0.026111112907528877,-0.15396779775619507,0.12123221904039383,0.11044884473085403,0.1406112015247345,0.14090070128440857,0.15858754515647888,-0.05630386248230934,-0.09452973306179047,-0.15859097242355347,0.18008385598659515,0.1437906175851822,0.11431865394115448,0.14172804355621338,-0.06514617800712585,-0.07642887532711029,0.07665949314832687,-0.000763572461437434,0.008715405128896236,-0.11388768255710602,0.017154011875391006,-0.05282213166356087,-0.007107796613126993,0.08555270731449127,-0.08743340522050858,-0.18319211900234222,-0.07206430286169052,0.005578880663961172,0.15982162952423096,-0.020223243162035942,-0.20398157835006714,-0.14916034042835236,-0.022566281259059906,0.1336391717195511,0.03435905650258064,-0.2156892865896225,-0.12209679931402206,0.12929008901119232,-0.1715603619813919,-0.046764075756073,-0.07797770202159882,0.15901142358779907,0.1330769658088684,0.1864551603794098,0.11646994948387146,-0.0750993937253952,-0.11418332904577255,0.10806248337030411,0.06500759720802307,0.12061202526092529,-0.07439376413822174,-0.11580070853233337,0.1222539097070694,0.11113262921571732,0.12343474477529526,0.1868131458759308,0.08433105796575546,0.23084692656993866,-0.08000707626342773,0.16372378170490265,-0.030589306727051735,-0.002206899458542466,-0.15064357221126556,-0.10741858929395676,0.17981016635894775,-0.14002126455307007,-0.14331352710723877,-0.0276641882956028,-0.13584168255329132,-0.19322170317173004,-0.14196012914180756,0.06509121507406235,0.15371257066726685,-0.0897631123661995,0.15636764466762543,0.05307015776634216,0.08906693011522293,-0.11919023841619492,0.15920092165470123,-0.12425780296325684,0.18098187446594238,0.0970667377114296,-0.1093178540468216,-0.04183727130293846,0.15736441314220428,-0.07984896004199982,0.07662744075059891,0.14219430088996887,0.19702143967151642,-0.03937463462352753,-0.022940566763281822,-0.1365613043308258,0.1224384605884552,0.1121111512184143,0.11803194880485535,0.04265261068940163,0.11927393078804016,-0.011881488375365734,0.1487802267074585,0.12287191301584244,-0.13710355758666992,0.07371394336223602,-0.040790218859910965,0.1752229779958725,-0.05636559799313545,-0.05013634264469147,-0.00845736637711525,0.03365623578429222,0.1304425150156021,-0.05906715616583824,-0.12993887066841125,-0.06577830016613007,0.10668214410543442,0.003195572178810835,0.08116322010755539,0.10479340702295303,-0.04692234843969345,-0.12125027924776077,-0.19886009395122528,-0.16829095780849457,0.039973292499780655,0.10540176928043365,-0.04016174003481865,0.11935152113437653,-0.10419651865959167,0.16872461140155792,-0.06365946680307388,-0.05706828087568283,-0.04577008634805679,-0.04510747641324997,0.06435658782720566,0.016928644850850105,-0.0920548215508461,-0.1994531750679016,-0.1788724809885025,0.005054693669080734,0.13917739689350128,0.06239187717437744,-0.15310177206993103,-0.1371351182460785,0.11440879106521606,0.16914071142673492,0.1584242284297943,0.025534529238939285,-0.11050564795732498,-0.1529189795255661,0.08673334866762161,-0.035902492702007294,0.07569405436515808,-0.14604076743125916,0.028896428644657135,0.06406393647193909,-0.10182700306177139,0.0026479808147996664,-0.07164733856916428,0.07265761494636536,0.07099758833646774,0.024115582928061485,-0.16253411769866943,-0.12585976719856262,0.059053935110569,0.02578015811741352,-0.07094407826662064,0.18948620557785034,0.15492933988571167,-0.126714289188385,0.1804933100938797,0.036475781351327896,-0.053604017943143845,0.03274761885404587,0.17051386833190918,-0.10924290120601654,0.12020808458328247,0.10779677331447601,0.032312195748090744,-0.009936508722603321,0.0030365355778485537,-0.10480839759111404,-0.1893627941608429,0.18182924389839172,0.02213210240006447,0.20595522224903107,0.05433666706085205,0.06140746921300888,0.15332283079624176,0.06881383061408997,0.16348154842853546,0.05027016997337341,0.1713770627975464,0.0486978217959404,-0.06761238723993301,0.045376088470220566,-0.18823321163654327,-0.015461347065865993,0.19403308629989624,-0.144862100481987,0.04331819713115692,-0.004407711327075958,-0.06676319986581802,0.08788734674453735,0.05894088372588158,0.20026159286499023,0.019410457462072372,0.05990351736545563,-0.12851782143115997,-0.18014653027057648,0.04438294097781181,0.035910800099372864,0.06037220358848572,-0.004220376256853342,-0.1935153752565384,0.008967583067715168,0.12092120200395584,-0.00002037737431237474,-0.0216519832611084,-0.15902258455753326,0.09509054571390152,0.05652042478322983,-0.05973208695650101,-0.1109330952167511,0.1962500810623169,-0.07007963210344315,0.10857641696929932,0.1437036246061325,-0.1897192895412445,0.08893891423940659,0.11045368015766144,0.06646615266799927,-0.13567568361759186,0.15155094861984253,0.09261466562747955,-0.14388011395931244,0.0627901554107666,-0.20266547799110413,0.1215432658791542,-0.030164964497089386,-0.1793247014284134,-0.12017928063869476,-0.17190593481063843,-0.1320486068725586,-0.15935449302196503,0.03260405734181404,-0.05100776627659798,-0.06339290738105774,-0.13434705138206482,0.11102338880300522,0.13207651674747467,0.04033247008919716,0.029950851574540138,-0.11794279515743256,-0.06855762004852295,-0.19532510638237,-0.1816718876361847,0.0529213584959507,0.056387677788734436,0.1527380347251892,-0.13774582743644714,0.09740706533193588,0.08956747502088547,-0.12263168394565582,-0.07526803016662598,-0.084529347717762,0.025404222309589386,-0.10383585095405579,0.13725869357585907,-0.06920617073774338,0.02237989939749241,-0.17316195368766785,-0.03145267814397812,-0.002975716022774577,0.08647608757019043,-0.06314200162887573,-0.13973857462406158,0.03733151778578758,0.0631491169333458,0.02279605343937874,0.13306741416454315,0.01298240851610899,-0.17876671254634857,0.13118237257003784,-0.1693454384803772,-0.045905519276857376,-0.14842645823955536,-0.10645730793476105,0.04014793038368225,-0.18974311649799347,-0.13328835368156433,0.05358930304646492,0.1934313178062439,0.14677183330059052,0.13188648223876953,0.06238843500614166,-0.08873070776462555,-0.07940331846475601,-0.06200116500258446,0.038575101643800735,-0.165126234292984,-0.036324597895145416,0.18067756295204163,0.1827085316181183,0.16245916485786438,-0.07741594314575195,0.13103611767292023,0.15543489158153534,-0.0792832300066948,-0.09467007964849472,0.058379899710416794,0.17093025147914886,0.11087838560342789,0.18783767521381378,0.00687278201803565,0.19614195823669434,-0.06604861468076706,0.17780615389347076,0.04476872459053993,-0.14915835857391357,-0.15041781961917877,0.11439663916826248,-0.08200590312480927,0.2001412808895111,0.16528956592082977,0.09933019429445267,-0.04358847811818123,-0.06254855543375015,0.2032616138458252,0.05124218761920929,-0.01697976142168045,-0.05222904682159424,0.15407384932041168,0.08817573636770248,-0.07507948577404022,0.08882033079862595,-0.035765569657087326,-0.09315331280231476,-0.09254271537065506,0.06103892624378204,0.002081863349303603,0.18020135164260864,-0.14820916950702667,-0.13497796654701233,-0.07356423139572144,-0.10341037809848785,0.10880057513713837,-0.09170623868703842,0.04608866572380066,0.1911260336637497,0.14199556410312653,-0.06168004870414734,0.16803742945194244,-0.1848658174276352,-0.026211664080619812,-0.18032832443714142,-0.2018193006515503,-0.03521540388464928,0.1451839804649353,0.06718548387289047,0.11506334692239761,-0.09262565523386002,-0.09764140844345093,0.14194098114967346,0.040417298674583435,0.1863158643245697,0.12353905290365219,0.20181506872177124,-0.10861000418663025,-0.11568345129489899,-0.16480278968811035,0.1279691606760025,-0.13953514397144318,-0.004524714313447475,-0.09972532093524933,-0.07898127287626266,-0.01168619841337204,-0.17250850796699524,0.07460930943489075,0.03385290876030922,-0.1911998689174652,-0.07545924931764603,-0.1907258778810501,0.12148445844650269,0.08671034127473831,0.06934153288602829,0.0047968304716050625,-0.12799909710884094,0.10262858122587204,0.03451268747448921,-0.10225265473127365,-0.027517078444361687,-0.04224882647395134,0.10512005537748337,0.12628376483917236,0.091080442070961,0.09072541445493698,-0.15008369088172913,-0.1799994856119156,0.11647742241621017,-0.1870630830526352,-0.14874570071697235,0.03369167819619179,0.0213151965290308,-0.10959330946207047,0.14593854546546936,-0.09232689440250397,0.07923179864883423,0.1296827346086502,-0.18299780786037445,0.07949300110340118,0.06729623675346375,0.1033310666680336,0.0350729301571846,0.02905033528804779,0.05511151999235153,0.02205800451338291,-0.029094547033309937,0.17946669459342957,-0.13196580111980438,-0.026995528489351273,-0.008907417766749859,0.018932893872261047,0.008088810369372368,-0.10849579423666,-0.17824631929397583,0.1013830155134201,0.04627722501754761,-0.06520824879407883,0.09740200638771057,-0.19300824403762817,-0.18687115609645844,-0.07648961991071701,0.07825978100299835,-0.07754312455654144,0.055033039301633835,-0.0434013195335865,0.15652187168598175,-0.12503834068775177,0.052534010261297226,0.16902218759059906,-0.1665055900812149,-0.10936008393764496,0.1527804285287857,0.06060750409960747,0.13296352326869965,0.017798244953155518,-0.163950577378273,-0.12287113070487976,0.03671712800860405,0.13373427093029022,0.1599636971950531,-0.1644972562789917,-0.07144676893949509,-0.03910552337765694,0.026853259652853012,0.2009197175502777,0.03125453367829323,0.041590217500925064,0.06307918578386307,0.19493459165096283,0.014979020692408085,-0.1485774666070938,0.0898902639746666,-0.1383325457572937,-0.1616394966840744,0.16159680485725403,-0.1711033582687378,-0.00755459675565362,-0.00031620831578038633,-0.032927293330430984,0.08480258285999298,-0.1725602149963379,-0.16226047277450562,0.07378435134887695,0.15133319795131683,0.10246533155441284,0.0941629409790039,0.17116306722164154,0.05635690689086914,0.10303175449371338,0.0607876293361187,0.047263242304325104,0.14911974966526031,0.1414979249238968,0.18184441328048706,0.16617237031459808,0.04866841062903404,-0.19249098002910614,-0.12306424230337143,-0.12416508048772812,-0.1715245544910431,-0.15726009011268616,-0.15038512647151947,-0.037776879966259,-0.17839404940605164,-0.09335416555404663,0.007799043785780668,0.14214244484901428,0.024735204875469208,-0.04130100458860397,0.16497032344341278,-0.14677420258522034,-0.016198784112930298,-0.020558936521410942,-0.04340473562479019,0.16463322937488556,-0.08392652124166489,0.003550840076059103,-0.06886961311101913,0.0658409371972084,-0.08767510950565338,0.1762661188840866,0.052158281207084656,-0.17315468192100525,0.006056038662791252,-0.0679808259010315,-0.042115096002817154,0.0035060939844697714,0.09341463446617126,0.07357627153396606,0.057664595544338226,0.20230063796043396,-0.07048293948173523,-0.04043051227927208,-0.1052258163690567,-0.16540056467056274,0.019538674503564835,0.10511701554059982,0.1000511571764946,-0.10194343328475952,0.184067040681839,-0.1062512919306755,-0.009148803539574146,-0.1896834671497345,-0.0789165124297142,-0.049398861825466156,0.021149517968297005,0.1794242262840271,-0.15573368966579437,0.021272355690598488,0.11413247883319855,-0.1760074943304062,-0.059055671095848083,-0.18820859491825104,0.07954886555671692,0.0041177524253726006,0.11129061877727509,-0.12997356057167053,-0.06681260466575623,0.08970683813095093,0.17815962433815002,0.18469180166721344,-0.03396914154291153,0.12002424895763397,0.19591380655765533,0.017293771728873253,0.08632922172546387,-0.09984982013702393,0.0024379983078688383,-0.014368961565196514,-0.20576442778110504,-0.20183314383029938,-0.0699879601597786,0.0035438251215964556,0.20095127820968628,-0.19043655693531036,0.15598928928375244,-0.09633466601371765,0.14709237217903137,-0.03547568619251251,0.1348881721496582,0.032188430428504944,0.05698496475815773,-0.1726749837398529,-0.16597039997577667,0.011345403268933296,0.043779779225587845,-0.09204895794391632,-0.03561822324991226,0.00618805130943656,0.17245742678642273,0.17347094416618347,0.18270257115364075,-0.0035630492493510246,-0.08232608437538147,-0.029855044558644295,-0.16434210538864136,0.02369823306798935,0.17563071846961975,-0.156086266040802,0.0624312125146389,-0.17430196702480316,0.12372814118862152,0.17853692173957825,-0.1728537678718567,-0.08161523193120956,-0.15667375922203064,-0.178121879696846,0.047548405826091766,0.11858423799276352,0.012523896060883999,0.1627642810344696,0.04186750203371048,0.053413860499858856,-0.17255473136901855,-0.03368078172206879,0.12569260597229004,-0.1681649535894394,0.14833322167396545,0.014902202412486076,-0.021016132086515427,-0.07706549763679504,0.18067656457424164,0.05742708966135979,0.04996715113520622,0.08123389631509781,0.006444263271987438,-0.09908506274223328,0.16812734305858612,-0.05697548761963844,-0.19249418377876282,0.11217454075813293,0.18985439836978912,-0.0674484521150589,0.07565648853778839,0.027168456465005875,-0.091258704662323,-0.10516153275966644,-0.013146993704140186,-0.15023182332515717,-0.07692336291074753,0.08893872797489166,0.02714979648590088,-0.202004536986351,-0.08014408499002457,-0.16288094222545624,0.009642601013183594,0.042764995247125626,0.19415490329265594,0.1682404726743698,0.10943421721458435,-0.07710015028715134,0.16901057958602905,-0.15524700284004211,0.14957652986049652,-0.08794087916612625,0.05654941126704216,-0.07504446059465408,0.13298140466213226,-0.03568533435463905,-0.19335800409317017,-0.10835131257772446,0.1585298329591751,-0.09549975395202637,0.05206246301531792,0.07681728154420853,-0.156007319688797,0.16309544444084167,0.06691590696573257,-0.04133843630552292,0.13427694141864777,0.14251427352428436,0.12857785820960999,-0.06184639781713486,0.011778200976550579,0.13818077743053436,-0.15516264736652374,-0.07412172853946686,-0.006781147792935371,-0.182102769613266,0.05122017860412598,0.13366647064685822,0.17990614473819733,-0.15556220710277557,0.12356507778167725,0.14508609473705292,-0.13865332305431366,0.1423555463552475,-0.12352431565523148,0.09670493751764297,0.012896304950118065,0.09160766750574112,0.05973515287041664,-0.15724267065525055,-0.06023344397544861,-0.18478521704673767,-0.015660885721445084,0.16790162026882172,-0.023788882419466972,-0.004041287582367659,-0.0931445062160492,-0.11135599762201309,-0.13065989315509796,0.10041193664073944,-0.18750745058059692,0.1677321493625641,0.1211785152554512,0.10528145730495453,0.11136120557785034,-0.1503797024488449,0.15800940990447998,0.02858249470591545,-0.155805304646492,-0.016719045117497444,0.01214503776282072,0.026829134672880173,0.17330685257911682,-0.10983382910490036,0.08523961901664734,0.12833763659000397,-0.18475081026554108,-0.0045562428422272205,0.16077512502670288,-0.13591599464416504,0.032223381102085114,0.12808120250701904,0.07605229318141937,0.015212045051157475,0.09712816029787064,0.20954333245754242,-0.15607120096683502,0.04650479927659035,0.04202939197421074,-0.14037872850894928,-0.0758495032787323,0.17035841941833496,0.3627389371395111,-0.16380585730075836,0.06754324585199356,-0.02523527853190899,0.12883400917053223,0.017205867916345596,-0.18939360976219177,-0.19697894155979156,0.20592853426933289,0.14632299542427063,-0.1485360860824585,-0.020453808829188347,0.12753574550151825,0.10509379953145981,0.13508102297782898,0.02313936874270439,-0.05693068727850914,0.0346493236720562,0.1696929633617401,0.13500764966011047,0.04988006129860878,0.034765809774398804,0.024218393489718437,0.1253628134727478,0.03498523682355881,0.01354758907109499,-0.058533743023872375,-0.19119179248809814,0.04824420437216759,-0.10521519929170609,-0.006279606372117996,0.16366291046142578,-0.002680818783119321,-0.05591356381773949,0.11197963356971741,-0.05280092731118202,0.06681045889854431,-0.18508993089199066,0.17821548879146576,-0.17397724092006683,-0.00631706602871418,0.007719465997070074,0.008275584317743778,0.1164683923125267,-0.07230737805366516,-0.21286806464195251,0.0297806728631258,-0.036215297877788544,0.045270830392837524,0.1617973893880844,0.11169629544019699,0.09801275283098221,0.0304880291223526,-0.1364067792892456,-0.0046678571961820126,0.18967093527317047,-0.0086283627897501,-0.18068397045135498,0.00826191809028387,0.10836058855056763,0.08170579373836517,-0.05619470775127411,-0.1595594435930252,0.1482265442609787,-0.045770831406116486,-0.02731858193874359,0.15982303023338318,0.02751770429313183,-0.19313451647758484,-0.02995351515710354,0.092954121530056,-0.1704154908657074,0.13279230892658234,0.1467624455690384,-0.1617857813835144,-0.03834311291575432,0.17904455959796906,-0.0386202372610569,0.1752476841211319,0.08878473937511444,0.013674112968146801,-0.19470065832138062,-0.02691781148314476,0.07270895689725876,0.02465997263789177,-0.04185855761170387,-0.049746833741664886,0.009002527222037315,0.16834813356399536,0.11201940476894379,0.1491277515888214,0.19980411231517792,0.1585436463356018,-0.09835069626569748,-0.11041685938835144,-0.0705476701259613,0.20272591710090637,0.10727754235267639,-0.1034768596291542,0.018480153754353523,0.023166589438915253,-0.20399686694145203,0.04543201997876167,0.11029227077960968,0.12896695733070374,-0.10029878467321396,0.06216949224472046,0.00620054267346859,-0.16627632081508636,0.08069714158773422,-0.12258414179086685,0.024936726316809654,0.1556728482246399,0.16941305994987488,-0.0875895544886589,-0.18240073323249817,-0.18082678318023682,0.15048708021640778,0.009936349466443062,0.024814659729599953,-0.12921196222305298,0.04326580837368965,-0.06303241848945618,0.06370164453983307,-0.03477013111114502,-0.15324905514717102,0.16150537133216858,0.1684664785861969,0.001539256307296455,0.03430776670575142,0.10844197869300842,-0.0977323055267334,-0.18512555956840515,0.16702111065387726,0.10369765013456345,0.02803288958966732,0.10085833072662354,0.03585958480834961,-0.005911177955567837,-0.12284010648727417,0.007497147191315889,0.19212108850479126,0.10190042108297348,-0.03660597279667854,0.22962981462478638,0.18121109902858734,0.20365166664123535,-0.10001072287559509,0.12526646256446838,0.0860968753695488,-0.002412325469776988,0.16360457241535187,0.01185032818466425,-0.15715362131595612,-0.057106394320726395,0.06958111375570297,0.03322012722492218,0.13416989147663116,-0.10869131237268448,0.10181951522827148,-0.15128400921821594,-0.17466619610786438,0.2157425433397293,0.06453511118888855,-0.11388345807790756,0.04492821916937828,0.037586510181427,0.06699489057064056,0.1357545405626297,0.050761573016643524,0.11897657811641693,-0.002118002623319626,0.16571645438671112,-0.15464018285274506,0.02733868919312954,-0.13610439002513885,-0.09370069950819016,-0.15181969106197357,0.022001946344971657,0.17386634647846222,0.21235345304012299,0.03763115778565407,0.07687001675367355,-0.15820638835430145,-0.13094861805438995,0.17339377105236053,-0.10237712413072586,-0.0814630463719368,0.019166791811585426,0.06054725497961044,0.16827476024627686,0.19556590914726257,-0.1559949666261673,0.011044640094041824,-0.11544553190469742,-0.07460064440965652,0.06823303550481796,-0.05069202557206154,0.1557222157716751,0.07355676591396332,-0.002947839442640543,-0.15351015329360962,-0.1769160032272339,0.07576783001422882,-0.11387530714273453,-0.07519201934337616,0.05308183655142784,-0.010687134228646755,-0.0737437754869461,-0.05551597476005554,-0.006624528672546148,-0.035040102899074554,0.07641564309597015,-0.15097233653068542,-0.10477869212627411,0.07805632054805756,0.17211630940437317,0.11648658663034439,-0.10112684220075607,0.06203147768974304,0.09474258869886398,-0.18234463036060333,0.03735607862472534,-0.04816140606999397,-0.09635194391012192,-0.07186831533908844,0.12774600088596344,0.17290182411670685,0.12666210532188416,0.1545199155807495,0.1482221782207489,0.1493082344532013,0.17790114879608154,0.18329185247421265,0.17741192877292633,-0.08699378371238708,-0.14737893640995026,-0.15281079709529877,0.15645354986190796,-0.1618061661720276,-0.088533416390419,0.19379083812236786,-0.11452556401491165,-0.010153044946491718,0.16027018427848816,0.0738016813993454,-0.020988503471016884,0.14520613849163055,-0.21389394998550415,-0.12306509912014008,-0.09834659844636917,0.12274114042520523,-0.03253503516316414,0.18324324488639832,0.09253603965044022,