{"type":"NeuralNetwork","sizes":[26040,6,5],"layers":[{"weights":[],"biases":[]},{"weights":[[-0.05586975812911987,0.1276378631591797,0.08843332529067993,-0.09246757626533508,0.09072152525186539,-0.020609745755791664,0.12502829730510712,0.019332436844706535,-0.04903342202305794,0.1970483809709549,-0.1090640127658844,-0.006993541959673166,-0.10225923359394073,0.09013643115758896,-0.15140724182128906,-0.04019733518362045,-0.020164810121059418,0.14350296556949615,-0.1988711655139923,0.06598298251628876,-0.014727474190294743,0.03404569625854492,0.06811608374118805,-0.04296009615063667,-0.04993320629000664,0.14671769738197327,-0.0797959417104721,0.1364859789609909,-0.18255406618118286,-0.17504838109016418,0.2106565684080124,-0.15231776237487793,0.17191894352436066,0.08399352431297302,-0.17990754544734955,0.02198292501270771,0.16729462146759033,-0.037631209939718246,-0.11346247047185898,0.14225678145885468,-0.11941969394683838,-0.08468634635210037,-0.14123696088790894,0.15566183626651764,-0.12085534632205963,0.19011376798152924,0.08611492812633514,0.14853541553020477,0.07938145846128464,-0.1337132453918457,0.0007181433611549437,-0.1273116171360016,0.10057882964611053,-0.05043812841176987,0.1035190001130104,-0.02323450706899166,-0.18421052396297455,-0.11447123438119888,0.15793746709823608,0.032764989882707596,0.07657349854707718,-0.17112714052200317,0.054947033524513245,-0.11485861986875534,-0.1483224630355835,0.02655436471104622,-0.1743803471326828,0.017956048250198364,-0.011820492334663868,0.06196346506476402,-0.16517671942710876,0.004431921988725662,-0.11236318200826645,-0.02421754039824009,-0.14432775974273682,0.1357259452342987,0.11856205016374588,0.03812362626194954,0.04073726013302803,-0.05601557716727257,0.17684517800807953,0.016809772700071335,0.09197745472192764,0.17312097549438477,-0.10378782451152802,0.0006384305888786912,0.04787581041455269,-0.14519816637039185,0.006993972696363926,0.13258805871009827,0.050942469388246536,-0.055605899542570114,-0.08997238427400589,0.16167998313903809,0.17201711237430573,-0.14625631272792816,0.1292313188314438,0.026823313906788826,0.040446799248456955,0.08947727829217911,0.14452269673347473,-0.023995481431484222,0.10646917670965195,0.11004436761140823,0.16959889233112335,-0.181671604514122,0.004502205178141594,-0.10699789971113205,0.047858551144599915,0.09475414454936981,0.1207042932510376,0.12900564074516296,0.08964443951845169,-0.1460196077823639,0.1406935751438141,-0.19163917005062103,0.19339638948440552,-0.08060910552740097,0.10508845001459122,0.10811255872249603,0.3130154013633728,0.13638710975646973,-0.14963144063949585,0.20164209604263306,-0.06823521852493286,-0.08376067131757736,0.09684580564498901,0.11624152958393097,0.11751048266887665,0.0023298782762140036,-0.17479871213436127,-0.14183427393436432,-0.17855757474899292,0.06204061955213547,-0.12037798017263412,0.11275141686201096,-0.07655127346515656,-0.070746511220932,0.11366100609302521,0.0011309155961498618,-0.15072977542877197,0.06605788320302963,-0.028043678030371666,-0.1489025205373764,-0.04533550515770912,-0.02114131674170494,0.00918889231979847,0.14224353432655334,0.1412850022315979,0.10154960304498672,0.2370581030845642,-0.04060116782784462,-0.033416517078876495,-0.11801844090223312,-0.15226538479328156,-0.04270871728658676,0.08231116086244583,-0.14896832406520844,-0.1179737076163292,-0.0308577548712492,0.11055847257375717,-0.13136254251003265,-0.022008681669831276,-0.12513945996761322,-0.05263688042759895,0.0158444382250309,-0.04496346786618233,0.1251283586025238,0.12192467600107193,-0.03289002925157547,0.18674695491790771,0.026945309713482857,-0.18515779078006744,0.056685566902160645,-0.13197089731693268,-0.13162700831890106,0.1599912792444229,-0.16005423665046692,-0.10873968154191971,0.023774299770593643,0.334850937128067,-0.049168381839990616,0.1580236703157425,0.1468726545572281,0.1898459941148758,0.09002432227134705,0.10563744604587555,0.1956377923488617,-0.0038994718343019485,0.028490502387285233,0.15021057426929474,0.16364602744579315,0.015343877486884594,0.042107872664928436,0.15937858819961548,0.1560083031654358,-0.02088346518576145,0.10405422002077103,-0.17373976111412048,-0.0063031259924173355,-0.1491483896970749,-0.06929983198642731,0.12351763993501663,0.03199153393507004,-0.07660789042711258,-0.023285087198019028,-0.16896948218345642,0.06642495095729828,0.12351460009813309,0.05306273326277733,0.10686156153678894,0.07997655868530273,-0.09747494757175446,-0.00508484710007906,-0.11247207969427109,-0.04315842688083649,-0.04599543660879135,-0.0992807000875473,-0.07327583432197571,-0.05408191308379173,0.10854765772819519,0.19264858961105347,-0.047951146960258484,-0.04539114236831665,0.12702736258506775,-0.11467553675174713,-0.08209913969039917,0.1787615269422531,0.1889294683933258,-0.1577305644750595,-0.013390470296144485,-0.14189326763153076,0.08589541167020798,0.00842224806547165,0.04130403697490692,0.18712401390075684,-0.07795669883489609,-0.14002259075641632,0.10026682168245316,0.17131339013576508,0.06079140678048134,0.09434276819229126,-0.1504165381193161,0.03406519815325737,-0.10756894946098328,-0.03238752856850624,0.16494342684745789,0.020356446504592896,-0.048697784543037415,0.15059484541416168,0.01807594485580921,0.10136178135871887,-0.01591424271464348,0.1726309359073639,-0.024881450459361076,0.12907396256923676,-0.07993678003549576,-0.02483259327709675,0.15857094526290894,-0.1742742359638214,0.11870642751455307,0.12818220257759094,-0.05925428494811058,0.18411149084568024,0.0504443496465683,-0.018796449527144432,-0.009595642797648907,-0.09967873990535736,0.20377680659294128,-0.17970624566078186,0.16805726289749146,0.19555410742759705,0.16996781527996063,0.1134239211678505,0.16546592116355896,0.023178178817033768,-0.042190875858068466,0.1410931497812271,0.018284045159816742,0.08886122703552246,-0.04918539896607399,0.13379938900470734,0.07445287704467773,0.10455390810966492,0.1593250185251236,-0.13969093561172485,-0.039546530693769455,0.1264931708574295,0.06453598290681839,-0.1251745969057083,0.2002463936805725,-0.02143937535583973,-0.17779554426670074,0.07488987594842911,-0.06821097433567047,0.09782417118549347,-0.17245087027549744,0.040905795991420746,0.007136011496186256,-0.12433760613203049,-0.05034683272242546,-0.09882223606109619,0.1987762749195099,0.14135617017745972,-0.15241101384162903,-0.15678295493125916,-0.08554591983556747,0.18059352040290833,-0.014947008341550827,-0.1403954178094864,0.04215122386813164,-0.1328592151403427,-0.10327476263046265,0.07594754546880722,0.02997276373207569,-0.07611732184886932,-0.18677490949630737,-0.030731916427612305,0.0014530117623507977,0.023396402597427368,-0.08930514007806778,-0.09641656279563904,-0.002735264366492629,0.0003071555693168193,-0.10415909439325333,-0.1557367742061615,0.06871145963668823,0.026584643870592117,-0.04139481484889984,-0.10325955599546432,0.09075946360826492,0.0321158729493618,0.16423313319683075,0.13872018456459045,-0.11666545271873474,-0.0634450688958168,0.09087064117193222,-0.17336732149124146,-0.0248625036329031,0.0005198167636990547,-0.15944714844226837,0.10838914662599564,-0.140310600399971,-0.180843323469162,0.07795309275388718,-0.042907387018203735,0.16032223403453827,0.1299346685409546,0.17281004786491394,-0.07042621821165085,0.1927909106016159,0.1449906826019287,-0.056616973131895065,0.007685013115406036,-0.06515277922153473,-0.0419258214533329,-0.06461082398891449,-0.10468435287475586,-0.15520063042640686,0.09738798439502716,-0.0344272218644619,-0.1251278519630432,0.020567676052451134,0.0660533607006073,-0.17384785413742065,-0.1063702329993248,0.033529289066791534,-0.046195998787879944,0.14562930166721344,-0.06266523897647858,0.11752138286828995,0.047892000526189804,0.045219458639621735,0.005464107729494572,-0.0984301045536995,-0.10729861259460449,-0.15155793726444244,0.10464014858007431,0.07038973271846771,0.03192920237779617,0.044311635196208954,-0.18829560279846191,0.16669420897960663,0.08197063952684402,-0.09318315982818604,0.12616994976997375,-0.11796541512012482,0.019481312483549118,-0.1378665417432785,0.12244028598070145,-0.003770979354158044,0.1926054060459137,0.05136306956410408,-0.11361028254032135,0.18501774966716766,-0.04205883666872978,-0.06699071824550629,-0.1752191185951233,0.10020023584365845,0.08557010442018509,-0.06573591381311417,0.1584261655807495,0.03874102979898453,-0.03856414556503296,-0.09192310273647308,0.021911565214395523,-0.06819000840187073,0.2000022977590561,0.08307188004255295,0.17791390419006348,0.11515583097934723,-0.11080557852983475,-0.17614956200122833,-0.17212900519371033,0.02414078265428543,0.10227156430482864,-0.07038495689630508,0.12426246702671051,0.1761150062084198,-0.10009162873029709,0.1715259999036789,0.02269848622381687,0.15824231505393982,-0.003237054217606783,0.019295934587717056,-0.1601349413394928,0.012730731628835201,-0.028635628521442413,0.012050989083945751,-0.1772918701171875,0.19035612046718597,-0.19162708520889282,0.08121094852685928,0.1709441840648651,-0.040241412818431854,-0.182187020778656,0.18580201268196106,0.16001978516578674,-0.1744147390127182,-0.1124999076128006,-0.10628651082515717,0.1510341316461563,0.15988589823246002,0.024589799344539642,0.1964215487241745,-0.12643519043922424,0.19621847569942474,0.03922834247350693,0.19359034299850464,-0.1337071657180786,-0.03909016028046608,-0.0020520887337625027,0.08248236030340195,0.06104271486401558,-0.060088809579610825,0.014681106433272362,0.18928465247154236,-0.1397976130247116,-0.05422133952379227,0.11685416847467422,0.04685303196310997,-0.003530764253810048,0.028379088267683983,0.017767352983355522,-0.05196278542280197,-0.05221698433160782,-0.0829310491681099,0.03736202046275139,0.07700701802968979,-0.17324864864349365,-0.13983193039894104,0.07596804201602936,0.05925812944769859,0.19651806354522705,-0.16074256598949432,0.1797907054424286,0.016260165721178055,-0.0811426192522049,0.008817036636173725,0.130300372838974,0.044846680015325546,0.12003529071807861,0.06910032033920288,0.03805594891309738,-0.18507389724254608,0.1979328840970993,-0.15983405709266663,0.06751839071512222,-0.10775263607501984,0.11831516772508621,-0.0731348842382431,0.04455937072634697,-0.17486059665679932,0.15344813466072083,0.00034457427682355046,-0.09672293812036514,-0.0819045752286911,0.04630925506353378,-0.19098347425460815,-0.11847250908613205,-0.14361877739429474,0.09028058499097824,0.1648886352777481,-0.01765848882496357,-0.002700481563806534,-0.0518660768866539,0.08247345685958862,-0.038921255618333817,-0.16916866600513458,-0.11120966076850891,-0.0067183105275034904,-0.02818180061876774,-0.04604234918951988,-0.08259646594524384,-0.16983793675899506,-0.11418704688549042,-0.05008085444569588,0.05839421600103378,0.1028415858745575,0.023085152730345726,0.1601039171218872,-0.06905011087656021,-0.1654658019542694,-0.17428816854953766,-0.1902349591255188,-0.06685562431812286,-0.08059769868850708,0.033359430730342865,0.1683942973613739,-0.15959647297859192,0.07176687568426132,-0.16380102932453156,-0.014271923340857029,-0.032354939728975296,-0.007212948054075241,0.18497303128242493,-0.09517589211463928,0.1516212671995163,0.03149150311946869,0.1808689832687378,0.17013931274414062,-0.046458516269922256,-0.004071374423801899,-0.19144746661186218,0.051651280373334885,-0.15336160361766815,0.02949359267950058,-0.15528026223182678,-0.06062021106481552,0.01795666292309761,-0.1936124861240387,0.023482704535126686,0.12386820465326309,-0.12730500102043152,-0.10665746033191681,-0.0886077731847763,-0.14919432997703552,-0.02213549241423607,0.08287826180458069,-0.01493870560079813,-0.12254169583320618,-0.044938817620277405,-0.0425456240773201,-0.03665246441960335,-0.019345322623848915,-0.18357941508293152,-0.0866454616189003,-0.006519065238535404,0.036775510758161545,0.047009773552417755,0.015472425147891045,-0.0022986996918916702,-0.06401830911636353,0.17940585315227509,-0.1417781114578247,-0.05151141434907913,0.1764971762895584,-0.08613836765289307,0.15669487416744232,0.02531198225915432,0.14152498543262482,-0.16620191931724548,0.06799312680959702,0.04547937586903572,0.07730212062597275,0.11018507927656174,0.07739315927028656,0.07254114747047424,-0.18354244530200958,0.0332365520298481,0.09713711589574814,-0.06565532088279724,-0.0748651847243309,0.19978494942188263,-0.18155330419540405,-0.046420421451330185,0.01856682263314724,-0.14627113938331604,-0.09261863678693771,-0.11651605367660522,-0.02300388738512993,-0.03667507693171501,-0.0839819386601448,-0.07069199532270432,-0.19749106466770172,0.1804874986410141,0.17097590863704681,0.16475673019886017,0.1810576170682907,-0.0602639839053154,-0.011069445870816708,-0.05132097378373146,-0.1752052903175354,-0.13830721378326416,-0.1889067441225052,-0.12386059761047363,-0.0073191095143556595,-0.16343440115451813,0.028220823034644127,0.032894477248191833,0.06223226711153984,0.07793238759040833,-0.15290236473083496,0.14200754463672638,-0.009628119878470898,-0.0372701957821846,0.04248372092843056,0.06948073953390121,-0.06730639189481735,-0.08667471259832382,0.09473291784524918,0.13869228959083557,-0.19081948697566986,-0.08216381818056107,-0.06336715817451477,0.04288625344634056,0.14149463176727295,0.14564083516597748,0.06525775045156479,-0.15183967351913452,0.07761979103088379,0.16995595395565033,0.16194330155849457,-0.05228998884558678,0.10460411012172699,0.1468290388584137,-0.07014524191617966,-0.13153770565986633,-0.05937156826257706,0.1695459485054016,0.04988659918308258,-0.19872021675109863,0.15238142013549805,0.1253935992717743,0.18573692440986633,0.06834713369607925,-0.03436635062098503,0.07445017248392105,-0.0635744109749794,0.15429352223873138,-0.14287127554416656,0.14577080309391022,-0.1871960610151291,0.13874676823616028,-0.11315350234508514,0.16391368210315704,-0.16717417538166046,0.11393318325281143,-0.18364065885543823,0.010175855830311775,-0.10048899054527283,-0.10504470020532608,-0.04688473790884018,-0.15971960127353668,0.1008368730545044,0.009477474726736546,0.10566292703151703,0.1429164856672287,0.19437256455421448,0.1609199047088623,0.14438851177692413,-0.06711053103208542,0.10840804129838943,0.1580471247434616,0.1083347350358963,-0.16049596667289734,-0.11710584908723831,-0.10466410219669342,-0.007659574504941702,0.1225624531507492,0.07139305025339127,0.10936939716339111,0.11901573836803436,-0.013671676628291607,0.07872596383094788,0.149872288107872,-0.15687380731105804,-0.05482424795627594,-0.1941954493522644,0.07575921714305878,-0.01900603622198105,0.14051014184951782,0.013968603685498238,-0.18390056490898132,0.007441782858222723,0.13068510591983795,-0.14134527742862701,0.06212104856967926,-0.031506262719631195,-0.043234504759311676,0.03240545839071274,-0.06284036487340927,0.16985230147838593,-0.1440025418996811,0.18792162835597992,0.011449819430708885,-0.1423378586769104,-0.15146870911121368,-0.028747014701366425,-0.07778530567884445,0.20178918540477753,0.16963832080364227,-0.059826452285051346,-0.17875118553638458,0.019713155925273895,0.11156488209962845,0.14254669845104218,0.049736976623535156,-0.11583521962165833,-0.05293747037649155,0.12297219783067703,-0.05456526204943657,-0.025018326938152313,0.11588247865438461,0.04476364701986313,-0.13520923256874084,-0.17720642685890198,-0.026788106188178062,0.16532202064990997,-0.012154060415923595,0.11239924281835556,-0.009694859385490417,-0.10467557609081268,-0.01674344204366207,0.04158182814717293,0.13417492806911469,-0.08677002787590027,-0.1598452478647232,0.14706255495548248,0.1712576299905777,0.05638393759727478,-0.15794560313224792,0.05808430165052414,-0.037553951144218445,0.17348290979862213,0.021796975284814835,0.058284908533096313,0.1573442965745926,0.048305027186870575,-0.0645255595445633,0.01524273306131363,0.002047693356871605,0.008692300878465176,0.1837177574634552,-0.19600939750671387,-0.11512234061956406,-0.0161289069801569,0.0233144573867321,0.16542580723762512,0.018133584409952164,0.08103978633880615,0.19719597697257996,0.09055053442716599,0.1505860984325409,-0.13228990137577057,0.13376474380493164,-0.0165934506803751,0.18065670132637024,0.1291986107826233,0.10436007380485535,0.1144750788807869,0.05251063406467438,-0.09663703292608261,-0.13516093790531158,-0.01173314731568098,0.14171846210956573,-0.1099051758646965,0.08601315319538116,-0.04117266833782196,0.12943094968795776,0.10604245960712433,-0.029011929407715797,0.1551268845796585,0.20000925660133362,0.0738595575094223,-0.19807080924510956,-0.1326780468225479,-0.08709026128053665,-0.10569916665554047,-0.09817518293857574,-0.16355566680431366,0.1003798097372055,-0.013189726509153843,0.1108105331659317,-0.04083380848169327,-0.10465486347675323,-0.13443511724472046,0.057283446192741394,-0.035581376403570175,0.1261414736509323,0.0036526883486658335,-0.0657876580953598,-0.18548817932605743,-0.024382779374718666,-0.10818170011043549,0.09442921727895737,0.1048220545053482,-0.09531615674495697,0.014795860275626183,-0.13598303496837616,-0.15963037312030792,0.15462635457515717,-0.011455805972218513,-0.10787942260503769,0.12751340866088867,-0.1613776832818985,0.011241965927183628,0.16563254594802856,-0.08112309873104095,0.1078147143125534,-0.06460647284984589,-0.12225350737571716,-0.10865499824285507,0.14974921941757202,-0.07046619057655334,0.1598277986049652,0.18735527992248535,0.16053690016269684,-0.016162846237421036,0.13630731403827667,-0.012492476962506771,0.1690705418586731,0.18510723114013672,0.020701266825199127,0.15489134192466736,0.07260894775390625,-0.19751408696174622,0.19850115478038788,0.16932745277881622,0.06589014083147049,0.029465850442647934,-0.04927823692560196,0.0401197150349617,-0.07836813479661942,-0.01704103872179985,-0.1738717257976532,-0.07556161284446716,-0.07655011117458344,-0.17803142964839935,0.1548113077878952,0.07033129781484604,0.12247806787490845,-0.05614205077290535,0.14201247692108154,0.04580352455377579,-0.04448156803846359,0.09912975877523422,0.18965201079845428,0.0978148952126503,-0.19849348068237305,-0.03217295557260513,0.003813117742538452,0.09838014096021652,-0.07337687164545059,0.16820397973060608,-0.01667935773730278,-0.010909081436693668,-0.18634340167045593,0.01838553324341774,-0.021678190678358078,0.057793036103248596,0.007948051206767559,0.10774563252925873,0.17505879700183868,0.18544036149978638,0.1320195496082306,0.1863614171743393,-0.1353941261768341,-0.13179050385951996,0.14264239370822906,-0.07540939003229141,-0.08165199309587479,-0.0730426087975502,-0.05542812496423721,-0.13561715185642242,0.1368359923362732,-0.021467242389917374,-0.036917317658662796,0.08740648627281189,0.09689046442508698,-0.15263670682907104,-0.018490402027964592,-0.008671598508954048,-0.018289469182491302,0.14462560415267944,0.004976198542863131,0.17073726654052734,-0.034139156341552734,-0.011029601097106934,-0.19484949111938477,-0.030596595257520676,0.028705542907118797,-0.015567311085760593,0.04840812087059021,-0.02578091248869896,0.15343374013900757,-0.10027403384447098,-0.13047733902931213,-0.00019023209461010993,-0.11401578038930893,-0.16288290917873383,0.07046330720186234,-0.13220448791980743,-0.17357975244522095,-0.03277065232396126,0.07425857335329056,-0.19605086743831635,0.12418218702077866,-0.19106751680374146,-0.07267437130212784,0.04003138467669487,0.14942392706871033,-0.0400448814034462,-0.06990168243646622,0.00219462881796062,0.14388982951641083,-0.14847782254219055,0.08588733524084091,0.013685633428394794,0.1970137655735016,-0.005510897375643253,-0.1773245483636856,-0.1741262525320053,0.020192382857203484,-0.017488280311226845,-0.005357733927667141,0.0848964974284172,0.10743889212608337,-0.05369873717427254,-0.19304800033569336,0.1847226768732071,0.03949984535574913,0.01870962604880333,-0.13238346576690674,0.14022190868854523,0.1599798947572708,-0.03866034746170044,-0.09243793785572052,0.005295148119330406,-0.14363308250904083,0.1861754208803177,-0.0657215341925621,-0.11945952475070953,-0.1392756551504135,0.005505828186869621,0.09325859695672989,0.07254815846681595,0.08869317919015884,-0.1921272724866867,-0.13290736079216003,0.015015223994851112,0.05791546776890755,-0.05888574197888374,-0.09207195043563843,0.026238415390253067,0.15531936287879944,0.11754172295331955,0.15843279659748077,0.056756872683763504,-0.07312717288732529,-0.13793697953224182,-0.063846655189991,-0.1214001253247261,-0.10021957755088806,-0.06815044581890106,0.11436423659324646,0.14164121448993683,-0.0865379199385643,-0.08159679174423218,-0.12575335800647736,0.022854702547192574,-0.030274853110313416,0.1609564870595932,0.16279013454914093,-0.16060173511505127,-0.14641757309436798,-0.19906547665596008,-0.002778783906251192,-0.12428151816129684,0.0648348331451416,-0.189882293343544,-0.11580020189285278,0.10506825894117355,0.16953061521053314,-0.18690648674964905,-0.1437627226114273,-0.10872486978769302,0.005043776705861092,-0.03642573952674866,0.15634433925151825,0.10192342102527618,-0.12431035935878754,0.13729557394981384,0.06414813548326492,-0.07804698497056961,0.020041530951857567,-0.17389509081840515,0.14694078266620636,-0.01161119993776083,-0.19608700275421143,-0.08702437579631805,0.007876550778746605,0.054782696068286896,0.044903289526700974,-0.16411113739013672,-0.04492326080799103,0.1255372315645218,0.16668877005577087,-0.029983358457684517,-0.014890261925756931,-0.12058732658624649,0.03815770894289017,-0.11009859293699265,0.09096800535917282,-0.03637906536459923,0.005410218145698309,-0.06266467273235321,0.1366460919380188,0.042831115424633026,0.008082623593509197,0.19757382571697235,0.1521925926208496,0.11935777962207794,0.12183255702257156,0.04175390675663948,0.03728886693716049,-0.05380022153258324,0.0631195679306984,0.17500290274620056,-0.028622612357139587,-0.016168473288416862,0.06625660508871078,-0.14393173158168793,-0.07920807600021362,-0.19202497601509094,0.0006763460696674883,-0.10490589588880539,-0.14681825041770935,0.11464771628379822,-0.19544048607349396,-0.18926593661308289,-0.09578008949756622,-0.06821325421333313,0.15010344982147217,-0.09020432829856873,0.0836133137345314,-0.02041774056851864,0.01090256404131651,0.06412360072135925,-0.11420994997024536,0.16736166179180145,-0.15222413837909698,-0.05286978557705879,-0.11404655128717422,0.1482488065958023,-0.16472235321998596,-0.15761569142341614,0.18136027455329895,0.18544018268585205,-0.02311013825237751,0.14396439492702484,-0.007682317402213812,0.07037228345870972,0.1715390682220459,-0.13113853335380554,-0.00648152269423008,-0.18155239522457123,-0.06763003766536713,0.02358757145702839,0.10824691504240036,0.15350714325904846,0.033676568418741226,-0.0991915762424469,-0.17094901204109192,-0.07175108045339584,-0.09930215030908585,-0.00674805510789156,-0.17367276549339294,0.14840924739837646,0.14375340938568115,-0.18218381702899933,0.0458008237183094,-0.17185796797275543,0.16707423329353333,0.002843871247023344,0.010424965992569923,-0.0026629059575498104,-0.0432027243077755,-0.14080119132995605,-0.02684023790061474,0.1296205073595047,0.0020112027414143085,0.14016856253147125,-0.12419424951076508,-0.11722265183925629,0.027377169579267502,-0.0018974932609125972,0.035578496754169464,-0.09099344909191132,0.02836613915860653,0.06583667546510696,0.015545525588095188,0.09849020093679428,-0.05244021117687225,0.07539515197277069,0.10033479332923889,-0.08032172173261642,-0.09554090350866318,0.10554789006710052,-0.0003531810943968594,-0.08659481257200241,-0.18209397792816162,-0.17110316455364227,-0.1260042041540146,0.13107213377952576,-0.13642635941505432,-0.007868923246860504,0.18199507892131805,-0.01083979383111,0.19553351402282715,-0.1647670418024063,0.040376629680395126,0.08791892975568771,0.16917060315608978,-0.15218766033649445,-0.002856549574062228,0.16893373429775238,0.016858026385307312,-0.061054639518260956,0.0020531530026346445,-0.14595824480056763,0.10827260464429855,-0.03188416361808777,-0.022345906123518944,0.04843871667981148,-0.19052843749523163,-0.03543444350361824,0.10953966528177261,-0.0657154992222786,0.07525951415300369,0.17002487182617188,0.1987798810005188,-0.17251911759376526,-0.1248101145029068,0.12156200408935547,0.024221735075116158,0.08802961558103561,-0.17520305514335632,0.13631723821163177,0.011293387040495872,-0.09030886739492416,-0.13057364523410797,0.14390718936920166,-0.0802837684750557,0.03894245997071266,0.0440359003841877,-0.1071687564253807,-0.1516059786081314,-0.018635917454957962,-0.059146154671907425,-0.02671259082853794,0.17930194735527039,-0.14493821561336517,0.12108372896909714,0.07830130308866501,0.028569277375936508,0.04246921092271805,0.11940989643335342,0.12669934332370758,0.022607866674661636,-0.028826627880334854,-0.013298545964062214,-0.09011121839284897,-0.14152608811855316,0.14490297436714172,0.05337315425276756,-0.03994496166706085,-0.024312155321240425,0.19935712218284607,-0.0714007243514061,0.049867041409015656,-0.047850340604782104,-0.1813793033361435,-0.06887658685445786,0.008706653490662575,0.1927415430545807,-0.07831449061632156,0.046238239854574203,0.16816045343875885,0.07696742564439774,0.16164498031139374,-0.17070534825325012,0.1524619460105896,-0.023306509479880333,-0.031238369643688202,0.03654543682932854,0.17367392778396606,-0.19675031304359436,0.0002159433061024174,-0.1351224035024643,0.06150958314538002,0.1055041179060936,-0.018999535590410233,0.11203573644161224,0.17581972479820251,0.14569173753261566,-0.05971499904990196,-0.04112066701054573,0.1648598313331604,0.0860772356390953,0.05761222168803215,-0.043008435517549515,-0.10126975923776627,0.11349263042211533,0.01793825812637806,0.10007878392934799,0.08746125549077988,0.02637607231736183,-0.02227064035832882,-0.031138340011239052,0.13158349692821503,0.06734254211187363,0.007741219829767942,0.02915065921843052,-0.13424991071224213,-0.17477883398532867,-0.12019115686416626,0.01590919867157936,0.06008920446038246,-0.14142027497291565,-0.03839746490120888,0.14107272028923035,0.00618342449888587,0.08359245955944061,0.19411061704158783,-0.14496523141860962,-0.1972399652004242,0.18240995705127716,-0.14051973819732666,-0.13331279158592224,-0.03551032021641731,-0.11470039933919907,0.06186128407716751,-0.10916080325841904,-0.12045957148075104,0.007287644315510988,-0.13231560587882996,0.16538077592849731,0.1468040645122528,0.0853433758020401,-0.09782613068819046,-0.15876372158527374,-0.13135181367397308,0.13055521249771118,0.062280550599098206,0.12476534396409988,-0.17181506752967834,-0.09016712009906769,0.06173686683177948,-0.10851258039474487,-0.11834647506475449,-0.17708143591880798,-0.1678483635187149,0.018745899200439453,0.171177476644516,0.10130936652421951,-0.15890754759311676,0.02349657565355301,-0.18669041991233826,0.1359773576259613,-0.09000810235738754,-0.05598693713545799,-0.19253532588481903,-0.19617602229118347,0.03227460756897926,-0.17318463325500488,0.11787541210651398,0.02794077806174755,-0.02804042026400566,-0.09978951513767242,-0.16359014809131622,0.09648270905017853,0.04045717045664787,0.03879387676715851,-0.08140943199396133,-0.00520384032279253,-0.009261640720069408,0.08835858851671219,0.13757215440273285,-0.10619685053825378,0.09535101056098938,0.17037130892276764,0.02465461939573288,0.16631032526493073,0.020869538187980652,0.11959759891033173,-0.07304053008556366,-0.17230571806430817,-0.024128876626491547,0.002430459251627326,0.11013074964284897,-0.08558519929647446,-0.04270176962018013,0.04231850430369377,0.00672409450635314,-0.024165203794836998,0.09854384511709213,-0.17721278965473175,-0.010616756975650787,0.16028951108455658,-0.17968983948230743,-0.19837196171283722,-0.15644219517707825,-0.139634370803833,-0.07130049169063568,-0.15336589515209198,-0.10661528259515762,-0.16386981308460236,-0.053182490170001984,0.04275120422244072,-0.018584635108709335,0.0013594678603112698,0.18028591573238373,0.04904506355524063,0.11642325669527054,-0.07066186517477036,0.18114688992500305,-0.1074143499135971,-0.0527837797999382,-0.09972622990608215,0.05538458004593849,-0.06972376257181168,-0.18810409307479858,0.0791170671582222,0.03810635581612587,-0.0704655721783638,0.11200082302093506,0.1457604020833969,0.152816504240036,0.10533274710178375,-0.02065085805952549,0.16336879134178162,0.017706584185361862,0.012362489476799965,0.1911756694316864,-0.016136029735207558,-0.1755995899438858,0.16221661865711212,0.12674246728420258,-0.17972658574581146,-0.17245902121067047,-0.051192738115787506,0.055210378021001816,0.17455939948558807,-0.1469109207391739,0.12295606732368469,-0.1484757363796234,0.1746666133403778,0.14708782732486725,-0.15563395619392395,-0.1450030356645584,-0.15097522735595703,-0.18196254968643188,-0.18401099741458893,-0.053885914385318756,-0.1919039934873581,-0.08083945512771606,0.07159394025802612,-0.10131391137838364,-0.0901348739862442,-0.10804823040962219,-0.12480603903532028,-0.008543472737073898,-0.1545894294977188,-0.16760316491127014,0.16900387406349182,0.07614678889513016,0.19590246677398682,-0.16651862859725952,-0.19865387678146362,0.15959441661834717,0.1963406354188919,0.14261585474014282,0.1962817907333374,0.024902312085032463,-0.04921913519501686,0.16108137369155884,-0.03252234682440758,-0.13144804537296295,-0.180715411901474,-0.1901089996099472,-0.1582355499267578,-0.001669407938607037,-0.07146618515253067,-0.16857045888900757,-0.09871835261583328,-0.1875167340040207,-0.11518573760986328,0.11447227746248245,0.17427729070186615,-0.15433236956596375,0.16390788555145264,0.07356204092502594,-0.1852891445159912,0.19542571902275085,-0.13225428760051727,0.0353737436234951,-0.12742915749549866,-0.14087015390396118,-0.03625071048736572,-0.0009947405196726322,-0.023671170696616173,0.13250842690467834,-0.1044221743941307,-0.13563483953475952,0.07098586857318878,0.09500136226415634,-0.053849902004003525,0.12606486678123474,0.10717564821243286,0.05456593632698059,-0.1232769787311554,0.028289413079619408,0.09106794744729996,0.17293542623519897,-0.10236699879169464,0.18980632722377777,-0.16369237005710602,0.13355351984500885,-0.046073924750089645,0.04349110275506973,-0.1524992138147354,0.026704400777816772,0.0040370686911046505,-0.030151650309562683,-0.1847555786371231,-0.1423553079366684,-0.11295750737190247,-0.037531349807977676,-0.039758212864398956,-0.008279495872557163,0.18853451311588287,0.19268451631069183,-0.03628131374716759,-0.01673951931297779,0.077647365629673,-0.02326253615319729,-0.08949822187423706,0.05163288488984108,0.1782137006521225,-0.1783413290977478,0.12913699448108673,-0.16990356147289276,-0.10563518851995468,0.03804872930049896,-0.09795787185430527,0.07037071883678436,0.008985500782728195,-0.19988685846328735,-0.040244631469249725,-0.05557499825954437,-0.02857866883277893,0.08204180002212524,-0.038153693079948425,0.17718224227428436,-0.11640278249979019,-0.01991695910692215,0.035232361406087875,-0.06660998612642288,-0.10469459742307663,0.19626721739768982,-0.1888888031244278,0.04281013831496239,-0.13314713537693024,0.18934741616249084,-0.020345265045762062,0.16280817985534668,0.1258198767900467,0.1776311993598938,-0.051764678210020065,-0.004565651062875986,0.009573121555149555,0.0748191773891449,-0.13123469054698944,-0.18607117235660553,0.11557993292808533,-0.07313993573188782,0.06557182222604752,-0.03427622467279434,-0.16234345734119415,-0.11880969256162643,-0.06787306815385818,-0.006830521393567324,0.105230912566185,-0.13737288117408752,0.16983798146247864,-0.046079397201538086,0.10838248580694199,0.018316084519028664,-0.16161510348320007,-0.19573162496089935,-0.1291041076183319,0.0763237327337265,0.12021497637033463,0.043117400258779526,-0.09722898155450821,0.17199862003326416,-0.06531067192554474,-0.10447201132774353,-0.1052156537771225,0.09187527000904083,0.03869570791721344,0.051677875220775604,-0.16764244437217712,0.017949236556887627,-0.11113740503787994,-0.1606895923614502,0.19309377670288086,0.08976104110479355,-0.04602479562163353,-0.008939026854932308,-0.18527166545391083,0.1027202382683754,0.13172917068004608,0.15548822283744812,-0.12597782909870148,0.1313963085412979,-0.05040565878152847,-0.12417387962341309,0.1743716299533844,0.010940461419522762,0.062026139348745346,-0.1189236268401146,0.1899804174900055,0.10940522700548172,-0.10770629346370697,-0.03156279772520065,-0.18807123601436615,-0.08684108406305313,-0.19939066469669342,0.08786871284246445,0.11840421706438065,0.1644897758960724,0.16293717920780182,0.1324295848608017,0.050722479820251465,-0.08667962998151779,-0.1870824098587036,0.1814684122800827,0.16287964582443237,0.1872551441192627,-0.13778463006019592,-0.1253090649843216,-0.036695368587970734,-0.1492632031440735,-0.18960578739643097,0.019588327035307884,0.0881461501121521,0.11053859442472458,-0.0404253825545311,-0.08062557131052017,0.023500505834817886,-0.036811746656894684,-0.16176845133304596,-0.18598467111587524,0.18431416153907776,-0.055948615074157715,0.1323269009590149,0.021562056615948677,0.08064010739326477,-0.16955488920211792,-0.1110471561551094,0.1210467591881752,0.16130875051021576,-0.007839559577405453,0.02093433029949665,-0.14814257621765137,0.03181098774075508,0.12186416238546371,-0.012636171653866768,-0.174452006816864,-0.09445108473300934,-0.0048753353767097,0.009084119461476803,0.17163339257240295,-0.03302689269185066,-0.15924297273159027,-0.0501369833946228,0.025534581393003464,-0.16542349755764008,0.15689925849437714,-0.10519798845052719,0.12775440514087677,0.1718418449163437,0.1846146285533905,-0.09205439686775208,0.19727864861488342,-0.0915684700012207,0.03149491176009178,-0.014481894671916962,0.06649386882781982,-0.10735054314136505,-0.020917415618896484,-0.08224722743034363,0.14372467994689941,0.06701389700174332,0.08566191792488098,-0.05090933293104172,-0.13696028292179108,-0.010107403621077538,-0.1627122163772583,0.17105649411678314,0.07071422040462494,-0.1747557371854782,0.15366318821907043,-0.09554728120565414,-0.16143976151943207,0.057274919003248215,-0.03656475618481636,0.09022531658411026,-0.08353728801012039,0.09778331965208054,0.16215208172798157,-0.17470470070838928,-0.0859040915966034,0.0626257061958313,0.0019122535595670342,0.14231888949871063,0.1367645412683487,0.04167632758617401,0.0802130401134491,-0.18669837713241577,-0.058949895203113556,-0.11858051270246506,-0.08765191584825516,-0.19223381578922272,-0.10663476586341858,0.10579632222652435,-0.024263227358460426,0.09388893842697144,-0.17172090709209442,-0.17412948608398438,-0.12451300024986267,0.17518846690654755,0.039399974048137665,0.12324704974889755,0.1557585895061493,-0.15373612940311432,-0.15954749286174774,-0.19901569187641144,0.11739648878574371,-0.1276901811361313,0.042912714183330536,0.10524901002645493,-0.11918702721595764,0.047178491950035095,-0.022199714556336403,0.08105805516242981,0.06453978270292282,-0.0008662712061777711,0.05062301456928253,-0.19513088464736938,0.147787407040596,0.05673110485076904,0.19671118259429932,-0.17264141142368317,-0.1138635128736496,0.02903391420841217,-0.05650720372796059,0.022702783346176147,-0.1983581781387329,-0.04712463915348053,-0.033024389296770096,0.16667291522026062,0.1485530138015747,0.1285451352596283,0.08678779751062393,0.13410764932632446,-0.08669602125883102,0.07064009457826614,0.06054304167628288,0.131807342171669,0.054038893431425095,0.16097204387187958,-0.06024639680981636,-0.09675426036119461,0.0712536945939064,0.00437775906175375,0.020141417160630226,-0.1500140130519867,-0.10191958397626877,-0.0414842925965786,-0.11482102423906326,-0.0599575974047184,0.16572029888629913,0.03977589309215546,0.15790285170078278,0.11872193962335587,-0.010590019635856152,0.19594469666481018,-0.09187360852956772,-0.09920459985733032,0.04688200354576111,0.018747251480817795,0.03701893240213394,0.005556823220103979,-0.0723104327917099,0.02665422298014164,0.06100112944841385,-0.1258009672164917,-0.07534269988536835,0.07861987501382828,0.1572444587945938,-0.03402188792824745,-0.1017618253827095,0.08823344856500626,-0.08277391642332077,0.0978008359670639,0.09771225601434708,0.09852360934019089,0.01858329214155674,0.06615030765533447,0.018839644268155098,-0.07242882996797562,0.17360511422157288,0.08373745530843735,0.10904517769813538,-0.06390713155269623,0.055321987718343735,-0.07032192498445511,-0.07747411727905273,-0.11252345889806747,-0.19875042140483856,-0.1720830649137497,-0.01603771559894085,-0.1749010533094406,-0.14997969567775726,-0.19282640516757965,-0.12428409606218338,0.1500549018383026,0.16751284897327423,0.18450282514095306,0.08521176874637604,0.1963869035243988,-0.05426287651062012,-0.0031021598260849714,0.0349029004573822,-0.0859496146440506,0.017011411488056183,-0.03394957259297371,0.17525559663772583,0.10357648134231567,-0.16064941883087158,-0.12243295460939407,-0.027336012572050095,0.03942965343594551,0.19910110533237457,-0.09682777523994446,-0.18574734032154083,-0.08901313692331314,-0.05961214751005173,0.07746855169534683,0.015337260439991951,-0.17866049706935883,0.05524017661809921,-0.1889166682958603,-0.10937272012233734,0.11631783843040466,-0.07394983619451523,0.036523185670375824,-0.19960157573223114,0.15000629425048828,-0.06993836909532547,0.04726620018482208,0.10213603079319,-0.05013290047645569,-0.07749554514884949,0.1620081216096878,0.023558273911476135,-0.006854329723864794,0.16443775594234467,-0.004643590655177832,0.06972500681877136,0.146321639418602,0.016985416412353516,-0.008930185809731483,-0.09289047867059708,0.1263701319694519,0.06651509553194046,-0.15290458500385284,-0.16708222031593323,0.012598811648786068,0.13198783993721008,-0.052823733538389206,0.19968441128730774,-0.15741495788097382,0.1997075080871582,0.14184729754924774,0.12917421758174896,0.12135866284370422,-0.03407967463135719,-0.14927448332309723,0.10993507504463196,-0.12860071659088135,-0.1767224371433258,-0.08238666504621506,-0.07762207090854645,0.1778893917798996,-0.10930907726287842,-0.1968468427658081,-0.04793338477611542,0.19583609700202942,-0.05213279649615288,0.07305899262428284,0.185909703373909,0.18626601994037628,0.08623187988996506,-0.013411176390945911,-0.07894778996706009,0.09705093502998352,-0.1057138592004776,0.09520470350980759,-0.14956524968147278,-0.0813630223274231,0.1571871042251587,-0.14630790054798126,0.11152679473161697,-0.1420561820268631,-0.18027333915233612,-0.12010326236486435,0.08195125311613083,0.15027591586112976,-0.11409246176481247,0.06008569523692131,0.19039802253246307,0.1447962373495102,0.17594285309314728,0.1381715089082718,0.1506844311952591,0.14101910591125488,0.012544332072138786,-0.14842283725738525,0.0028923433274030685,0.019674140959978104,0.1348118782043457,0.046485695987939835,-0.06245308741927147,-0.02251332253217697,0.1467595100402832,0.18522359430789948,0.0036470922641456127,-0.06619693338871002,-0.062385279685258865,0.02188308909535408,-0.07001084089279175,0.056426845490932465,0.12402542680501938,0.03785693272948265,-0.09687875956296921,0.08202404528856277,-0.1006413996219635,-0.10242978483438492,0.058949053287506104,0.19684883952140808,0.0710282251238823,-0.12246663123369217,0.08492551743984222,0.18180303275585175,0.1295577734708786,0.19708159565925598,-0.1153387799859047,-0.18257156014442444,0.15618358552455902,0.09261223673820496,-0.15434250235557556,-0.136062890291214,0.13217796385288239,0.17893120646476746,0.15125389397144318,0.03466314449906349,0.11643663793802261,-0.044553082436323166,0.19609937071800232,-0.07665042579174042,-0.055810991674661636,-0.017651893198490143,-0.02301768772304058,-0.0019579504150897264,-0.19571688771247864,0.016862154006958008,-0.08236876130104065,-0.10280117392539978,0.12893617153167725,0.015991447493433952,0.11729346960783005,-0.20003193616867065,-0.11735285073518753,0.18413513898849487,0.12358580529689789,0.11539500206708908,0.1754043698310852,-0.19338907301425934,0.03090595081448555,-0.13540354371070862,-0.12457277625799179,0.12474994361400604,-0.10698400437831879,-0.06763965636491776,-0.012348347343504429,0.14077898859977722,-0.15863282978534698,-0.11254159361124039,-0.11652129888534546,-0.17044785618782043,-0.06683719903230667,0.10608740895986557,0.12964776158332825,-0.06306102126836777,-0.17948536574840546,-0.18220597505569458,0.08153604716062546,-0.04194476455450058,-0.08982858806848526,0.041584789752960205,0.0659591481089592,0.04271964728832245,-0.10520228743553162,0.07468527555465698,-0.11352452635765076,0.07513654232025146,0.1523616462945938,-0.10683329403400421,-0.00908463355153799,0.19986790418624878,0.16675956547260284,0.026465320959687233,0.12855155766010284,0.06291250884532928,-0.16766102612018585,-0.11257389932870865,-0.014367270283401012,-0.17105671763420105,0.021348174661397934,-0.0386551208794117,-0.12105096876621246,0.14535565674304962,0.08009034395217896,0.05675312504172325,-0.0996873751282692,0.022905217483639717,0.1028137132525444,0.15916071832180023,0.07352573424577713,0.1767757385969162,0.11905525624752045,0.15857572853565216,0.017949990928173065,0.14378707110881805,0.05582650005817413,0.17377088963985443,-0.12845510244369507,-0.07463958114385605,0.10349316895008087,0.005180410109460354,-0.04243306443095207,-0.015263551846146584,-0.13381150364875793,0.06680455058813095,0.01602938212454319,0.026928110048174858,0.14967291057109833,-0.06498754024505615,-0.09422227740287781,0.1663845330476761,-0.11405210942029953,0.09899011999368668,-0.18668468296527863,-0.12814804911613464,-0.15740197896957397,0.042377687990665436,-0.04504433646798134,-0.13385926187038422,0.0024439755361527205,0.16658055782318115,-0.027051817625761032,-0.18270951509475708,0.1242806613445282,0.04175446555018425,0.12981073558330536,0.030713265761733055,-0.049020204693078995,0.003717257874086499,0.1875740885734558,-0.15317456424236298,-0.09191881865262985,0.03611370176076889,0.17671391367912292,0.17542512714862823,-0.11621934920549393,-0.012925414368510246,0.044065095484256744,0.03500144183635712,-0.18208688497543335,0.06657733768224716,-0.06887197494506836,0.05951179936528206,0.06607100367546082,0.11548454314470291,-0.009508672170341015,-0.12942387163639069,-0.18631848692893982,0.1568746417760849,0.10159743577241898,-0.16399942338466644,0.0750684142112732,-0.029694199562072754,-0.091185063123703,-0.11849146336317062,-0.17446894943714142,0.0014586796751245856,0.1222032904624939,-0.03144549950957298,-0.13924796879291534,0.08546074479818344,0.15316130220890045,0.003858750220388174,-0.1639561653137207,-0.1143903061747551,0.09953556954860687,-0.008098001591861248,-0.015901390463113785,-0.1439729779958725,-0.005224285647273064,0.004024349618703127,0.07761967927217484,-0.05952506512403488,0.18617825210094452,0.039729367941617966,0.05061890184879303,-0.043203625828027725,0.18926914036273956,-0.10284426063299179,0.15447364747524261,-0.0870317593216896,0.08019335567951202,-0.0035968576557934284,-0.008268282748758793,0.11210360378026962,0.1542922407388687,-0.10480962693691254,-0.1624642014503479,0.17019066214561462,-0.13791488111019135,0.031870145350694656,-0.11892078071832657,0.17696382105350494,-0.0957769900560379,-0.05991565063595772,-0.1811078041791916,-0.1293090432882309,-0.10769299417734146,-0.13203562796115875,-0.08655048161745071,0.16210602223873138,0.02478037215769291,0.04737790673971176,0.16841848194599152,-0.05248130485415459,-0.06955995410680771,0.14235669374465942,-0.017092417925596237,0.16057482361793518,0.03987675905227661,-0.08692096173763275,-0.14003899693489075,-0.0010680319974198937,0.10324464738368988,0.011435705237090588,-0.11343707144260406,-0.02099430002272129,-0.07509098947048187,0.10731910914182663,-0.19271115958690643,-0.11007242649793625,0.05650456249713898,0.09172616899013519,-0.09812729805707932,0.19657161831855774,-0.03637779876589775,-0.015684951096773148,0.09543629735708237,0.1045789048075676,-0.015659239143133163,-0.16640935838222504,-0.08587951958179474,-0.06569721549749374,0.14228683710098267,0.07571926712989807,-0.19439628720283508,0.14558005332946777,0.09087279438972473,0.03513985127210617,-0.11231758445501328,-0.13102705776691437,-0.008126002736389637,-0.19870851933956146,-0.19874709844589233,0.09287013113498688,-0.03147991746664047,0.021303482353687286,0.06639774143695831,-0.1464148461818695,0.15349158644676208,-0.06348679214715958,-0.1427888572216034,-0.02200699970126152,-0.04564768075942993,-0.03580193966627121,-0.1244012787938118,0.11432088911533356,0.08805178850889206,0.1985589861869812,0.008382872678339481,-0.15351003408432007,0.08146823197603226,-0.060248248279094696,0.13609051704406738,-0.04293441399931908,-0.07954217493534088,0.04560636729001999,-0.10571019351482391,-0.12942864000797272,-0.09537846595048904,-0.013198981992900372,-0.139560267329216,-0.10633011907339096,0.062840037047863,-0.08492816984653473,0.03679851070046425,-0.040334053337574005,0.09648822993040085,0.14151005446910858,0.08719668537378311,-0.08358883857727051,-0.1096392273902893,0.03431171923875809,-0.19554604589939117,0.0668945387005806,0.04760996252298355,-0.07416749745607376,0.012603976763784885,-0.16300882399082184,-0.1543940007686615,0.11727044731378555,0.16930516064167023,-0.1649044007062912,-0.02692076563835144,0.1657099723815918,-0.14388784766197205,0.07488367706537247,-0.00220279092900455,0.08440149575471878,0.14151200652122498,-0.15272676944732666,0.04646778479218483,-0.0728592574596405,0.14166465401649475,0.06520304083824158,-0.10767681896686554,-0.10147547721862793,-0.19306106865406036,0.16734151542186737,0.18050506711006165,0.07736600190401077,0.12048943340778351,-0.05331987887620926,-0.10306905955076218,-0.10403165221214294,-0.0381041057407856,-0.10842692106962204,-0.11585886031389236,-0.13175293803215027,0.04627076908946037,-0.012696291320025921,0.15474770963191986,-0.1529969573020935,0.19195573031902313,0.022272605448961258,-0.04502622038125992,-0.1659332513809204,0.1214057132601738,0.14315477013587952,0.19045400619506836,-0.0749494805932045,0.09016057103872299,-0.018996424973011017,-0.09551230818033218,-0.1756722629070282,-0.1553211212158203,-0.17423099279403687,-0.0403255857527256,0.1382719874382019,-0.19439038634300232,-0.05286099761724472,0.08063330501317978,-0.1860681176185608,-0.14612877368927002,0.08838153630495071,-0.1214788630604744,-0.029550826177001,-0.1291947364807129,0.07820174098014832,0.14641228318214417,-0.13927116990089417,-0.15334072709083557,0.14343492686748505,-0.0908801481127739,-0.11537592858076096,0.1997462958097458,0.033261727541685104,-0.15290142595767975,-0.16073691844940186,0.05880754068493843,0.054933056235313416,0.09456277638673782,0.09572464972734451,0.04474924877285957,0.01500027533620596,0.1293201744556427,-0.0697818249464035,0.07258749008178711,-0.17233777046203613,-0.07316569983959198,0.04718703776597977,0.19104215502738953,-0.10613531619310379,-0.11026902496814728,-0.10730385035276413,-0.13620591163635254,0.18937815725803375,-0.06292061507701874,0.023538893088698387,0.05573830008506775,-0.1267942637205124,0.14637057483196259,-0.13132153451442719,0.10487288981676102,0.18622687458992004,-0.11249164491891861,-0.10677381604909897,0.047977231442928314,0.05783640593290329,-0.006217021960765123,0.15539711713790894,-0.046519890427589417,0.15435881912708282,-0.014887230470776558,-0.06745555251836777,0.03713739663362503,-0.15610358119010925,-0.010819456540048122,-0.004080349113792181,0.00036836910294368863,0.014819266274571419,0.004675791598856449,0.049863748252391815,-0.06193649768829346,0.07862719893455505,-0.08898085355758667,0.05216877907514572,0.16906215250492096,0.11855406314134598,-0.0871671661734581,-0.18048086762428284,-0.08316829055547714,-0.11630413681268692,0.18845252692699432,-0.16896575689315796,-0.03653150424361229,-0.10603824257850647,0.12559229135513306,0.019392669200897217,0.19910122454166412,0.1607029289007187,0.13570202887058258,0.19600176811218262,0.033776238560676575,0.021013963967561722,-0.053025953471660614,0.0722445473074913,0.02631981670856476,-0.12140908092260361,0.16072358191013336,-0.14728379249572754,0.07432138174772263,0.12710893154144287,-0.12807902693748474,0.009364069439470768,-0.17320944368839264,0.18341803550720215,0.1734648495912552,-0.026943644508719444,-0.02188873663544655,-0.11008457094430923,-0.05404875427484512,0.12125873565673828,-0.015953976660966873,0.0942135825753212,-0.09623400121927261,0.11641967296600342,-0.0934935212135315,-0.017261400818824768,-0.04275142773985863,-0.1743433028459549,0.1580500304698944,-0.0028039554599672556,-0.04601462185382843,-0.05863962695002556,-0.14066742360591888,0.051047906279563904,0.0792357474565506,0.1225641667842865,0.1960131675004959,0.1093471497297287,0.10554318130016327,-0.09601128846406937,0.13700264692306519,-0.10299056768417358,-0.1875896155834198,0.12582290172576904,-0.1953471451997757,-0.10183388739824295,0.015806417912244797,0.005283833015710115,0.1975225955247879,0.06380613148212433,-0.018935980275273323,-0.11316587775945663,-0.11064602434635162,0.1053195595741272,-0.14206628501415253,0.10392586886882782,-0.0711425244808197,0.11825248599052429,-0.10406646132469177,-0.08476905524730682,0.08333379775285721,-0.029952920973300934,-0.07918689399957657,-0.056476689875125885,-0.09192284196615219,0.08019097149372101,-0.1192467212677002,0.14529883861541748,0.03523847833275795,0.003008649917319417,0.04357127845287323,-0.12125179916620255,-0.015867047011852264,0.07596276700496674,-0.12547121942043304,-0.17009775340557098,-0.1422491818666458,0.0527954176068306,0.0960889384150505,0.027175432071089745,-0.03618042543530464,-0.16064022481441498,0.16202786564826965,-0.14956669509410858,-0.10972713679075241,0.17533770203590393,0.0017751592677086592,-0.007972859777510166,-0.037143342196941376,-0.08250363171100616,-0.04152020812034607,-0.06949140131473541,-0.03080974519252777,0.10236399620771408,-0.14553025364875793,0.0926123782992363,-0.18461671471595764,-0.08010654151439667,-0.04791836068034172,0.005348619539290667,0.1398126631975174,0.01553609874099493,-0.035445436835289,0.15889593958854675,0.13905039429664612,-0.15051935613155365,0.1925496757030487,-0.0823068916797638,-0.1210034191608429,0.13491152226924896,-0.023587657138705254,-0.16594941914081573,0.03815074637532234,0.07261037826538086,0.11560976505279541,-0.1932491958141327,0.12057676911354065,0.02708246558904648,0.01870477944612503,0.13021621108055115,-0.08339151740074158,-0.19283968210220337,0.12557245790958405,-0.18166272342205048,-0.04689569026231766,-0.10406520962715149,-0.002795068547129631,-0.10136254131793976,-0.18556220829486847,-0.07605069130659103,-0.15563589334487915,0.029728325083851814,0.12643715739250183,-0.031101837754249573,-0.19404448568820953,-0.1622157096862793,-0.037906713783741,0.1294594258069992,0.19492417573928833,-0.052463531494140625,0.1939850151538849,0.006262375041842461,0.002995577408000827,0.07821530848741531,-0.12114843726158142,-0.19004002213478088,-0.12105436623096466,-0.024378497153520584,0.18651236593723297,-0.15427200496196747,-0.14180108904838562,-0.09856554865837097,0.13894648849964142,-0.10952717810869217,-0.11411898583173752,-0.0001395010476699099,-0.1393708735704422,0.11841443181037903,-0.10132724046707153,0.08052021265029907,0.061512067914009094,-0.1304430216550827,0.077822245657444,0.08331760764122009,-0.02044220082461834,-0.19133298099040985,0.18857422471046448,-0.198225200176239,-0.18292813003063202,-0.12206844240427017,-0.005508375354111195,0.054042186588048935,0.05866043269634247,-0.13118329644203186,0.017928626388311386,0.1655699908733368,-0.04021971672773361,-0.1263609379529953,0.010291819460690022,-0.07204394787549973,-0.16519314050674438,0.17756591737270355,-0.1251516342163086,0.12571033835411072,-0.006169010419398546,0.08883244544267654,-0.19609855115413666,-0.10173776000738144,-0.05008609965443611,-0.13077019155025482,0.00447528762742877,0.0868925154209137,0.048333991318941116,0.08018599450588226,-0.05181021988391876,0.03090917505323887,-0.07696682959794998,0.09558852761983871,-0.01441518496721983,0.16371843218803406,-0.08754020184278488,-0.15732263028621674,-0.11057509481906891,0.14868581295013428,-0.035190925002098083,-0.19452500343322754,-0.05869211256504059,0.17931444942951202,0.07640880346298218,-0.028704188764095306,-0.19478252530097961,0.05269318446516991,0.19851502776145935,0.11620214581489563,-0.07918889820575714,-0.17472140491008759,-0.0714680552482605,0.16129282116889954,-0.17535564303398132,0.1908559799194336,0.14767993986606598,0.12381404638290405,0.028773648664355278,0.14934304356575012,0.0009289372828789055,0.10788033902645111,0.18556299805641174,0.059199750423431396,0.06560995429754257,0.18562570214271545,0.13128983974456787,0.07326357066631317,-0.18308909237384796,0.13472764194011688,0.1426982879638672,-0.12056374549865723,-0.060873184353113174,0.01869954913854599,-0.11485225707292557,0.18445633351802826,0.06716933846473694,0.07991518080234528,0.016033153980970383,-0.01281384751200676,0.0715520977973938,-0.13879747688770294,0.06977593153715134,-0.19262529909610748,0.0854160264134407,-0.11151634901762009,0.1060798242688179,-0.15564985573291779,-0.10109194368124008,0.01961912401020527,0.18912938237190247,-0.05000833421945572,-0.17997001111507416,-0.0599118173122406,0.05851664021611214,-0.049301665276288986,0.16079890727996826,0.14859864115715027,-0.10595273226499557,-0.1886879801750183,-0.12796364724636078,-0.029862141236662865,0.11730019003152847,0.07308342307806015,-0.08863617479801178,0.13944053649902344,-0.17068549990653992,0.17564064264297485,0.1013963595032692,0.10273005813360214,-0.03543572872877121,-0.018893657252192497,-0.15983793139457703,0.07704772055149078,-0.17311865091323853,-0.06312895566225052,0.11273617297410965,-0.07837902009487152,0.02719244919717312,-0.17699110507965088,-0.15158098936080933,0.08415871858596802,0.09402705729007721,-0.12592659890651703,-0.12541308999061584,-0.15148966014385223,-0.025862714275717735,0.1899396777153015,-0.08388243615627289,0.1612362563610077,-0.1589810848236084,0.19318000972270966,0.17156407237052917,0.09922471642494202,0.16122116148471832,0.00418024230748415,-0.15528446435928345,0.06661165505647659,-0.19744917750358582,-0.19090548157691956,0.07197440415620804,-0.11568443477153778,-0.0727083683013916,-0.09422043710947037,-0.19870580732822418,-0.12187531590461731,0.18969327211380005,0.039720404893159866,0.17506344616413116,0.03926752507686615,-0.06116965040564537,-0.09214644879102707,0.09994387626647949,0.022867057472467422,0.1779470443725586,0.1480591893196106,-0.08602818101644516,-0.16516001522541046,-0.19216646254062653,0.131860613822937,0.16779783368110657,0.12054936587810516,0.1777520328760147,0.07900462299585342,0.16249161958694458,0.18943017721176147,-0.19403420388698578,-0.04905449226498604,0.17445248365402222,0.10217909514904022,0.18201957643032074,-0.04936442896723747,0.11448309570550919,-0.15245066583156586,0.07924334704875946,0.16704829037189484,-0.11928808689117432,-0.026486007496714592,-0.1818123310804367,-0.1605428159236908,0.03999381884932518,0.1363830715417862,-0.13191813230514526,0.18063686788082123,-0.0795012041926384,0.09584703296422958,0.06922782957553864,-0.12864330410957336,0.1067851111292839,0.02430056594312191,-0.1739208996295929,0.1118532121181488,0.049595508724451065,-0.1750723123550415,-0.10332295298576355,-0.12633582949638367,-0.03159201517701149,-0.0433981791138649,-0.06864471733570099,0.16944384574890137,0.15489360690116882,0.17221307754516602,-0.1859302818775177,0.03515350818634033,-0.10100170969963074,0.012983614578843117,0.14315731823444366,0.00028515930171124637,0.11485222727060318,0.17858535051345825,-0.06442469358444214,-0.11151877045631409,0.08997172862291336,0.04074901342391968,-0.1736304610967636,-0.13814060389995575,0.06529619544744492,-0.05765369161963463,0.13962486386299133,-0.06569603085517883,0.04011533409357071,0.12909898161888123,0.015735231339931488,-0.05225588381290436,-0.1216435581445694,0.07289405167102814,0.1175297349691391,-0.15849795937538147,-0.08084013313055038,-0.028264375403523445,-0.19733652472496033,-0.08694099634885788,-0.06795142590999603,-0.07744301110506058,-0.05310596153140068,0.08961337059736252,0.15492679178714752,-0.02179991453886032,0.06062358617782593,-0.18337959051132202,0.1870235651731491,0.06524784862995148,-0.053040266036987305,-0.07201205939054489,0.022683899849653244,0.08798802644014359,0.0042014592327177525,-0.035464465618133545,0.17964906990528107,0.07326696813106537,0.12494762241840363,-0.005015557166188955,-0.1682228296995163,-0.10530520230531693,-0.06021714210510254,-0.03332878276705742,0.10603386163711548,0.07688375562429428,0.01963113434612751,0.00837694387882948,0.10010604560375214,0.0845361053943634,0.17840026319026947,0.03321193903684616,0.1947053223848343,-0.08422021567821503,-0.15399716794490814,-0.16147290170192719,-0.0758235827088356,0.11994996666908264,0.04165108501911163,0.026302244514226913,0.1495194137096405,-0.0063823978416621685,0.1813860833644867,0.127134770154953,-0.14701427519321442,-0.1746826320886612,-0.14860272407531738,-0.012866529636085033,-0.10212277621030807,0.17929846048355103,0.10323057323694229,0.10867712646722794,-0.1377362310886383,0.06879795342683792,0.12029580026865005,-0.13677604496479034,-0.008186166174709797,-0.15409260988235474,-0.006257778964936733,0.0647030770778656,0.15727762877941132,0.0844990685582161,-0.006857005879282951,-0.02601301111280918,-0.01251738891005516,-0.022691145539283752,0.045627411454916,-0.14699560403823853,0.01623285934329033,-0.09123669564723969,-0.010974699631333351,0.07030802220106125,-0.1142401397228241,-0.17432303726673126,0.10141424089670181,-0.19352231919765472,0.19240398705005646,0.1692458838224411,-0.051748499274253845,0.15867148339748383,0.02293209917843342,0.08687728643417358,0.02861928567290306,-0.03326383978128433,0.13511066138744354,0.19961659610271454,-0.027103226631879807,-0.048081256449222565,0.10109137743711472,-0.05087320879101753,-0.19469448924064636,0.09277071803808212,0.06284227967262268,-0.18393531441688538,-0.047637611627578735,0.008097865618765354,0.07510147243738174,-0.0794036015868187,0.13689514994621277,-0.14589039981365204,-0.09894853085279465,0.0947285145521164,-0.07842159271240234,-0.07532832026481628,-0.09254015982151031,0.10464576631784439,0.02927180379629135,-0.06313250958919525,-0.16192971169948578,0.18285711109638214,-0.0006343378918245435,0.010069628246128559,-0.15031610429286957,-0.014589956030249596,-0.10715384781360626,-0.1015104278922081,0.05229245498776436,-0.17788152396678925,0.08110426366329193,0.017206726595759392,-0.13548585772514343,0.09297755360603333,-0.10337582975625992,-0.060839489102363586,0.1017550602555275,0.19806978106498718,0.032097168266773224,-0.04952705651521683,-0.18791629374027252,0.09717516601085663,-0.15463458001613617,-0.11508290469646454,-0.15179762244224548,0.0005422489484772086,0.04229475557804108,-0.13412389159202576,0.14261887967586517,0.024493806064128876,-0.13270270824432373,-0.07225414365530014,-0.042179740965366364,-0.11880989372730255,-0.12366759032011032,-0.020973769947886467,-0.11800669878721237,-0.014115790836513042,0.028450606390833855,-0.020928112789988518,0.06220603361725807,-0.00153044902253896,0.16825923323631287,-0.07130676507949829,0.09947194904088974,0.19926860928535461,-0.13208453357219696,0.011948170140385628,-0.07333553582429886,-0.07920442521572113,-0.053136344999074936,-0.06472548842430115,-0.18725091218948364,-0.10295682400465012,-0.035251691937446594,0.10872996598482132,-0.18551726639270782,-0.05526351556181908,-0.03577764332294464,0.04630153998732567,-0.11844523251056671,0.17429275810718536,0.021466732025146484,0.05179956182837486,-0.0747346505522728,0.07719176262617111,-0.01442160177975893,0.15424013137817383,0.18243828415870667,-0.12437686324119568,0.06819861382246017,0.15651994943618774,-0.18159769475460052,0.06952939927577972,0.06510329246520996,-0.05861213803291321,0.015415332280099392,-0.1393730491399765,0.036665838211774826,0.0389794185757637,-0.020698679611086845,-0.023187879472970963,0.1900465190410614,0.05337781086564064,0.09845142811536789,0.034844134002923965,0.10048452764749527,0.07342805713415146,-0.07341891527175903,-0.0540308877825737,-0.19049711525440216,0.0370015911757946,-0.11341560631990433,0.06271614134311676,0.17647916078567505,-0.16595669090747833,0.08584743738174438,0.14642234146595,0.18472854793071747,-0.044817399233579636,0.03150130435824394,0.10465975850820541,0.026543891057372093,-0.14863871037960052,0.1415555626153946,-0.002658294979482889,0.14085035026073456,-0.15482474863529205,-0.0759396180510521,0.12667803466320038,-0.03615989163517952,-0.06437257677316666,-0.0792413204908371,0.1297808736562729,0.01518355030566454,0.17142607271671295,-0.14940372109413147,-0.18011251091957092,-0.050896912813186646,-0.10393998771905899,-0.039073992520570755,-0.002494290005415678,-0.03869122266769409,0.02928094007074833,-0.02671719342470169,0.14843565225601196,-0.1212090402841568,-0.03603493794798851,0.06749968230724335,-0.13576260209083557,0.1489434540271759,-0.03587929531931877,-0.054083630442619324,-0.16091249883174896,0.10907299816608429,0.0712142065167427,-0.10730098932981491,0.16600827872753143,0.079246386885643,0.048157915472984314,-0.003716027131304145,0.018547404557466507,0.1469864398241043,-0.04843685403466225,0.09985921531915665,-0.003671901999041438,0.06572841852903366,0.18685466051101685,0.13617417216300964,-0.18144884705543518,0.007415043190121651,0.0666336715221405,-0.02224617823958397,-0.18733616173267365,0.11416840553283691,-0.05981871485710144,-0.083636075258255,0.10529616475105286,0.11929801851511002,-0.02264559268951416,-0.17289987206459045,0.09491266310214996,-0.0548306405544281,-0.025967303663492203,0.04572776332497597,0.017687629908323288,-0.06808467954397202,0.05197466164827347,0.11172384768724442,0.17001095414161682,0.14707353711128235,0.024323180317878723,0.1515049785375595,-0.14743629097938538,0.06895297765731812,-0.11789687722921371,-0.11512016505002975,-0.09372717142105103,0.10281694680452347,0.17964817583560944,0.12040387094020844,-0.018646685406565666,-0.021632857620716095,-0.15386217832565308,-0.16604182124137878,0.16966190934181213,-0.08146852254867554,0.03632722049951553,0.09702553600072861,0.06492955982685089,-0.15082651376724243,0.020077934488654137,-0.16956953704357147,-0.058328475803136826,-0.006869831122457981,0.0456005223095417,-0.019881706684827805,-0.15307411551475525,0.1308189481496811,-0.05273696035146713,0.07163412123918533,-0.2005860060453415,-0.054364316165447235,0.059299200773239136,-0.008053983561694622,-0.05010182410478592,0.04902569204568863,-0.04608650505542755,0.09631772339344025,0.1518176943063736,-0.02268378436565399,-0.08433453738689423,-0.11734635382890701,0.13368059694766998,-0.11772936582565308,-0.10935355722904205,-0.05558399483561516,-0.08413911610841751,-0.18876799941062927,0.1979009509086609,-0.030209898948669434,-0.1647694855928421,-0.1441471129655838,0.07735440880060196,0.0010539088398218155,-0.14633522927761078,-0.017807887867093086,0.08471754193305969,0.12616793811321259,0.09878069907426834,-0.1152675598859787,0.02993370220065117,-0.08230864256620407,-0.0978860929608345,-0.17669567465782166,-0.02466699294745922,-0.11759008467197418,-0.09718351811170578,-0.029448380693793297,-0.03451525792479515,0.1227242648601532,0.15523962676525116,0.17268656194210052,-0.12492391467094421,-0.03612238168716431,0.017733309417963028,0.09877990186214447,-0.12991046905517578,0.030987843871116638,0.18612048029899597,-0.17835119366645813,0.0079254861921072,-0.1695200353860855,0.1972358375787735,0.030617261305451393,0.026262950152158737,-0.046547189354896545,0.15054023265838623,-0.05306500568985939,0.08671725541353226,0.017900710925459862,-0.19614370167255402,0.11690368503332138,0.10770334303379059,-0.1653744876384735,-0.13516175746917725,0.00010129253496415913,0.06541267782449722,-0.11848501116037369,0.04437054321169853,0.1750950664281845,0.17304781079292297,0.1099247857928276,0.057327479124069214,0.09410645812749863,0.12305862456560135,0.09941084682941437,-0.020103659480810165,0.005395679734647274,0.13768813014030457,-0.17322111129760742,0.08095056563615799,0.003801891813054681,-0.04541629180312157,-0.035895656794309616,-0.0666370689868927,-0.1749931424856186,0.00845059659332037,-0.05808378756046295,0.19796322286128998,0.10457358509302139,-0.012634748592972755,-0.11486593633890152,-0.020244810730218887,-0.1530085802078247,-0.007441118359565735,0.07643221318721771,-0.12426404654979706,0.028530845418572426,0.13956338167190552,0.08529423922300339,-0.08653421700000763,0.051053162664175034,0.05018109455704689,-0.1409124881029129,-0.16850468516349792,-0.11402956396341324,-0.185310497879982,0.19103968143463135,0.08948656171560287,0.11906207352876663,-0.0994013249874115,-0.10944020748138428,0.1486196368932724,0.024706048890948296,0.18889106810092926,-0.1313415914773941,0.1276392787694931,0.11281397193670273,-0.023799190297722816,-0.12252666056156158,-0.07822580635547638,-0.09879758208990097,-0.061514467000961304,0.09341398626565933,0.10125255584716797,-0.172194242477417,-0.027205629274249077,-0.09734329581260681,-0.13648246228694916,0.037599578499794006,-0.03512066602706909,0.11710212379693985,-0.005735222715884447,-0.06401319056749344,0.14275921881198883,-0.000647835258860141,0.12664003670215607,0.08761324733495712,0.18333733081817627,-0.0890350416302681,0.01966424286365509,-0.00813062209635973,0.11732684075832367,-0.1755932867527008,0.03834168240427971,-0.07864905148744583,0.1280074417591095,0.12071916460990906,0.10736123472452164,-0.12976256012916565,-0.19378681480884552,0.15051066875457764,0.07219146937131882,0.1573752462863922,-0.027176540344953537,0.1926383525133133,0.03717586770653725,-0.021905576810240746,-0.18650074303150177,0.19273316860198975,0.19319908320903778,-0.13287727534770966,-0.026171742007136345,-0.14716282486915588,-0.08972850441932678,-0.1479664444923401,0.0361461415886879,-0.13068175315856934,0.03535894677042961,0.12620654702186584,0.0678529217839241,0.0795794352889061,0.15432675182819366,0.09402541071176529,0.17384447157382965,0.14736194908618927,0.1563163548707962,0.04031326621770859,-0.1355682611465454,-0.03890763223171234,0.028087761253118515,0.04643436148762703,0.014201899990439415,-0.11510823667049408,-0.1994670331478119,0.13514071702957153,0.03477112948894501,-0.04066457971930504,0.11467146873474121,0.15688467025756836,-0.0585312582552433,0.06097321957349777,0.17932023108005524,0.06874755024909973,0.016972549259662628,-0.04210617020726204,-0.042145028710365295,-0.09770878404378891,0.024215059354901314,-0.08346997946500778,-0.15100784599781036,0.0990331768989563,0.11858019232749939,0.05313695967197418,0.13307493925094604,0.0812266618013382,0.19592663645744324,-0.0561823844909668,0.13444404304027557,0.06949905306100845,-0.04166220501065254,0.09940792620182037,0.011753054335713387,0.19442889094352722,-0.1072046086192131,-0.09827597439289093,0.08461203426122665,0.017154579982161522,-0.13022512197494507,-0.09039230644702911,-0.006486176513135433,0.17465101182460785,0.15142515301704407,0.10260085761547089,-0.12218412011861801,0.12609106302261353,-0.08915231376886368,0.06545516103506088,0.14076390862464905,-0.18037745356559753,-0.07498948276042938,0.11683425307273865,0.17245742678642273,0.15631145238876343,0.014070582576096058,0.15252400934696198,-0.14360317587852478,0.06205751746892929,0.021446114405989647,-0.023000448942184448,-0.07726635783910751,-0.08423002809286118,0.023847676813602448,0.19316856563091278,-0.06116730347275734,0.18824195861816406,0.11017802357673645,0.038801033049821854,0.015813453122973442,-0.178227037191391,-0.10600152611732483,-0.04564699903130531,0.07451438158750534,0.057872697710990906,-0.13034309446811676,-0.041180696338415146,0.08179681748151779,-0.02484404668211937,-0.04466135427355766,0.03932135924696922,0.17060919106006622,0.02554027922451496,0.10302078723907471,-0.1087823137640953,-0.04357440024614334,-0.0486026369035244,-0.031254902482032776,-0.12582486867904663,0.016708606854081154,-0.046474095433950424,-0.029520776122808456,-0.18383574485778809,0.07751307636499405,-0.0007779226289130747,0.0007974092732183635,0.12607036530971527,0.12643419206142426,-0.11727315932512283,0.013380702584981918,0.1926337033510208,-0.008952262811362743,0.020258957520127296,-0.13442565500736237,0.14701387286186218,-0.11838223785161972,-0.007421346381306648,-0.1585843712091446,0.025963831692934036,-0.12064807862043381,0.09384899586439133,-0.012365153059363365,0.10224802047014236,0.048852212727069855,0.07328009605407715,0.02029184065759182,0.1459684818983078,-0.13186974823474884,-0.16615256667137146,0.08619315922260284,0.10172746330499649,0.12130871415138245,-0.012592249549925327,-0.012858916074037552,0.025907013565301895,0.0695965364575386,-0.1736544668674469,0.1800042986869812,-0.005584100726991892,-0.060127142816782,-0.04906080290675163,0.020307937636971474,-0.09868258982896805,0.002184242010116577,-0.16187350451946259,-0.03820148482918739,-0.0631871148943901,-0.18560631573200226,0.13482308387756348,0.18688255548477173,0.15047059953212738,0.1799996793270111,-0.0949462503194809,0.07187248021364212,-0.0963071957230568,-0.015943069010972977,-0.16861186921596527,0.09748406708240509,-0.08975125849246979,0.059608787298202515,-0.04866689816117287,-0.13430489599704742,-0.16187581419944763,0.08750718086957932,-0.0025732293725013733,0.10542555153369904,-0.004666103515774012,0.06019402667880058,-0.027928877621889114,0.15568876266479492,0.0020376702304929495,0.076956607401371,-0.18710024654865265,0.10964985191822052,-0.17342908680438995,-0.1213359609246254,-0.049322642385959625,0.18633820116519928,0.0326998233795166,-0.11242996156215668,0.1184413805603981,0.12012235075235367,-0.0952184647321701,0.16545087099075317,0.11328398436307907,-0.12533535063266754,0.1058528870344162,0.0003534721618052572,0.12592869997024536,-0.09312167018651962,-0.11812899261713028,0.14850635826587677,0.1722465455532074,-0.11445886641740799,-0.153388112783432,0.16875602304935455,0.06481625884771347,-0.1359710693359375,0.11039891839027405,0.071927510201931,0.005430315155535936,-0.04783453047275543,0.13642767071723938,-0.02878369763493538,0.18875974416732788,0.003922802861779928,-0.054545123130083084,-0.13150563836097717,-0.04595780745148659,-0.19405823945999146,0.02304874174296856,0.14705774188041687,-0.11447049677371979,-0.0571804903447628,0.18589237332344055,-0.1554689109325409,-0.19245857000350952,0.09171618521213531,0.1886868178844452,-0.1846538484096527,0.01329105719923973,-0.14157460629940033,0.12859877943992615,-0.1719362884759903,0.14690843224525452,0.1820039600133896,-0.005392804741859436,0.03362734988331795,-0.10138528794050217,0.07901524007320404,0.1934182047843933,-0.04694567620754242,0.07285379618406296,0.17116501927375793,0.059398118406534195,0.06753001362085342,-0.19152501225471497,-0.04183274134993553,0.20046529173851013,-0.009983773343265057,0.10767008364200592,-0.043758492916822433,-0.09301086515188217,-0.10943049937486649,0.07597731798887253,-0.09506794065237045,-0.08772963285446167,-0.1704654097557068,0.09180305898189545,-0.033060573041439056,-0.02437165193259716,0.14487658441066742,0.13925184309482574,-0.191350519657135,-0.011180083267390728,-0.1851368099451065,-0.18816447257995605,0.13769792020320892,-0.07568122446537018,0.173824742436409,0.09134519845247269,-0.10643378645181656,0.1256750226020813,0.19533909857273102,0.0673045665025711,0.08035719394683838,0.19909407198429108,0.18142540752887726,0.11575605720281601,0.18731261789798737,0.056871093809604645,-0.047962166368961334,0.11363455653190613,0.1322229653596878,0.03493349626660347,0.07567086070775986,0.10517625510692596,0.16176435351371765,-0.1452493965625763,-0.007742941379547119,-0.12075754255056381,-0.13381268084049225,0.19602066278457642,0.17680016160011292,0.016907542943954468,0.12592598795890808,0.12635420262813568,0.05302765592932701,-0.08727456629276276,-0.05972157418727875,0.04646896570920944,-0.14911797642707825,0.008056184276938438,-0.13126857578754425,0.09817345440387726,0.19596531987190247,-0.08504606038331985,0.1485176682472229,-0.010963779874145985,-0.052282094955444336,-0.018157770857214928,0.18233942985534668,-0.07851137220859528,0.11440452933311462,0.024567559361457825,0.15523388981819153,0.1996583193540573,0.16385839879512787,0.17817875742912292,-0.002136789495125413,0.16164608299732208,0.14525748789310455,-0.0816434845328331,-0.014018907211720943,-0.038736067712306976,0.09905428439378738,0.16250629723072052,-0.018749874085187912,0.16962219774723053,-0.0119011290371418,-0.1391274333000183,0.0027904720045626163,-0.14713558554649353,-0.08216221630573273,0.16112613677978516,-0.18601784110069275,0.020337341353297234,0.10017897933721542,0.048254262655973434,0.19107869267463684,-0.09756918996572495,-0.15157896280288696,-0.09794919937849045,0.005512183532118797,-0.010225474834442139,-0.05644790828227997,0.14932559430599213,-0.010509563609957695,0.1534329056739807,0.018871691077947617,-0.009610876441001892,0.15605026483535767,0.14750994741916656,-0.06599698215723038,0.07659277319908142,0.058535315096378326,-0.05985981225967407,0.07315677404403687,0.1111704632639885,-0.18564379215240479,0.17255686223506927,0.08872226625680923,0.07202748209238052,-0.03667449951171875,0.00526216858997941,0.06387408077716827,-0.11870905756950378,-0.06811898201704025,0.19260239601135254,0.11090631783008575,0.027606647461652756,0.020395824685692787,-0.04908596724271774,0.16558289527893066,-0.08647962659597397,-0.1544177234172821,0.03161831945180893,-0.17451030015945435,0.018176276236772537,-0.1773744821548462,0.02644074335694313,0.12123647332191467,-0.17956584692001343,-0.10069898515939713,0.03405645489692688,0.08437032252550125,0.036111798137426376,-0.09387971460819244,-0.1079844981431961,-0.1272590160369873,-0.1411057412624359,0.0016321181319653988,-0.10717500746250153,0.10022306442260742,0.02305559068918228,0.009585191495716572,0.040643349289894104,0.07837409526109695,-0.04806087166070938,0.1509575992822647,0.04459823668003082,0.12245715409517288,0.13126368820667267,0.0057012904435396194,0.18859250843524933,-0.08840950578451157,0.1728673130273819,0.0794462114572525,0.10087020695209503,0.023471975699067116,0.165572851896286,0.14104564487934113,-0.13774017989635468,0.12262202799320221,-0.11574104428291321,0.1419895589351654,-0.04755723848938942,-0.013003828004002571,-0.10255774110555649,-0.13940906524658203,0.03642147779464722,-0.05875115469098091,0.08850059658288956,-0.18648986518383026,-0.10376954078674316,0.18284091353416443,-0.037547629326581955,-0.006603267975151539,0.15389558672904968,-0.020609676837921143,0.020414315164089203,0.046696342527866364,-0.12151062488555908,-0.02944706752896309,-0.10514868050813675,-0.03958114609122276,0.09674513339996338,0.04889968782663345,-0.008863410912454128,0.07814101874828339,0.050861332565546036,-0.1499657779932022,-0.10881967842578888,-0.1393127143383026,0.06371014565229416,0.182245135307312,0.08613891154527664,-0.1572553515434265,-0.1793266087770462,0.1845417618751526,0.004816305357962847,0.05756961926817894,0.17594848573207855,-0.05425622686743736,-0.14212030172348022,0.13714396953582764,0.1145242303609848,0.07966002076864243,0.1167641207575798,0.022122234106063843,-0.0814768373966217,-0.17480169236660004,0.0677160695195198,-0.08385917544364929,0.11541558057069778,-0.10051633417606354,0.13376422226428986,0.1512531042098999,-0.030221501365303993,-0.17818011343479156,0.030945274978876114,0.06576254963874817,-0.13528041541576385,-0.008887296542525291,0.08581318706274033,0.13708563148975372,-0.13349612057209015,-0.169630229473114,0.16046559810638428,0.010607043281197548,-0.1855405569076538,-0.09573335945606232,-0.07876619696617126,-0.12672211229801178,0.09315264970064163,0.14287573099136353,0.05415806919336319,0.18046757578849792,0.07884179055690765,0.028735565021634102,-0.042456354945898056,0.19198527932167053,-0.04088481888175011,-0.15876953303813934,0.05650905892252922,0.09770889580249786,0.14056609570980072,-0.010295536369085312,-0.0374300517141819,-0.14662566781044006,0.064889095723629,-0.0008174440008588135,0.18740977346897125,-0.0565088726580143,-0.1448390781879425,-0.035316336899995804,-0.1814894825220108,0.018982868641614914,-0.05610588192939758,0.12980158627033234,-0.07752575725317001,0.1975170522928238,0.1252952665090561,0.00969766452908516,-0.14565087854862213,0.18694202601909637,0.013955658301711082,-0.14936503767967224,0.03342614322900772,-0.11671442538499832,0.013824442401528358,0.14257289469242096,0.0484987236559391,-0.03776850551366806,0.16870751976966858,0.17171813547611237,0.020442994311451912,-0.11288872361183167,-0.05418575555086136,-0.19074423611164093,0.07055098563432693,-0.061549436300992966,0.028965149074792862,0.012245808728039265,0.03471625968813896,-0.17101040482521057,-0.09296238422393799,-0.1413842886686325,0.021398339420557022,-0.14660708606243134,0.13303261995315552,0.12623505294322968,-0.02697926200926304,-0.012156473472714424,-0.11461272835731506,0.02658098004758358,0.1993168741464615,0.08337589353322983,-0.08984116464853287,-0.09960697591304779,-0.16896618902683258,-0.08615641295909882,-0.16249094903469086,0.023818960413336754,0.0481964610517025,-0.04557206854224205,0.19014738500118256,-0.16340871155261993,0.18779340386390686,-0.14239834249019623,0.18510748445987701,0.04606775939464569,0.07658024877309799,-0.09968233853578568,0.1989293396472931,0.17914915084838867,-0.0002898345119319856,0.1501348465681076,0.08466960489749908,-0.19547276198863983,-0.08996381610631943,0.05729943513870239,0.035055194050073624,0.05519535019993782,-0.022054523229599,0.17465290427207947,0.10992254316806793,-0.042949531227350235,-0.10107580572366714,0.12238925695419312,-0.005158239509910345,0.15151092410087585,-0.19255445897579193,0.14390574395656586,-0.0033808876760303974,0.18111230432987213,0.13216546177864075,-0.023259151726961136,-0.0644448846578598,-0.15686695277690887,0.049907974898815155,0.13690391182899475,0.00959435198456049,-0.01624082401394844,0.18240074813365936,0.12585215270519257,0.13025440275669098,0.13967609405517578,0.08621270209550858,0.12719282507896423,0.11871030926704407,-0.10184835642576218,0.06281757354736328,0.16685613989830017,0.10670046508312225,0.1479998379945755,-0.06455390155315399,0.17735962569713593,0.17150594294071198,0.12232767790555954,0.08048715442419052,-0.15120762586593628,0.02952815219759941,-0.04053018242120743,0.13220196962356567,0.17244493961334229,-0.10047940909862518,0.1156013235449791,-0.13477200269699097,0.17459876835346222,0.06114070862531662,0.11707670241594315,0.10835504531860352,-0.19215472042560577,-0.056156620383262634,-0.008023634552955627,-0.14067094027996063,0.16668078303337097,-0.14345405995845795,-0.15829189121723175,0.0731191486120224,-0.043110623955726624,0.12982827425003052,0.13971707224845886,0.09299694001674652,-0.1369629055261612,0.08157117664813995,0.10275375097990036,0.06539053469896317,0.11420176178216934,0.13127821683883667,-0.07910721749067307,0.06991727650165558,-0.04905814677476883,0.014176762662827969,0.09285155683755875,0.0909971296787262,0.1731165200471878,-0.12121463567018509,0.03858830779790878,0.18981553614139557,0.10972577333450317,0.04270162060856819,0.08456915616989136,0.18013283610343933,-0.09213956445455551,0.1222907304763794,-0.006519464310258627,0.031416155397892,0.04445505887269974,-0.11559399962425232,-0.15446357429027557,0.1246645376086235,-0.0007140834932215512,-0.1473677158355713,0.0806879773736,0.052218999713659286,0.010001447051763535,0.07082854211330414,0.016032107174396515,0.12140066176652908,0.16215574741363525,-0.12239668518304825,0.1773211658000946,-0.03248211368918419,0.060346756130456924,0.0875810757279396,0.08059373497962952,0.05751420930027962,-0.19485856592655182,-0.029520809650421143,0.18208204209804535,0.042517513036727905,0.025306817144155502,0.17732538282871246,-0.036116451025009155,-0.056108132004737854,-0.04827498272061348,-0.10016268491744995,-0.14888498187065125,-0.18167880177497864,0.07914640009403229,-0.12218111753463745,-0.039878763258457184,-0.13153868913650513,0.06549230962991714,-0.025569017976522446,-0.0042283921502530575,0.1486661583185196,0.021701879799365997,-0.034948188811540604,0.1335766464471817,0.19321309030056,-0.0982164666056633,-0.10848595947027206,-0.14863422513008118,-0.01628531888127327,0.15305115282535553,0.1637299656867981,-0.10403554141521454,-0.07315219193696976,0.057179711759090424,-0.006137159187346697,-0.01628125086426735,0.03120243176817894,-0.029830681160092354,0.12708984315395355,-0.0899636372923851,0.06826411932706833,-0.1572870910167694,0.16446338593959808,-0.18250326812267303,0.10091675072908401,-0.13265247642993927,0.15265773236751556,-0.03081410937011242,-0.17884862422943115,-0.16519202291965485,0.14220845699310303,-0.19279460608959198,-0.11020305752754211,0.03186200186610222,-0.17695578932762146,0.12809182703495026,0.12372422218322754,-0.09988632798194885,-0.0994841530919075,0.09953866899013519,-0.11371131241321564,0.08850056678056717,0.12133960425853729,-0.10398220270872116,0.14049838483333588,0.14195483922958374,-0.10377021878957748,0.058081530034542084,-0.19659948348999023,-0.0564410500228405,-0.1491503268480301,0.11366605758666992,0.07555656880140305,0.08852045983076096,-0.07671988755464554,-0.19460143148899078,0.13033251464366913,0.06781589984893799,-0.01172185130417347,0.05595453083515167,-0.12400155514478683,-0.10515254735946655,0.15227587521076202,-0.07147261500358582,0.18629786372184753,0.17046037316322327,-0.15009960532188416,-0.10363984853029251,0.07623995095491409,-0.09490621089935303,0.17123329639434814,-0.15940216183662415,0.16077770292758942,-0.12052476406097412,0.041653990745544434,0.15643785893917084,-0.17604193091392517,-0.025601835921406746,-0.04810658097267151,-0.18202577531337738,0.014243085868656635,-0.0226445309817791,-0.03080007992684841,0.0601925328373909,-0.01996479369699955,-0.06842836737632751,0.13584662973880768,-0.05011919513344765,-0.019453149288892746,-0.19507868587970734,0.012982774525880814,-0.13346250355243683,0.19806648790836334,0.09784266352653503,-0.05307406187057495,0.12101510912179947,-0.13592229783535004,0.18822431564331055,-0.12750275433063507,-0.04593024402856827,0.02658749744296074,-0.07704632729291916,0.007160529959946871,-0.1436956375837326,0.13907474279403687,-0.1887127161026001,0.06379684060811996,0.054394058883190155,0.1411362737417221,0.044519755989313126,-0.08683839440345764,-0.16428276896476746,0.00869523361325264,-0.028580021113157272,0.1071038544178009,0.10813035070896149,0.17646397650241852,-0.1441076248884201,-0.18229849636554718,0.15634025633335114,-0.11816456913948059,0.18851850926876068,-0.06479665637016296,-0.18992821872234344,0.05942460894584656,0.1432555466890335,-0.11690372228622437,-0.006826563738286495,-0.06964763253927231,0.06384974718093872,-0.02707492746412754,0.09188725799322128,0.11443618685007095,0.05308356136083603,0.13077716529369354,0.10658895969390869,0.14763395488262177,0.1270352452993393,0.17946965992450714,-0.12450546771287918,0.056263379752635956,-0.1567153036594391,-0.030026189982891083,-0.12207441031932831,-0.17024342715740204,0.05212705209851265,-0.041839584708213806,-0.0006853417726233602,0.10489748418331146,0.02976374141871929,-0.03620220348238945,0.14244265854358673,0.028853891417384148,0.030140535905957222,0.0870729461312294,-0.18499892950057983,-0.16925713419914246,-0.03757131099700928,0.13684184849262238,0.03653627634048462,0.18418504297733307,0.11535675078630447,0.12748873233795166,0.0953345000743866,0.05027514323592186,0.15249407291412354,-0.18555322289466858,0.08743875473737717,-0.07677768170833588,-0.1257205754518509,0.122027188539505,0.1160263791680336,0.1065845787525177,-0.15919961035251617,0.00937239732593298,-0.1185234859585762,0.1764405220746994,-0.19815124571323395,0.12826822698116302,-0.10010232031345367,0.16320593655109406,-0.007940078154206276,0.09388517588376999,-0.10459522902965546,0.012737303040921688,0.16317330300807953,0.0354829765856266,0.09062613546848297,0.0968744307756424,0.04671416059136391,0.08724993467330933,0.14344727993011475,0.10225135833024979,-0.09436272829771042,-0.18371562659740448,0.005245104897767305,-0.04479401931166649,0.07816623151302338,-0.18322812020778656,0.09568917006254196,-0.14227502048015594,0.12202917039394379,-0.15218034386634827,0.11845354735851288,-0.13168388605117798,-0.18470332026481628,-0.006371937692165375,0.07687044888734818,-0.007669046055525541,-0.05759669840335846,0.09721460193395615,-0.11981496959924698,-0.13406191766262054,-0.14729642868041992,-0.17701028287410736,-0.034646451473236084,0.1592000275850296,0.03865065798163414,0.05523882806301117,0.11488006263971329,0.07052560895681381,0.19939345121383667,-0.126637265086174,0.18014296889305115,0.15881973505020142,0.14169788360595703,-0.05325297638773918,0.11180729418992996,-0.045120712369680405,0.17049552500247955,-0.12238925695419312,-0.10127907991409302,0.05431501194834709,0.1895420253276825,-0.01284443587064743,-0.1575138121843338,0.050801102072000504,0.0025860376190394163,0.0014451304450631142,-0.1094198003411293,-0.037066973745822906,0.07364211976528168,-0.10461369156837463,-0.1610858142375946,0.18524466454982758,0.013751690275967121,0.15055793523788452,-0.1092362254858017,-0.05734025686979294,-0.14682702720165253,0.09848757833242416,-0.08036881685256958,0.1065426766872406,-0.05506478622555733,-0.19081251323223114,0.08953127264976501,-0.021325694397091866,0.12545187771320343,-0.04772293195128441,-0.03374193236231804,0.11302948743104935,0.17865581810474396,0.17319843173027039,0.13754980266094208,0.18797865509986877,-0.08746668696403503,0.11095911264419556,-0.07920709997415543,0.17250847816467285,-0.15153376758098602,-0.03020893968641758,0.09007394313812256,0.09300947934389114,0.05304019898176193,-0.16440421342849731,0.10824410617351532,-0.16529574990272522,0.013059918768703938,-0.10553698241710663,0.07435979694128036,0.10518470406532288,0.06809786707162857,0.07766539603471756,-0.14981195330619812,-0.14669963717460632,-0.03332415595650673,0.16083787381649017,0.03140577673912048,0.11699794977903366,0.13486066460609436,-0.14593616127967834,-0.19864191114902496,-0.0791330337524414,0.10369522124528885,-0.1495206207036972,0.1886618435382843,0.1449752002954483,-0.08989902585744858,-0.14490194618701935,-0.18840071558952332,-0.02178957499563694,-0.11941269785165787,-0.08169376105070114,-0.08361486345529556,-0.02142823114991188,-0.08516410738229752,0.0023845541290938854,0.053924817591905594,-0.18932227790355682,0.04251457005739212,0.1474505364894867,0.055964384227991104,-0.1971210539340973,-0.0018027550540864468,-0.04721575975418091,0.09748180210590363,-0.026537973433732986,0.06439167261123657,-0.0012909059878438711,0.17591635882854462,0.07919851690530777,-0.06083298102021217,-0.08440882712602615,0.05060838535428047,-0.023552631959319115,-0.17120538651943207,0.05744605511426926,0.07424872368574142,0.004523156676441431,-0.07501685619354248,-0.038959600031375885,-0.12407849729061127,0.1396835446357727,-0.046497467905282974,0.003258057404309511,0.05396991968154907,0.07270768284797668,-0.05548432841897011,0.14808937907218933,-0.18787400424480438,0.01476930733770132,-0.0012723387917503715,0.0578816719353199,0.16984297335147858,-0.13364022970199585,-0.12912805378437042,-0.17345042526721954,0.19505280256271362,-0.027541644871234894,-0.19302435219287872,-0.03479335829615593,-0.16369576752185822,-0.09479481726884842,0.09571318328380585,-0.17161081731319427,-0.16574424505233765,0.08799636363983154,-0.1087489202618599,0.03550872206687927,-0.16785098612308502,0.16213998198509216,-0.003978014457970858,0.07919088751077652,-0.11685266345739365,-0.14141516387462616,0.14371995627880096,-0.013684771955013275,0.08014846593141556,-0.012651609256863594,-0.11501961201429367,-0.19840575754642487,-0.16312099993228912,-0.08049236238002777,0.01974758319556713,0.008786031976342201,0.08290886878967285,0.19234970211982727,0.16599141061306,-0.019604036584496498,-0.050019167363643646,0.07156473398208618,-0.051406826823949814,-0.011372989974915981,-0.04972435161471367,-0.0210612453520298,-0.007500005885958672,-0.145125612616539,-0.09802617132663727,-0.12127965688705444,-0.11019119620323181,0.04746539145708084,0.11693830788135529,-0.004625015426427126,-0.174358531832695,-0.13432517647743225,-0.1253819763660431,0.13283196091651917,0.14999090135097504,-0.08459532260894775,-0.08921835571527481,-0.10725762695074081,0.18099446594715118,-0.007085480727255344,0.1934778392314911,-0.10650757700204849,-0.17127762734889984,0.1658318191766739,-0.07817518711090088,0.10798460990190506,0.07264213263988495,-0.18392468988895416,0.06264425814151764,-0.0056740958243608475,-0.0016999230720102787,0.07592704147100449,0.12441806495189667,-0.15791456401348114,0.18343503773212433,0.14623506367206573,-0.10688987374305725,0.04879909008741379,0.1850808709859848,-0.05658908188343048,-0.03665276616811752,-0.030371887609362602,0.18736301362514496,0.17824380099773407,0.051556047052145004,0.09287289530038834,-0.12984472513198853,0.027337845414876938,0.15638072788715363,-0.09358733892440796,-0.0633617714047432,0.08836954087018967,-0.06655681878328323,0.19546718895435333,0.09845282882452011,-0.017330970615148544,0.15613429248332977,-0.06322401016950607,0.10221715271472931,0.07070180773735046,-0.059508487582206726,-0.14004206657409668,-0.03921486809849739,0.10762590169906616,0.00011360979988239706,-0.05660589784383774,0.1632295846939087,-0.011304432526230812,-0.05358584225177765,0.008564724586904049,-0.04476233944296837,0.19258296489715576,0.0738559365272522,-0.12926895916461945,-0.09273076802492142,0.11541835218667984,-0.04052000492811203,-0.14339503645896912,0.17283113300800323,-0.09169752895832062,-0.01602906547486782,0.08400967717170715,0.1408526599407196,-0.09335774928331375,-0.030644509941339493,0.0017123629804700613,-0.14251990616321564,-0.11853305995464325,0.15056806802749634,-0.03630047291517258,-0.042475711554288864,0.03116930089890957,0.04382441192865372,0.11957048624753952,-0.09436648339033127,0.19996123015880585,0.1954789012670517,-0.17348960041999817,-0.007021934259682894,-0.17002125084400177,-0.16644242405891418,0.04247354716062546,-0.13100311160087585,0.06818199902772903,0.06783457845449448,-0.16367487609386444,-0.007085519842803478,-0.07103589922189713,0.0903896763920784,-0.050303250551223755,-0.049258794635534286,-0.12780223786830902,-0.17989034950733185,0.0710202008485794,-0.14695590734481812,-0.125667005777359,0.04164890572428703,-0.054877519607543945,-0.008014601655304432,0.005494004115462303,-0.08988170325756073,-0.1654004454612732,-0.16551749408245087,0.10529466718435287,0.17535044252872467,0.11707442253828049,-0.15633340179920197,-0.07970494776964188,-0.11795450747013092,-0.09573876112699509,-0.18549971282482147,0.1263306736946106,-0.08717513084411621,0.10205361247062683,-0.14040599763393402,-0.07334725558757782,0.15394620597362518,-0.028788337484002113,-0.032003533095121384,0.10961979627609253,-0.005680070724338293,0.02164791338145733,-0.18668752908706665,0.10272282361984253,0.13141252100467682,0.08027730137109756,-0.19693061709403992,0.023132199421525,-0.06777524203062057,0.006512498948723078,-0.10292334854602814,0.09575336426496506,0.13743869960308075,0.17314967513084412,0.1790403574705124,-0.051538340747356415,-0.0018199024489149451,-0.055417727679014206,-0.1904161125421524,0.1592566967010498,-0.04011052846908569,0.04530980810523033,-0.1827014684677124,-0.1448357254266739,0.16822808980941772,0.09698408097028732,-0.0010139517253264785,-0.059449225664138794,-0.14867055416107178,-0.15346188843250275,0.17689114809036255,-0.06763780862092972,-0.018822191283106804,-0.16942062973976135,-0.07554860413074493,0.1392541080713272,0.020003309473395348,-0.07596036791801453,0.18582601845264435,0.17813339829444885,-0.15196000039577484,-0.05005872994661331,0.008085292764008045,0.14971883594989777,-0.11242138594388962,-0.09344303607940674,0.07761242240667343,-0.05805983766913414,-0.1858002096414566,-0.12312950938940048,-0.10151853412389755,-0.11388590186834335,-0.1838582456111908,-0.1978147327899933,0.07779983431100845,-0.03156343102455139,0.03254133462905884,0.019389821216464043,0.18939347565174103,0.01129643153399229,0.030086031183600426,-0.14110098779201508,0.08796390146017075,-0.15066665410995483,-0.026567203924059868,-0.16335894167423248,0.004394405521452427,0.13287663459777832,-0.15251049399375916,0.17501835525035858,0.034441910684108734,-0.1551530808210373,-0.008258064277470112,0.11031798273324966,0.13890449702739716,0.08778870850801468,0.00010821061005117372,-0.1401163786649704,-0.038352880626916885,-0.0951666533946991,-0.04558254033327103,0.10037899017333984,0.13516291975975037,0.13861805200576782,-0.02076243981719017,0.009822322055697441,-0.04038321599364281,0.18633361160755157,0.03239074721932411,0.044354263693094254,-0.15798498690128326,0.0792495533823967,-0.057428233325481415,0.12793919444084167,-0.02030538022518158,-0.15403102338314056,0.10898943245410919,0.19942668080329895,-0.03415241837501526,0.017812641337513924,-0.04738691449165344,0.13946503400802612,0.0482877679169178,-0.14049895107746124,-0.11783929914236069,-0.02263726107776165,0.18662261962890625,-0.1476972997188568,-0.07609788328409195,-0.14175069332122803,0.05525922030210495,0.06616152822971344,0.012291374616324902,0.011863024905323982,0.10999950021505356,0.12890782952308655,0.12910021841526031,-0.04547721520066261,0.07002175599336624,-0.17518861591815948,-0.12045437097549438,-0.014805351383984089,-0.13734544813632965,0.14759564399719238,0.07835815101861954,0.08113159984350204,0.0826992467045784,-0.18244659900665283,0.13414618372917175,-0.05491451919078827,-0.15055301785469055,0.12333881109952927,0.1613328754901886,-0.11093191802501678,0.04422532021999359,0.19293846189975739,-0.0249161459505558,0.09929963946342468,0.07942890375852585,-0.14788860082626343,-0.18767935037612915,0.006169004365801811,-0.15328781306743622,-0.14745809137821198,0.10569248348474503,0.17694537341594696,0.09809785336256027,0.09388834983110428,-0.12443763762712479,0.13066528737545013,0.1804335117340088,-0.05059342086315155,-0.0395888090133667,-0.06036141887307167,0.047364335507154465,0.03281938284635544,0.09538526833057404,-0.1614360809326172,0.159071683883667,-0.13504783809185028,0.08464857935905457,-0.1619502454996109,-0.1086491122841835,0.0006469740765169263,-0.1844499558210373,-0.11852863430976868,-0.09693446755409241,-0.021836603060364723,-0.11658772826194763,0.03739623352885246,0.15530095994472504,-0.137958824634552,-0.18580423295497894,0.0521257184445858,0.13222268223762512,0.18930058181285858,0.16190403699874878,-0.05595153197646141,0.04018067568540573,-0.13073350489139557,-0.1849311739206314,0.20039278268814087,0.09631623327732086,-0.03922302648425102,0.08584392070770264,0.19922998547554016,0.062135569751262665,0.015067973174154758,0.0040148599073290825,-0.1294993758201599,0.0633620172739029,-0.06032871454954147,0.03357168659567833,0.0001239728444488719,0.07261580973863602,0.036232635378837585,0.11953675001859665,-0.0004884523223154247,0.12002646178007126,0.09631652384996414,-0.15516813099384308,0.15708260238170624,0.19159984588623047,0.09922340512275696,-0.1932660937309265,-0.18790046870708466,0.09667103737592697,0.07342261075973511,0.15465860068798065,-0.08095799386501312,0.09943938255310059,-0.07668549567461014,0.12300500273704529,0.08712158352136612,0.19665205478668213,-0.0029316870495676994,0.033220577985048294,-0.12274163216352463,0.019285745918750763,0.18901614844799042,-0.1091851145029068,-0.09229805320501328,0.04066865146160126,0.18789593875408173,-0.041209474205970764,-0.18882009387016296,-0.134349524974823,0.08113767951726913,0.15792173147201538,0.10298310220241547,0.12463703006505966,0.028432393446564674,0.07254824042320251,0.00548127805814147,-0.1268753558397293,0.18737411499023438,-0.025328056886792183,-0.1755390614271164,-0.19374746084213257,0.18748782575130463,0.12997600436210632,0.12784385681152344,0.16904990375041962,0.1647634506225586,-0.039221227169036865,-0.010574952699244022,0.027438635006546974,-0.02410915307700634,0.15543816983699799,0.12147897481918335,0.03961675241589546,-0.0345926508307457,-0.1439085751771927,-0.1366608440876007,0.19182102382183075,0.09617330133914948,0.08275817334651947,-0.1661653220653534,-0.12949560582637787,-0.06487812101840973,0.08006066083908081,-0.1471557468175888,-0.16659095883369446,-0.12076229602098465,-0.04987224191427231,-0.05852607265114784,0.17084656655788422,0.05511217564344406,-0.0354430191218853,-0.020757075399160385,-0.13980397582054138,0.09262441843748093,-0.16690582036972046,0.00380695890635252,0.1368684023618698,0.0885067954659462,0.03809107840061188,0.0055262683890759945,0.025231337174773216,0.09761916846036911,-0.022391311824321747,0.10936693102121353,-0.09335198998451233,0.15215107798576355,0.11366447806358337,-0.048634111881256104,-0.12462253123521805,-0.016638046130537987,0.003468230599537492,0.17706231772899628,-0.09442032873630524,0.08861107379198074,-0.13574090600013733,-0.049596741795539856,-0.0651157796382904,0.035138167440891266,0.17606092989444733,-0.1657911092042923,-0.14715568721294403,-0.15648895502090454,0.19804243743419647,0.12530513107776642,0.07243310660123825,-0.06789923459291458,0.09599177539348602,-0.16880594193935394,0.1328132301568985,-0.16123217344284058,0.023882076144218445,0.07017891108989716,-0.19159528613090515,0.09479361027479172,-0.10769039392471313,0.09712330996990204,-0.06399977207183838,0.14165863394737244,-0.016365090385079384,0.14920498430728912,-0.007908266969025135,-0.15094861388206482,-0.13287562131881714,0.18152272701263428,0.06906058639287949,0.1111505776643753,0.1664518564939499,0.197468563914299,0.09332767128944397,-0.05035698786377907,0.16815820336341858,-0.04515963792800903,-0.08026696741580963,0.1780834197998047,-0.14287252724170685,0.1605641394853592,0.1259610652923584,-0.007510494906455278,0.16943898797035217,-0.07323168963193893,0.14432650804519653,-0.04760945215821266,0.04466016963124275,-0.09486505389213562,-0.15106894075870514,0.1283586025238037,0.14744599163532257,-0.10016113519668579,-0.06754171848297119,0.16015015542507172,-0.0011934308568015695,0.01664816029369831,-0.15860943496227264,-0.15067972242832184,-0.12912796437740326,-0.009904704056680202,-0.1630600392818451,-0.137351393699646,0.028515998274087906,-0.025210421532392502,0.04951053485274315,-0.08653289824724197,-0.00455521559342742,0.159775510430336,0.17557792365550995,-0.018950730562210083,-0.18979333341121674,0.1319505125284195,-0.1747000515460968,0.030839962884783745,-0.13167938590049744,-0.1525043398141861,0.17264223098754883,-0.17177271842956543,-0.13471777737140656,0.07065767049789429,0.18266843259334564,0.1793632209300995,0.04015916958451271,-0.17962364852428436,0.15130478143692017,0.04397569224238396,0.1848796159029007,-0.13777753710746765,-0.05993680655956268,-0.0244656540453434,0.16648080945014954,-0.06887420266866684,-0.1982664316892624,-0.12733568251132965,-0.09421642869710922,-0.19258563220500946,-0.012053045444190502,-0.131928950548172,-0.08339453488588333,0.0013274180237203836,0.06533791124820709,0.1184883564710617,0.12399069219827652,-0.06744389235973358,0.15992635488510132,-0.10954127460718155,0.027228321880102158,-0.15156030654907227,-0.04650101810693741,0.12588046491146088,0.1878303736448288,-0.16328582167625427,-0.04543791338801384,0.01650037057697773,0.10451043397188187,-0.12284544855356216,-0.09002190828323364,-0.12837088108062744,-0.16270677745342255,0.04653981328010559,0.004856683313846588,-0.08224532008171082,-0.00956738367676735,-0.1136559396982193,0.09140145033597946,0.025031156837940216,-0.02344849705696106,-0.16574159264564514,-0.18416273593902588,0.18485213816165924,0.05996617302298546,0.09975384175777435,0.15977835655212402,-0.020089460536837578,0.10588435083627701,-0.18569310009479523,-0.08821456879377365,-0.1991667002439499,0.14283835887908936,-0.022755619138479233,-0.1676347553730011,0.09999273717403412,0.1427987962961197,-0.19089475274085999,-0.07805008441209793,0.14728207886219025,-0.15482307970523834,0.13208486139774323,-0.18960657715797424,0.1599142700433731,0.14920979738235474,-0.17641127109527588,0.11224941909313202,-0.18498988449573517,-0.039129726588726044,-0.03325801342725754,0.07839123904705048,-0.11706875264644623,-0.026656074449419975,-0.14186440408229828,-0.11313191056251526,0.08229168504476547,-0.1063719391822815,0.06371849775314331,-0.1903950572013855,0.11689797043800354,-0.1368323266506195,0.03120303526520729,-0.0038967756554484367,0.0008918719831854105,0.08974505960941315,-0.013229413889348507,0.1036655455827713,-0.07123949378728867,-0.10225701332092285,-0.13713963329792023,0.09653457254171371,-0.021748904138803482,0.07920863479375839,-0.09427902847528458,0.04435727372765541,-0.17068864405155182,0.05631023645401001,0.07497669011354446,0.01432379987090826,0.1995798498392105,