{"type":"NeuralNetwork","sizes":[15624,3,5],"layers":[{"weights":[],"biases":[]},{"weights":[[-0.01672416739165783,0.12095407396554947,-0.09971601516008377,-0.0723608210682869,0.15509751439094543,-0.10789832472801208,0.1375943124294281,0.1819826364517212,0.1624327003955841,-0.1230059415102005,0.08736958354711533,0.09643600881099701,-0.027872510254383087,0.16211196780204773,-0.02436450682580471,-0.0928543284535408,-0.08747569471597672,0.0428486093878746,0.02707662247121334,-0.12220719456672668,0.07944970577955246,0.17029552161693573,0.0009644392994232476,0.08652989566326141,-0.17086906731128693,-0.16835817694664001,0.005729002878069878,0.056089501827955246,0.07704528421163559,0.18854285776615143,0.002404036931693554,-0.04578184336423874,0.011328202672302723,0.0697864517569542,-0.0043304008431732655,0.12971676886081696,0.184276282787323,-0.020728467032313347,0.14044630527496338,-0.03188259154558182,0.03474336490035057,0.0841972753405571,-0.000998178729787469,0.11433207243680954,0.1894826889038086,0.10065507143735886,0.04722396656870842,-0.10992880910634995,0.09839870035648346,-0.04622267186641693,0.08270204812288284,0.18054331839084625,-0.0006639673956669867,0.06797996163368225,0.2621135711669922,0.06516284495592117,0.0433487705886364,-0.06038208678364754,-0.050150416791439056,-0.0017422231612727046,0.07825782150030136,-0.00787256844341755,-0.13576485216617584,0.09249263256788254,0.10439176112413406,0.014771228656172752,0.07683596760034561,-0.13851000368595123,0.13185954093933105,-0.055788129568099976,0.15074807405471802,-0.04450026899576187,0.25811174511909485,0.1703733503818512,0.03304364159703255,0.176489919424057,0.12285245209932327,0.1362433284521103,0.14994587004184723,0.06602673977613449,0.04228661209344864,-0.09355328232049942,0.09834545105695724,-0.190442755818367,-0.11341401189565659,-0.11994960159063339,0.1319332867860794,0.10408622771501541,-0.04220389202237129,0.05029665678739548,0.16777123510837555,-0.07071512937545776,0.10897722840309143,0.08711006492376328,-0.08531602472066879,-0.13900314271450043,-0.09813179075717926,0.17172284424304962,0.1666974276304245,-0.08487281948328018,-0.0048490967601537704,-0.17828355729579926,-0.1854991316795349,-0.031908564269542694,0.031125690788030624,0.05472413823008537,-0.14335182309150696,-0.0755973532795906,0.1394866704940796,-0.08203670382499695,0.1434044986963272,-0.12889719009399414,0.047861263155937195,0.08088009804487228,-0.03423663228750229,0.005340893752872944,-0.0045880042016506195,-0.06581689417362213,0.009570536203682423,-0.07146718353033066,-0.02113291434943676,-0.0746268481016159,0.04102226719260216,0.06965532153844833,0.17577005922794342,-0.07319685071706772,0.20678666234016418,-0.18051211535930634,0.19473068416118622,-0.009543873369693756,0.04786239191889763,-0.11673194915056229,-0.07673705369234085,-0.08726663142442703,-0.08610450476408005,-0.0796637311577797,0.15137633681297302,0.05451696738600731,0.19584771990776062,0.10131196677684784,-0.02631574682891369,0.03470070660114288,-0.09175702184438705,-0.18561337888240814,0.1561155766248703,-0.14914961159229279,0.10748293995857239,-0.15259987115859985,0.15062962472438812,-0.18283846974372864,-0.12156018614768982,-0.11310963332653046,-0.04280773550271988,-0.011790859512984753,-0.0005705016665160656,-0.11897721141576767,0.13613814115524292,-0.09082892537117004,0.07188642770051956,-0.17023110389709473,-0.1764598786830902,-0.03779448941349983,0.0005401608068495989,-0.1655558943748474,-0.010325498878955841,-0.10577874630689621,0.14960777759552002,0.15595731139183044,0.11014974862337112,0.06680487841367722,-0.06835330277681351,-0.14517253637313843,-0.0932050570845604,-0.15680116415023804,0.16466158628463745,0.08087532967329025,0.1835954785346985,0.014131132513284683,-0.15856356918811798,-0.07322435081005096,0.17208564281463623,-0.19237376749515533,0.15636813640594482,-0.14562146365642548,-0.0029814369045197964,0.19450783729553223,0.047729186713695526,-0.0845465213060379,0.15733012557029724,0.06106598675251007,-0.07077112048864365,0.18814943730831146,-0.02162753790616989,0.17680169641971588,0.12160201370716095,-0.056632354855537415,-0.17142096161842346,-0.170628160238266,0.001557924086228013,-0.07887034118175507,-0.0437610000371933,0.1403074711561203,-0.15333835780620575,-0.03009524941444397,-0.002088974229991436,-0.03605509176850319,-0.016811637207865715,0.18728137016296387,0.032147862017154694,-0.0956975445151329,0.047199081629514694,0.07089610397815704,0.17195267975330353,0.04191990941762924,0.04515702649950981,-0.030202176421880722,0.19608362019062042,-0.057096946984529495,0.04770738631486893,-0.14736530184745789,-0.13056589663028717,0.11881589144468307,-0.07178251445293427,0.007328990381211042,0.19781902432441711,-0.09216319024562836,-0.09445691853761673,-0.08659602701663971,0.1147112026810646,0.11545177549123764,0.07427059859037399,0.02235942706465721,0.06951393932104111,0.16679984331130981,0.004608269780874252,-0.11383488029241562,-0.01188676431775093,-0.13419555127620697,0.002313178265467286,-0.09701328724622726,-0.1289931982755661,-0.02946310117840767,0.15856356918811798,-0.0999445766210556,0.172056183218956,0.09314923733472824,-0.1501520723104477,-0.05435893312096596,0.20208480954170227,0.11956208199262619,-0.07477614283561707,-0.05997090041637421,0.030530858784914017,0.061918605118989944,-0.14195896685123444,0.017577828839421272,-0.18205973505973816,-0.17911766469478607,-0.04963233321905136,-0.08936372399330139,-0.04331280291080475,-0.1699562668800354,0.032479241490364075,0.0862402468919754,-0.04842871055006981,0.05957737937569618,-0.07697971910238266,-0.12733051180839539,-0.09300828725099564,-0.09656938910484314,0.08659317344427109,-0.042581718415021896,-0.1646008938550949,-0.012657136656343937,-0.09987229853868484,0.1844843626022339,0.15646812319755554,0.17489326000213623,-0.10087025910615921,-0.12841954827308655,0.03496052324771881,0.10030043125152588,-0.02161097526550293,0.19615817070007324,0.08554699271917343,-0.02449878305196762,0.20024649798870087,-0.14236555993556976,0.11052417755126953,0.11809223890304565,-0.09953992068767548,-0.12145347893238068,-0.05760672688484192,0.16183030605316162,-0.14999283850193024,-0.007638902869075537,0.012032007798552513,-0.1341446042060852,-0.05335773155093193,-0.017327839508652687,-0.09465897083282471,-0.16599297523498535,-0.08775119483470917,-0.19586965441703796,0.142959326505661,-0.028731392696499825,-0.012404777109622955,0.17563305795192719,0.004168005660176277,0.09982548654079437,-0.07312747836112976,0.114963598549366,0.2004738301038742,-0.08152280747890472,0.0036683750804513693,0.11925220489501953,-0.15851080417633057,-0.1256045401096344,-0.20216849446296692,-0.028341026976704597,0.15742841362953186,0.027883131057024002,0.11722585558891296,-0.18540889024734497,-0.0780816525220871,0.08562074601650238,-0.14997822046279907,0.14507442712783813,-0.17008276283740997,-0.05899566411972046,0.034836240112781525,-0.156389519572258,-0.05470157042145729,-0.09233596175909042,0.09393715113401413,-0.023522483184933662,-0.002676169853657484,0.027698412537574768,-0.043223168700933456,-0.06485455483198166,-0.09157728403806686,0.04066111519932747,0.21800103783607483,0.07575184851884842,0.01989077404141426,0.03508682921528816,-0.029283979907631874,0.006007160060107708,-0.1905873417854309,0.09837523847818375,-0.015856023877859116,-0.16182634234428406,0.026676436886191368,-0.16078300774097443,-0.12958872318267822,0.16480840742588043,-0.009285734966397285,-0.050546806305646896,-0.02238806150853634,-0.05552265793085098,-0.06551507115364075,0.04062265902757645,-0.08410608768463135,-0.08459603041410446,0.070139080286026,0.01810774765908718,0.09675592184066772,-0.10450155287981033,-0.07402142137289047,0.15636609494686127,-0.0019835990387946367,0.199331596493721,0.0743320882320404,0.0034023558255285025,-0.09583396464586258,-0.17309841513633728,0.14324231445789337,0.19974924623966217,-0.046540766954422,-0.043101221323013306,-0.17954884469509125,0.03986625000834465,0.09325649589300156,0.12917880713939667,0.019713232293725014,0.15704426169395447,-0.1533588320016861,-0.06376410275697708,0.12104075402021408,-0.07898396998643875,0.07591415196657181,-0.007951842620968819,-0.16341523826122284,0.049650583416223526,-0.17962270975112915,-0.12616758048534393,0.17484377324581146,-0.13699667155742645,-0.08841977268457413,0.1595524400472641,0.1349068433046341,-0.15486258268356323,0.0055910698138177395,0.12815573811531067,0.14934061467647552,0.05060073360800743,-0.1719491183757782,-0.0505242645740509,0.033326443284749985,0.13204190135002136,-0.170843243598938,-0.08426433801651001,-0.05207926034927368,0.164385586977005,0.030591802671551704,-0.019096728414297104,0.006337362341582775,-0.09252819418907166,0.0856948271393776,-0.09418822824954987,-0.03766915947198868,0.1889386773109436,0.0731397494673729,-0.07174697518348694,-0.07230692356824875,-0.16859444975852966,-0.008703382685780525,-0.05402222275733948,0.06663995236158371,-0.1915695071220398,0.1329212486743927,-0.16463658213615417,-0.041271522641181946,-0.039611898362636566,0.16094832122325897,-0.08697405457496643,0.09682340919971466,-0.12345311790704727,0.05751683562994003,0.025271348655223846,0.19602122902870178,-0.13733607530593872,-0.1334133893251419,-0.06421580165624619,-0.07554689049720764,-0.0619908906519413,-0.151063933968544,-0.20022612810134888,0.01552586629986763,0.017259322106838226,-0.09744314849376678,-0.18452082574367523,0.04235296696424484,-0.1674850732088089,0.06575928628444672,0.11123257130384445,-0.08996594697237015,0.06821424514055252,0.19077487289905548,-0.11307911574840546,-0.13808205723762512,-0.12032683938741684,-0.10932434350252151,0.1416279822587967,0.16144277155399323,0.11038818210363388,-0.009921800345182419,-0.07931200414896011,-0.0002742928918451071,-0.041850920766592026,-0.04831176996231079,-0.1861760914325714,0.13253732025623322,0.02601737715303898,-0.018290432170033455,-0.1501772105693817,-0.1832352578639984,-0.05449081212282181,0.18691487610340118,-0.07786685228347778,0.1011221781373024,0.012953998520970345,0.19338001310825348,0.022695554420351982,-0.1773659884929657,-0.03685392811894417,0.2174392193555832,-0.005494414828717709,-0.14748291671276093,0.009322045370936394,-0.05220819637179375,-0.031120790168642998,-0.09259308129549026,0.0397450253367424,-0.1339101642370224,0.1656050682067871,0.19216887652873993,-0.15274062752723694,0.14542506635189056,-0.05858922749757767,-0.07568812370300293,0.19596430659294128,-0.16171514987945557,0.13937576115131378,-0.12420850992202759,-0.18002869188785553,0.006848059128969908,-0.0703650489449501,0.06809817999601364,0.17955666780471802,0.05066215619444847,0.05263639986515045,0.026219693943858147,-0.13721391558647156,0.13457991182804108,0.08722566813230515,-0.042988985776901245,-0.032908033579587936,-0.12658818066120148,0.008005397394299507,-0.09422387182712555,-0.12486279010772705,0.07509800791740417,0.042257338762283325,-0.016758479177951813,-0.04234970360994339,-0.03429630026221275,0.10938811302185059,0.03749516233801842,-0.07419717311859131,-0.108610138297081,0.02175717055797577,0.1574104279279709,0.03941677510738373,-0.010983146727085114,0.09622881561517715,0.0030809747986495495,0.14709821343421936,-0.007667206227779388,0.17042610049247742,0.17364171147346497,0.1159249022603035,0.12358546257019043,0.12273268401622772,0.050046198070049286,0.03084568679332733,0.0654035359621048,-0.17220759391784668,-0.1404307633638382,-0.002778343390673399,0.07805220782756805,-0.0355975516140461,0.053035248070955276,-0.12925955653190613,0.12342017143964767,0.09023593366146088,0.19998303055763245,-0.1648162454366684,-0.07941274344921112,-0.061486270278692245,0.11602015048265457,-0.04229509085416794,0.19916050136089325,-0.19368065893650055,-0.13052460551261902,0.009005911648273468,-0.10544410347938538,-0.08129581063985825,-0.06957076489925385,0.04628098011016846,0.09566934406757355,-0.15754614770412445,-0.1413556933403015,-0.025809073820710182,-0.014030074700713158,0.056551434099674225,-0.007264571264386177,0.09346505999565125,-0.14178848266601562,0.1621135026216507,-0.051604513078927994,0.1931966096162796,-0.08966643363237381,-0.19207805395126343,0.1986444890499115,0.15521979331970215,0.028856176882982254,0.11216942220926285,0.08357816189527512,0.19766713678836823,0.18304666876792908,-0.13366378843784332,0.10144059360027313,0.07979316264390945,0.09407689422369003,0.024211460724473,-0.14506620168685913,0.031598880887031555,-0.04793430119752884,0.17017556726932526,-0.021515890955924988,0.1739734262228012,0.18686111271381378,0.05636270344257355,-0.04114106670022011,0.045817069709300995,-0.15705180168151855,-0.16496601700782776,-0.025818800553679466,0.08525190502405167,-0.0320906862616539,0.0005316227907314897,0.09377284348011017,-0.1193670779466629,-0.11730077862739563,-0.09044592082500458,-0.10584727674722672,0.1281961351633072,-0.06870408356189728,0.19021150469779968,-0.037323933094739914,0.009058993309736252,0.12115417420864105,0.02141197957098484,-0.034490156918764114,0.043516602367162704,-0.011172161437571049,0.12304829806089401,-0.14130370318889618,-0.14306402206420898,-0.07346689701080322,-0.18926803767681122,-0.185531884431839,0.11108537018299103,0.042845163494348526,0.1605904996395111,0.18205010890960693,-0.06952362507581711,0.05343126878142357,0.014293931424617767,0.04315546527504921,0.06383277475833893,-0.15963245928287506,-0.1117091178894043,0.020164545625448227,-0.14078308641910553,0.17103847861289978,-0.004486860241740942,0.15222780406475067,0.15164124965667725,-0.10667913407087326,-0.11277322471141815,0.1593443900346756,0.18198277056217194,-0.11528439074754715,0.13920405507087708,-0.05700736865401268,0.02336815930902958,0.02567785605788231,0.03675444424152374,-0.05190151184797287,0.10758186131715775,0.048660896718502045,0.003912812564522028,0.16807809472084045,0.056456901133060455,-0.07682587951421738,0.15208286046981812,-0.16987134516239166,-0.1364322006702423,0.10136230289936066,-0.18193155527114868,0.13943716883659363,0.1648246794939041,-0.06498192995786667,-0.18565770983695984,0.1214703768491745,0.11831708252429962,0.12637895345687866,0.10370632261037827,-0.18476629257202148,-0.13556444644927979,-0.0977238267660141,0.03940379247069359,0.1889241635799408,-0.12308400869369507,0.09410200268030167,-0.1665642261505127,-0.13433320820331573,0.004319546744227409,-0.0779937356710434,0.0680941566824913,-0.04392068833112717,-0.1577998399734497,-0.15828639268875122,0.16327756643295288,0.19210468232631683,-0.1261233538389206,-0.07476929575204849,-0.14426390826702118,0.19423018395900726,0.08670251816511154,0.0047561367973685265,0.019270092248916626,0.04863573610782623,-0.15629683434963226,0.003843198996037245,-0.17506784200668335,0.022858530282974243,0.12097866833209991,0.10928921401500702,0.12353915721178055,0.09123187512159348,-0.02413824014365673,0.0958111360669136,0.15197515487670898,-0.034189291298389435,0.18562544882297516,0.03591177240014076,-0.06391679495573044,0.21171969175338745,-0.15105421841144562,0.06640656292438507,-0.0035928678698837757,-0.01904798299074173,-0.05994238331913948,-0.056908465921878815,0.1695089042186737,-0.09824572503566742,0.16946186125278473,0.18977215886116028,0.06170668825507164,0.0015103939222171903,0.06121782958507538,0.15657979249954224,-0.06043204292654991,0.05755849927663803,-0.14091485738754272,0.06282366812229156,0.0011210849042981863,-0.17082905769348145,0.09101501852273941,0.07696984708309174,0.050256967544555664,-0.1475115418434143,0.11892440915107727,-0.09794091433286667,0.024737749248743057,-0.12416588515043259,0.0685139000415802,0.06545758247375488,-0.10503938794136047,-0.0794583410024643,-0.03001384064555168,0.013910254463553429,-0.08385143429040909,-0.08045802265405655,-0.1356559693813324,-0.027506764978170395,0.1423819363117218,0.03893148526549339,-0.0575171522796154,0.029116705060005188,-0.07038132846355438,0.1392861008644104,0.19144736230373383,0.027021139860153198,0.01892792247235775,-0.12768758833408356,0.04547030106186867,-0.018769795075058937,-0.0039680651389062405,-0.17561383545398712,0.02015038952231407,0.08596859872341156,0.07924086600542068,0.07709096372127533,-0.0251774825155735,-0.01470252126455307,0.20393066108226776,0.0679318755865097,-0.00026638645795173943,-0.00740727549418807,-0.000824463670141995,0.1842575967311859,0.15943749248981476,-0.07957037538290024,-0.07788144052028656,-0.11385142058134079,0.024457087740302086,-0.14551541209220886,0.10897405445575714,-0.08975871652364731,0.16063472628593445,-0.1640484631061554,-0.12980976700782776,0.06728585064411163,-0.025043806061148643,0.004074837081134319,0.08697328716516495,0.01971094124019146,0.15060943365097046,-0.09404156357049942,-0.06897126883268356,0.1321432739496231,0.10384822636842728,-0.09807810187339783,-0.03422882407903671,-0.10940641164779663,-0.06606247276067734,-0.0042015439830720425,0.030300963670015335,0.16513074934482574,-0.135903462767601,0.13567578792572021,-0.17323005199432373,0.1423412710428238,-0.009306598454713821,0.07243148237466812,0.06717608124017715,-0.18485768139362335,0.19241605699062347,-0.1524745225906372,-0.04139094054698944,0.04648434743285179,0.07916444540023804,0.12203427404165268,0.06028730049729347,-0.1609618216753006,0.10792957991361618,-0.032195232808589935,0.13638487458229065,0.07009396702051163,0.05882079526782036,-0.16615255177021027,-0.03190642222762108,0.0020466712303459644,0.07058853656053543,0.09631945937871933,-0.15833815932273865,-0.06425870209932327,-0.1421319544315338,0.13605183362960815,-0.08307366818189621,0.07826466113328934,-0.018721360713243484,0.09905596077442169,-0.09675542265176773,0.14609922468662262,-0.11920855939388275,0.12619425356388092,-0.048636727035045624,-0.08573043346405029,0.1543605625629425,-0.13372454047203064,-0.1944522261619568,0.170681893825531,-0.029358722269535065,0.01833661086857319,-0.006879467982798815,-0.08378467708826065,-0.16476097702980042,-0.16493478417396545,-0.13787958025932312,-0.1631147861480713,0.20003582537174225,-0.016367129981517792,0.14626868069171906,0.035236749798059464,-0.09439647197723389,-0.08777138590812683,0.02512919344007969,-0.0018177364254370332,0.11981087177991867,-0.10438447445631027,-0.13010621070861816,-0.0669809877872467,-0.12189199775457382,0.0010861476184800267,-0.03972185030579567,-0.09784206748008728,-0.053140319883823395,-0.10426745563745499,-0.15689432621002197,-0.056476056575775146,0.08821769803762436,-0.17371439933776855,0.10851596295833588,0.16907784342765808,0.06328977644443512,-0.03250708803534508,-0.13911136984825134,-0.009728542529046535,-0.1734175682067871,0.1474926918745041,0.12018472701311111,0.19671979546546936,0.04012368991971016,0.029020968824625015,0.036051247268915176,0.20932908356189728,-0.17037273943424225,0.15100376307964325,-0.09377700835466385,-0.10952960699796677,0.18478111922740936,0.03523789346218109,-0.08851064741611481,-0.11300812661647797,-0.15533509850502014,-0.14787372946739197,-0.018603701144456863,0.05531533807516098,-0.2000170201063156,-0.013563819229602814,-0.11906935274600983,-0.04892803356051445,-0.1753944605588913,-0.09298154711723328,-0.05287466198205948,-0.08729816228151321,0.15590864419937134,0.02974829077720642,-0.10138001292943954,0.09233640134334564,0.04896065965294838,0.18035730719566345,0.18362753093242645,0.18221931159496307,-0.02687399461865425,0.05876502767205238,0.03758716583251953,-0.10097634792327881,-0.029540082439780235,-0.04854261502623558,-0.023463504388928413,0.04099692776799202,0.014516491442918777,-0.03049568086862564,0.025180190801620483,0.17441105842590332,-0.059143152087926865,-0.09392373263835907,-0.14210446178913116,0.036842040717601776,-0.06340868026018143,-0.00414011487737298,0.17434005439281464,-0.17165140807628632,0.06078474968671799,0.07694955915212631,0.09534664452075958,0.05179359391331673,0.15969304740428925,-0.15579794347286224,0.19760288298130035,-0.09979137033224106,0.008967903442680836,0.08877822011709213,-0.1967327743768692,0.16625450551509857,0.12628810107707977,0.009998409077525139,0.13280293345451355,-0.11149915307760239,-0.13875283300876617,-0.08889363706111908,0.17318223416805267,0.09566301852464676,-0.18513596057891846,0.04689423367381096,0.17031146585941315,0.06637514382600784,-0.1784439980983734,-0.010064945556223392,0.11217302083969116,0.016890058293938637,0.19642427563667297,0.1604139506816864,-0.10774677246809006,0.09713860601186752,-0.13185319304466248,-0.1952623873949051,-0.061713505536317825,0.09849600493907928,0.09879714250564575,-0.00213085045106709,0.12128331512212753,-0.07917287945747375,-0.14774735271930695,0.17213012278079987,0.09627895057201385,0.015367592684924603,-0.1992376744747162,-0.10095874220132828,0.12066881358623505,-0.038194771856069565,0.02939269132912159,-0.12667663395404816,-0.130418062210083,0.09083545953035355,-0.03841358795762062,0.07658637315034866,0.04952261969447136,0.05983678996562958,-0.08031472563743591,0.08412323892116547,-0.02333393692970276,0.04481124132871628,-0.033244650810956955,0.09118925780057907,-0.06838285177946091,0.001209708396345377,-0.08560118079185486,-0.043404825031757355,-0.15571242570877075,0.11213861405849457,0.08363169431686401,0.03542173653841019,0.0879158303141594,-0.13673442602157593,0.10161525011062622,-0.16550715267658234,0.07555413991212845,0.015663007274270058,-0.15898357331752777,0.1338900923728943,-0.16777168214321136,0.15808948874473572,0.012157987803220749,0.035385701805353165,-0.05945148691534996,-0.07625893503427505,-0.04713008925318718,-0.1444251537322998,0.0808694139122963,0.1349419504404068,0.03346678987145424,-0.08508194237947464,0.03509048745036125,0.09604134410619736,0.18895982205867767,0.10314717888832092,0.04090557247400284,-0.060881830751895905,0.05721459165215492,0.1267443299293518,0.09674243628978729,0.09537100046873093,-0.12033872306346893,0.0025655794888734818,-0.07469671219587326,-0.05963551625609398,-0.0926353931427002,-0.1834055632352829,0.030968567356467247,-0.12388931959867477,0.20249585807323456,-0.04235801473259926,0.10792964696884155,-0.15656223893165588,0.08217911422252655,-0.062237489968538284,0.04398151487112045,0.10959353297948837,-0.099617138504982,-0.009292411617934704,0.12858012318611145,-0.1629696935415268,-0.018421953544020653,-0.09461048245429993,0.03110138699412346,0.12732544541358948,-0.06228035315871239,0.07556883245706558,0.12829908728599548,0.020691316574811935,-0.005414648447185755,0.09283352643251419,0.1787232905626297,0.05777783319354057,-0.14990083873271942,-0.07005501538515091,0.04660605266690254,-0.01008697971701622,-0.12759345769882202,0.05907648801803589,0.1434927135705948,0.13574881851673126,-0.15198534727096558,-0.16220448911190033,-0.09853582829236984,-0.17768727242946625,-0.1903860718011856,-0.07183311134576797,0.12353704124689102,-0.04098401591181755,-0.17011967301368713,-0.05770312249660492,-0.19351734220981598,0.1991342455148697,-0.16852907836437225,0.0650642067193985,0.1027744859457016,0.00618381705135107,0.13372327387332916,0.06541135907173157,0.06355311721563339,0.09540607780218124,0.11742665618658066,-0.17379708588123322,0.17921754717826843,0.13532352447509766,-0.14358755946159363,-0.11535243690013885,-0.025505810976028442,0.07394643872976303,-0.1879560798406601,0.06946297734975815,0.02141142450273037,-0.05231974273920059,-0.05077837035059929,0.006958590820431709,0.034253381192684174,0.18188133835792542,0.1716199666261673,0.07687167823314667,-0.17621968686580658,-0.05585402622818947,-0.12870903313159943,-0.15829791128635406,-0.017112042754888535,-0.017308084294199944,0.052665628492832184,0.13602779805660248,0.17394091188907623,0.11267571151256561,0.19315175712108612,0.01724141649901867,-0.04941893741488457,-0.1526564359664917,-0.08775022625923157,0.1695259064435959,-0.11191055178642273,0.19414041936397552,-0.05302048847079277,-0.058726485818624496,0.10523676127195358,0.04214630648493767,0.04808104410767555,-0.0419415719807148,-0.08703509718179703,0.160722553730011,-0.1881890445947647,0.17800013720989227,0.16768336296081543,0.005500628147274256,-0.16013431549072266,-0.08371540158987045,0.17230373620986938,-0.08742878586053848,-0.07673551887273788,0.013447235338389874,0.1490718573331833,0.042870569974184036,-0.07402064651250839,-0.18766175210475922,-0.06018827483057976,-0.07785007357597351,0.17337985336780548,-0.04359980672597885,-0.04231162369251251,0.04498119652271271,-0.16260118782520294,0.00878906436264515,-0.029314223676919937,0.14029434323310852,0.12311027944087982,-0.07643915712833405,-0.0906062126159668,0.07953532040119171,0.02157381735742092,0.0004478796327020973,-0.1429820954799652,-0.09478016942739487,0.14967559278011322,0.01923920400440693,0.05803413689136505,-0.057241931557655334,0.17377880215644836,0.002439233474433422,-0.0888381078839302,-0.1485539823770523,0.02968447469174862,0.00031457041040994227,-0.16646936535835266,0.053616128861904144,-0.09907103329896927,0.08758003264665604,-0.16251716017723083,0.008435131050646305,0.19306689500808716,-0.07335159927606583,-0.1254016011953354,0.11824943125247955,0.14064468443393707,0.08124677836894989,-0.016242962330579758,-0.1122950091958046,-0.09706883132457733,0.1323392689228058,0.001098514418117702,0.09647495299577713,-0.0753658339381218,0.12154409289360046,-0.12693548202514648,-0.05254291743040085,0.06995964795351028,-0.017527775838971138,-0.08784250915050507,-0.16300486028194427,-0.12628796696662903,0.186573788523674,0.19161361455917358,-0.18412740528583527,-0.13875724375247955,-0.192911297082901,-0.19718627631664276,-0.19884905219078064,0.14729563891887665,-0.15253639221191406,0.05695577338337898,-0.12395009398460388,-0.09980403631925583,-0.018167033791542053,0.09593083709478378,0.07209814339876175,-0.16206911206245422,-0.15786641836166382,-0.17323343455791473,0.04444790631532669,0.046195026487112045,-0.09498351067304611,0.0337647870182991,-0.08985519409179688,0.12062878906726837,0.1613149344921112,0.08673787117004395,0.025940483435988426,-0.10767864435911179,0.06706211715936661,-0.1885204315185547,0.11168400198221207,-0.17921434342861176,0.10502240806818008,-0.03787554055452347,-0.1782016009092331,0.11821528524160385,0.1359991729259491,-0.1702015995979309,-0.05638943240046501,-0.09307721257209778,0.06576713919639587,-0.1640329360961914,-0.05620117485523224,0.028226371854543686,0.1875375211238861,-0.07853769510984421,0.009610188193619251,0.17090067267417908,0.19445668160915375,-0.19613778591156006,0.16330452263355255,0.053649213165044785,-0.11613312363624573,0.1513216197490692,-0.08331452310085297,-0.017001403495669365,0.2073720246553421,-0.17901040613651276,-0.1838495284318924,-0.09030913561582565,-0.08244538307189941,-0.13080652058124542,0.1726139336824417,0.03366870805621147,-0.19031620025634766,0.03411855548620224,0.01566789485514164,-0.12306001782417297,0.024876615032553673,0.17957240343093872,0.1842358410358429,0.10105973482131958,0.10284452885389328,-0.14295987784862518,0.12755700945854187,-0.01924457773566246,0.18135309219360352,0.0410616397857666,-0.08349280059337616,0.1423196643590927,0.05714474618434906,0.03951316699385643,0.06519176065921783,-0.16468508541584015,-0.05508473515510559,0.16818857192993164,-0.19943542778491974,-0.023204609751701355,0.02653205581009388,0.01640709675848484,0.022103114053606987,0.15592297911643982,0.18265339732170105,-0.19168539345264435,0.05877920240163803,0.01191712822765112,-0.1216648519039154,0.11719177663326263,-0.19686780869960785,0.029654188081622124,0.020875727757811546,-0.09702880680561066,0.19108790159225464,0.09545306861400604,0.1392638385295868,-0.05168769508600235,-0.015371519140899181,-0.0034750490449368954,-0.16626708209514618,0.11451329290866852,0.018826499581336975,0.028403926640748978,0.019083866849541664,-0.020428691059350967,-0.06283103674650192,0.0055536311119794846,-0.0014862813986837864,-0.12696589529514313,-0.18405333161354065,0.12249366194009781,0.13030968606472015,-0.0032455495093017817,-0.1815975457429886,0.06300374120473862,0.15812401473522186,0.08345843106508255,-0.14929719269275665,-0.049940649420022964,-0.02715347521007061,0.013636506162583828,-0.08310426771640778,-0.02394525520503521,-0.18807342648506165,-0.051389146596193314,-0.027362169697880745,0.05395147576928139,-0.07342342287302017,-0.18458592891693115,0.09464836865663528,-0.0898805484175682,0.004798408132046461,0.05046427249908447,0.006357381120324135,0.11527301371097565,-0.04865133389830589,0.10313795506954193,0.10376765578985214,-0.1736496239900589,-0.13930414617061615,0.13664007186889648,0.1984216272830963,0.1296156495809555,0.05602890998125076,0.025415834039449692,-0.013117937371134758,0.0716816782951355,-0.02173677086830139,0.0053166588768363,-0.12029198557138443,-0.17783981561660767,-0.17037196457386017,0.169496089220047,-0.00179088837467134,0.1569262444972992,-0.1434423327445984,-0.1367638260126114,-0.1104997843503952,-0.06975797563791275,0.14587458968162537,0.18606984615325928,-0.07676105946302414,0.16543525457382202,-0.058651842176914215,-0.1181965246796608,-0.16582058370113373,-0.08629485964775085,-0.0192884411662817,-0.08214139193296432,-0.1865818053483963,0.14314937591552734,0.044143322855234146,-0.0911671370267868,-0.07755205780267715,-0.15370434522628784,0.009372549131512642,0.15754111111164093,0.1944950819015503,0.1077934056520462,0.08936484158039093,-0.027499310672283173,0.03285777196288109,-0.16529884934425354,0.05390331894159317,-0.09531978517770767,0.1960473209619522,0.09646588563919067,0.12241814285516739,0.10787908732891083,0.050778828561306,0.09539957344532013,0.11742500215768814,0.11601332575082779,0.12115553766489029,-0.06561066955327988,-0.176849365234375,0.1787378340959549,0.1627037078142166,-0.14038464426994324,-0.10741271078586578,-0.1871574968099594,0.14866964519023895,-0.04127229005098343,-0.11215570569038391,0.1503148078918457,-0.08318942040205002,0.16097678244113922,-0.035297371447086334,-0.1089005321264267,-0.08969440311193466,0.039357684552669525,-0.13823476433753967,-0.1811543107032776,-0.1693260222673416,0.00820850022137165,-0.17737126350402832,0.1790739893913269,0.20180566608905792,-0.09605427086353302,-0.14379112422466278,0.10217929631471634,-0.09632106125354767,-0.07016250491142273,-0.16358551383018494,0.023800019174814224,-0.0818319022655487,-0.06685683131217957,0.09010162949562073,-0.08986060321331024,0.05409311130642891,-0.061711184680461884,0.033756084740161896,-0.05775074288249016,0.13242363929748535,-0.12536978721618652,0.09271688014268875,0.09211616218090057,0.07373864948749542,-0.18563243746757507,-0.0075340294279158115,0.02897687256336212,-0.1514328420162201,0.027971595525741577,0.031960565596818924,-0.10257714986801147,-0.05566255748271942,-0.1570863127708435,-0.17417459189891815,-0.07466033846139908,-0.18780191242694855,-0.07794122397899628,0.1692190319299698,0.056790828704833984,-0.1660296469926834,0.20148524641990662,-0.08842866122722626,0.11829639971256256,0.15473775565624237,0.08028846234083176,-0.15417902171611786,0.17790363729000092,0.05320579186081886,0.06255360692739487,0.20855751633644104,-0.07343552261590958,0.16521230340003967,0.10022710263729095,-0.002093966118991375,-0.13846805691719055,0.07908686995506287,-0.10347362607717514,0.19423289597034454,0.09826851636171341,-0.028559336438775063,-0.13377739489078522,-0.11942584812641144,0.12597139179706573,-0.01547206100076437,-0.041622765362262726,-0.03692600503563881,-0.09890388697385788,0.04207918047904968,-0.06252817809581757,0.08276565372943878,0.17049847543239594,-0.03846210241317749,-0.04347684606909752,0.012014663778245449,-0.16173388063907623,0.008342109620571136,0.14336073398590088,-0.12185683101415634,-0.1255003958940506,-0.04206192493438721,-0.08672759681940079,-0.1661698967218399,0.09669601172208786,-0.16544441878795624,0.17795459926128387,0.09125960618257523,0.13350985944271088,-0.11472728848457336,0.10004205256700516,0.13794226944446564,-0.14936593174934387,0.12143611162900925,0.05579916760325432,-0.04270559921860695,-0.11485765874385834,-0.06740684807300568,0.19208507239818573,-0.03629497066140175,0.12963809072971344,0.14373493194580078,0.03267358988523483,0.02401229552924633,-0.09239589422941208,-0.09163739532232285,-0.12158163636922836,0.10579761862754822,0.10819827765226364,0.11157839000225067,-0.1735580712556839,0.035872939974069595,-0.14939524233341217,0.1331222653388977,-0.02461753599345684,0.06270807981491089,0.01117044035345316,0.16675648093223572,0.08365190029144287,-0.18812155723571777,-0.08000629395246506,0.19722513854503632,-0.10944084078073502,0.048032522201538086,0.105879046022892,0.08740397542715073,-0.03492702916264534,0.032718971371650696,-0.1038212701678276,0.18396078050136566,0.012502819299697876,-0.020504267886281013,-0.09341967850923538,0.04497693479061127,-0.08246064931154251,0.04125601053237915,0.005608766805380583,0.14564268290996552,0.002461276715621352,-0.1473797708749771,0.05801539123058319,0.15322652459144592,0.15627644956111908,-0.12524238228797913,-0.12940619885921478,-0.036316853016614914,-0.10580583661794662,0.018798893317580223,-0.18545590341091156,-0.189041867852211,0.04333053156733513,-0.01558217778801918,-0.13261838257312775,0.04268280416727066,-0.039336223155260086,0.07434266805648804,0.04896051064133644,0.027414698153734207,0.05960098281502724,0.12967467308044434,0.106071837246418,0.1534421741962433,0.16923967003822327,-0.07338975369930267,0.15069811046123505,-0.05354961380362511,0.11016491800546646,-0.11468935757875443,-0.11025263369083405,0.14861266314983368,0.12298690527677536,0.10573692619800568,-0.10305579751729965,-0.042423006147146225,0.11369737237691879,-0.18201841413974762,0.05644196271896362,-0.02794039249420166,0.1258809119462967,0.17372800409793854,-0.16865834593772888,0.0114379171282053,0.09923279285430908,-0.15396299958229065,-0.09276286512613297,-0.08875612914562225,0.11275292932987213,0.052305541932582855,0.15182171761989594,0.062464553862810135,-0.13606399297714233,-0.03197062388062477,-0.07574033737182617,-0.02035824954509735,0.035348691046237946,0.03611765429377556,-0.18001432716846466,0.10513961315155029,-0.19902773201465607,-0.19270583987236023,0.006194187793880701,-0.007686713244765997,-0.02782931737601757,0.1378629356622696,-0.10781872272491455,0.034226685762405396,-0.174001544713974,0.1408654749393463,0.15191622078418732,0.13747283816337585,-0.08227808028459549,-0.14909818768501282,0.05011429265141487,-0.10768131166696548,-0.15986377000808716,0.06348230689764023,-0.07199137657880783,-0.11229363083839417,-0.0911550223827362,0.1331758201122284,-0.1285490244626999,0.006982326507568359,-0.042314883321523666,-0.09437912702560425,0.08145128190517426,-0.11015016585588455,0.0885528028011322,-0.19407689571380615,0.060593899339437485,-0.010663226246833801,0.06690455228090286,-0.05226396769285202,-0.1805523931980133,0.11244141310453415,-0.1026260182261467,-0.14599871635437012,0.15482325851917267,0.12542425096035004,-0.07335886359214783,0.07426781207323074,-0.1579095423221588,-0.13270428776741028,-0.018398702144622803,0.18246635794639587,0.009265580214560032,0.1429172158241272,-0.05836682766675949,-0.0984664112329483,-0.18786320090293884,0.06628256291151047,-0.08858991414308548,-0.029134385287761688,0.18359464406967163,-0.06699863821268082,0.14842838048934937,-0.19038251042366028,-0.05170949921011925,-0.11845831573009491,0.129388228058815,-0.10143065452575684,0.13815750181674957,0.037433210760354996,-0.1863054782152176,0.09326457977294922,-0.01654347963631153,-0.057649627327919006,0.03171756491065025,-0.16986098885536194,0.06992445886135101,-0.0005901114782318473,0.15264856815338135,0.15473249554634094,0.17851471900939941,-0.12686820328235626,0.13173255324363708,-0.02201605588197708,-0.01831677183508873,0.07500877976417542,0.10285115242004395,-0.11375188082456589,-0.16563192009925842,0.15867160260677338,-0.03929010033607483,0.1492541879415512,0.14559999108314514,0.17502225935459137,-0.08345673233270645,-0.03738666698336601,-0.13805367052555084,0.020578136667609215,0.06115647405385971,0.03132835030555725,-0.026612645015120506,-0.11323331296443939,-0.11509473621845245,0.10161246359348297,-0.16110192239284515,-0.16362717747688293,-0.20024369657039642,0.18373800814151764,0.16760991513729095,-0.14793771505355835,0.05532471835613251,0.052694171667099,0.1269771009683609,-0.09794013202190399,-0.19186931848526,0.08318459987640381,0.03310796245932579,0.025871412828564644,0.047782350331544876,-0.07099463790655136,0.10672104358673096,-0.17257718741893768,-0.08465759456157684,0.0027783899568021297,-0.00039978191489353776,-0.12544067203998566,-0.08684778958559036,-0.04713485389947891,0.10007794946432114,0.11830683797597885,0.10050562769174576,0.08835473656654358,-0.1476965993642807,-0.1577862948179245,-0.19380301237106323,-0.012701907195150852,0.09165558218955994,-0.15332971513271332,-0.05054737627506256,-0.024730021134018898,-0.0950922742486,0.16534657776355743,-0.10869988054037094,0.027102738618850708,0.11462260782718658,0.1562003493309021,-0.14883975684642792,-0.14114616811275482,0.02404906041920185,-0.1192321628332138,0.09600336849689484,0.1074104905128479,-0.10401111841201782,-0.05740303546190262,-0.15113306045532227,0.050587333738803864,-0.023374823853373528,-0.14497768878936768,-0.0912763774394989,0.09331879764795303,-0.19998802244663239,0.07811720669269562,-0.08132871240377426,-0.03266257047653198,0.1452612578868866,-0.17128154635429382,0.11677370965480804,0.1427774578332901,0.1663336306810379,-0.16385316848754883,-0.1936725378036499,0.13066023588180542,-0.028897088021039963,0.14029181003570557,0.17073054611682892,0.14968301355838776,0.1005467101931572,-0.046743594110012054,0.05180501192808151,0.13962502777576447,0.1600935012102127,-0.0776061937212944,0.12430724501609802,0.14343267679214478,-0.0035552578046917915,-0.08823702484369278,0.13627077639102936,0.07055813074111938,0.07511425018310547,0.04284820333123207,-0.1914442926645279,-0.06452643126249313,0.03795329108834267,-0.04125528782606125,0.04438979923725128,0.07916925847530365,0.0763394683599472,-0.1760438233613968,0.08287268131971359,0.0390520803630352,0.19160887598991394,-0.05951530858874321,0.03613816574215889,-0.1586822122335434,0.19437338411808014,-0.0663188099861145,0.10510291904211044,0.19972866773605347,-0.1441977471113205,0.18149317800998688,0.12407486140727997,0.04089081659913063,0.164369136095047,-0.06969071924686432,0.13758040964603424,-0.16583818197250366,0.07455828785896301,0.0493420846760273,0.020411770790815353,0.10010550171136856,-0.18314272165298462,-0.18153119087219238,0.04813886061310768,0.024703698232769966,0.04779396206140518,-0.15171536803245544,0.07482411712408066,-0.06330837309360504,-0.07123448699712753,-0.1301124542951584,-0.12763938307762146,-0.06680167466402054,-0.07902523130178452,-0.03535265848040581,-0.1268046498298645,0.09575637429952621,0.19168032705783844,-0.022508354857563972,0.1896209865808487,0.05122988298535347,-0.017772074788808823,0.02610313706099987,0.03616304323077202,0.12444668263196945,0.15754756331443787,-0.00931192934513092,-0.14012719690799713,0.13310803472995758,-0.16647794842720032,-0.08935415744781494,0.0682438462972641,0.18785321712493896,-0.17479737102985382,0.08450284600257874,0.15270358324050903,-0.14751988649368286,-0.014584037475287914,-0.04554176703095436,0.07608997076749802,0.17619448900222778,0.09679220616817474,-0.05166337639093399,-0.20133288204669952,-0.1311531960964203,0.1659138947725296,-0.16504371166229248,-0.19721077382564545,0.06826326251029968,0.1211693212389946,-0.020291605964303017,0.0902148187160492,-0.00032820337219163775,-0.03843910992145538,0.014334915205836296,-0.1874084621667862,0.12494360655546188,0.03953110799193382,0.19932760298252106,0.10394799709320068,-0.14114242792129517,0.14497454464435577,-0.1220598891377449,-0.11427825689315796,0.005636462941765785,0.13001100718975067,0.16023790836334229,0.10999265313148499,0.07843313366174698,-0.026327727362513542,-0.07271959632635117,-0.06816188246011734,-0.023420903831720352,-0.061066027730703354,0.150893434882164,-0.12671852111816406,-0.004981730133295059,0.1024898812174797,-0.056568194180727005,0.18913781642913818,0.08296214789152145,-0.14663682878017426,0.16889993846416473,0.14889973402023315,-0.19169358909130096,-0.15282107889652252,-0.0514521487057209,0.04166501760482788,0.10537631809711456,0.09052257984876633,-0.18357953429222107,-0.024635320529341698,0.018181951716542244,-0.19144919514656067,0.10565916448831558,0.08164197951555252,-0.16291090846061707,-0.16603639721870422,0.04360291361808777,0.12599638104438782,-0.01866655983030796,0.027620181441307068,-0.0014587824698537588,0.1654319316148758,-0.024344325065612793,0.10308340191841125,0.16733799874782562,0.07715726643800735,-0.15886853635311127,-0.06328517943620682,-0.1704024076461792,0.05224030837416649,-0.032238155603408813,-0.144667848944664,-0.00898117758333683,0.19169938564300537,-0.1415717750787735,-0.06714179366827011,-0.028956126421689987,0.004716501571238041,-0.01630384474992752,0.09478206187486649,0.020339760929346085,0.032966263592243195,-0.057531822472810745,0.039366502314805984,0.2025914341211319,0.09986498206853867,-0.05009501427412033,0.0484689362347126,0.06519614905118942,-0.12298581749200821,-0.03354279324412346,0.11868838965892792,-0.16448789834976196,0.08646731078624725,0.1609639674425125,-0.06493756175041199,0.09067104011774063,-0.13710564374923706,-0.10590635240077972,-0.16237007081508636,0.16077221930027008,-0.0007762648165225983,-0.006797404494136572,-0.012022330425679684,0.18799275159835815,-0.0005906608421355486,-0.19553200900554657,-0.08674880117177963,-0.18386340141296387,-0.2018238753080368,0.014873292297124863,-0.0998402014374733,-0.15008293092250824,-0.07397738099098206,0.037208616733551025,0.053072452545166016,-0.14786149561405182,-0.13186442852020264,0.03947116807103157,-0.12631164491176605,0.09338843822479248,0.13861848413944244,-0.19604553282260895,-0.16712015867233276,-0.056866105645895004,-0.0057947770692408085,0.11581546813249588,0.05479223653674126,-0.015949459746479988,0.03858033940196037,-0.06864841282367706,-0.1239999458193779,-0.001108046155422926,-0.014691030606627464,-0.1516517698764801,0.05111226066946983,0.16680604219436646,-0.09603407233953476,0.1913910210132599,0.07041940093040466,-0.060822028666734695,-0.17441649734973907,0.1268589347600937,-0.08696331828832626,0.04053187742829323,-0.11934211105108261,0.16102926433086395,0.09820245951414108,-0.12514165043830872,0.17850112915039062,-0.05915083363652229,0.03053455613553524,-0.06385479122400284,0.12367437779903412,-0.037355002015829086,-0.03194696456193924,-0.11767797917127609,0.0920189619064331,0.06719812750816345,0.07709529995918274,-0.025648130103945732,-0.19769467413425446,0.19328176975250244,-0.19979465007781982,0.07451136410236359,-0.07373921573162079,0.006820146460086107,0.07664304226636887,0.18480443954467773,-0.12906800210475922,0.06900312006473541,0.08373711258172989,-0.06072734668850899,0.1747322529554367,-0.10988439619541168,-0.18208710849285126,-0.1821715235710144,-0.19910819828510284,0.05111125111579895,-0.16942046582698822,0.12171794474124908,0.002737298607826233,0.20009887218475342,-0.16847281157970428,-0.13503895699977875,-0.11742473393678665,0.18590737879276276,-0.10702338814735413,-0.17475788295269012,0.147979736328125,0.03511892259120941,-0.05342249944806099,-0.11194942891597748,-0.19241979718208313,-0.18864575028419495,-0.031154247000813484,0.0443449467420578,0.14102917909622192,0.1993240863084793,-0.02782454341650009,-0.0049114106222987175,0.17998993396759033,0.185513436794281,0.15732945501804352,0.17823322117328644,-0.043338607996702194,-0.07908231765031815,-0.14163462817668915,0.07353480905294418,0.028741437941789627,0.0876840129494667,-0.03838285058736801,-0.14691931009292603,0.10295240581035614,-0.11356646567583084,0.16848956048488617,-0.03082931414246559,0.1637217402458191,0.0014595920220017433,-0.16310784220695496,-0.09198631346225739,-0.002799366135150194,0.051308438181877136,-0.025861838832497597,0.05170966312289238,0.0929509624838829,0.031755197793245316,-0.03432333096861839,0.14172394573688507,0.07699177414178848,0.06307820975780487,-0.04894409328699112,-0.12892237305641174,0.17784510552883148,0.03140190616250038,0.029618799686431885,0.023750731721520424,0.1510852426290512,0.09160235524177551,-0.1433659940958023,-0.0905214175581932,-0.04894731193780899,-0.17920896410942078,0.14851757884025574,-0.08960935473442078,0.0025256189983338118,-0.15602049231529236,0.07894893735647202,-0.08110680431127548,-0.012231795117259026,-0.13971905410289764,-0.104096919298172,-0.013006682507693768,0.01804913766682148,-0.1558200567960739,0.008725972846150398,0.151723250746727,-0.06708009541034698,0.041130151599645615,-0.11511672288179398,-0.10388297587633133,0.13802888989448547,-0.10789667069911957,-0.1646336317062378,0.23116657137870789,-0.179300457239151,0.10808651149272919,0.06032796949148178,-0.13419686257839203,0.015427233651280403,-0.09950750321149826,-0.14042750000953674,-0.04966982081532478,0.16070803999900818,-0.00029673014068976045,0.06918027251958847,0.10976852476596832,0.04176216945052147,0.1684572696685791,-0.17029011249542236,0.13964377343654633,0.17517830431461334,-0.025484295561909676,0.01092671137303114,0.1546492576599121,0.10557788610458374,0.1614566147327423,0.09584982693195343,-0.09211774170398712,-0.027900703251361847,0.19248877465724945,0.18000030517578125,-0.0937805026769638,0.1356317698955536,-0.14319279789924622,0.09367810189723969,-0.18809707462787628,-0.031205864623188972,-0.17054986953735352,-0.04839339852333069,-0.07099717110395432,-0.1764986217021942,0.0937766283750534,-0.15227723121643066,-0.05405068397521973,0.1638977825641632,-0.17771396040916443,-0.19235818088054657,0.14693155884742737,0.03290921077132225,0.15122336149215698,0.1682407408952713,0.07034317404031754,0.15855687856674194,-0.12434402853250504,0.0724579319357872,-0.18704335391521454,-0.10270083695650101,0.21895205974578857,-0.0698448196053505,0.19949495792388916,0.0712425485253334,-0.1728152632713318,-0.06620737910270691,-0.1691216677427292,-0.08107698708772659,0.15275393426418304,-0.025415243580937386,0.0966414213180542,-0.1262994259595871,0.15448135137557983,0.0485914908349514,-0.05650591105222702,-0.1633591502904892,0.08232813328504562,0.10720236599445343,-0.08308516442775726,-0.023224979639053345,-0.1329106241464615,0.037978582084178925,-0.06733637303113937,0.04185972735285759,0.12385205179452896,-0.12607434391975403,-0.16622652113437653,-0.03520478308200836,0.17381197214126587,-0.15406206250190735,-0.1949876844882965,-0.06780663877725601,-0.19661498069763184,0.14966806769371033,-0.051419492810964584,0.01891637220978737,-0.04888363555073738,0.17846472561359406,-0.16039320826530457,0.016925092786550522,-0.06140175834298134,0.12632104754447937,-0.1133028045296669,-0.16471190750598907,0.014378712512552738,0.18118919432163239,-0.07979384064674377,-0.14320684969425201,0.13429570198059082,-0.1838652491569519,-0.07187343388795853,0.03234167769551277,-0.18688419461250305,0.019087031483650208,0.16395124793052673,-0.04335961863398552,-0.07670734822750092,-0.18312577903270721,0.12822020053863525,0.131768137216568,-0.1739397794008255,0.19419917464256287,0.0418565608561039,-0.028403451666235924,-0.1084984615445137,0.162161186337471,-0.1410766988992691,-0.07119730114936829,-0.04265156015753746,0.17103558778762817,0.1241716593503952,-0.06748975068330765,-0.13746565580368042,-0.009203800931572914,-0.015214571729302406,-0.026290804147720337,0.10551728308200836,-0.02442212775349617,0.05390578508377075,-0.10744518786668777,-0.08523637056350708,0.06906069815158844,0.01696895994246006,0.03884844109416008,-0.10398044437170029,0.17460228502750397,-0.16033348441123962,0.00849439948797226,0.13326026499271393,0.054664164781570435,-0.17839555442333221,-0.022379105910658836,0.07528205960988998,0.07234007120132446,-0.1553592085838318,-0.04870506003499031,-0.03188565373420715,-0.11902008205652237,-0.03868461027741432,0.01814679428935051,0.059904757887125015,-0.13251763582229614,-0.03623727336525917,0.13079823553562164,-0.08813542872667313,-0.14216676354408264,0.07343338429927826,0.01564723625779152,-0.03780050575733185,0.08419027924537659,-0.16368836164474487,0.1339462250471115,0.19362904131412506,-0.06934721767902374,0.09086194634437561,0.19459551572799683,-0.18694305419921875,-0.14239338040351868,-0.184779092669487,0.17427657544612885,0.09404312819242477,0.04327937588095665,0.08997323364019394,0.1899091899394989,0.05102543160319328,-0.17069274187088013,0.0335494801402092,-0.13831710815429688,0.14827600121498108,0.15624681115150452,0.1589697301387787,-0.14747194945812225,0.002346181310713291,0.12104834616184235,-0.14815858006477356,0.03210108354687691,-0.06222239136695862,-0.155239999294281,0.005265804938971996,0.13148514926433563,-0.18625546991825104,-0.02992267720401287,0.12375586479902267,0.03124064765870571,0.007658364716917276,-0.05019694194197655,-0.07093384861946106,0.08607669919729233,-0.107601597905159,0.1025090217590332,0.1086266040802002,-0.16182778775691986,-0.1930627077817917,0.03465268760919571,0.06559176743030548,-0.18037952482700348,-0.0868530198931694,-0.0024363165721297264,-0.19129467010498047,-0.025458205491304398,0.2043532133102417,-0.09442903846502304,0.06207688897848129,-0.17042866349220276,0.11287609487771988,0.11951316893100739,0.06085437163710594,-0.08286923915147781,-0.0634358748793602,0.1505829244852066,-0.14364467561244965,0.1855900138616562,-0.025033509358763695,-0.16136039793491364,0.19022610783576965,-0.017103329300880432,-0.10463988780975342,-0.01182908657938242,0.015344368293881416,0.17993095517158508,0.08276400715112686,-0.02999730035662651,0.006457499694079161,0.007528266869485378,-0.12081769853830338,0.1107180118560791,0.08436962217092514,-0.06085317209362984,0.06904029846191406,-0.10733404755592346,0.11875282973051071,0.13765160739421844,0.0727488175034523,0.01564275473356247,0.13311034440994263,0.13056884706020355,0.17025230824947357,0.03104797564446926,0.19067811965942383,0.09201376885175705,0.07455021142959595,-0.01654275692999363,0.14129066467285156,0.18076595664024353,-0.00875760056078434,-0.03211826831102371,0.1296086460351944,-0.006869072560220957,-0.07470739632844925,-0.004977325443178415,-0.046063948422670364,0.05936253443360329,0.0423191636800766,-0.19122138619422913,-0.0968952476978302,-0.020212778821587563,0.09212648123502731,0.02596176229417324,0.06784489005804062,-0.04551710933446884,-0.0836830884218216,-0.022044284269213676,0.1813330203294754,-0.14363999664783478,-0.10688785463571548,-0.11965858191251755,0.16257020831108093,0.045998405665159225,-0.03578019142150879,0.08425268530845642,-0.13528254628181458,0.1836508810520172,0.09528808295726776,0.06614361703395844,-0.10696960985660553,0.17064353823661804,0.10597401112318039,0.13002854585647583,-0.14194612205028534,0.08798497915267944,0.1897750049829483,0.16465798020362854,0.01460715290158987,-0.18815013766288757,-0.050122618675231934,0.15640872716903687,-0.01606597937643528,-0.1839536875486374,0.1430094689130783,0.14724354445934296,0.0536247193813324,0.036026421934366226,-0.04931960999965668,-0.16171912848949432,0.15746614336967468,-0.062039077281951904,-0.08948016166687012,0.11131884157657623,0.1379375159740448,0.00864910613745451,-0.11269616335630417,-0.10739251226186752,0.025785913690924644,0.04748397320508957,-0.0016323176678270102,0.15307146310806274,-0.16885830461978912,0.1773853600025177,0.04343590512871742,-0.06444917619228363,-0.05292737856507301,0.0965733751654625,0.07610155642032623,0.12055417895317078,-0.11839340627193451,-0.08865400403738022,-0.17382560670375824,-0.08955883979797363,-0.08379440009593964,-0.04082388058304787,-0.09324419498443604,-0.15132232010364532,0.17893365025520325,0.12847164273262024,-0.18378786742687225,0.007314775604754686,-0.1214618980884552,0.021209614351391792,0.1199934259057045,0.12552137672901154,-0.02690553478896618,-0.09640859067440033,0.017919952049851418,0.10245165973901749,0.024476172402501106,-0.04805871099233627,0.022892877459526062,-0.07466303557157516,-0.11801498383283615,0.11872421950101852,0.06168166548013687,0.07184993475675583,0.10454115271568298,-0.19518406689167023,-0.023708129301667213,-0.1985308676958084,-0.007798875216394663,0.13615792989730835,0.01467293594032526,-0.14975705742835999,-0.08691736310720444,-0.0634339302778244,-0.15429319441318512,-0.17011667788028717,0.19143404066562653,0.08547411859035492,0.09293483197689056,0.06650783121585846,-0.007748871110379696,0.13844475150108337,0.12605541944503784,0.1324366331100464,-0.07018207013607025,0.07606104761362076,0.20913740992546082,-0.14492055773735046,-0.1695518046617508,0.057832151651382446,0.14638803899288177,-0.024757979437708855,-0.12640340626239777,-0.07657525688409805,-0.17753392457962036,-0.1910480409860611,-0.06889742612838745,-0.15126736462116241,0.038977645337581635,-0.002540000481531024,0.1700831800699234,0.1138225719332695,0.12075847387313843,-0.03598921746015549,0.08169753849506378,-0.039988890290260315,0.1446796953678131,-0.16205096244812012,-0.1325298547744751,-0.04173744469881058,-0.1643800139427185,0.14476317167282104,-0.1820555478334427,0.0011675808345898986,0.17515607178211212,-0.047696802765131,0.011949248611927032,-0.07669485360383987,0.2010255604982376,-0.03496980667114258,0.0785033255815506,-0.1604848951101303,0.043032288551330566,-0.05873410776257515,-0.08403616398572922,0.09192178398370743,0.07447502017021179,0.1023312583565712,0.18902833759784698,0.0160563662648201,-0.14210167527198792,0.19203458726406097,0.029310906305909157,0.15289542078971863,-0.04112554341554642,0.19581031799316406,0.06694640219211578,0.02360609546303749,-0.0036101615987718105,0.03822637349367142,0.08729315549135208,0.031988270580768585,-0.047337308526039124,-0.07560911029577255,0.13750885426998138,0.0026192523073405027,-0.031932532787323,0.11591531336307526,-0.18376284837722778,-0.14763520658016205,-0.000008746884304855485,0.04351536184549332,-0.14206840097904205,0.14467906951904297,0.007996773347258568,0.13079121708869934,0.11244040727615356,-0.029665164649486542,-0.017028070986270905,0.0567401722073555,-0.051657065749168396,0.0028547276742756367,0.056423161178827286,0.08458569645881653,0.16612984240055084,-0.18098628520965576,0.049856510013341904,-0.11036418378353119,-0.0009500757441855967,0.07011563330888748,0.09197484701871872,-0.17479276657104492,-0.11273521929979324,0.1309264451265335,-0.13057370483875275,0.10760979354381561,-0.04227388650178909,0.07425698637962341,0.13849058747291565,0.14757557213306427,-0.16670197248458862,0.1753540337085724,-0.1635996550321579,0.08412423729896545,-0.04496687278151512,-0.05080193281173706,0.022237127646803856,0.17330898344516754,0.16275988519191742,-0.17209362983703613,-0.1068156436085701,0.008301090449094772,0.018963854759931564,-0.18284288048744202,-0.07699804753065109,0.17601361870765686,-0.019845107570290565,0.019706375896930695,-0.19173532724380493,0.06009591743350029,-0.06783276051282883,-0.00004508297934080474,-0.16702574491500854,0.04912293329834938,-0.10109040886163712,-0.05324457585811615,-0.05680892989039421,0.16512973606586456,-0.031899768859148026,0.10095194727182388,0.1925198882818222,-0.02489699050784111,0.12083487957715988,-0.17590513825416565,-0.08483202010393143,-0.16387076675891876,0.050130557268857956,0.052831701934337616,0.00537120783701539,-0.0935235247015953,-0.16082927584648132,-0.013374083675444126,0.018751787021756172,0.002825744915753603,0.038837917149066925,0.12453313171863556,0.12320444732904434,0.04258543625473976,-0.013430983759462833,0.11873148381710052,0.13649271428585052,-0.10376973450183868,0.03734699264168739,-0.006969020701944828,0.12530405819416046,-0.17559711635112762,0.1836111694574356,-0.08607061952352524,0.1750895231962204,0.029309909790754318,-0.16653762757778168,-0.03793135657906532,-0.08973988890647888,0.1716049313545227,-0.016834238544106483,-0.07438085973262787,0.19870467483997345,0.030962171033024788,-0.1505030393600464,-0.16465361416339874,-0.027600403875112534,-0.05512181669473648,0.019255243241786957,-0.09412145614624023,-0.18399757146835327,-0.1353723704814911,-0.1627708077430725,-0.07434869557619095,0.038708001375198364,0.0949215367436409,0.06489598006010056,0.11691787838935852,-0.13176198303699493,0.0177995003759861,-0.06021026149392128,0.10814489424228668,-0.09528842568397522,0.022284293547272682,0.05494777113199234,0.04806891456246376,-0.19957217574119568,0.04243261739611626,0.19550001621246338,-0.027503030374646187,-0.09495953470468521,-0.010733578354120255,-0.03332803025841713,-0.05063125491142273,-0.18925592303276062,-0.12125122547149658,0.12448380887508392,0.14466392993927002,0.18348369002342224,-0.1665831357240677,0.044327106326818466,-0.034343209117650986,-0.0049386159516870975,0.1573706418275833,0.14208033680915833,0.042954474687576294,0.1978118121623993,-0.05312683433294296,0.019932521507143974,-0.07779239118099213,-0.1164092943072319,-0.03182471543550491,-0.047360144555568695,0.14496517181396484,0.0623142272233963,0.09144843369722366,-0.09720068424940109,0.19329197704792023,0.09343837201595306,0.01059517078101635,0.1784607321023941,0.024040870368480682,0.061033956706523895,0.07566667348146439,0.15539751946926117,0.19645003974437714,-0.003871417138725519,-0.1417350172996521,0.021797895431518555,0.06898534297943115,-0.1679513305425644,-0.050861213356256485,-0.09586530923843384,-0.191390722990036,-0.18237769603729248,0.16170640289783478,-0.1243375912308693,0.15716663002967834,0.12593327462673187,0.07767359167337418,0.05384907126426697,0.05070222541689873,-0.07454078644514084,-0.08347611129283905,0.10420896112918854,-0.09458651393651962,0.19328242540359497,-0.03631865978240967,-0.015908846631646156,0.09400029480457306,0.15288951992988586,-0.12167789041996002,-0.025849230587482452,0.07746919244527817,0.10809358209371567,0.19754517078399658,-0.1465846449136734,-0.178324356675148,-0.1778712272644043,-0.15639528632164001,0.12519517540931702,0.1863999217748642,-0.025305818766355515,0.02471982128918171,0.06416134536266327,0.020001709461212158,-0.03771095722913742,0.1432296484708786,0.1925930231809616,0.10587818920612335,0.0958695039153099,0.07388187944889069,-0.0702066570520401,-0.11655255407094955,0.19201979041099548,-0.06236857920885086,-0.11199838668107986,-0.19987677037715912,-0.07643834501504898,-0.10712842643260956,0.19720275700092316,-0.158181831240654,0.13153362274169922,0.05585426092147827,-0.16666845977306366,0.07195501029491425,0.042038287967443466,-0.09265606850385666,0.06448903679847717,0.16765737533569336,-0.13196758925914764,-0.06379044055938721,0.014156173914670944,-0.13665053248405457,0.18377429246902466,-0.19392786920070648,-0.1296202540397644,-0.037874456495046616,0.08315586298704147,0.05257626250386238,0.12974333763122559,-0.04862171784043312,-0.01854412443935871,-0.11828944832086563,0.14715184271335602,-0.09337157011032104,-0.02284742332994938,0.16507886350154877,-0.028701260685920715,0.11018920689821243,-0.08294530212879181,0.0937899500131607,0.06081797182559967,-0.030030371621251106,0.0818852037191391,0.1518554836511612,0.17581817507743835,0.18929894268512726,0.013522593304514885,-0.021170664578676224,0.0622275210916996,0.17136304080486298,-0.10545932501554489,0.027890821918845177,0.10980445891618729,-0.007478341925889254,-0.13660988211631775,-0.10085555166006088,0.13343019783496857,-0.003155733458697796,-0.19623738527297974,0.06150636076927185,0.08095990121364594,-0.01878833770751953,0.1536363661289215,-0.09737899154424667,-0.17185567319393158,0.06865254789590836,0.025836199522018433,-0.18352609872817993,-0.08192034810781479,0.054114844650030136,0.15968117117881775,-0.08565825968980789,0.17633135616779327,0.0498843789100647,-0.00005685459836968221,-0.0869610458612442,0.14237260818481445,0.07321907579898834,0.03604449704289436,0.013384824618697166,-0.18284308910369873,0.017501164227724075,0.09513767063617706,-0.13734567165374756,0.18884508311748505,0.13810060918331146,-0.026067130267620087,-0.13474653661251068,-0.10877597332000732,-0.14380471408367157,0.12122467905282974,0.04438483715057373,-0.07490234076976776,0.027887213975191116,0.03597046434879303,-0.14616112411022186,0.01438356563448906,0.1730293333530426,-0.03961890935897827,0.05899861082434654,-0.1827787160873413,-0.06539434939622879,0.15567916631698608,-0.07477357983589172,0.08626895397901535,-0.0010388849768787622,-0.0390063151717186,0.20118512213230133,-0.10333745926618576,-0.17123718559741974,0.060453493148088455,0.13542602956295013,0.14620111882686615,0.14880222082138062,-0.02034110203385353,0.12525083124637604,-0.0442684069275856,-0.04112743213772774,-0.02724863775074482,0.19328081607818604,0.014344068244099617,-0.1697692573070526,-0.14632175862789154,0.024559764191508293,-0.1395634263753891,0.01543430332094431,0.027065427973866463,0.15774859488010406,0.16402077674865723,0.19571125507354736,0.07245977967977524,-0.1135786846280098,-0.05784773826599121,0.03442538529634476,-0.014891636557877064,-0.16943606734275818,-0.041467614471912384,-0.17897041141986847,-0.08738812059164047,-0.04180752858519554,0.06432971358299255,-0.09147991240024567,0.12061759829521179,0.05890250205993652,-0.07848580181598663,-0.0647355392575264,-0.020957740023732185,0.12303294986486435,-0.12947523593902588,-0.0843045637011528,-0.11896870285272598,0.17184071242809296,-0.056678589433431625,-0.04497695341706276,0.08560802042484283,-0.1696227490901947,0.0026061651296913624,-0.01370928529649973,0.09092520922422409,0.1960197538137436,0.11864969879388809,-0.05241619050502777,-0.08421452343463898,-0.12101257592439651,0.03162110969424248,-0.17639638483524323,-0.09517799317836761,0.18972928822040558,-0.04298146814107895,0.08650311827659607,-0.05081508681178093,-0.141342893242836,-0.18836833536624908,-0.18112148344516754,-0.02247926965355873,-0.07534024864435196,-0.17811134457588196,-0.0702047348022461,0.009739138185977936,-0.17358942329883575,0.12861545383930206,0.003867358434945345,0.01002114824950695,0.10362781584262848,0.08580684661865234,0.052898064255714417,-0.12796232104301453,0.17002752423286438,-0.10935261100530624,0.167887344956398,-0.013998623006045818,0.11480133980512619,-0.19255861639976501,-0.16880035400390625,-0.12487956136465073,0.06936904042959213,0.16228078305721283,0.19341355562210083,-0.1689605861902237,0.07703258097171783,0.08890867978334427,0.07199419289827347,0.1830935925245285,-0.19877591729164124,0.1469413936138153,0.04399504512548447,-0.08880923688411713,0.04300292581319809,-0.03427355736494064,0.06521467864513397,-0.16470873355865479,-0.16363121569156647,0.12455576658248901,-0.04665567725896835,0.06962601095438004,0.0604630671441555,0.13459976017475128,0.05369352176785469,-0.11588181555271149,0.025378229096531868,-0.02222638949751854,0.13331395387649536,-0.08089207857847214,-0.1450059711933136,-0.08702993392944336,0.05098395049571991,-0.07372405380010605,0.1648855060338974,-0.1561402678489685,-0.1777758151292801,0.01838376559317112,-0.050141122192144394,-0.07691371440887451,0.18501481413841248,0.011532610282301903,0.14197513461112976,0.045079778879880905,0.0667273998260498,0.10744962096214294,-0.07484601438045502,0.06154436990618706,-0.045932311564683914,0.18279707431793213,-0.1288495808839798,0.07149949669837952,0.1060597226023674,0.08831724524497986,-0.1132238581776619,-0.1079460084438324,0.06404373049736023,-0.12298642843961716,0.11396931856870651,-0.023274417966604233,-0.11078054457902908,-0.03221023827791214,-0.056672777980566025,0.007204471156001091,-0.09735829383134842,0.004016154911369085,-0.12657912075519562,0.12044166773557663,-0.15071158111095428,0.04604767635464668,0.16007602214813232,0.17091460525989532,-0.06533613801002502,0.17501002550125122,-0.03702697902917862,0.06839191913604736,0.18474198877811432,0.08541744202375412,0.09502992033958435,-0.012279719114303589,-0.18487296998500824,-0.00792751181870699,-0.12328978627920151,0.18405170738697052,0.17889903485774994,-0.1348922848701477,-0.0559561625123024,0.03666430711746216,-0.14446835219860077,0.07039646804332733,0.0012256561312824488,-0.09678754955530167,-0.1054607629776001,-0.06594697386026382,0.05314940959215164,0.08720457553863525,0.16389212012290955,0.09257678687572479,0.008464471437036991,0.08184945583343506,-0.08501489460468292,-0.16503316164016724,-0.09642627835273743,0.16736599802970886,-0.1905074417591095,-0.059417009353637695,-0.14938874542713165,0.1088419035077095,0.05822833999991417,-0.061243634670972824,0.07489143311977386,-0.019840089604258537,-0.04727230221033096,-0.031075336039066315,-0.0568959042429924,-0.02560233138501644,-0.03951214253902435,-0.02092449739575386,0.11435579508543015,0.047522690147161484,0.11740990728139877,-0.0073683783411979675,-0.09355141222476959,-0.0761306956410408,-0.1659524291753769,0.01904449425637722,0.04111848399043083,-0.0543130524456501,0.07176923006772995,0.19111303985118866,0.09668724238872528,-0.04804003983736038,-0.1903899759054184,-0.027444275096058846,-0.09461116045713425,-0.01458934135735035,-0.06983259320259094,-0.02112507075071335,0.08721253275871277,0.17768806219100952,0.13908855617046356,0.033906761556863785,0.13926975429058075,-0.1073080375790596,-0.17753447592258453,-0.008633678779006004,-0.04003661498427391,-0.1132376417517662,0.13968823850154877,0.10182031244039536,0.1865420937538147,0.1553572416305542,-0.07106192409992218,0.092926025390625,-0.1385449469089508,-0.0054893773049116135,0.09228908270597458,0.14232993125915527,0.12978599965572357,0.04692979156970978,-0.0918327122926712,-0.11821793764829636,0.06488865613937378,0.14742372930049896,-0.10267991572618484,-0.18583832681179047,-0.166208878159523,0.09567873179912567,0.15396639704704285,0.14392320811748505,0.19628645479679108,0.006968623958528042,0.06446360796689987,-0.018446410074830055,0.15828214585781097,-0.08394788205623627,-0.19927194714546204,-0.13288091123104095,-0.18983788788318634,0.014214353635907173,-0.11547791212797165,0.037392690777778625,-0.0009823794243857265,-0.13278739154338837,0.11064665764570236,-0.013744838535785675,0.07021909952163696,-0.017881300300359726,0.16403380036354065,-0.10722658038139343,-0.17093525826931,0.08602649718523026,0.0077082016505301,-0.033943913877010345,-0.1099507063627243,0.011480020359158516,0.02048640511929989,-0.14228957891464233,-0.10102245211601257,0.19805622100830078,0.1229412704706192,-0.022209716960787773,-0.12133476883172989,0.0496290847659111,0.17541871964931488,-0.16474677622318268,0.03639032691717148,0.03422766178846359,0.02851593866944313,-0.08128717541694641,-0.16874916851520538,0.07332555949687958,-0.13214144110679626,-0.11751396954059601,-0.07504704594612122,0.12082239985466003,-0.12482511252164841,-0.13056427240371704,0.16926756501197815,0.16718295216560364,-0.15235964953899384,0.15793520212173462,-0.02126976288855076,0.0054799276404082775,-0.18659301102161407,0.031070571392774582,0.005322365555912256,0.14776116609573364,0.09351984411478043,0.06767050176858902,-0.025816025212407112,0.004984912928193808,0.027134805917739868,0.037416089326143265,0.1843588948249817,0.1872037798166275,-0.10998205840587616,-0.05256513133645058,0.1344272941350937,0.09948676079511642,-0.07046400010585785,0.01909702830016613,-0.18619832396507263,0.13553306460380554,-0.17369571328163147,0.19418160617351532,-0.0983395054936409,-0.07012859731912613,-0.1892125904560089,0.02130732499063015,-0.07707769423723221,-0.19625204801559448,-0.10891112685203552,-0.17074249684810638,0.14018796384334564,0.060231663286685944,0.10826306790113449,-0.16430529952049255,-0.14071741700172424,0.021657781675457954,0.1845143735408783,-0.08857812732458115,-0.007838258519768715,0.11400144547224045,0.1291034072637558,-0.19538764655590057,-0.11232178658246994,0.08929827064275742,0.009126298129558563,0.16180460155010223,0.13648457825183868,-0.16973146796226501,-0.155146986246109,0.002560619032010436,-0.14054585993289948,-0.1290317177772522,-0.14419502019882202,0.012124931439757347,0.16398507356643677,-0.11098111420869827,-0.055583976209163666,0.13460953533649445,0.1732628345489502,-0.029702594503760338,0.13743935525417328,0.18957513570785522,-0.11739451438188553,0.19166234135627747,0.13424576818943024,0.07418738305568695,-0.05687246471643448,-0.18236465752124786,0.020109621807932854,0.031788792461156845,-0.19439911842346191,-0.16199195384979248,0.009091404266655445,-0.06971117109060287,0.05120429769158363,-0.1607021540403366,0.12549231946468353,-0.11083124577999115,-0.1842988282442093,-0.11067772656679153,0.01205398328602314,-0.1690274178981781,0.15642811357975006,0.11547835916280746,0.1941714882850647,0.19578896462917328,-0.06807515025138855,0.07057930529117584,-0.17785492539405823,0.12681850790977478,0.10726132988929749,-0.01362798735499382,0.193178191781044,-0.1474968045949936,0.14526313543319702,-0.018131595104932785,0.08869872987270355,-0.16635355353355408,-0.06084290146827698,-0.011117912828922272,0.13099166750907898,0.1477426290512085,0.18002884089946747,0.13159632682800293,-0.09092199802398682,0.12398902326822281,0.15372741222381592,-0.10012416541576385,0.005498331505805254,-0.09076862782239914,-0.022397983819246292,0.08278033882379532,0.09455706924200058,-0.1492464542388916,0.06415454298257828,0.046009231358766556,0.19219596683979034,-0.19246304035186768,-0.1835060864686966,-0.09818434715270996,0.13793011009693146,-0.018796231597661972,-0.1622118353843689,0.05433860421180725,0.18662703037261963,-0.017504919320344925,0.1960819959640503,0.19444648921489716,0.1738496720790863,-0.014475811272859573,0.15232649445533752,0.009190262295305729,-0.14129330217838287,-0.1401982456445694,0.07294300198554993,-0.19916220009326935,0.19368652999401093,-0.1959504932165146,-0.03969469293951988,0.07522272318601608,0.13784798979759216,-0.16318105161190033,0.10577140748500824,-0.14320801198482513,-0.046439431607723236,0.09556212276220322,-0.16604496538639069,-0.13463614881038666,0.10495013743638992,0.03545408695936203,0.15899109840393066,-0.10404768586158752,-0.08810559660196304,0.11747530847787857,-0.003356850938871503,-0.18239164352416992,0.012884634546935558,0.18789660930633545,0.08122893422842026,0.09792259335517883,0.18015727400779724,-0.16696377098560333,0.050218045711517334,0.09539079666137695,-0.04049975052475929,0.1825954169034958,-0.021357575431466103,-0.01219186931848526,-0.12854275107383728,-0.010096210986375809,0.05311232805252075,0.18712273240089417,-0.003515450982376933,0.10184209048748016,-0.02831154689192772,-0.06989140808582306,-0.05156014859676361,0.0487578809261322,-0.10168571770191193,-0.023472700268030167,0.07585058361291885,-0.09171011298894882,0.15186960995197296,0.1291939616203308,-0.17661027610301971,0.046396106481552124,-0.037179116159677505,0.0693245455622673,0.003685548435896635,0.132104754447937,-0.17321188747882843,0.07042274624109268,0.05947883799672127,0.0702938511967659,-0.114333875477314,0.1482744663953781,0.04519379138946533,-0.15232431888580322,0.13645227253437042,0.1865277886390686,0.05726511403918266,-0.014394585974514484,-0.19779959321022034,0.12304191291332245,-0.16342401504516602,-0.01611368916928768,-0.07147561758756638,-0.06245477870106697,-0.18446305394172668,0.12041231989860535,0.012935064733028412,0.008779650554060936,-0.12453358620405197,0.18290717899799347,0.004187596030533314,-0.032966818660497665,0.17771683633327484,-0.03859066963195801,-0.11669747531414032,-0.07100345939397812,0.1113298311829567,-0.05673108994960785,-0.12881889939308167,0.16640236973762512,0.19255895912647247,-0.07925266027450562,0.04248502478003502,0.059428870677948,0.08402732759714127,-0.17475810647010803,0.11520584672689438,-0.14056740701198578,-0.19163799285888672,0.13845419883728027,0.12256729602813721,0.18608824908733368,-0.1187225803732872,-0.04768776521086693,0.1655704826116562,0.016087757423520088,0.10582644492387772,0.15283657610416412,-0.07981780171394348,0.06986705213785172,-0.09473934769630432,0.047286368906497955,-0.16990630328655243,0.07770443707704544,-0.1527852565050125,-0.17048905789852142,-0.18131650984287262,0.12341173738241196,-0.09686426818370819,0.16022999584674835,0.0484808087348938,-0.15025125443935394,-0.10037588328123093,-0.1669834405183792,0.17494986951351166,0.0038798071909695864,-0.08261124789714813,0.09174176305532455,-0.16019102931022644,-0.02070862613618374,-0.1284627914428711,-0.07592746615409851,0.05377008765935898,-0.113193579018116,0.17936651408672333,-0.18872769176959991,-0.08314426988363266,-0.10917394608259201,0.17646734416484833,-0.033545855432748795,0.14518816769123077,-0.011499240063130856,0.16904084384441376,0.06417874246835709,-0.19056306779384613,-0.18545223772525787,-0.022728770971298218,0.06819658726453781,-0.1583479344844818,0.15835236012935638,0.13059428334236145,-0.1762218028306961,0.11281314492225647,-0.1266629546880722,-0.012128561735153198,0.001602022210136056,-0.062001295387744904,-0.17203029990196228,0.11707297712564468,0.005249838810414076,-0.022036202251911163,0.17399220168590546,-0.03557422384619713,-0.12725019454956055,0.0016167343128472567,0.05814191699028015,-0.17006313800811768,0.02637077495455742,0.0788121446967125,0.07415114343166351,-0.13755039870738983,0.05727069079875946,-0.021439626812934875,-0.009416070766746998,0.0595693439245224,-0.024849137291312218,0.016479626297950745,-0.05048839747905731,-0.19022254645824432,-0.12714232504367828,0.1314048171043396,-0.04888591170310974,0.02140720747411251,0.07733823359012604,0.06042451038956642,0.1075722724199295,0.18844154477119446,-0.14324168860912323,-0.18914976716041565,0.08636195957660675,0.10263767093420029,-0.12424195557832718,-0.19810305535793304,0.13796311616897583,-0.044960279017686844,-0.10723571479320526,0.04897022619843483,-0.09925783425569534,-0.14261378347873688,-0.09341689199209213,0.10277862101793289,-0.002312108175829053,-0.027672071009874344,-0.19145718216896057,-0.15632364153862,0.02536889724433422,0.0811094343662262,0.1057453379034996,-0.07343247532844543,0.07641888409852982,-0.1340835690498352,0.006136387120932341,0.10479730367660522,0.020441466942429543,0.03181001543998718,0.13790398836135864,-0.14250266551971436,0.1382283866405487,-0.18925073742866516,0.10037921369075775,-0.16056637465953827,-0.049645714461803436,-0.057082973420619965,-0.1232905164361,0.06875161081552505,0.0005661448813043535,0.17112809419631958,-0.1877678632736206,0.153351828455925,-0.13786523044109344,0.04868215322494507,-0.11113052815198898,-0.016478421166539192,-0.1228676289319992,0.009187459945678711,0.015193384140729904,0.1834251433610916,0.05166545882821083,0.1765107363462448,-0.15979860723018646,0.11029448360204697,0.038106780499219894,0.15109923481941223,-0.07825545221567154,-0.04800804704427719,-0.16991546750068665,-0.1119033694267273,0.19762808084487915,-0.08555187284946442,0.13688763976097107,-0.04447226971387863,0.023608364164829254,0.07583671808242798,-0.01898915506899357,0.022010961547493935,-0.07326461374759674,-0.07499141991138458,0.05135525390505791,-0.0675818994641304,0.036150697618722916,0.03383876383304596,-0.06141715496778488,0.04775990545749664,-0.12298054993152618,-0.06676407158374786,-0.03556256741285324,0.0504266619682312,0.06213124468922615,0.03199424222111702,-0.10439027845859528,0.06151839718222618,0.06083569675683975,-0.16513067483901978,0.013527202419936657,0.13593263924121857,-0.11310819536447525,0.1963339000940323,-0.0876787081360817,-0.13682332634925842,-0.17201411724090576,-0.12843851745128632,-0.18743523955345154,-0.10239820182323456,-0.03430286794900894,0.07435611635446548,-0.1056000217795372,0.05707487463951111,-0.13337886333465576,0.11404835432767868,0.16573943197727203,0.05676181614398956,-0.12999556958675385,-0.15142157673835754,-0.13178980350494385,-0.012960746884346008,-0.16997301578521729,-0.009492442943155766,-0.07741183787584305,0.10997671633958817,-0.0896192193031311,0.07488752156496048,0.1432962566614151,0.1981048434972763,0.08832535147666931,-0.1574939787387848,-0.05371229350566864,-0.0011445390991866589,0.028427116572856903,0.006263037212193012,0.0007426111842505634,0.046193648129701614,0.18786634504795074,0.19066818058490753,0.16041293740272522,-0.08057315647602081,0.17333312332630157,0.029307231307029724,0.15993721783161163,-0.17700783908367157,-0.09225161373615265,0.008893903344869614,0.14740847051143646,0.05989035964012146,-0.054906945675611496,-0.013708947226405144,0.18729667365550995,-0.1250026375055313,0.15343807637691498,-0.15442021191120148,0.14198113977909088,0.03545036539435387,0.11330137401819229,-0.19891957938671112,-0.10728660970926285,-0.015577588230371475,-0.02822059951722622,-0.18012727797031403,0.2016270011663437,0.17257697880268097,0.13376964628696442,-0.020812619477510452,-0.014772641472518444,-0.008857299573719501,-0.1407957375049591,0.04259458929300308,-0.14768651127815247,-0.14960624277591705,0.013220314867794514,-0.19610385596752167,-0.04429556429386139,0.10488857328891754,0.16846774518489838,-0.13918635249137878,-0.19322246313095093,0.07533257454633713,-0.030057230964303017,0.09689140319824219,-0.05494315177202225,0.12456250190734863,0.15760883688926697,-0.08726149052381516,0.16647028923034668,0.0012722661485895514,0.1441676914691925,0.1258208006620407,0.05359623581171036,0.13372302055358887,-0.10975564271211624,0.0660034790635109,-0.0008265844662673771,0.04055832698941231,0.1104825809597969,-0.12852637469768524,-0.13399966061115265,-0.17976580560207367,-0.17176055908203125,0.018240919336676598,-0.09411405026912689,0.04609232023358345,0.019840802997350693,0.15750852227210999,0.12328261882066727,-0.15290583670139313,0.007576651871204376,0.02122548408806324,0.03161889687180519,-0.19261512160301208,-0.03384552150964737,0.19017615914344788,-0.04086633026599884,0.023909905925393105,0.0935075432062149,0.09147331118583679,0.13304029405117035,-0.20011043548583984,-0.02443970926105976,-0.160008043050766,0.032461460679769516,-0.02076324075460434,-0.014831957407295704,-0.032391492277383804,0.07492701709270477,0.10502347350120544,0.15793482959270477,0.1123690977692604,-0.08729081600904465,-0.060627587139606476,0.07383454591035843,-0.006597635801881552,-0.13580423593521118,-0.04617166146636009,0.14920668303966522,-0.18536925315856934,-0.13708804547786713,0.1334027647972107,0.03880363330245018,0.12493313103914261,0.01803862676024437,0.04717268422245979,-0.051422011107206345,-0.14706043899059296,-0.10921575874090195,0.01794884167611599,0.005375924985855818,0.13006152212619781,-0.19811557233333588,0.1900516301393509,0.1348925679922104,-0.1853698343038559,0.11092213541269302,0.17321883141994476,0.10199214518070221,-0.14796587824821472,-0.15176811814308167,-0.062483977526426315,0.029554082080721855,-0.012610634788870811,-0.08135563135147095,0.08205664157867432,0.11366153508424759,0.05619056895375252,0.08857191354036331,-0.004218368325382471,-0.03840867802500725,-0.015366318635642529,-0.07124996930360794,-0.1481441855430603,-0.004848753102123737,0.10693787038326263,0.09741867333650589,-0.004197094589471817,0.066171795129776,0.1362675279378891,0.18945586681365967,-0.009295850060880184,-0.1572021245956421,-0.19625231623649597,0.002369153779000044,0.06891326606273651,-0.17661052942276,-0.026454458013176918,0.08676838129758835,0.16545990109443665,0.14336025714874268,0.07551639527082443,0.18908318877220154,0.18228404223918915,-0.12298260629177094,-0.025422262027859688,-0.16865339875221252,0.012067816220223904,0.028521059080958366,-0.12688876688480377,-0.04424910247325897,-0.07078586518764496,0.2226065695285797,-0.0002869213931262493,-0.0010954876197502017,0.19177372753620148,-0.17833369970321655,0.13937035202980042,-0.1502060443162918,0.04922814294695854,-0.11975155770778656,0.11200746893882751,-0.07914961874485016,0.1858500838279724,-0.08265482634305954,-0.14242251217365265,0.003742869943380356,-0.10175934433937073,-0.0674654170870781,0.14183376729488373,0.14115619659423828,0.06548775732517242,0.069417305290699,-0.05935745686292648,-0.18583235144615173,-0.09535078704357147,-0.09785018116235733,0.03962048888206482,-0.0063203987665474415,0.05734638869762421,0.03500433266162872,-0.1597510278224945,0.0711507573723793,-0.16729049384593964,-0.1842936873435974,0.07687337696552277,-0.1612309068441391,-0.15430761873722076,-0.13675962388515472,-0.16453656554222107,0.05240052938461304,-0.060691408812999725,-0.07863437384366989,-0.03280484676361084,0.09565360844135284,0.1683867871761322,0.0664842277765274,0.048923593014478683,-0.08816160261631012,0.15312747657299042,0.07356499135494232,0.04765728488564491,0.01765121892094612,-0.099910207092762,-0.1508367508649826,-0.022744089365005493,0.005603047087788582,-0.09558151662349701,-0.14690962433815002,-0.19679421186447144,0.18207162618637085,-0.18731769919395447,-0.17370787262916565,0.03399328142404556,0.09787344187498093,0.0326426699757576,0.1533195674419403,-0.06706694513559341,-0.1376693844795227,-0.10892670601606369,0.044365089386701584,-0.07149452716112137,-0.18041013181209564,0.15358684957027435,-0.09212007373571396,0.001892998581752181,-0.12820743024349213,-0.1778716892004013,0.08341944962739944,-0.08110537379980087,0.1290932297706604,0.031473200768232346,0.11323369294404984,-0.05899450182914734,-0.01591622456908226,0.1158442422747612,0.17627348005771637,-0.1877259612083435,0.024567879736423492,-0.06187821924686432,0.04529290646314621,-0.17239750921726227,0.03709284961223602,0.008952765725553036,-0.08550085127353668,0.11468412727117538,0.028320936486124992,-0.12579329311847687,-0.17235292494297028,0.05057838186621666,-0.05031835660338402,0.17493857443332672,-0.13012248277664185,0.12476684898138046,0.08416511863470078,0.007149668410420418,-0.19157420098781586,0.066705621778965,-0.17604418098926544,-0.18334920704364777,0.14126037061214447,0.15963135659694672,0.04716778174042702,0.13179916143417358,0.19646276533603668,-0.06717822700738907,0.04983385652303696,0.08193344622850418,-0.021761290729045868,0.12115288525819778,0.157706156373024,0.030698802322149277,-0.042154811322689056,0.11233468353748322,-0.028133608400821686,-0.03401944413781166,-0.03172788769006729,0.14778465032577515,0.11211176216602325,-0.09014596045017242,0.0971498116850853,0.08383151888847351,0.09303420782089233,0.09049778431653976,-0.1098654642701149,0.08344397693872452,-0.00566047802567482,0.06982855498790741,0.05559038743376732,-0.12393558770418167,0.14392560720443726,0.07563919574022293,-0.18959015607833862,-0.017054004594683647,-0.059895921498537064,0.08401750773191452,-0.0038369609974324703,-0.016176428645849228,0.05437059327960014,-0.005741039756685495,-0.011213510297238827,0.05543697625398636,0.16269132494926453,-0.16269604861736298,0.18661080300807953,0.11047428846359253,-0.1040007472038269,-0.0633678138256073,-0.11168675124645233,0.09943857043981552,-0.07083720713853836,-0.10188145935535431,0.07868174463510513,0.08428540080785751,-0.1364389955997467,-0.12767255306243896,-0.13262593746185303,-0.05008018761873245,0.17893588542938232,-0.14031203091144562,-0.04383376985788345,0.07194879651069641,0.04217354953289032,0.17338968813419342,-0.06721973419189453,-0.05157872289419174,0.10697183012962341,-0.08144176006317139,0.05324779450893402,0.0174120981246233,-0.19494135677814484,0.01904895342886448,-0.08618380129337311,0.13392417132854462,-0.0828547552227974,-0.19699491560459137,0.19237378239631653,0.08145648241043091,-0.0790570080280304,0.1585228443145752,0.02754819765686989,0.04871624335646629,-0.1724751740694046,0.15046089887619019,0.1259937435388565,-0.18668270111083984,0.1287507265806198,0.16283345222473145,0.10629697144031525,-0.03790351003408432,-0.061228856444358826,-0.08614052087068558,0.017525169998407364,0.1775990128517151,-0.17820775508880615,-0.010582470335066319,-0.03987712413072586,0.1310979127883911,0.03824432194232941,0.05138494074344635,-0.1443449705839157,-0.14912962913513184,-0.18510004878044128,-0.1031416803598404,0.11814910173416138,-0.12647655606269836,0.15160800516605377,0.017937052994966507,-0.1433754563331604,-0.19254553318023682,0.12985509634017944,-0.15470220148563385,0.1895126849412918,-0.1536666452884674,-0.17031902074813843,-0.03416719287633896,-0.01329780463129282,-0.10529834777116776,0.037079088389873505,-0.027847668156027794,0.15803268551826477,0.09877808392047882,0.14754419028759003,-0.12150084972381592,-0.12963493168354034,0.11707721650600433,0.045502860099077225,0.09436488151550293,-0.11180846393108368,0.18649598956108093,-0.03191172331571579,0.0038532314356416464,-0.1562991887331009,-0.13073916733264923,0.002994736423715949,0.1017160639166832,0.04717385396361351,0.11155588924884796,0.11726366728544235,-0.17143282294273376,-0.06642313301563263,0.032844267785549164,-0.15783104300498962,-0.06354495137929916,0.04939676821231842,-0.14644914865493774,0.09144194424152374,-0.1501782238483429,-0.03480583056807518,-0.045017048716545105,0.11133898794651031,0.14860102534294128,-0.0463142916560173,-0.02647308260202408,-0.1381034255027771,0.11413131654262543,0.028465183451771736,0.09196241199970245,0.1424788385629654,0.032799746841192245,-0.12662240862846375,-0.025019630789756775,-0.046024732291698456,0.156209796667099,0.11989618092775345,0.004276689607650042,0.1347000002861023,0.17910698056221008,-0.13368932902812958,-0.02627108246088028,-0.01370132528245449,-0.09155980497598648,0.0652301087975502,-0.03932487592101097,-0.18623612821102142,0.13090893626213074,0.026260418817400932,-0.08010128885507584,-0.026477159932255745,-0.16481991112232208,-0.16737817227840424,-0.10952924937009811,0.01197435799986124,-0.16206037998199463,-0.12437726557254791,0.06242359057068825,-0.07900937646627426,0.06612933427095413,-0.009446400217711926,-0.07097175717353821,-0.033995553851127625,-0.07754407078027725,0.1047198548913002,0.056434329599142075,-0.10944879055023193,-0.0660686120390892,0.10259311646223068,0.12175513058900833,-0.06611596047878265,0.19020827114582062,0.11895295232534409,0.0773458257317543,-0.14684703946113586,-0.007088856305927038,-0.029918255284428596,0.17863449454307556,-0.15922200679779053,-0.1036783903837204,-0.1598350554704666,-0.12260566651821136,0.15948718786239624,0.03027995303273201,-0.04478100687265396,0.13477204740047455,-0.08974137902259827,0.10363370180130005,-0.015483048744499683,0.15244537591934204,0.07372748851776123,-0.19913019239902496,0.10023600608110428,0.16937047243118286,0.09129366278648376,-0.14868398010730743,-0.16774176061153412,-0.17380915582180023,-0.176635280251503,-0.07194487750530243,-0.022360004484653473,-0.08401055634021759,-0.050779324024915695,0.1200621947646141,0.19380706548690796,-0.029960142448544502,-0.05679003894329071,-0.10144257545471191,-0.10325323045253754,0.08381646871566772,-0.032839685678482056,-0.04649487882852554,0.03627517819404602,-0.14833122491836548,-0.07924376428127289,0.027775852009654045,-0.1562170535326004,0.090751051902771,-0.17623285949230194,0.03578825294971466,0.09025250375270844,0.061207275837659836,-0.18921837210655212,-0.007736251689493656,-0.0019674187060445547,-0.15929393470287323,0.09257481247186661,-0.17436419427394867,0.05107727274298668,0.04326558858156204,-0.1489046812057495,0.18547749519348145,0.12658795714378357,0.18549150228500366,-0.11694556474685669,-0.15969590842723846,-0.17195215821266174,-0.007462553679943085,-0.022654617205262184,0.1917356252670288,0.19336403906345367,0.10966014862060547,-0.10427281260490417,-0.13399706780910492,-0.05387525260448456,-0.11958754807710648,0.15115077793598175,-0.07036717236042023,0.17627516388893127,-0.1274159848690033,0.16085340082645416,-0.07374133169651031,0.18320590257644653,0.15589287877082825,-0.09572213888168335,-0.008688090369105339,0.1253424435853958,0.03191966563463211,0.08605730533599854,0.006769588217139244,0.15997321903705597,0.011350670829415321,0.07535383850336075,-0.07152431458234787,0.16466307640075684,0.016056356951594353,-0.06413807719945908,0.16589684784412384,0.07115134596824646,0.02608408033847809,0.029798278585076332,-0.19876150786876678,0.02533710189163685,0.19516608119010925,-0.009030919522047043,0.00420380849391222,-0.11663150042295456,-0.09414876252412796,0.07374414056539536,0.11160221695899963,-0.17913520336151123,0.005391706712543964,-0.07873393595218658,0.04768577963113785,-0.03954630345106125,0.07385754585266113,0.1702728420495987,-0.1145198866724968,-0.06438945978879929,0.010387718677520752,-0.09289154410362244,0.05631402134895325,0.1331307291984558,-0.14977245032787323,0.02769661135971546,0.06142038106918335,-0.08308660238981247,0.06239558383822441,-0.06024421006441116,0.1673598736524582,0.1201147809624672,0.1826484054327011,-0.07858513295650482,-0.05626292526721954,-0.10642344504594803,0.13161636888980865,-0.18955090641975403,0.03557848185300827,0.17379574477672577,-0.06803114712238312,-0.1774611920118332,-0.08895916491746902,0.1433224081993103,-0.0001701475994195789,-0.16972368955612183,-0.03002931736409664,0.08649478107690811,-0.19816499948501587,-0.04044362157583237,-0.0366879440844059,-0.07075290381908417,0.10297897458076477,0.050441570580005646,0.06866984814405441,0.052231743931770325,0.022341087460517883,-0.1633780151605606,0.17961499094963074,-0.02545243129134178,-0.11045878380537033,-0.10670681297779083,0.11579545587301254,-0.1678464114665985,-0.11523561924695969,-0.07374072819948196,-0.15468904376029968,0.07976503670215607,0.05374655872583389,-0.03556893393397331,-0.16055454313755035,0.022434497252106667,0.09232816100120544,-0.004025213420391083,-0.13497568666934967,0.08126796036958694,0.0732821524143219,0.07073917984962463,-0.15339301526546478,-0.1177748516201973,-0.12938213348388672,0.12100205570459366,-0.053745757788419724,-0.04920881986618042,0.14547309279441833,0.19011037051677704,-0.19763392210006714,-0.11627718806266785,0.1788737028837204,-0.05163978412747383,0.09540393948554993,-0.19942566752433777,0.10739818960428238,-0.08745761215686798,-0.06409983336925507,-0.14776119589805603,0.03190886601805687,-0.1773550659418106,0.05348362773656845,0.04946297034621239,0.1040274128317833,-0.19502384960651398,0.11417751759290695,0.1551276296377182,0.07082384079694748,0.016499662771821022,-0.18274764716625214,-0.16002194583415985,0.11673597246408463,0.09775801002979279,0.08767562359571457,-0.08061257749795914,-0.10630214214324951,-0.028515618294477463,0.10516563057899475,0.188117116689682,0.17084147036075592,0.09270520508289337,-0.005340898875147104,-0.1892603039741516,-0.08725365996360779,0.0010137466015294194,-0.09700953960418701,-0.02524230256676674,0.04938238486647606,-0.06313672661781311,-0.058899298310279846,-0.07354629784822464,-0.05473988130688667,-0.10794897377490997,0.18281780183315277,-0.13422372937202454,0.002224996453151107,-0.11604345589876175,-0.09862257540225983,-0.17246799170970917,0.13915418088436127,-0.16350002586841583,-0.0743425041437149,0.09921827167272568,0.19325199723243713,-0.0998004600405693,0.19086302816867828,-0.15099844336509705,-0.14662103354930878,0.04577360302209854,-0.004554263316094875,0.05197266861796379,-0.007352357264608145,0.17716722190380096,0.00218436261638999,-0.09896532446146011,-0.018913505598902702,-0.14220649003982544,0.08363904058933258,-0.03148005157709122,0.17228585481643677,0.1775732785463333,0.09648121148347855,-0.1704781949520111,0.004553591832518578,0.18381065130233765,-0.043850477784872055,0.14971423149108887,-0.09193066507577896,0.08757976442575455,0.08506006747484207,0.01802355982363224,0.004392433911561966,0.1174236461520195,-0.025185756385326385,-0.06323106586933136,0.052274156361818314,-0.05586555600166321,-0.1818312108516693,-0.0187675841152668,-0.19381849467754364,0.1010764017701149,-0.07092823833227158,-0.0821828618645668,0.12878897786140442,-0.10312671214342117,0.08300238102674484,0.0472271628677845,-0.17424719035625458,-0.016289671882987022,-0.18959619104862213,-0.17429162561893463,-0.15093763172626495,-0.03677920624613762,0.11421878635883331,0.031123008579015732,-0.04256037622690201,-0.07443725317716599,0.12254571914672852,-0.01569300703704357,0.18767310678958893,0.18554188311100006,-0.1843726634979248,-0.07356847822666168,-0.024231508374214172,0.024452168494462967,-0.1916271448135376,-0.16821697354316711,-0.042210500687360764,-0.1070324182510376,-0.0064001502469182014,-0.15927359461784363,-0.1298251450061798,0.12256854772567749,-0.18698444962501526,0.12452812492847443,-0.04559394717216492,-0.07914654165506363,-0.016222208738327026,0.16372711956501007,-0.08985552936792374,-0.09371516108512878,-0.033573150634765625,-0.07741831988096237,0.10493815690279007,-0.009330706670880318,0.07118538022041321,-0.04951454699039459,-0.08701617270708084,0.13675671815872192,-0.14610253274440765,0.03470011055469513,-0.12899500131607056,-0.13028070330619812,-0.08453301340341568,0.026455651968717575,0.14216680824756622,0.08307567983865738,-0.03665321692824364,0.19620871543884277,0.13361257314682007,0.0684233084321022,0.18417641520500183,-0.17763298749923706,-0.04414160177111626,0.0952906459569931,0.13532648980617523,0.0992639809846878,-0.06391347944736481,-0.10003064572811127,-0.0625172033905983,0.09969772398471832,0.06475235521793365,0.11084802448749542,0.0849442109465599,0.11192313581705093,0.059627458453178406,0.09187289327383041,0.1491512507200241,0.0730268731713295,-0.10907971858978271,-0.0579833947122097,-0.11369127035140991,-0.12871748208999634,0.09612073749303818,0.19101575016975403,-0.022096818313002586,-0.14059826731681824,-0.1658613532781601,-0.05797183886170387,-0.022102726623415947,0.006560693960636854,-0.13254475593566895,0.0772683247923851,-0.0459575280547142,0.10284098982810974,-0.17016762495040894,-0.05926037207245827,0.1987534463405609,0.0811828225851059,-0.1168261468410492,-0.06916432082653046,-0.09596330672502518,0.03008056990802288,-0.03454677015542984,0.05398186296224594,-0.019436610862612724,0.025912677869200706,-0.06327816098928452,-0.14354871213436127,0.10060899704694748,-0.16408367455005646,0.03330729529261589,-0.02794334478676319,0.06316610425710678,0.020232588052749634,-0.0007078255875967443,-0.06074659898877144,0.08930900692939758,0.005556612741202116,0.07635220140218735,0.10869068652391434,0.03876335546374321,-0.1792334020137787,-0.05822335183620453,-0.09089412540197372,-0.030612308531999588,-0.1733413189649582,-0.16408565640449524,0.03784503415226936,0.08740352094173431,-0.17626704275608063,0.19496071338653564,0.0767388865351677,0.19828808307647705,0.1091470792889595,-0.08043206483125687,0.13495227694511414,-0.11826595664024353,-0.07162819057703018,0.020946692675352097,0.18979670107364655,0.16858027875423431,0.07433651387691498,0.023156633600592613,-0.07250119000673294,-0.05991420894861221,-0.1130954846739769,-0.17199108004570007,0.09459304809570312,0.008720889687538147,-0.09466050565242767,-0.05007481202483177,-0.1365557760000229,-0.1124381497502327,0.1672968566417694,-0.07913749665021896,0.02710212767124176,0.10215859860181808,-0.01692657545208931,-0.012989770621061325,-0.01772001013159752,-0.15931957960128784,0.05270743370056152,0.0520583800971508,0.047638189047575,0.07805321365594864,-0.11514215171337128,-0.1911008507013321,0.08007816225290298,0.015041661448776722,-0.18417227268218994,-0.07649977505207062,-0.1636384129524231,0.0720619410276413,-0.09913957118988037,0.18644006550312042,-0.09816152602434158,-0.18463383615016937,-0.005373038817197084,-0.19756105542182922,-0.08608948439359665,0.1464671492576599,-0.04221856966614723,-0.13400422036647797,-0.002787661273032427,0.06972059607505798,0.07468287646770477,-0.12736016511917114,-0.05771753564476967,-0.0868472084403038,-0.07435615360736847,-0.18891455233097076,0.2136867642402649,0.13837666809558868,-0.13753338158130646,-0.06156842038035393,0.06095055863261223,0.11486812680959702,-0.19275467097759247,-0.13183285295963287,0.06397605687379837,-0.08792418241500854,0.16786901652812958,0.1748720109462738,-0.04294166341423988,0.19186757504940033,0.05856241658329964,0.13411951065063477,-0.19652217626571655,-0.002318817190825939,0.10288948565721512,0.05208413302898407,0.19732560217380524,0.06373614817857742,0.08441619575023651,-0.17404966056346893,0.09740933775901794,-0.0738639160990715,0.02987126260995865,-0.0595305860042572,0.12338607758283615,0.08557093143463135,-0.10661783069372177,-0.09894158691167831,-0.10047358274459839,-0.06848056614398956,-0.09868476539850235,0.13656944036483765,-0.10434038937091827,0.034651823341846466,0.0238727405667305,0.11340846121311188,0.1878017783164978,-0.16782702505588531,-0.14225836098194122,0.05892006680369377,0.06882607936859131,-0.19525834918022156,-0.05225478857755661,0.1357777714729309,-0.13540932536125183,-0.1784493327140808,-0.03699680417776108,0.11394941061735153,0.11915968358516693,-0.08638501167297363,0.07974957674741745,0.02346445992588997,0.0016151487361639738,0.14301107823848724,0.08941077440977097,-0.1900499165058136,-0.11535138636827469,0.08902397006750107,0.08418355882167816,-0.19278553128242493,-0.07063709199428558,-0.1103057712316513,0.1071675643324852,-0.009381660260260105,-0.12311725318431854,-0.026000868529081345,0.1305491328239441,0.16022145748138428,0.13842403888702393,0.040573202073574066,0.15516413748264313,-0.014564940705895424,0.10336801409721375,0.09952721744775772,0.030274197459220886,-0.11629976332187653,0.05213695764541626,-0.022619212046265602,-0.1470087617635727,-0.11258813738822937,-0.17277398705482483,0.1703329086303711,-0.002686866093426943,0.08067016303539276,0.16892722249031067,-0.08618993312120438,0.03225921839475632,0.12434974312782288,-0.14785286784172058,0.08144818991422653,0.006099848076701164,-0.025977643206715584,-0.0863129273056984,-0.1418946534395218,0.11349137127399445,0.12721596658229828,-0.039658188819885254,0.03464402258396149,-0.07367227971553802,0.1520555317401886,-0.18542031943798065,0.18165411055088043,-0.14587409794330597,0.19150881469249725,0.019051793962717056,0.09452962130308151,0.19124235212802887,-0.006440913770347834,-0.07675415277481079,-0.10862607508897781,-0.07253947108983994,-0.09652753919363022,-0.03154735267162323,-0.11639294028282166,0.19266746938228607,-0.11597366631031036,0.08064569532871246,0.05360611528158188,0.047484394162893295,0.19431594014167786,-0.0676875039935112,0.15441718697547913,-0.06692123413085938,-0.06105337291955948,0.015104768797755241,-0.10823679715394974,-0.012260065414011478,0.0585145428776741,0.06483582407236099,-0.05141831561923027,-0.14277616143226624,0.08265216648578644,-0.07863916456699371,0.172308549284935,-0.05644766986370087,-0.04814374819397926,0.07436633110046387,0.034563980996608734,-0.18372759222984314,0.01735442504286766,-0.13279542326927185,0.012851814739406109,0.05880959704518318,-0.012486346997320652,-0.10513287037611008,0.14474137127399445,-0.09292542189359665,-0.1797509491443634,0.1388067752122879,-0.01589241810142994,0.09513553231954575,0.03276824951171875,-0.016686296090483665,-0.16173595190048218,0.16815441846847534,0.12478333711624146,0.014717167243361473,0.01593177393078804,-0.0786508098244667,0.12142489105463028,-0.1550455540418625,-0.1955852061510086,0.16524247825145721,-0.18210087716579437,0.04235086962580681,-0.1290237009525299,0.14444316923618317,-0.18351326882839203,0.04288940504193306,-0.015236422419548035,-0.10461326688528061,-0.11272036284208298,0.06194353476166725,-0.0964130237698555,-0.18000224232673645,0.0002029513125307858,0.11850153654813766,-0.12172861397266388,0.06380775570869446,0.08161330968141556,0.038271307945251465,0.019560033455491066,-0.15577487647533417,-0.11564789712429047,-0.000777516164816916,-0.19050917029380798,0.07126105576753616,0.10324117541313171,0.11511941999197006,0.16514821350574493,-0.14284071326255798,-0.0830254852771759,0.08150618523359299,-0.12433866411447525,-0.15109385550022125,-0.008854852989315987,0.05084636062383652,0.059947121888399124,-0.12164463847875595,-0.03901062160730362,0.07350299507379532,0.12895071506500244,-0.014556024223566055,0.1346692442893982,-0.09059112519025803,0.07318880409002304,-0.1507042646408081,0.05525964871048927,-0.03428949788212776,0.05157524347305298,0.18236267566680908,-0.08554644882678986,0.05344841629266739,-0.07786232978105545,0.051247596740722656,0.05298115313053131,-0.09360836446285248,0.054035820066928864,-0.0781187191605568,-0.14508172869682312,0.02196822687983513,-0.03217049315571785,-0.08487551659345627,-0.1928749680519104,-0.11740849167108536,-0.08853334933519363,-0.19380933046340942,-0.1796170026063919,-0.1134827509522438,-0.0048992387019097805,-0.15879222750663757,-0.130646213889122,0.19912181794643402,-0.13949289917945862,0.17966638505458832,-0.16707760095596313,-0.0675894096493721,-0.07843317836523056,0.07208158820867538,-0.17637410759925842,0.12896756827831268,0.1938435286283493,0.17530949413776398,0.12220872938632965,-0.043592147529125214,0.043250542134046555,-0.12226559966802597,0.057681597769260406,0.14541374146938324,-0.002275621984153986,-0.09527378529310226,0.019143804907798767,0.09585201740264893,-0.15717600286006927,0.13254007697105408,0.0528796911239624,-0.10081248730421066,0.1204608678817749,