{"type":"NeuralNetwork","sizes":[26040,3,5],"layers":[{"weights":[],"biases":[]},{"weights":[[0.1590871810913086,-0.019131630659103394,0.02558022551238537,-0.032104894518852234,0.0021781628020107746,0.03047114983201027,0.07209993153810501,-0.1875918060541153,0.18188394606113434,0.18108685314655304,-0.1772647500038147,-0.013396156020462513,-0.07259470969438553,0.09144271165132523,-0.09664136171340942,-0.10369947552680969,-0.1545269638299942,-0.022589432075619698,-0.05383625626564026,0.1528734713792801,0.01764199696481228,-0.09684432297945023,0.04591041058301926,0.16598185896873474,0.07811934500932693,-0.20108920335769653,0.12253439426422119,0.19913892447948456,0.0043639931827783585,0.03584548830986023,-0.009113520383834839,-0.0724853128194809,0.0030900384299457073,0.046686869114637375,0.08887354284524918,-0.07657042890787125,-0.16298706829547882,0.09228913486003876,0.13713853061199188,-0.025832735002040863,0.00022249708126764745,0.16753023862838745,0.18207108974456787,0.15289629995822906,0.059504467993974686,-0.013020525686442852,0.15555180609226227,-0.04206131398677826,-0.11291386932134628,0.02582656778395176,0.16578589379787445,0.03891901671886444,-0.0669272392988205,0.0745299905538559,0.03207201510667801,-0.1666414439678192,-0.0013020726619288325,-0.022202402353286743,0.09827663004398346,0.09367302060127258,0.009475940838456154,-0.13937750458717346,-0.03413086384534836,-0.13236528635025024,-0.18114708364009857,-0.08983819931745529,-0.014931921847164631,0.11228550225496292,-0.18948492407798767,-0.1245112493634224,0.09562559425830841,-0.17799878120422363,-0.06409585475921631,0.040073320269584656,-0.11338161677122116,-0.04548507556319237,0.14954936504364014,0.14356271922588348,0.180802583694458,0.060097020119428635,-0.030447687953710556,0.03866082429885864,-0.12894432246685028,-0.18267463147640228,0.09051736444234848,-0.17754459381103516,-0.1228012815117836,0.014306244440376759,-0.04858585447072983,0.13811403512954712,0.15082180500030518,-0.08534309267997742,-0.0625583678483963,0.12137246131896973,0.16877615451812744,-0.1855827271938324,-0.1093822717666626,-0.04065141826868057,-0.11559932678937912,-0.03292154148221016,0.017085839062929153,0.02331317774951458,-0.048051413148641586,0.035575415939092636,-0.05873490124940872,-0.15061426162719727,0.11221340298652649,-0.1248370036482811,0.1353575438261032,0.11561649292707443,-0.0721372663974762,-0.10290120542049408,0.17218148708343506,-0.050337329506874084,-0.17230071127414703,0.012429941445589066,-0.09067630767822266,0.06371291726827621,0.07849931716918945,-0.047425441443920135,0.15311452746391296,0.14637887477874756,-0.008902303874492645,0.06717660278081894,0.17329822480678558,0.18401558697223663,0.03628916293382645,-0.16396212577819824,0.1784723401069641,0.11738705635070801,-0.12147148698568344,0.18032297492027283,-0.04554233327507973,-0.10062015056610107,-0.1308794617652893,-0.09191252291202545,0.16039477288722992,-0.10132623463869095,0.10021257400512695,0.08114147931337357,0.09340875595808029,-0.0396186001598835,0.11628241837024689,-0.18576523661613464,0.18117886781692505,0.04448205605149269,0.06970355659723282,-0.02432088926434517,0.15766945481300354,0.06262551993131638,0.5439515709877014,-0.005979508627206087,0.13294988870620728,-0.14472582936286926,0.15405064821243286,0.0090378038585186,0.13606753945350647,-0.01444495003670454,-0.0912117287516594,-0.05860929563641548,0.10241933166980743,0.08199432492256165,0.11316286027431488,-0.1799324005842209,0.13599012792110443,-0.028624212369322777,0.09232673048973083,-0.013760233297944069,0.06757009774446487,-0.13218925893306732,-0.08765890449285507,0.1376226842403412,0.05572839081287384,0.15390019118785858,-0.05940542370080948,0.17883731424808502,-0.16450975835323334,0.17633062601089478,-0.012532401829957962,0.10614370554685593,0.3150844871997833,0.1995418667793274,0.18273106217384338,-0.1554585099220276,-0.18132372200489044,-0.09441235661506653,0.011506494134664536,0.09298687428236008,0.024662410840392113,-0.0062554748728871346,-0.16188886761665344,-0.12903396785259247,-0.17663365602493286,0.09538084268569946,0.05152447521686554,-0.06274617463350296,0.04656456783413887,-0.037324607372283936,0.1396961361169815,-0.025571074336767197,-0.12864862382411957,0.03260454908013344,-0.0731547549366951,-0.16675406694412231,-0.03117399662733078,0.08257190883159637,0.12348996847867966,0.07195378839969635,0.1999417245388031,0.13886015117168427,0.20069284737110138,0.08296024799346924,0.1995352804660797,-0.14603251218795776,-0.09429136663675308,-0.06089620664715767,0.20101018249988556,0.06269558519124985,-0.06602488458156586,-0.19129745662212372,0.17967990040779114,-0.07873082906007767,-0.11284234374761581,-0.1949181854724884,-0.012582493014633656,0.1744033545255661,0.15379266440868378,-0.1508418619632721,-0.12587538361549377,0.10683339089155197,-0.009475111030042171,0.17508940398693085,-0.1799917370080948,0.04613715410232544,-0.16129952669143677,-0.038784436881542206,-0.06043468415737152,0.0692630261182785,-0.02891109697520733,-0.10818056017160416,0.0960082933306694,-0.02111167460680008,-0.059812281280756,-0.1389061063528061,0.09430841356515884,0.14713570475578308,-0.18391914665699005,-0.11672069132328033,0.17766796052455902,-0.07777921855449677,0.04641896113753319,0.11856359243392944,0.05806244909763336,-0.09064991772174835,-0.024947958067059517,0.04943077266216278,0.06583109498023987,-0.017531735822558403,0.12829887866973877,0.1018274649977684,0.09672355651855469,-0.10837026685476303,0.11023546010255814,-0.013693374581634998,-0.015469607897102833,-0.1797519475221634,0.09326835721731186,0.0074068414978682995,-0.07546232640743256,-0.15552370250225067,0.050345826894044876,0.1281481683254242,0.010897083207964897,-0.026810843497514725,-0.08155205845832825,-0.11600684374570847,0.11553836613893509,-0.08612389862537384,0.13194981217384338,-0.01499191951006651,0.06222907081246376,0.025518357753753662,0.11994779855012894,0.0784783661365509,-0.021006058901548386,0.05656007304787636,0.15614336729049683,0.03923148661851883,0.17238551378250122,-0.16774064302444458,-0.14703243970870972,0.17639723420143127,0.11385726183652878,0.010689658112823963,0.020764779299497604,0.032201409339904785,-0.021475106477737427,-0.042023371905088425,0.1565752923488617,-0.12796837091445923,0.47593382000923157,0.18620720505714417,0.055063679814338684,0.07981183379888535,0.13816332817077637,-0.159344881772995,-0.15761950612068176,-0.16470763087272644,-0.12914390861988068,-0.09462007135152817,0.16874107718467712,-0.11517520248889923,0.03491371497511864,-0.10858763754367828,-0.14277033507823944,0.02613786980509758,-0.16062231361865997,0.03036063350737095,-0.07085824012756348,-0.1536351442337036,-0.11188814789056778,-0.09209495037794113,0.07120457291603088,-0.138773575425148,-0.03246832638978958,-0.10594070702791214,-0.06762343645095825,-0.08534666150808334,0.17848420143127441,-0.11467347294092178,0.2878662049770355,0.01489139162003994,0.1531563699245453,-0.08181727677583694,0.13831287622451782,0.16281285881996155,-0.18908663094043732,-0.12910804152488708,0.08202186226844788,-0.12468118965625763,0.1375078707933426,-0.05137934163212776,-0.013972545973956585,0.12172097712755203,-0.07149316370487213,-0.10093221068382263,0.19613432884216309,-0.09148246049880981,-0.129677876830101,0.023480340838432312,-0.1932002753019333,0.047233447432518005,0.1606716811656952,-0.006429642904549837,-0.09791796654462814,0.01995266042649746,0.11649821698665619,-0.04653094336390495,-0.10761313885450363,0.18281422555446625,0.21137529611587524,0.1361916959285736,0.15793681144714355,-0.006441669072955847,-0.14306952059268951,0.14671075344085693,-0.03673951327800751,-0.11109095066785812,-0.18516072630882263,0.08219397813081741,-0.16740335524082184,-0.17492017149925232,0.14313173294067383,-0.17144577205181122,0.16004247963428497,0.0076905242167413235,-0.0702490583062172,-0.16543157398700714,-0.16869373619556427,0.05746964365243912,0.12215304374694824,0.04811009392142296,0.000602193467784673,0.03319514915347099,0.023560868576169014,-0.12847580015659332,0.15290795266628265,0.008097046986222267,-0.042563844472169876,0.11241640895605087,0.22308748960494995,0.08266409486532211,-0.04340517893433571,0.15217939019203186,0.12943145632743835,-0.08326198905706406,-0.13479380309581757,0.06761955469846725,-0.08589814603328705,-0.19185660779476166,0.12254411727190018,0.0008038318483158946,-0.09627211093902588,0.09263358265161514,0.1185058131814003,0.016625769436359406,0.0036613091360777617,0.09450963884592056,-0.018020648509263992,-0.08028534799814224,0.025099337100982666,-0.19942164421081543,0.033586252480745316,0.18712610006332397,0.058752961456775665,0.08399750292301178,-0.08484464138746262,-0.19414444267749786,0.1566312462091446,-0.16766215860843658,0.3506564199924469,0.19603733718395233,-0.04011538624763489,0.011222176253795624,0.13637763261795044,-0.08301261067390442,-0.13258753716945648,-0.17095711827278137,0.056279558688402176,0.18450696766376495,-0.029844151809811592,-0.13542844355106354,0.043073445558547974,0.06320910155773163,-0.13469143211841583,0.10568635165691376,-0.017085319384932518,-0.03596445545554161,-0.03071223571896553,-0.13651569187641144,0.1271883249282837,0.037415165454149246,0.19217857718467712,0.07012239098548889,0.03978585824370384,-0.1601913720369339,-0.11011892557144165,-0.13214807212352753,0.030281178653240204,0.034387245774269104,0.13380809128284454,0.12915927171707153,0.09288656711578369,0.05328262969851494,0.10512756556272507,0.16885344684123993,-0.0036692796275019646,0.1063704788684845,0.06927435845136642,0.10124827176332474,-0.19002142548561096,0.16314713656902313,-0.01342421118170023,-0.10229986160993576,-0.05419684946537018,-0.019177956506609917,-0.055713050067424774,-0.18151941895484924,-0.14864298701286316,0.1281467229127884,0.06337174773216248,0.04846971854567528,0.01396473404020071,0.02819523960351944,0.04394859820604324,0.09807455539703369,-0.12058774381875992,-0.01038215309381485,0.10450823605060577,-0.122352734208107,-0.024218140169978142,-0.12369047850370407,-0.1599714457988739,0.039026156067848206,-0.12849336862564087,-0.016467059031128883,0.07813691347837448,0.06289153546094894,0.05482625961303711,0.0751323476433754,-0.10208653658628464,-0.09012870490550995,0.046279001981019974,0.053326867520809174,-0.024146489799022675,0.06774923950433731,0.1289457231760025,0.16479989886283875,0.05363549664616585,-0.004609789699316025,0.05028212070465088,0.17592047154903412,-0.12241648882627487,-0.030467918142676353,0.07740097492933273,0.15924814343452454,-0.027348104864358902,-0.10548507422208786,0.13850009441375732,0.12496589124202728,0.08424458652734756,-0.15618379414081573,-0.07456681877374649,0.05309981852769852,-0.060699667781591415,0.19919753074645996,-0.10400788486003876,0.17934362590312958,-0.017033258453011513,0.0569455549120903,-0.14085398614406586,-0.09056811779737473,0.07828296720981598,0.08454157412052155,-0.16231544315814972,-0.18620912730693817,-0.005565120838582516,0.0027242889627814293,0.008542405441403389,0.04425109922885895,0.025051603093743324,0.04567921906709671,0.05060890316963196,0.01382338348776102,0.08990534394979477,0.15225334465503693,0.1613527238368988,-0.02081792987883091,-0.03977102413773537,-0.11838001012802124,-0.08243194222450256,-0.006765428464859724,0.07386010140180588,-0.10173030197620392,-0.18780863285064697,0.08599146455526352,-0.00044472081935964525,-0.050622280687093735,0.010843412019312382,-0.08528371155261993,-0.0303824320435524,-0.01043434627354145,-0.1397252082824707,0.06388886272907257,0.0014151433715596795,0.09024837613105774,0.015050572343170643,0.19472050666809082,-0.09329256415367126,-0.009936796501278877,0.04651123285293579,-0.1586875170469284,-0.06271536648273468,-0.08542562276124954,-0.0046950471587479115,0.08085785806179047,-0.1518465280532837,-0.05111682042479515,0.19652140140533447,0.06785769015550613,-0.0016780812293291092,-0.019334806129336357,0.04935996234416962,-0.019627097994089127,0.1745140254497528,0.06024978309869766,0.18159933388233185,-0.05242617800831795,0.0652705654501915,0.12221434712409973,-0.09113814681768417,0.15313534438610077,-0.08282753080129623,0.0891747921705246,0.05065406113862991,0.04321843385696411,0.10131958872079849,-0.11911743879318237,-0.17595748603343964,0.19360387325286865,-0.07691500335931778,0.17832425236701965,0.0474068708717823,-0.1496000587940216,0.14534933865070343,0.17063817381858826,0.12228529155254364,0.06007570028305054,0.1105036586523056,-0.0707036480307579,0.11450041830539703,-0.15311746299266815,0.07800046354532242,-0.1483135223388672,0.16394571959972382,-0.07795511931180954,-0.06057436764240265,0.13847902417182922,-0.12494097650051117,0.14183202385902405,0.13816817104816437,0.054906170815229416,0.12951406836509705,0.15058951079845428,0.14030399918556213,-0.035669222474098206,0.16935978829860687,0.13972045481204987,-0.13180691003799438,-0.146439790725708,0.07181020826101303,0.1826152801513672,0.11241811513900757,-0.07345259934663773,-0.07285407185554504,-0.010207688435912132,0.016869166865944862,-0.14536143839359283,0.1963450163602829,0.12289813160896301,0.10885553807020187,0.09150861948728561,0.18740615248680115,0.1950359344482422,-0.13529576361179352,0.052985306829214096,-0.19397467374801636,0.08089080452919006,0.045678749680519104,0.06443532556295395,-0.06024569645524025,0.16745638847351074,-0.11451532691717148,-0.07734663784503937,-0.024918675422668457,0.1709374636411667,0.06246665492653847,-0.13746461272239685,0.1261322945356369,0.07412484288215637,-0.04501940682530403,0.07289081811904907,-0.19223354756832123,-0.07866998016834259,0.08985454589128494,0.16713790595531464,-0.12748564779758453,-0.15424329042434692,0.004041755571961403,-0.024080270901322365,0.04316915199160576,0.18688301742076874,-0.03645478934049606,-0.17460834980010986,0.007077404297888279,-0.07885781675577164,-0.15186657011508942,-0.1397755742073059,0.06051982194185257,-0.1177818775177002,0.10649842768907547,-0.1286921203136444,0.12070581316947937,-0.067951999604702,0.08849875628948212,-0.09157028794288635,-0.0536215603351593,0.1620279848575592,-0.007165252231061459,-0.17147143185138702,-0.07883486151695251,0.05159754678606987,-0.1824171543121338,-0.16383090615272522,-0.10365532338619232,0.09905799478292465,-0.010199679993093014,0.1703024059534073,0.12008877843618393,-0.09384534507989883,0.03782391920685768,0.08970454335212708,-0.019417831674218178,0.14573712646961212,-0.11242549121379852,0.16504789888858795,-0.17083725333213806,0.017155591398477554,0.05036740377545357,-0.11090774089097977,0.19515223801136017,-0.186802476644516,0.0164866354316473,-0.18507473170757294,0.09853551536798477,0.08407647907733917,-0.12297292798757553,0.0232950858771801,-0.00942942313849926,-0.005987581796944141,-0.10058897733688354,-0.1559029370546341,-0.19760312139987946,-0.14016257226467133,-0.13979460299015045,0.024102775380015373,-0.13182929158210754,-0.07547426223754883,-0.027969855815172195,-0.16486318409442902,0.10175389796495438,-0.020326344296336174,0.12870050966739655,-0.15311555564403534,-0.19258490204811096,-0.08872780203819275,0.1221577599644661,-0.19553790986537933,0.1410982608795166,-0.1792929619550705,-0.13064764440059662,0.19083206355571747,-0.015920428559184074,-0.19772307574748993,0.04903579503297806,-0.20127086341381073,-0.18054676055908203,0.14055749773979187,-0.15436017513275146,-0.0709703266620636,0.14235617220401764,-0.17670708894729614,0.12775146961212158,0.02798236533999443,0.02809940092265606,0.05008840188384056,-0.15594302117824554,0.06189220771193504,0.01624690741300583,-0.012762971222400665,0.2124406397342682,-0.06998050957918167,0.1803809553384781,0.15304414927959442,-0.09748385101556778,-0.027071287855505943,-0.04923411086201668,-0.07497318834066391,0.1673302948474884,-0.052611805498600006,-0.04725494235754013,0.024423927068710327,0.1238526925444603,0.06767943501472473,0.06419055908918381,-0.1287810504436493,-0.17152582108974457,-0.08987043797969818,-0.0469837449491024,0.03961589187383652,-0.040159933269023895,0.08048111945390701,-0.13582150638103485,-0.002406585495918989,-0.0740889236330986,-0.14612892270088196,0.03429509326815605,-0.15099692344665527,0.004416888114064932,0.08901698887348175,0.19704626500606537,0.1968032568693161,-0.13606642186641693,-0.043612390756607056,0.01624378189444542,-0.009470196440815926,0.1849214732646942,0.1947832703590393,0.06180049479007721,0.08623531460762024,0.0475626140832901,0.14062921702861786,0.13615064322948456,-0.04287322610616684,-0.1684616208076477,-0.007194688078016043,-0.12221840023994446,-0.11846376955509186,-0.15053947269916534,-0.09636716544628143,-0.00496269203722477,-0.09176122397184372,0.08020184934139252,0.005496468394994736,0.1862974911928177,0.1262710839509964,-0.10575301945209503,-0.12833887338638306,0.08168860524892807,0.08033153414726257,0.08670742064714432,-0.015302373096346855,-0.01222983282059431,-0.01678956300020218,-0.08314765244722366,-0.13449032604694366,-0.17065784335136414,-0.07214364409446716,0.15858936309814453,0.06982383877038956,-0.08484155684709549,0.06609966605901718,-0.13983094692230225,-0.1434149593114853,-0.12041780352592468,-0.008882235735654831,-0.05915156006813049,-0.19027510285377502,-0.0612519308924675,-0.12561605870723724,-0.08960939198732376,0.030835997313261032,0.017323335632681847,0.14476877450942993,-0.10607191920280457,-0.18016287684440613,0.19386246800422668,0.1391030251979828,0.08362016826868057,-0.12076244503259659,0.28171810507774353,0.03536922112107277,-0.06708470731973648,0.02178604155778885,-0.14462809264659882,0.09680414944887161,0.04438425227999687,-0.17062416672706604,-0.14425529539585114,-0.07275070250034332,-0.11001402884721756,-0.12998048961162567,0.16849195957183838,0.013801620341837406,-0.023740794509649277,-0.1775008589029312,-0.17916105687618256,-0.17664691805839539,-0.05586829409003258,0.07891342043876648,0.1311623752117157,0.02217964641749859,0.0613330714404583,0.19491317868232727,0.026097886264324188,-0.06806183606386185,-0.10896123200654984,-0.007167290896177292,-0.15354542434215546,0.00794321671128273,0.3354869782924652,-0.07761543989181519,0.1263030469417572,0.11133481562137604,-0.09681867063045502,-0.14012666046619415,-0.11556211113929749,0.15065065026283264,0.02495274506509304,0.12003093212842941,0.026436250656843185,-0.05067354068160057,0.10826261341571808,0.07392534613609314,0.028859756886959076,-0.05786250904202461,-0.01703595370054245,0.0929969921708107,0.15342488884925842,0.18972086906433105,-0.00047746903146617115,-0.010053353384137154,0.08480885624885559,-0.11881846189498901,-0.14087148010730743,-0.072210893034935,-0.022497814148664474,-0.06286126375198364,-0.1078023687005043,-0.1119430735707283,0.07177703827619553,-0.05063280463218689,-0.04596191272139549,0.10638926923274994,-0.0028737529646605253,0.14170414209365845,-0.08826415985822678,-0.1753619760274887,0.1814519613981247,-0.11790655553340912,0.09149011224508286,-0.11032843589782715,-0.07003504782915115,-0.14948077499866486,-0.032947178930044174,0.07932257652282715,-0.14449062943458557,-0.08468544483184814,0.13484299182891846,-0.19102658331394196,-0.0009236690239049494,0.16591405868530273,0.13936227560043335,0.012387257069349289,-0.16587567329406738,0.11917907744646072,-0.025218676775693893,0.19600962102413177,-0.09075579792261124,-0.14282947778701782,-0.09972967952489853,0.0727759525179863,-0.06585480272769928,-0.13489936292171478,-0.13723857700824738,0.017107702791690826,-0.16000914573669434,-0.10204315930604935,-0.022290488705039024,0.011157051660120487,-0.03864249587059021,-0.12853512167930603,0.07959438115358353,-0.09156487137079239,-0.03042900562286377,0.02425895817577839,-0.16551513969898224,-0.13712158799171448,0.14045771956443787,-0.16756831109523773,0.12092357873916626,0.06484726816415787,-0.19377470016479492,0.13671596348285675,0.015873651951551437,-0.17735882103443146,0.16048213839530945,0.09300191700458527,-0.03085026517510414,0.18604597449302673,-0.023688558489084244,-0.0021762163378298283,-0.09665629267692566,0.14040157198905945,0.16509190201759338,0.18690580129623413,0.06055504083633423,0.04898086562752724,-0.15109923481941223,0.10147266834974289,0.12270829826593399,0.025053393095731735,-0.005925547331571579,-0.08219879120588303,-0.1566009670495987,-0.02297651767730713,0.1871635615825653,0.05190294608473778,0.07597669959068298,0.19247420132160187,0.02793145924806595,0.02685937099158764,-0.08220283687114716,-0.02885858714580536,0.15999585390090942,0.08975714445114136,-0.031040359288454056,0.16292981803417206,-0.03482447564601898,-0.1032642126083374,-0.04691977798938751,-0.07073263078927994,-0.15511725842952728,-0.1614374965429306,0.17992515861988068,0.19031409919261932,0.027751712128520012,-0.07128933817148209,-0.17361997067928314,-0.14821860194206238,-0.06505528092384338,0.05472356826066971,0.07774960249662399,-0.08208347856998444,0.11340437084436417,0.04074646532535553,-0.11763118952512741,0.10381060838699341,0.003367588622495532,0.0198239553719759,-0.045594651252031326,0.11289601773023605,0.011145705357193947,0.18151450157165527,0.011094857938587666,0.0976165160536766,0.1657932847738266,-0.07759100943803787,0.19815941154956818,-0.1968989223241806,0.07679963111877441,0.09847526252269745,-0.13255420327186584,0.14778581261634827,0.1263354867696762,0.050476107746362686,-0.06883224099874496,0.15939024090766907,-0.12473166733980179,0.11831041425466537,-0.08534344285726547,0.19586573541164398,-0.10387349873781204,0.11910760402679443,0.05644991248846054,0.022567380219697952,-0.036823853850364685,0.01562611386179924,0.09336669743061066,0.05506276711821556,0.12525467574596405,-0.10423293709754944,-0.1743430644273758,-0.1455858051776886,0.024631058797240257,-0.1531069427728653,-0.05307941883802414,-0.17980895936489105,0.005864119157195091,0.050996940582990646,-0.03203487768769264,-0.03975576534867287,0.07905878871679306,-0.08568175137042999,0.14600950479507446,0.06721607595682144,-0.05326190963387489,-0.11175429075956345,-0.08643092960119247,0.02241726964712143,-0.08818119019269943,0.15071901679039001,-0.0320785790681839,0.022183680906891823,0.03750178962945938,-0.1857684701681137,-0.11992073059082031,-0.17877893149852753,-0.08068474382162094,0.13123534619808197,0.001705036498606205,-0.017495401203632355,-0.012665491551160812,-0.1906808614730835,-0.19659942388534546,-0.06137966364622116,0.03717340528964996,-0.05215753614902496,-0.057767659425735474,0.09846121072769165,0.07740026712417603,-0.11770831048488617,-0.07239384204149246,-0.0027499645948410034,-0.09848783165216446,0.0909290760755539,-0.11461161822080612,-0.06619448214769363,-0.1375378668308258,0.09171523153781891,0.19823843240737915,-0.14278925955295563,-0.1804875284433365,-0.11386580765247345,-0.0811951607465744,0.19552341103553772,0.15517081320285797,0.06106039509177208,0.039753466844558716,-0.043376654386520386,0.1916639357805252,0.0837705209851265,0.06094486266374588,-0.0988454520702362,-0.12289781868457794,-0.003726573660969734,0.19017912447452545,0.15379267930984497,0.019736234098672867,0.13004031777381897,0.00979283731430769,-0.16433429718017578,-0.0010912308935075998,0.1995217353105545,0.18901650607585907,0.08899109810590744,-0.057777825742959976,-0.12515689432621002,-0.19776412844657898,0.12760019302368164,-0.04541388899087906,-0.0188377033919096,0.0017223597969859838,0.028686542063951492,0.140828475356102,-0.11586151272058487,0.20033159852027893,-0.005035530775785446,0.10472594201564789,-0.19378191232681274,-0.008565064519643784,0.028164269402623177,-0.18693907558918,-0.1589949131011963,-0.1440887302160263,0.031076500192284584,0.062311284244060516,0.1434953212738037,-0.0918332040309906,-0.04568441957235336,0.11866652220487595,-0.018247993662953377,-0.17170965671539307,-0.0322437584400177,0.027029702439904213,-0.011327581480145454,0.1826242208480835,0.05970045179128647,0.031484778970479965,0.13854894042015076,0.10214634984731674,-0.014924280345439911,-0.14681385457515717,0.082421213388443,0.0278567336499691,-0.1562092900276184,-0.1631689816713333,0.09559537470340729,0.15413729846477509,-0.1706284135580063,-0.15412895381450653,0.1629818230867386,0.14154015481472015,-0.1324349343776703,0.017189014703035355,-0.008195650763809681,-0.09148573130369186,-0.11109013855457306,-0.13608814775943756,0.10975290834903717,-0.04996970668435097,0.020356448367238045,0.16213643550872803,-0.16805115342140198,-0.17970271408557892,-0.032995909452438354,-0.17908073961734772,-0.14123225212097168,-0.1701601892709732,0.2001751810312271,-0.054846394807100296,-0.01707211136817932,0.013850425370037556,-0.1780858337879181,-0.10877613723278046,-0.13121379911899567,-0.0772838369011879,-0.14858339726924896,-0.16188077628612518,-0.18725481629371643,0.008547049947082996,0.12209148705005646,0.03443368524312973,-0.0463595986366272,-0.06768358498811722,-0.11673936992883682,-0.13199184834957123,0.13464216887950897,-0.1788896769285202,-0.13158933818340302,0.12357848882675171,0.192653626203537,0.022218206897377968,-0.09764524549245834,-0.12795992195606232,0.18562178313732147,-0.1755349487066269,-0.0842193067073822,0.08991074562072754,0.11763279885053635,-0.13234341144561768,0.004388150759041309,-0.05938088521361351,-0.09905694425106049,0.14908143877983093,-0.047324880957603455,-0.07667431235313416,-0.06113387644290924,0.16093412041664124,-0.19787143170833588,0.020956827327609062,0.14417652785778046,-0.14254873991012573,0.18922540545463562,-0.004700066056102514,-0.12581892311573029,0.02508600614964962,-0.16534513235092163,0.02083570323884487,-0.1027696505188942,0.04983453452587128,0.11569162458181381,0.09667950123548508,-0.05308818072080612,-0.19883571565151215,0.05748884007334709,0.06312160938978195,0.1718745231628418,-0.1708124577999115,0.13206768035888672,0.0208257045596838,0.08569873869419098,0.09708061814308167,0.17135748267173767,0.0022260656114667654,0.03469935804605484,0.0695003867149353,0.08002229034900665,0.1824624091386795,-0.06321422755718231,-0.01754002831876278,0.027248015627264977,0.10314369946718216,-0.05030073598027229,0.1568688601255417,0.09693111479282379,-0.11787628382444382,0.055629026144742966,-0.12098675966262817,-0.1360531598329544,0.03787769004702568,-0.052282337099313736,0.0434323213994503,-0.02586519531905651,-0.03952895849943161,0.18801766633987427,0.1849908083677292,0.09834972769021988,0.011794584803283215,0.07746641337871552,0.03193056583404541,0.028751522302627563,0.11365123838186264,0.0635606199502945,-0.1182737648487091,0.1826569139957428,-0.0537584088742733,-0.16363617777824402,-0.02006862685084343,0.12261766940355301,0.15979261696338654,-0.18656674027442932,0.04577469453215599,0.07370586693286896,-0.0358286015689373,0.04327601194381714,-0.1366043984889984,-0.08707619458436966,0.02678370103240013,-0.08961714804172516,-0.02913997322320938,0.14020654559135437,0.10571081936359406,0.04325862228870392,-0.011695855297148228,0.1099330484867096,0.19058381021022797,0.1969081461429596,-0.15220195055007935,0.05930620804429054,0.11863275617361069,-0.176695317029953,0.18649722635746002,0.05041534826159477,-0.051542978733778,0.00895379576832056,0.08545359969139099,-0.10360318422317505,0.06378526240587234,0.03744049370288849,-0.07154063135385513,0.0033615499269217253,-0.050964053720235825,-0.05493320897221565,0.15540899336338043,-0.06196286529302597,-0.13309192657470703,-0.016925541684031487,-0.16678336262702942,-0.08121927827596664,0.14490854740142822,-0.1405034214258194,0.15758241713047028,-0.02035638689994812,0.15498502552509308,-0.0885542631149292,-0.057846203446388245,0.10811178386211395,-0.06984949856996536,0.1994883120059967,-0.10697796940803528,0.15529228746891022,0.0879511833190918,0.15568937361240387,-0.034354861825704575,0.18398812413215637,0.17421621084213257,0.12407854944467545,-0.0992647334933281,0.05845503509044647,-0.11761995404958725,-0.19296973943710327,0.07570859044790268,-0.16671498119831085,-0.12209609150886536,0.03514392301440239,0.017877664417028427,-0.11354885250329971,-0.14944204688072205,0.1512731909751892,-0.11283042281866074,0.17456689476966858,0.014598279260098934,-0.11291459202766418,0.1713939905166626,-0.05626337230205536,-0.05737077444791794,0.012668995186686516,0.09088124334812164,0.036992382258176804,-0.11867465078830719,0.17624235153198242,-0.10880853980779648,0.06183439865708351,-0.004226054530590773,-0.0017395130125805736,0.024646537378430367,0.1885550618171692,0.07813979685306549,0.047125957906246185,0.03599265217781067,-0.03936142474412918,0.09427934885025024,0.07948459684848785,-0.16579772531986237,0.11125997453927994,-0.17387069761753082,-0.08354883641004562,0.12383169680833817,0.0531422458589077,0.023711832240223885,0.12855644524097443,0.055327221751213074,-0.1470157653093338,-0.11405392736196518,-0.030476821586489677,-0.18411949276924133,-0.07612738758325577,0.02060980536043644,-0.01836773194372654,-0.06152654066681862,0.015573784708976746,0.07263454049825668,0.14683791995048523,-0.03266162797808647,0.07949959486722946,0.04892805218696594,0.15807005763053894,-0.14684541523456573,-0.056405141949653625,-0.02841883711516857,-0.08851227909326553,0.0967402458190918,0.19937048852443695,0.0032695892732590437,-0.17733149230480194,-0.03816414251923561,0.12487568706274033,-0.04086115211248398,-0.08889268338680267,-0.00034660068922676146,-0.04297958314418793,0.02615162916481495,-0.17301596701145172,0.10810434073209763,0.11483246088027954,-0.01940632052719593,-0.06656991690397263,0.011714235879480839,0.04213777557015419,0.08745100349187851,-0.011273236945271492,0.16958601772785187,-0.1305035501718521,0.04205310717225075,-0.05152426287531853,0.14297154545783997,-0.02933220937848091,0.084143728017807,0.048429060727357864,-0.042468756437301636,0.08706272393465042,0.1170123964548111,-0.08695228397846222,-0.11181958019733429,0.1467454880475998,0.04778527095913887,0.18483619391918182,-0.13540378212928772,-0.114081010222435,0.20268096029758453,0.11963144689798355,-0.15428602695465088,0.11734285950660706,0.11103297024965286,-0.19961300492286682,-0.16631118953227997,-0.0487794391810894,0.026676375418901443,0.15336714684963226,0.1994868367910385,-0.18602527678012848,-0.069769948720932,-0.054556820541620255,-0.023717114701867104,0.07351488620042801,-0.18853089213371277,-0.12035638839006424,-0.014632167294621468,-0.03433120250701904,-0.11390120536088943,-0.1367197185754776,-0.051316965371370316,0.12845006585121155,-0.16821132600307465,0.03768477961421013,0.11777660995721817,0.17556077241897583,-0.08298958837985992,-0.1555161327123642,-0.16242489218711853,0.15678153932094574,0.18911854922771454,-0.1405022293329239,-0.19107204675674438,-0.12415370345115662,-0.13031485676765442,0.1868247240781784,-0.16973823308944702,0.14960944652557373,-0.15749599039554596,-0.04346349835395813,-0.04836764186620712,-0.19065894186496735,-0.11794702708721161,0.11182823032140732,0.04681301489472389,-0.14781500399112701,0.13046903908252716,-0.06749066710472107,0.1256672739982605,-0.13625606894493103,-0.19074587523937225,-0.12502124905586243,0.19944806396961212,-0.06738424301147461,-0.18592384457588196,0.059981364756822586,-0.09030265361070633,0.04914956912398338,-0.026258165016770363,0.18648859858512878,0.14939507842063904,0.03063862957060337,0.020527446642518044,-0.05137069523334503,0.19969376921653748,-0.12127694487571716,0.0476655550301075,0.0409347265958786,-0.09734660387039185,-0.11275781691074371,0.026218926534056664,-0.17374926805496216,0.005969535559415817,-0.060028526932001114,-0.1004844531416893,0.0642896518111229,-0.11971332132816315,0.05736298859119415,0.17378772795200348,-0.10272271931171417,0.14889143407344818,-0.14197078347206116,0.18258990347385406,0.08313069492578506,0.11070383340120316,0.07227950543165207,-0.07174671441316605,0.07140839099884033,0.05456458404660225,0.1675044298171997,0.08944086730480194,0.14694228768348694,-0.026519902050495148,-0.06542501598596573,-0.18897052109241486,0.1995200216770172,0.03970475494861603,0.16743597388267517,0.06117955595254898,0.06145819276571274,0.0024433417711406946,-0.10150989145040512,0.08105262368917465,0.04239248111844063,-0.11565008014440536,0.07945897430181503,0.04323245957493782,-0.11314860731363297,-0.17887623608112335,-0.0208309143781662,0.0579700693488121,0.06451544910669327,-0.04629677161574364,-0.053976546972990036,-0.0035117072984576225,-0.030759502202272415,-0.0166214220225811,-0.08507170528173447,-0.17017677426338196,-0.18585915863513947,0.19878403842449188,0.1550818383693695,-0.03161637857556343,0.16353316605091095,-0.1313888281583786,-0.18588902056217194,0.17621256411075592,0.044816818088293076,-0.15195046365261078,0.0237046517431736,0.04008464142680168,0.16390079259872437,0.19968873262405396,-0.11120723932981491,0.07554880529642105,-0.1566516011953354,0.16436204314231873,-0.0861591324210167,-0.0035609938204288483,-0.0011604430619627237,-0.1421840339899063,0.1701044738292694,0.1639946550130844,-0.027882006019353867,0.020281631499528885,0.05910129100084305,-0.14333517849445343,0.05828563868999481,0.18566356599330902,-0.058171071112155914,-0.02890312299132347,0.023374397307634354,-0.1291857361793518,-0.0070563387125730515,-0.19721658527851105,0.13866448402404785,0.04876359924674034,0.0901717096567154,0.14933033287525177,-0.03893318399786949,0.0963544175028801,0.03811666741967201,-0.02961227297782898,-0.1336679905653,-0.16071659326553345,0.08724065870046616,-0.1459219753742218,-0.008314933627843857,0.070896215736866,0.18003587424755096,0.1612376719713211,-0.00707637844607234,0.023984869942069054,-0.19469496607780457,-0.014151479117572308,0.10103533416986465,-0.19019125401973724,-0.0062358807772397995,0.01362573355436325,-0.1264275312423706,0.00834409799426794,0.07788977771997452,0.13576821982860565,-0.08310168236494064,-0.17634472250938416,-0.18882246315479279,0.14573583006858826,0.1329803168773651,0.09886657446622849,0.1947784572839737,0.09430793672800064,0.03994309529662132,-0.09794879704713821,0.18600040674209595,0.12032432854175568,0.14072690904140472,-0.09727957099676132,0.06639797240495682,-0.03130946680903435,0.1263151317834854,0.15778565406799316,-0.0033769027795642614,0.10944487899541855,-0.0535135343670845,-0.024607811123132706,-0.18001194298267365,0.03825129196047783,0.16692428290843964,0.08267171680927277,-0.07188773155212402,0.17593953013420105,0.054665230214595795,-0.1711168885231018,-0.17348571121692657,-0.12938202917575836,-0.18317097425460815,0.03857244923710823,0.1628195345401764,0.17515167593955994,0.02180509641766548,-0.17501789331436157,0.1372397392988205,0.04481147974729538,0.0848454013466835,0.034749045968055725,-0.1251724809408188,-0.02162719890475273,0.06842558830976486,0.0658014640212059,0.10053446143865585,-0.06802120804786682,0.04986220970749855,0.08274628967046738,0.11606989055871964,-0.1394062340259552,-0.16376100480556488,0.00657360116019845,0.18813523650169373,-0.10684319585561752,-0.12603504955768585,-0.19368039071559906,0.019760869443416595,-0.028633790090680122,-0.009494657628238201,-0.027987953275442123,-0.03187908977270126,-0.02684619277715683,0.042682550847530365,-0.18029174208641052,0.07536846399307251,-0.18159274756908417,0.03011559695005417,-0.19347545504570007,0.1628543585538864,-0.06411769241094589,-0.06817656010389328,0.09658414870500565,0.15447723865509033,-0.10093279927968979,-0.1937742978334427,-0.035154789686203,0.152305006980896,0.15835173428058624,0.08528540283441544,0.0734429657459259,0.15090174973011017,-0.04954014718532562,-0.05748524144291878,0.05583423748612404,0.11718237400054932,0.15100426971912384,0.0005020180251449347,0.0073670316487550735,-0.057535648345947266,-0.17999199032783508,-0.060419194400310516,0.02630462683737278,-0.18049050867557526,0.027824871242046356,0.025531115010380745,0.18731003999710083,0.18716172873973846,-0.03648112341761589,0.11989923566579819,0.015031581744551659,-0.1914229393005371,0.051901526749134064,-0.01993156224489212,0.1338040977716446,-0.13216210901737213,-0.08323653787374496,0.11610015481710434,-0.011393271386623383,0.007666885387152433,-0.18500670790672302,-0.07482539117336273,0.07946531474590302,-0.01624896191060543,-0.03307444974780083,-0.030435416847467422,-0.0075611877255141735,-0.05701065808534622,0.12014731764793396,-0.16856594383716583,0.1749839186668396,-0.01757526583969593,0.16906972229480743,0.18332506716251373,0.06205809488892555,-0.08818018436431885,0.12208376079797745,0.14141620695590973,-0.0672817975282669,0.07544539868831635,0.048888612538576126,0.14336802065372467,-0.14905276894569397,0.19328294694423676,-0.014766983687877655,-0.08131777495145798,-0.09633319824934006,-0.021292317658662796,0.17394369840621948,-0.19542820751667023,0.160034641623497,-0.044163044542074203,0.1529180407524109,0.03945884108543396,-0.0614369697868824,0.1439317911863327,0.18854807317256927,-0.053024083375930786,-0.06244731694459915,0.10392727702856064,-0.1165187656879425,0.07339639961719513,0.0710449293255806,0.07983973622322083,-0.05260016396641731,-0.1347380429506302,0.17499706149101257,-0.07171828299760818,0.17532716691493988,-0.08862701803445816,-0.0771137997508049,-0.1138661652803421,-0.07622712105512619,0.16252931952476501,0.17671649158000946,-0.09130346775054932,-0.07699982821941376,-0.08172182738780975,0.022693950682878494,-0.011059281416237354,0.12320631742477417,-0.06065577641129494,-0.07375491410493851,0.06277762353420258,0.015220512636005878,-0.01641649566590786,0.057101164013147354,-0.15927916765213013,0.15708649158477783,0.17040777206420898,0.11319880187511444,-0.135020911693573,-0.052336905151605606,0.0038606191519647837,-0.17256560921669006,-0.08029203861951828,-0.040487103164196014,0.1664549708366394,-0.020036185160279274,-0.0689055472612381,-0.12532317638397217,0.1641615927219391,-0.12163131684064865,-0.09916455298662186,0.17500203847885132,0.14460402727127075,-0.19826248288154602,-0.14437557756900787,0.12367570400238037,0.15460391342639923,-0.12799379229545593,-0.17096063494682312,0.07804521173238754,-0.07279477268457413,-0.2056785374879837,0.1189904436469078,0.1205143854022026,-0.035875845700502396,0.13147394359111786,-0.09282570332288742,-0.17416633665561676,-0.12840698659420013,0.05428183823823929,0.1574745774269104,0.09672452509403229,0.16345106065273285,0.11191242933273315,0.1173933893442154,-0.0006309629534371197,0.05683821812272072,-0.17326782643795013,0.0924859493970871,0.05538232997059822,0.1526249200105667,-0.11427241563796997,-0.060801584273576736,-0.12304498255252838,-0.16603627800941467,-0.07744099199771881,-0.06049884110689163,-0.05312212556600571,0.17058153450489044,-0.19212916493415833,-0.006781720090657473,-0.12045370042324066,0.09782364964485168,0.15560795366764069,0.10606411099433899,0.038307320326566696,0.18318596482276917,-0.1498328596353531,-0.020020324736833572,-0.033954422920942307,-0.05482538044452667,-0.09660613536834717,-0.15763786435127258,-0.021188484504818916,0.007909514009952545,0.04138132184743881,0.1547931730747223,0.16299210488796234,-0.09437339752912521,-0.1314292848110199,0.15353669226169586,-0.006229416001588106,-0.08714161068201065,0.08184022456407547,0.12182175368070602,0.1075579822063446,-0.060556069016456604,-0.10436936467885971,-0.04858401417732239,0.05598324537277222,0.18386341631412506,0.023691780865192413,0.19399107992649078,0.14015589654445648,0.1627361923456192,-0.08293598145246506,0.1651911586523056,0.13262875378131866,0.06897363811731339,-0.06515789777040482,-0.12411729991436005,-0.06652771681547165,-0.014341261237859726,0.19638346135616302,-0.009046759456396103,0.16074098646640778,0.041612762957811356,-0.09740415960550308,0.11340378224849701,-0.08704345673322678,-0.16676795482635498,0.10763444751501083,0.0798025131225586,-0.022095656022429466,-0.09106475114822388,-0.10191795229911804,-0.194737508893013,-0.15944868326187134,-0.04976338520646095,0.04697995260357857,-0.07438371330499649,0.03343469649553299,0.08962401002645493,0.17422783374786377,0.1231674924492836,0.1847957968711853,-0.16789424419403076,0.13855063915252686,0.07209985703229904,0.1551005095243454,0.196272075176239,-0.021271666511893272,-0.010007776319980621,0.13518711924552917,0.0586828775703907,-0.06979016214609146,-0.024572374299168587,-0.11128640174865723,0.1495356559753418,0.049426957964897156,0.048001497983932495,-0.018556155264377594,-0.06453604251146317,-0.06966635584831238,0.04253893718123436,0.19351813197135925,0.0829411968588829,-0.15753626823425293,0.043878223747015,-0.018431495875120163,0.16730807721614838,-0.16907839477062225,0.0786043256521225,0.1252741515636444,0.09570605307817459,0.18205979466438293,-0.045494381338357925,0.1538144052028656,-0.0011091077467426658,0.06714379042387009,0.06620889902114868,0.1172732412815094,-0.05907368287444115,-0.0356208011507988,0.049142561852931976,-0.002759974217042327,-0.19158419966697693,-0.13149841129779816,0.1619398593902588,-0.15537352859973907,-0.16314350068569183,0.03293513134121895,0.053875632584095,0.00986587256193161,0.1689385175704956,0.1678793579339981,-0.13611358404159546,-0.16981583833694458,0.06759186089038849,-0.05083209276199341,0.19672724604606628,0.05417107418179512,0.05149951949715614,0.03384900838136673,-0.15314845740795135,0.07586389780044556,0.030567442998290062,-0.13089562952518463,0.08287361264228821,-0.006103655323386192,-0.1193920373916626,0.03986126184463501,-0.13306082785129547,0.10476269572973251,0.12702341377735138,-0.19616112112998962,-0.0709581971168518,-0.19705025851726532,-0.1971321403980255,0.11231520026922226,0.10197984427213669,-0.012209334410727024,-0.1091194748878479,-0.1450304538011551,-0.1936892718076706,-0.03937772288918495,0.18261227011680603,0.1766839325428009,0.010298867709934711,0.02941763959825039,-0.11796364933252335,-0.11648639291524887,0.18372030556201935,-0.10669176280498505,-0.022905653342604637,-0.09705934673547745,0.14041516184806824,0.061466287821531296,-0.1674773097038269,0.1371387094259262,0.03408391401171684,0.09878678619861603,0.16425906121730804,0.15112130343914032,-0.15261836349964142,0.16412842273712158,0.12403471022844315,0.14304472506046295,0.07744808495044708,-0.1506536602973938,-0.017940955236554146,-0.02871101163327694,-0.10598629713058472,-0.1589874029159546,-0.07777231931686401,-0.10726132988929749,0.129962757229805,0.01909351721405983,-0.0652494952082634,-0.06320773810148239,0.01901358552277088,-0.13991686701774597,-0.13012659549713135,0.18252278864383698,-0.060835666954517365,-0.09457249939441681,-0.06685790419578552,0.012386839836835861,-0.18409240245819092,0.041542477905750275,-0.06311649084091187,-0.07473640143871307,-0.1965784728527069,-0.09258653968572617,0.1316724568605423,0.00924644898623228,-0.08253641426563263,-0.10636484622955322,0.16145431995391846,0.05195796862244606,-0.03802606463432312,-0.08677074313163757,0.05246559903025627,0.06902308017015457,-0.10973262786865234,0.03109131008386612,0.1915653496980667,0.05433646962046623,-0.06359972804784775,-0.08059728145599365,0.0353725291788578,-0.19623562693595886,-0.1634991466999054,0.15774677693843842,-0.08120772242546082,0.14530007541179657,0.04638659209012985,-0.03139672800898552,-0.06171461194753647,-0.09669359773397446,-0.08014746755361557,0.021410468965768814,0.144724041223526,-0.049723707139492035,0.13790014386177063,0.16139937937259674,-0.0988902747631073,-0.17503125965595245,0.17277763783931732,-0.11172829568386078,0.1261051893234253,-0.09295839816331863,-0.12934255599975586,-0.18206526339054108,-0.07547707110643387,0.06951679289340973,0.020063279196619987,0.10714828968048096,-0.1484651118516922,0.006660835817456245,0.06626523286104202,-0.09721560776233673,0.17571412026882172,-0.08037151396274567,0.1387518048286438,-0.016445117071270943,-0.11332480609416962,-0.12486837059259415,0.17467422783374786,-0.04578838124871254,0.12578466534614563,-0.050790779292583466,-0.0014610941288992763,0.07641563564538956,0.1126399114727974,0.13786529004573822,-0.007549741305410862,0.08370476216077805,0.037539444863796234,0.0798560380935669,0.008271673694252968,0.16597171127796173,-0.1333526223897934,-0.10543274879455566,-0.07119176536798477,0.025340987369418144,-0.14247646927833557,0.1924571841955185,-0.09809268265962601,-0.06639110296964645,-0.03436332195997238,0.18588019907474518,-0.07607465237379074,0.13238173723220825,0.027880195528268814,0.06529993563890457,0.08907221257686615,-0.19094322621822357,-0.15125524997711182,0.010393798351287842,-0.06090138852596283,0.050789739936590195,0.028890376910567284,-0.10903088003396988,-0.1146521270275116,0.023936478421092033,0.08273622393608093,0.03312722221016884,-0.08639547228813171,-0.01503245159983635,0.05136793106794357,-0.11947932094335556,0.0370013490319252,0.0014422298409044743,0.06289535760879517,-0.08245857059955597,-0.14297327399253845,-0.0565480962395668,-0.097639299929142,-0.151767298579216,0.04820450767874718,-0.046786949038505554,-0.07342373579740524,0.1786598265171051,0.16157622635364532,0.043871428817510605,0.009024100378155708,0.11088254302740097,0.002641046652570367,-0.13915587961673737,0.19341003894805908,0.10024849325418472,0.08377864211797714,0.15407583117485046,-0.16867777705192566,-0.0069038160145282745,0.14679230749607086,-0.055870600044727325,0.08303974568843842,0.12749165296554565,-0.062493812292814255,-0.039012376219034195,-0.12737248837947845,-0.03157060965895653,0.11403051763772964,-0.17061448097229004,-0.1396244764328003,0.026078682392835617,0.03871898353099823,-0.08851218223571777,-0.07657724618911743,0.028936659917235374,-0.09056674689054489,0.15186400711536407,0.15004530549049377,0.15232686698436737,0.1285446584224701,0.012701406143605709,0.07896708697080612,-0.07744797319173813,-0.02038656920194626,0.11658825725317001,0.008028757758438587,-0.19417867064476013,-0.10524115711450577,0.1360912173986435,0.019682185724377632,-0.19920924305915833,-0.1293157935142517,-0.14716345071792603,0.15460310876369476,0.12103696912527084,0.11010626703500748,-0.15420538187026978,-0.02572535164654255,0.17725242674350739,0.062823586165905,-0.1620251089334488,-0.019937774166464806,0.09804990887641907,0.003784606233239174,0.02636183612048626,-0.09255169332027435,0.17754025757312775,0.11025241762399673,-0.11295227706432343,0.06621187925338745,0.12976491451263428,-0.119634248316288,0.16984331607818604,-0.13574515283107758,0.0884086862206459,-0.11470282822847366,0.0808398425579071,-0.1527480185031891,-0.17450553178787231,0.06304465234279633,-0.039578311145305634,0.03949926793575287,-0.04385823383927345,-0.15619444847106934,-0.11449486017227173,-0.0052926125936210155,-0.19391803443431854,-0.01568940281867981,0.044657688587903976,-0.010153344832360744,0.12441519647836685,0.16286063194274902,0.13317956030368805,0.11338608711957932,0.04535527899861336,0.1766032576560974,-0.12584726512432098,-0.031070413067936897,-0.14420157670974731,0.13053622841835022,-0.16105884313583374,-0.007896272465586662,-0.15867343544960022,0.03791078180074692,-0.04198204353451729,0.07191836088895798,0.12456561625003815,-0.16850553452968597,-0.07730616629123688,0.08160991221666336,0.06275325268507004,-0.09265701472759247,-0.005353063344955444,-0.017925675958395004,0.13787300884723663,-0.19463956356048584,0.11795739829540253,-0.011154060252010822,-0.08093095570802689,-0.08300068974494934,0.015032099559903145,-0.1392606943845749,-0.12928171455860138,0.14727658033370972,-0.035035982728004456,-0.17170315980911255,0.0192946158349514,-0.05130821466445923,-0.12794847786426544,0.02931956760585308,0.07553718984127045,-0.07289168238639832,-0.1719757616519928,0.11470972746610641,-0.04714854806661606,-0.06461650878190994,-0.0763763040304184,-0.12177564203739166,-0.08850017935037613,-0.040534503757953644,-0.1614750772714615,-0.13367480039596558,0.10001134872436523,0.1800118088722229,0.13866160809993744,0.11802349239587784,0.18666698038578033,0.14556054770946503,0.027502648532390594,0.14395272731781006,0.10209844261407852,0.009012497030198574,0.11533664166927338,-0.19185622036457062,-0.13095875084400177,-0.03942607343196869,-0.12530526518821716,-0.11769335716962814,0.0658215880393982,-0.03312540426850319,-0.13104170560836792,0.04428357630968094,-0.04188712686300278,-0.04384508356451988,-0.12172877043485641,0.04546094685792923,0.15595842897891998,-0.16869476437568665,-0.19737061858177185,0.19198556244373322,-0.16613885760307312,0.08801836520433426,0.015447973273694515,-0.02257583476603031,0.16455069184303284,-0.039911262691020966,0.06232307851314545,-0.19067548215389252,-0.18305011093616486,-0.16360192000865936,0.10984432697296143,-0.19471970200538635,-0.0073564439080655575,0.19317218661308289,0.17667695879936218,-0.041718605905771255,-0.06509842723608017,0.11148066073656082,-0.16676656901836395,-0.09102151542901993,0.09003996104001999,-0.08296175301074982,0.04018454998731613,0.14880067110061646,0.0966559574007988,0.047122806310653687,-0.025059161707758904,-0.16371864080429077,0.028129607439041138,-0.08747593313455582,0.17407703399658203,0.06870916485786438,0.12081165611743927,0.07253886014223099,-0.08568122237920761,-0.014007696881890297,0.022104939445853233,0.003517682896926999,-0.18658293783664703,-0.02886386029422283,-0.0843346044421196,-0.024416491389274597,0.031336091458797455,-0.05263124406337738,-0.14058691263198853,0.010464572347700596,0.07385214418172836,0.14574281871318817,0.09745849668979645,0.00678678136318922,-0.05040682107210159,0.12851077318191528,-0.1405530869960785,-0.13464292883872986,-0.06035381555557251,-0.08516854792833328,0.12739567458629608,0.0056421491317451,0.08284199982881546,0.17948859930038452,0.013707495294511318,-0.09793459624052048,-0.0538783073425293,0.12515221536159515,0.1171523705124855,-0.17835688591003418,-0.19248250126838684,-0.16242679953575134,-0.14691899716854095,0.17841438949108124,-0.09071522206068039,0.08064798265695572,-0.10935914516448975,-0.10943528264760971,0.07976721972227097,-0.041831307113170624,0.17901167273521423,-0.1322609931230545,0.10332484543323517,0.15386493504047394,0.18331213295459747,-0.015032450668513775,-0.09279576689004898,0.18817271292209625,0.11424873024225235,0.07860808074474335,0.05651970952749252,-0.17852668464183807,-0.026692423969507217,-0.19029313325881958,-0.13261717557907104,-0.14664652943611145,-0.03990795463323593,0.09536351263523102,-0.18723654747009277,0.027516495436429977,-0.1800999790430069,0.15121784806251526,0.06069766730070114,0.04893173277378082,0.1619565486907959,-0.09526634961366653,-0.011608162894845009,0.11803758144378662,0.1962100863456726,0.1158134937286377,0.0496012307703495,-0.17532221972942352,-0.11310393363237381,0.0009236382320523262,0.14196696877479553,-0.1319577991962433,-0.008611285127699375,-0.03604735806584358,-0.026073049753904343,-0.014647869393229485,-0.16394254565238953,0.1645195037126541,0.08067546039819717,-0.10944393277168274,-0.13071231544017792,-0.07138887047767639,0.19338113069534302,0.07144419103860855,-0.12610484659671783,0.11192452907562256,-0.007878567092120647,0.09917540848255157,-0.15694399178028107,0.16787563264369965,0.06396015733480453,-0.07798661291599274,0.052396826446056366,0.03555765748023987,-0.16668982803821564,-0.16752135753631592,0.09708750247955322,0.16672174632549286,-0.18524916470050812,-0.12876300513744354,0.07523702830076218,-0.15523968636989594,-0.14532101154327393,-0.09656716883182526,-0.1596485823392868,-0.08381493389606476,-0.15513823926448822,-0.09987819939851761,-0.023816268891096115,0.09917432814836502,-0.04978863522410393,-0.19606955349445343,0.08465433865785599,-0.06014664098620415,0.11779817193746567,-0.15452837944030762,0.06715720891952515,0.17797797918319702,-0.12204746901988983,0.19471140205860138,0.007994660176336765,-0.126104474067688,-0.07952076196670532,0.16335871815681458,0.019719673320651054,-0.1430356800556183,0.12792059779167175,-0.10710424184799194,-0.006049756892025471,-0.15012885630130768,-0.12675152719020844,0.16538769006729126,-0.07125049084424973,-0.10000277310609818,0.13290929794311523,-0.11121346801519394,-0.17918603122234344,0.07633452862501144,-0.09041667729616165,0.009132363833487034,-0.16302341222763062,0.09207440167665482,0.1298731118440628,0.11468500643968582,-0.17090119421482086,0.04430181533098221,-0.06859110295772552,-0.14490598440170288,0.01203753612935543,0.004665319807827473,-0.13665391504764557,-0.05044873058795929,-0.19602487981319427,-0.15669608116149902,0.05421334505081177,0.07358337193727493,-0.03577106446027756,-0.0728190615773201,0.02497609704732895,0.1790400594472885,-0.03974438086152077,0.01613074541091919,0.1381901502609253,0.14496850967407227,0.0453559085726738,0.01999717950820923,0.09996380656957626,0.018778976052999496,-0.13592910766601562,-0.01374051719903946,-0.043092891573905945,0.19793102145195007,0.13167819380760193,0.012585761025547981,0.13110828399658203,0.0721745565533638,-0.018992794677615166,-0.1304965317249298,0.044101107865571976,-0.1921461969614029,0.19850434362888336,0.0000050217140596942045,0.024401089176535606,-0.12970580160617828,0.08375275880098343,0.15721948444843292,-0.06803365796804428,0.043906841427087784,0.09897391498088837,-0.0798569917678833,-0.0049193548038601875,-0.1680496782064438,0.09911710768938065,0.08934301137924194,0.0978463813662529,-0.1266428530216217,0.1856510490179062,0.12252506613731384,-0.19690927863121033,0.033306896686553955,0.04118780419230461,-0.0358816459774971,-0.17312155663967133,0.021790241822600365,0.15009507536888123,-0.09899210184812546,-0.1520475447177887,0.0018563445191830397,-0.12404192239046097,-0.024592090398073196,0.11775410175323486,0.09058099240064621,0.18046674132347107,0.12474855035543442,0.09021640568971634,0.17726008594036102,-0.11157678812742233,-0.10834386944770813,-0.1568850874900818,-0.06084279716014862,0.06549470126628876,0.055394235998392105,0.1700456738471985,-0.13729172945022583,-0.1461760699748993,0.18541155755519867,0.140802800655365,0.1434333473443985,0.05931518226861954,-0.15003333985805511,-0.11508814245462418,0.12566715478897095,0.14429938793182373,-0.15404099225997925,-0.003191211726516485,-0.028738250955939293,-0.11664160341024399,-0.16519227623939514,-0.1189381554722786,-0.09508843719959259,-0.10551246255636215,-0.04958415776491165,0.13250362873077393,0.01703830249607563,0.08353587239980698,-0.19706395268440247,-0.045318059623241425,-0.11909220367670059,0.04203905165195465,0.1281113475561142,0.04083830490708351,0.0010601377580314875,0.02108243852853775,-0.10859730839729309,-0.14801093935966492,-0.1253243088722229,-0.04064184054732323,0.010789572261273861,-0.11131692677736282,0.08501961827278137,0.19684158265590668,-0.17780986428260803,-0.057883549481630325,0.17327535152435303,-0.14532673358917236,-0.08965454250574112,-0.12198397517204285,0.17215274274349213,-0.09035419672727585,-0.015094581060111523,0.09319411963224411,0.1491493582725525,0.14025448262691498,0.13733148574829102,0.1721058189868927,0.06813124567270279,-0.18169750273227692,-0.055578116327524185,0.03616708517074585,-0.04554825276136398,-0.09005258977413177,0.04005829617381096,0.10275307297706604,-0.19817019999027252,-0.07527481764554977,0.16256803274154663,0.06767692416906357,0.04206375405192375,0.12396369874477386,0.1851644217967987,0.17170697450637817,0.1475755125284195,-0.07475992292165756,-0.09437486529350281,-0.17755126953125,0.15353891253471375,0.16280622780323029,-0.07155542820692062,0.08932559192180634,-0.044895756989717484,-0.16095925867557526,0.007526071276515722,0.04791969060897827,-0.022576455026865005,-0.12246190011501312,-0.15523523092269897,0.18638862669467926,-0.1433868408203125,-0.13964548707008362,0.08231756091117859,0.13411909341812134,-0.06179758906364441,-0.1302332580089569,0.199668750166893,0.023103827610611916,-0.19534538686275482,0.053619712591171265,-0.031893324106931686,0.19865630567073822,0.037599172443151474,-0.04864174500107765,-0.00008199318108381703,0.07643238455057144,-0.02740553393959999,-0.17391519248485565,0.015894509851932526,0.18005234003067017,0.18399348855018616,0.09071461111307144,-0.112569160759449,0.06812682747840881,0.03135889396071434,-0.06410910934209824,0.050149768590927124,-0.09539984166622162,-0.18002967536449432,0.06851357221603394,-0.10950300097465515,0.07378660142421722,0.037783004343509674,0.09046843647956848,0.044357120990753174,-0.11800302565097809,-0.04746367037296295,0.04325489699840546,0.0238956268876791,-0.08224967122077942,0.15187345445156097,0.07949298620223999,-0.1282913237810135,-0.06790975481271744,0.14858190715312958,0.1829303354024887,-0.1372501403093338,0.17022183537483215,0.04738321155309677,-0.1468164175748825,-0.11235862225294113,-0.13966985046863556,0.02125992812216282,0.18705524504184723,-0.08881618082523346,-0.18091119825839996,-0.07049869745969772,0.16820402443408966,0.07907591015100479,0.0676647424697876,-0.1818155199289322,0.11929480731487274,-0.10768076777458191,0.041157033294439316,-0.19508059322834015,0.027386818081140518,0.1062537357211113,0.07108788937330246,-0.18713527917861938,0.021031776443123817,0.13157951831817627,-0.16064408421516418,-0.020005637779831886,0.14252309501171112,-0.05980612710118294,0.09734783321619034,-0.10970686376094818,0.1331004947423935,0.15449988842010498,-0.09736419469118118,0.16240136325359344,-0.17322781682014465,-0.01655593328177929,-0.11480333656072617,-0.11634760349988937,-0.04164335876703262,-0.009602784179151058,-0.08248333632946014,-0.07641570270061493,-0.18739764392375946,0.09832937270402908,-0.018228303641080856,0.14015936851501465,0.011396893300116062,-0.03193396329879761,0.12889090180397034,-0.1806861311197281,0.014294341206550598,0.028055105358362198,-0.0287502259016037,0.14994987845420837,0.18446186184883118,0.03774642199277878,0.13612522184848785,0.18612036108970642,-0.15206681191921234,-0.1057123988866806,0.045299679040908813,0.05704355612397194,-0.15566173195838928,-0.09474394470453262,0.09137723594903946,0.1346239447593689,0.1892978996038437,-0.18479982018470764,0.11575742810964584,0.07122614234685898,-0.022010233253240585,-0.08647796511650085,-0.09659559279680252,0.015567135997116566,-0.011142793111503124,-0.033737726509571075,0.1583472639322281,0.1412326842546463,0.12694203853607178,0.02809067629277706,0.03057764656841755,0.10024755448102951,0.16422493755817413,-0.08275189250707626,-0.19564568996429443,-0.056782081723213196,0.13051708042621613,0.02785937860608101,0.049714770168066025,-0.001450575073249638,0.13164415955543518,-0.10572575777769089,0.15600720047950745,-0.00635734386742115,0.15616469085216522,0.11335324496030807,-0.053075697273015976,-0.05742603540420532,-0.06789106875658035,0.13133390247821808,0.0030602808110415936,0.0721973404288292,-0.039442431181669235,-0.08604264259338379,0.026507508009672165,-0.09608964622020721,-0.020520122721791267,-0.03293762728571892,0.0035419489722698927,0.07518285512924194,0.016324279829859734,-0.023373309522867203,-0.08719994127750397,0.0641404539346695,-0.1481315642595291,-0.12141656875610352,-0.019588708877563477,-0.1009097695350647,-0.17202068865299225,-0.16963301599025726,-0.12075994163751602,0.10977856069803238,0.04764709249138832,-0.16167958080768585,-0.1738193929195404,-0.1894017457962036,-0.008110356517136097,-0.10152295231819153,-0.05615345388650894,-0.03946135938167572,-0.19259195029735565,0.09037203341722488,-0.0036236965097486973,0.04730819910764694,0.10039287060499191,-0.06642605364322662,-0.06878086179494858,-0.13909058272838593,-0.1935977190732956,0.02421211078763008,0.12180697172880173,-0.07415921986103058,-0.06447142362594604,-0.017346855252981186,0.11519445478916168,0.1297716498374939,-0.04339013993740082,-0.07137298583984375,-0.052686743438243866,-0.04741374030709267,-0.08195443451404572,-0.08018143475055695,0.10559050738811493,0.14829201996326447,-0.16042424738407135,0.16535009443759918,-0.1124923825263977,0.018198786303400993,0.1770271211862564,0.1488114446401596,0.011391070671379566,-0.1784815639257431,0.05190175399184227,-0.07464497536420822,0.07260601222515106,0.09645435214042664,-0.19617898762226105,-0.0840761736035347,-0.16579972207546234,-0.041829537600278854,-0.1852668672800064,-0.08852595090866089,-0.14834854006767273,-0.1189572736620903,0.0985276997089386,0.09413661062717438,0.16934658586978912,0.05508454889059067,-0.16752369701862335,0.01398884505033493,-0.08648744970560074,-0.10549285262823105,0.13742060959339142,0.08832194656133652,0.1996827870607376,0.07852889597415924,-0.15232419967651367,0.09794313460588455,-0.06608176231384277,0.15675927698612213,0.1877019703388214,-0.1893043965101242,0.07190385460853577,0.055335547775030136,-0.09471109509468079,0.16159455478191376,-0.015225994400680065,-0.04851534962654114,-0.1428937315940857,-0.1322953999042511,0.12024571746587753,0.15305571258068085,0.1953369528055191,0.01569015346467495,0.013366684317588806,0.11455301195383072,-0.19633139669895172,0.0074080005288124084,0.13990209996700287,-0.14132241904735565,0.08760363608598709,0.028292791917920113,0.07668834179639816,-0.06510140746831894,0.1317569464445114,-0.009251781739294529,0.11427003145217896,0.15956591069698334,-0.09897580742835999,0.15953651070594788,0.19491183757781982,-0.003329630708321929,0.04750963672995567,-0.040767282247543335,0.09886142611503601,0.11419156193733215,-0.008501550182700157,0.0970008447766304,-0.06015956401824951,0.10516791045665741,0.016234636306762695,0.07405418157577515,0.005624254699796438,-0.05444185063242912,0.09915753453969955,0.08546476811170578,-0.18705308437347412,0.18278326094150543,0.06374304741621017,-0.11280228197574615,-0.056164536625146866,0.06150664761662483,-0.1042776107788086,0.03160581365227699,0.1283852458000183,0.12982593476772308,0.050423797219991684,-0.11181382834911346,0.16489821672439575,0.024769416078925133,-0.16026420891284943,-0.025450754910707474,0.1401270627975464,0.07859359681606293,-0.026512717828154564,0.025570930913090706,-0.13146044313907623,0.09222345054149628,0.1702641397714615,-0.15125101804733276,-0.041060540825128555,0.060406796634197235,-0.04377498850226402,0.19827117025852203,-0.04414850100874901,0.15675580501556396,0.1839638501405716,-0.013089832849800587,0.0224961806088686,-0.1182594820857048,0.09840739518404007,0.1028173640370369,0.07005302608013153,-0.1582900583744049,0.1630558967590332,0.1649066060781479,-0.04038942977786064,-0.00811992958188057,0.020341815426945686,-0.12931175529956818,-0.10640887916088104,-0.165327787399292,0.09296712279319763,-0.003220492275431752,0.037889689207077026,0.06690052896738052,-0.10027656704187393,-0.10012642294168472,0.046005479991436005,0.16707701981067657,0.024618836119771004,-0.1286678910255432,0.14293499290943146,-0.10803122073411942,0.01549789309501648,0.11868548393249512,0.11457233130931854,-0.07480375468730927,-0.003167756600305438,0.01313160639256239,-0.056936558336019516,-0.15755929052829742,-0.08854539692401886,-0.029443364590406418,0.19627998769283295,0.004658980760723352,-0.17159536480903625,0.017451846972107887,0.04907984659075737,-0.10029444843530655,-0.1165153980255127,-0.198841854929924,0.18245455622673035,-0.07403992861509323,-0.15453478693962097,-0.1795569658279419,-0.1349964588880539,0.07988807559013367,0.19504250586032867,0.18336713314056396,0.16485147178173065,-0.01226599421352148,-0.07761802524328232,0.016543345525860786,-0.06656231731176376,0.06964844465255737,-0.13985277712345123,0.09900494664907455,-0.12449230998754501,0.019025934860110283,-0.06645288318395615,-0.07337997853755951,-0.02080349437892437,-0.19760528206825256,-0.08332761377096176,0.08829865604639053,-0.18092098832130432,0.11637458950281143,0.06813886761665344,0.15007007122039795,0.09752262383699417,0.1261315643787384,0.16936208307743073,-0.09850239753723145,-0.18264691531658173,-0.1935354471206665,0.16735123097896576,-0.07971588522195816,0.05911104381084442,-0.050723347812891006,0.1762038916349411,0.007983692921698093,-0.15096387267112732,0.05104413256049156,-0.12469467520713806,0.1837649792432785,0.07181905955076218,0.09734100848436356,-0.0836266428232193,0.05206849426031113,-0.16946333646774292,0.06980568170547485,-0.1072901040315628,0.01837989315390587,0.016762983053922653,0.029517043381929398,-0.1463632434606552,0.07664744555950165,0.07344737648963928,-0.11776890605688095,-0.049024391919374466,0.04962443187832832,-0.0024078376591205597,-0.09361295402050018,-0.022206388413906097,-0.036295730620622635,0.09091217070817947,-0.19196689128875732,0.12500204145908356,-0.06922423839569092,-0.16367995738983154,-0.059421930462121964,-0.009001710452139378,0.14579841494560242,0.13011987507343292,-0.1445782482624054,0.07671212404966354,-0.03167896717786789,-0.1453145295381546,-0.07271230965852737,0.17121872305870056,-0.16991110146045685,-0.023249860852956772,-0.10805869102478027,0.11193522065877914,0.02134540118277073,-0.17129315435886383,-0.1624215543270111,0.1933741569519043,0.16681359708309174,-0.13046234846115112,-0.027162712067365646,-0.1678616851568222,0.09671024233102798,0.006239851471036673,0.041709382086992264,0.1234918013215065,0.1205916777253151,-0.03419343754649162,-0.1648583561182022,-0.09688222408294678,-0.1027194932103157,-0.13806729018688202,0.021171025931835175,-0.13972818851470947,-0.10100556910037994,0.089297816157341,0.0138036934658885,-0.03650973364710808,-0.17549516260623932,-0.02073410153388977,-0.12450679391622543,-0.162806436419487,-0.012859411537647247,0.10184451192617416,0.0192886870354414,-0.1734457165002823,-0.17188884317874908,-0.06192709878087044,0.1924985647201538,0.08995984494686127,-0.02644718997180462,0.0061045498587191105,0.19969525933265686,-0.03299402818083763,-0.15455849468708038,0.014527802355587482,0.08090249449014664,0.17869864404201508,0.19984693825244904,0.049953047186136246,-0.06642807275056839,-0.08630760759115219,-0.09635114669799805,-0.06530241668224335,-0.04372367635369301,0.09214884787797928,-0.1438681185245514,-0.04057202488183975,0.18105387687683105,-0.07120873779058456,-0.01298606675118208,-0.0263662189245224,-0.14630909264087677,0.19951772689819336,0.11307582259178162,-0.16842825710773468,0.00999369751662016,-0.007790542673319578,0.03451082110404968,-0.14808808267116547,0.15427790582180023,-0.011833449825644493,-0.008773725479841232,-0.05932452529668808,0.01731305755674839,0.05246376246213913,0.062811478972435,-0.10152646899223328,-0.03059251233935356,-0.04620467498898506,-0.061729270964860916,0.006229400169104338,-0.12719830870628357,-0.15415608882904053,0.06602182984352112,-0.1802375465631485,0.15398597717285156,0.08241236209869385,-0.07531994581222534,0.09458772838115692,0.17047323286533356,-0.07315648347139359,-0.13876493275165558,-0.06917411088943481,-0.1156407967209816,-0.19387568533420563,-0.10533399879932404,-0.15022383630275726,0.15171021223068237,0.1431126743555069,0.14056314527988434,0.09470651298761368,0.1264563649892807,-0.1744924783706665,0.021371502429246902,-0.12006145715713501,0.19396163523197174,0.059467002749443054,-0.1961057484149933,-0.082954540848732,-0.031771499663591385,0.17147508263587952,0.1948016732931137,-0.1793224960565567,0.03720500320196152,0.024848446249961853,0.05501436069607735,-0.11956584453582764,0.006091885734349489,-0.07775162905454636,0.14932744204998016,0.18016497790813446,-0.19093471765518188,0.17191839218139648,0.1447599083185196,-0.1822374165058136,-0.1383701115846634,0.02737075835466385,-0.1843135505914688,-0.06680280715227127,0.0841178372502327,-0.10231403261423111,-0.09709091484546661,-0.05888070538640022,0.17445804178714752,0.16787771880626678,-0.024945106357336044,-0.003803582862019539,-0.06517940014600754,0.061203837394714355,-0.19650235772132874,0.17559529840946198,-0.08423485606908798,0.11618795245885849,-0.1996438354253769,0.019625261425971985,0.05898661911487579,0.16346722841262817,0.09822669625282288,-0.01053514052182436,0.03663279488682747,-0.10616488754749298,0.003942466806620359,-0.19344858825206757,-0.16050511598587036,-0.11068063229322433,0.17087581753730774,-0.08917354047298431,0.04875956475734711,0.10874266922473907,0.14507639408111572,0.02019689418375492,-0.04600129649043083,-0.015541763976216316,-0.16154426336288452,0.08742953091859818,-0.07398825883865356,-0.09089484810829163,0.06198028847575188,-0.09222648292779922,-0.04340863227844238,0.1396651268005371,-0.14506271481513977,0.035448718816041946,-0.1927548497915268,0.01684676855802536,0.17617255449295044,0.12909437716007233,0.1259622871875763,0.09734810888767242,-0.09778907150030136,-0.19183634221553802,-0.1813836246728897,-0.1736421138048172,0.08606480807065964,0.13377994298934937,-0.19075924158096313,-0.10173908621072769,-0.15657588839530945,0.11732685565948486,0.1670987755060196,-0.16548286378383636,0.12810879945755005,-0.01673857308924198,0.027024852111935616,0.11393111944198608,0.1261279582977295,-0.15483486652374268,-0.12458670139312744,-0.1118861585855484,0.07784108817577362,0.04340657219290733,0.012525147758424282,-0.08323101699352264,-0.17212343215942383,0.12338729202747345,-0.12902402877807617,0.16980864107608795,0.14814215898513794,0.1774061769247055,-0.1707412302494049,-0.028410008177161217,0.01592332310974598,-0.13506607711315155,0.11558180302381516,0.1473768800497055,-0.17463776469230652,0.05196366831660271,-0.008319762535393238,-0.0003522537590470165,-0.035140685737133026,-0.05157393217086792,-0.02587760239839554,-0.14092673361301422,0.08764948695898056,0.06841310858726501,0.10526252537965775,0.11187049001455307,0.0009422574075870216,0.03909096494317055,-0.14949777722358704,-0.14428362250328064,-0.1803908348083496,0.19239778816699982,-0.13929793238639832,-0.18033240735530853,-0.12674307823181152,0.04968085512518883,-0.15536008775234222,0.0875469520688057,0.1796727031469345,-0.030867449939250946,-0.06268303841352463,0.16906896233558655,0.009332164190709591,-0.1358816921710968,-0.08789154887199402,0.07152251899242401,0.10526103526353836,-0.05094056949019432,-0.059903584420681,0.16461236774921417,0.0025884942151606083,-0.10383012890815735,-0.03833642601966858,-0.1223791316151619,0.18631760776042938,-0.09025610983371735,0.12141106277704239,0.13399703800678253,-0.0693642646074295,0.1525537073612213,-0.0012556830188259482,0.08403624594211578,0.19209057092666626,0.09872624278068542,-0.15451395511627197,0.18243129551410675,0.19219209253787994,0.013684982433915138,-0.07726089656352997,-0.08409309387207031,-0.18465018272399902,-0.1970561146736145,-0.19743646681308746,0.050079427659511566,0.006459749769419432,0.07347545027732849,-0.15852780640125275,0.19609284400939941,-0.01260896772146225,-0.10931112617254257,0.19804072380065918,0.19361840188503265,0.02084038406610489,0.026085980236530304,0.08827728778123856,-0.13808272778987885,0.15019917488098145,-0.16500374674797058,0.05610402673482895,-0.18961910903453827,0.19693167507648468,0.06268925964832306,0.042977605015039444,0.08303407579660416,0.021859128028154373,0.006218238268047571,0.05950126424431801,0.19986508786678314,0.1225232183933258,0.17967751622200012,0.1830853819847107,-0.14948441088199615,0.12726229429244995,-0.16459353268146515,0.1632786989212036,0.06865665316581726,0.16754168272018433,-0.0736035630106926,-0.08470650017261505,0.04376811161637306,-0.09804338961839676,-0.051496148109436035,0.107290118932724,-0.11555705964565277,-0.1038707047700882,0.1389521360397339,-0.0705513134598732,-0.16780869662761688,-0.09845461696386337,-0.16678383946418762,-0.15659786760807037,0.01406764704734087,0.005070622079074383,-0.14927305281162262,-0.08852586150169373,-0.11636949330568314,-0.12429621070623398,0.07740525901317596,-0.07903613895177841,-0.16316229104995728,0.11079798638820648,0.10703961551189423,-0.038572318851947784,0.16562142968177795,0.18848706781864166,0.025096885859966278,0.015825575217604637,-0.13627611100673676,0.10634400695562363,-0.02827441692352295,-0.1412099301815033,-0.021071631461381912,0.19500897824764252,-0.07590366899967194,-0.1808755099773407,0.16133420169353485,0.045405205339193344,0.040428388863801956,-0.03650953993201256,0.11706266552209854,-0.05599483102560043,-0.005438392981886864,0.19445954263210297,-0.0401042215526104,0.17700809240341187,-0.17377081513404846,0.15806707739830017,-0.14862488210201263,0.059065934270620346,0.049539826810359955,-0.03208383917808533,-0.11172699928283691,-0.11532177776098251,0.1402704268693924,-0.13982151448726654,0.11542437225580215,0.08994849771261215,0.14722764492034912,-0.13154080510139465,0.04582954943180084,0.1125614121556282,-0.10697153210639954,0.003783196210861206,0.113716721534729,-0.10906703770160675,-0.18505516648292542,-0.058458197861909866,-0.15299755334854126,-0.12762737274169922,0.033890120685100555,-0.18537278473377228,0.06100277602672577,0.03554963320493698,0.06809256225824356,-0.06291091442108154,0.07489808648824692,-0.13454633951187134,0.150616854429245,-0.01594683900475502,0.12159597873687744,-0.138262078166008,0.09386579692363739,-0.17274197936058044,0.07351624220609665,0.006132655311375856,-0.03841041028499603,0.15462057292461395,-0.11040531098842621,0.07200295478105545,-0.13777004182338715,0.12637999653816223,0.10788017511367798,0.15217280387878418,0.15356017649173737,0.030813053250312805,-0.17735621333122253,-0.09873554110527039,-0.08522125333547592,-0.13113249838352203,0.05260211601853371,-0.10916059464216232,0.16316035389900208,0.16565492749214172,0.08690565824508667,0.18106074631214142,-0.05499006807804108,-0.0783003568649292,0.15999175608158112,0.18677115440368652,-0.15377177298069,0.07040560990571976,0.07700885087251663,0.04711320996284485,0.08362715691328049,-0.0863904133439064,-0.15559199452400208,0.028171749785542488,0.14678750932216644,0.17522801458835602,-0.12708458304405212,0.06742653250694275,0.1754177361726761,-0.14301835000514984,-0.053904544562101364,-0.012279883027076721,-0.16038945317268372,-0.18091025948524475,-0.03738080710172653,-0.00008969548798631877,-0.19334673881530762,-0.18688973784446716,0.09534268081188202,0.1512487679719925,0.1728830337524414,-0.05256383866071701,0.07971064746379852,0.018459724262356758,0.17562252283096313,-0.14768172800540924,0.1645488291978836,0.05351502075791359,0.13757382333278656,0.1743767261505127,0.05897361785173416,-0.09129641950130463,-0.1586645394563675,0.0798746794462204,0.13661693036556244,0.14948871731758118,0.0197489932179451,0.09698823094367981,0.07418230175971985,0.13160458207130432,0.052948471158742905,0.19424325227737427,0.08432597666978836,-0.05576995387673378,0.016803821548819542,0.14161524176597595,0.037996962666511536,-0.15927903354167938,-0.062470149248838425,0.08478828519582748,0.04516204074025154,-0.12599049508571625,-0.11769793927669525,0.0160970538854599,-0.16232533752918243,-0.1460655778646469,0.06107238680124283,-0.15987150371074677,0.14159515500068665,-0.18711437284946442,-0.07589338719844818,-0.10863041132688522,-0.0600491464138031,0.13179412484169006,0.13764165341854095,0.04980757459998131,-0.06103639304637909,0.10911291092634201,0.07071390748023987,0.04381934553384781,-0.11441788822412491,0.0035911009181290865,-0.06968346238136292,0.19591760635375977,0.1950044333934784,-0.1718047708272934,0.09768552333116531,-0.15203236043453217,0.19256417453289032,0.1307726800441742,-0.12069772928953171,0.10939718782901764,-0.11295890808105469,0.02655014954507351,0.12457729130983353,0.12066248059272766,0.08029554039239883,-0.07319986075162888,-0.15478670597076416,-0.02508431114256382,0.15323562920093536,0.16133558750152588,0.06327884644269943,-0.12906108796596527,0.1206398457288742,0.07785961031913757,-0.15067701041698456,-0.061946455389261246,-0.17183178663253784,0.15631110966205597,-0.16527844965457916,0.19588395953178406,0.0321880541741848,0.06168540194630623,0.1134587898850441,-0.04520146921277046,-0.008207487873733044,0.014139993116259575,0.018797079101204872,-0.18244633078575134,-0.17908072471618652,0.12687203288078308,-0.1701972931623459,0.0037155288737267256,0.15566015243530273,0.10527554899454117,-0.19877269864082336,0.03324029594659805,-0.021943064406514168,0.04035380482673645,-0.022795267403125763,0.18362677097320557,0.1620706021785736,-0.14535421133041382,-0.15594364702701569,0.06332381069660187,-0.031839605420827866,-0.1354893296957016,0.0058418158441782,-0.0352027527987957,0.17492839694023132,-0.15061458945274353,0.09172002971172333,0.013774579390883446,-0.008290216326713562,0.17923575639724731,0.16714896261692047,0.027781877666711807,-0.16894946992397308,0.11146557331085205,0.007406296208500862,0.06978797167539597,0.049744974821805954,-0.15869803726673126,0.1332644522190094,-0.06231704354286194,-0.08766922354698181,0.03459031134843826,-0.16085012257099152,-0.030157748609781265,-0.01476152241230011,-0.005943004507571459,0.06071978062391281,0.19242599606513977,-0.014737359248101711,-0.06354652345180511,-0.16642116010189056,0.10683707892894745,0.08367845416069031,-0.052658528089523315,0.034565482288599014,0.1951926201581955,-0.08249732106924057,-0.1915310174226761,0.08013762533664703,0.18718977272510529,0.10616063326597214,0.18917791545391083,0.09889242798089981,0.021687451750040054,-0.05405833572149277,-0.16044387221336365,0.04872322827577591,0.023526350036263466,0.15882660448551178,-0.18649402260780334,-0.06976190209388733,0.1052863597869873,-0.010698548518121243,-0.19645161926746368,0.1046830415725708,0.1399254947900772,0.16666826605796814,0.13570383191108704,0.18647608160972595,0.0728142037987709,0.059880729764699936,-0.10308071970939636,-0.10469986498355865,-0.013595511205494404,0.04851643741130829,-0.09152650833129883,0.021188266575336456,-0.13547001779079437,-0.1270531862974167,0.15725494921207428,-0.08468163758516312,0.07707267254590988,0.16845454275608063,-0.12638646364212036,-0.014478911645710468,0.1302650421857834,-0.1928250938653946,0.04284052923321724,0.04138743877410889,-0.14852824807167053,0.07688388228416443,0.12848101556301117,0.08321117609739304,0.1860254555940628,0.020975781604647636,-0.10845519602298737,-0.03944642096757889,-0.1747722029685974,0.10889964550733566,-0.19095687568187714,-0.005541878752410412,0.14231805503368378,-0.14987781643867493,0.13892871141433716,0.05319584161043167,-0.11307759582996368,0.004044476896524429,0.16736330091953278,-0.12455876916646957,-0.19632384181022644,-0.03175629675388336,0.052623823285102844,0.09906639903783798,-0.0576523132622242,0.051671821624040604,0.1525224894285202,0.16432073712348938,0.034850724041461945,0.14754459261894226,-0.10506772249937057,-0.13931649923324585,-0.07477536797523499,-0.05280012637376785,-0.15400108695030212,0.06726758927106857,-0.1050383448600769,0.009256308898329735,-0.03703094273805618,0.07459516823291779,0.09588191658258438,-0.06190303713083267,-0.0026975744403898716,0.1467088758945465,0.15678207576274872,-0.06686103343963623,-0.1770630180835724,0.1398344188928604,0.17515520751476288,0.0753081664443016,-0.17219141125679016,-0.1593373566865921,-0.07628581672906876,-0.13474221527576447,0.0174146369099617,0.06571885943412781,-0.19236545264720917,-0.0643712654709816,-0.14953435957431793,0.19696490466594696,-0.12745758891105652,-0.17867903411388397,0.05262912064790726,0.14108477532863617,-0.007237900979816914,-0.10317571461200714,-0.18301522731781006,-0.06375192850828171,-0.07168569415807724,-0.18202129006385803,0.114348866045475,0.08853220194578171,0.03702719882130623,-0.10161776095628738,-0.08346191048622131,0.19819782674312592,-0.11496986448764801,-0.1570393145084381,-0.19306160509586334,0.07341841608285904,0.1860157549381256,0.16412608325481415,-0.03639613837003708,-0.1924169957637787,-0.1263926774263382,0.0014549908228218555,-0.018042519688606262,-0.010028034448623657,0.010544943623244762,0.07239755988121033,0.12675940990447998,-0.1329566091299057,0.004897799342870712,-0.012372019700706005,-0.07414314895868301,-0.045563045889139175,-0.19966116547584534,0.0401013158261776,-0.15001359581947327,0.07366788387298584,-0.08464336395263672,0.14759956300258636,0.0767078772187233,0.11093252152204514,0.18113717436790466,-0.12493018060922623,-0.15203846991062164,-0.1536923348903656,0.1983620673418045,0.10337577760219574,0.15040560066699982,0.07665407657623291,0.178121879696846,0.065449059009552,0.13280418515205383,-0.15247821807861328,-0.18658703565597534,0.10605496913194656,-0.03234463557600975,-0.03324577584862709,-0.15194277465343475,-0.08923371136188507,-0.19601021707057953,-0.1702253818511963,0.09194110333919525,-0.05083725228905678,-0.06463426351547241,-0.15672557055950165,-0.08400558680295944,-0.04744517803192139,-0.07303144782781601,0.18196144700050354,0.19838763773441315,-0.005487229209393263,-0.014734725467860699,-0.002638342557474971,0.1280185580253601,-0.14905093610286713,-0.09450732171535492,-0.19351445138454437,0.024767374619841576,0.001130843535065651,-0.19486021995544434,0.08872353285551071,-0.13898137211799622,0.05745856836438179,0.11176354438066483,0.07654614001512527,-0.19565346837043762,0.1862773299217224,-0.11852169036865234,-0.15157531201839447,0.005688631907105446,-0.0865301787853241,-0.17242327332496643,0.16306407749652863,-0.17695161700248718,0.09962019324302673,-0.08320414274930954,-0.07451406866312027,0.14585402607917786,-0.11061213165521622,0.18690843880176544,-0.039531439542770386,-0.007848065346479416,0.026210935786366463,-0.0625072568655014,-0.17575889825820923,-0.1444714516401291,-0.1744123250246048,-0.07904563844203949,0.08147933334112167,-0.08577751368284225,-0.11851906031370163,-0.1820935159921646,0.09534560143947601,-0.18185952305793762,0.05614110082387924,-0.1745460033416748,0.13173769414424896,-0.06319233030080795,0.0010130192385986447,-0.1895008683204651,0.1434098482131958,0.15554790198802948,-0.1360270231962204,-0.006123661994934082,0.17043839395046234,-0.19912293553352356,-0.08233340829610825,-0.10035121440887451,-0.06670365482568741,0.18325693905353546,0.17666517198085785,0.11154774576425552,0.17340876162052155,-0.1641720086336136,0.0931767076253891,0.1451275795698166,-0.17348037660121918,-0.07094819098711014,0.01678772270679474,0.13397148251533508,0.03122360073029995,-0.13542376458644867,-0.10325693339109421,0.1771317571401596,-0.10900425165891647,-0.053566399961709976,-0.18237030506134033,0.19000984728336334,0.1371719390153885,-0.09738045185804367,0.16561631858348846,0.10748958587646484,-0.09524967521429062,-0.08127624541521072,0.19672995805740356,0.08870481699705124,0.06171879172325134,0.0816599652171135,0.031193751841783524,0.052228279411792755,0.1563827097415924,0.14757519960403442,0.039128176867961884,-0.06903612613677979,-0.020040597766637802,0.15639539062976837,-0.015063771978020668,-0.005442031193524599,0.13016222417354584,-0.031504075974226,0.02089652419090271,0.1634768396615982,0.13224823772907257,-0.1323205679655075,-0.19606928527355194,-0.0020507113076746464,-0.13272105157375336,0.04956105351448059,0.19099017977714539,0.1446462869644165,-0.08828766644001007,0.031678471714258194,-0.025372466072440147,-0.027481570839881897,-0.19396978616714478,-0.1334795206785202,0.1832936704158783,0.11372771859169006,0.10593736171722412,0.13888773322105408,0.05746554210782051,0.09168437868356705,-0.14804813265800476,-0.13076120615005493,-0.1677049994468689,0.13054849207401276,0.01229772437363863,-0.041573524475097656,-0.08669863641262054,-0.1759570986032486,-0.10274020582437515,0.08731631189584732,-0.09130759537220001,0.10085936635732651,0.18472833931446075,-0.09275571256875992,-0.05173934996128082,-0.16864652931690216,-0.13017886877059937,0.08949660509824753,-0.17043454945087433,-0.11229091137647629,0.1846335530281067,0.10182123631238937,-0.059053197503089905,0.1989346444606781,0.09657757729291916,-0.06730293482542038,-0.17205791175365448,0.11376892030239105,0.10626943409442902,0.04329536482691765,-0.12523800134658813,-0.07453641295433044,-0.13788150250911713,-0.041515953838825226,-0.17149922251701355,-0.07362545281648636,-0.06671006977558136,-0.0400717556476593,0.0568070113658905,-0.07847881317138672,-0.19809186458587646,0.04843343421816826,0.10695607960224152,-0.1925821453332901,0.0014632015954703093,-0.15911810100078583,-0.1862722486257553,-0.13439710438251495,-0.182844877243042,0.08948895335197449,-0.15076710283756256,-0.011962858960032463,0.07210823148488998,0.19018228352069855,0.032667987048625946,0.05709647014737129,-0.007676260080188513,-0.04161888360977173,0.060377538204193115,-0.1667817085981369,-0.13083629310131073,-0.06504467874765396,0.18875059485435486,0.09808259457349777,0.05712815001606941,-0.14420655369758606,-0.11022809147834778,0.17253918945789337,-0.1010107547044754,0.08017265796661377,-0.16848938167095184,-0.19359712302684784,0.09539157152175903,0.05940375104546547,-0.1195545420050621,-0.10388606041669846,-0.08370064198970795,-0.12777213752269745,0.11839962005615234,-0.09702124446630478,0.05681738629937172,-0.1598861664533615,0.05055729299783707,-0.10575010627508163,-0.01148753147572279,-0.06798261404037476,0.10397981107234955,-0.03020918369293213,-0.08223753422498703,0.14736934006214142,-0.09254450350999832,0.18795634806156158,-0.17638641595840454,-0.01794392801821232,0.059028372168540955,0.09077142179012299,-0.13722537457942963,0.03325590491294861,-0.10320690274238586,-0.13706044852733612,-0.10540331900119781,0.027487335726618767,0.05320649594068527,0.036906078457832336,-0.06370943039655685,0.027061283588409424,0.07477200031280518,-0.0012003699084743857,0.12090233713388443,0.07769183069467545,0.027977973222732544,-0.08454708009958267,-0.09675441682338715,0.10861142724752426,-0.12871916592121124,0.03055398352444172,-0.10487736761569977,-0.06272420287132263,0.043594930320978165,-0.13252463936805725,0.009263761341571808,0.12965454161167145,0.1568775773048401,0.18819020688533783,0.05650250241160393,0.002146746963262558,0.16770057380199432,0.19508413970470428,-0.07453603297472,-0.060316719114780426,0.029598962515592575,0.11367670446634293,-0.08805222064256668,0.13684119284152985,0.08518622815608978,-0.02173812873661518,0.07081124186515808,0.04875583201646805,0.009654700756072998,0.11522804200649261,-0.17746636271476746,-0.13001985847949982,0.03319934010505676,0.18875887989997864,0.04502250254154205,0.042794227600097656,-0.005407668650150299,-0.025347398594021797,-0.0659593939781189,-0.04863086715340614,0.03789713978767395,-0.03099469467997551,-0.09561987966299057,0.09413830935955048,-0.13320952653884888,0.18091054260730743,-0.16267727315425873,-0.1687115579843521,-0.16067345440387726,0.0009828483453020453,-0.13956986367702484,-0.00999428890645504,-0.019836463034152985,0.015811149030923843,0.005796668119728565,0.08860007673501968,-0.050253916531801224,0.025503119453787804,-0.017813393846154213,-0.07030754536390305,-0.10809928923845291,-0.10552863776683807,0.10306458920240402,0.15556803345680237,0.012725341133773327,-0.12280677258968353,0.17632614076137543,0.061144452542066574,-0.10947731137275696,-0.05751362815499306,-0.1948821097612381,0.14521139860153198,0.10235631465911865,0.03841685131192207,0.06995933502912521,-0.14862488210201263,0.06325803697109222,0.1963557004928589,-0.17657209932804108,-0.029134081676602364,-0.024097366258502007,0.18069279193878174,-0.0968245342373848,0.002527061849832535,-0.17820407450199127,-0.013750431127846241,0.042412567883729935,-0.1658622771501541,0.17126452922821045,-0.027541611343622208,0.17431923747062683,-0.15422871708869934,-0.05678398534655571,-0.0239187590777874,0.11445209383964539,0.13423945009708405,-0.1047184020280838,0.0027514176908880472,-0.06465835869312286,-0.08626925200223923,0.07020658999681473,0.052816230803728104,-0.04137568175792694,0.04737350717186928,0.18712161481380463,0.11271557211875916,-0.06284937262535095,0.18516498804092407,0.10437540709972382,0.09260741621255875,-0.09813562780618668,0.1449810117483139,0.09837941080331802,0.08946392685174942,0.04591706395149231,-0.11395151168107986,0.17715883255004883,0.16611050069332123,0.107792928814888,-0.1728818416595459,-0.04807905852794647,-0.08651280403137207,-0.14989136159420013,-0.1554221361875534,-0.17326870560646057,0.028214579448103905,-0.003147179028019309,0.07379590719938278,0.19444313645362854,0.14926913380622864,0.031098920851945877,-0.021022597327828407,0.09625819325447083,0.1788388192653656,-0.18388478457927704,-0.18907205760478973,0.18395087122917175,0.18807658553123474,-0.15649932622909546,-0.1785280704498291,0.1995037943124771,0.14869914948940277,0.07340444624423981,0.010761728510260582,-0.06672747433185577,0.1581011265516281,-0.035390932112932205,0.16990698873996735,0.01163940317928791,0.1589716523885727,0.035154275596141815,0.1318274289369583,-0.0008814720786176622,-0.0694611445069313,-0.12313128262758255,-0.032224129885435104,0.023354507982730865,0.117991603910923,-0.1993776559829712,0.17160707712173462,0.06722360104322433,-0.018533041700720787,-0.07910633087158203,0.03588109090924263,0.16311827301979065,-0.17827479541301727,0.11815179139375687,-0.1419857144355774,0.16725720465183258,-0.08117453753948212,0.17528259754180908,0.039846569299697876,-0.06503821164369583,0.1413506120443344,0.018631579354405403,-0.16881287097930908,0.17564857006072998,-0.094972163438797,-0.12068429589271545,-0.015225764364004135,0.15428361296653748,0.11908042430877686,0.0796627402305603,-0.08529791235923767,-0.10325846076011658,-0.01726546324789524,-0.02675480581820011,0.05520741641521454,-0.08579809218645096,-0.09518272429704666,0.013734998181462288,0.11788254976272583,0.15237322449684143,0.053722184151411057,0.17758628726005554,0.016621945425868034,-0.11872447282075882,0.1137365996837616,0.027723142877221107,0.18065430223941803,-0.009653528220951557,-0.021002937108278275,0.09906338900327682,0.184517040848732,0.07412708550691605,-0.038821302354335785,0.05724648758769035,0.023717036470770836,0.040554650127887726,0.1454307734966278,0.11491571366786957,0.018819987773895264,0.018102899193763733,-0.12928827106952667,0.11911673098802567,0.1833178997039795,0.025812746956944466,-0.19194981455802917,-0.14692769944667816,0.0066439928486943245,-0.1464722454547882,-0.04233906790614128,-0.10899696499109268,-0.18213753402233124,0.13087038695812225,0.02920565754175186,-0.0769212543964386,0.05840620398521423,-0.020798267796635628,0.1505509912967682,0.10470478236675262,0.13049191236495972,-0.00014509049651678652,-0.10460770130157471,-0.13609443604946136,0.09084073454141617,0.1136939600110054,0.08683884888887405,0.12494797259569168,-0.0031883215997368097,0.11865735799074173,-0.08351901173591614,-0.00845184363424778,0.17254890501499176,-0.10066541284322739,0.0930243656039238,0.09959664195775986,-0.0866304561495781,-0.02452704682946205,-0.09900780022144318,0.036811672151088715,-0.14455880224704742,-0.008570167236030102,-0.035386260598897934,-0.011350246146321297,0.1519419252872467,0.13098560273647308,-0.15200839936733246,-0.12298719584941864,0.12515778839588165,-0.1556856483221054,-0.156233012676239,0.15799666941165924,-0.19657228887081146,0.12501975893974304,0.0009305436979047954,0.05060427635908127,0.1534205824136734,-0.18962518870830536,0.087415911257267,-0.12498848885297775,0.12011183053255081,0.19417229294776917,0.11031894385814667,0.008792283944785595,-0.1464524120092392,0.1574757695198059,0.12915779650211334,0.03903597220778465,-0.0656103566288948,-0.03575143590569496,-0.19452999532222748,-0.1458413153886795,0.12552954256534576,-0.10997886210680008,-0.09846406430006027,0.1916237771511078,0.17176710069179535,0.10062574595212936,-0.17945262789726257,-0.03738491237163544,-0.05576659366488457,0.03515182062983513,0.0803397074341774,0.18097513914108276,0.19992782175540924,-0.06245477497577667,-0.1859833002090454,0.1205872967839241,0.16889753937721252,0.17505984008312225,-0.021408172324299812,-0.04847493767738342,-0.0062934900633990765,0.016163768246769905,0.001420471235178411,-0.020957550033926964,0.09820204228162766,0.14461342990398407,-0.0904805138707161,0.10963746160268784,0.15755580365657806,0.18822632730007172,0.15115073323249817,-0.0860239565372467,0.16164493560791016,-0.12521423399448395,0.1442846804857254,-0.0739583671092987,0.1564844697713852,-0.0296366848051548,0.04984809085726738,-0.0875900611281395,-0.021862849593162537,0.0143186766654253,0.057998981326818466,-0.07768813520669937,0.0646832063794136,0.006439614109694958,-0.040891826152801514,-0.18009942770004272,0.09713160246610641,0.1974003165960312,-0.1925494372844696,0.13430149853229523,-0.13968434929847717,0.14475804567337036,0.1996464729309082,0.11313218623399734,0.09872748702764511,0.1631188690662384,0.1535739153623581,0.08581632375717163,0.1575222611427307,-0.07425589114427567,-0.194478377699852,0.1367298811674118,0.030775314196944237,-0.08720319718122482,0.05741823464632034,-0.1421012431383133,-0.18522249162197113,-0.1426641345024109,-0.12301108986139297,0.1444498598575592,0.003226505359634757,0.028129789978265762,0.17833973467350006,-0.19048723578453064,-0.0021561183966696262,0.008960970677435398,-0.09827937185764313,0.13814754784107208,-0.16788342595100403,0.02205481007695198,0.02600656822323799,-0.030941233038902283,0.19867126643657684,-0.10893985629081726,0.006953035015612841,0.15904293954372406,-0.09945406764745712,-0.18806685507297516,0.07279346883296967,-0.01236085407435894,-0.06774162501096725,-0.16475865244865417,0.03669707477092743,0.013570321723818779,0.12766224145889282,0.16454654932022095,-0.11211042106151581,-0.1700817495584488,0.15880297124385834,-0.04105891287326813,-0.18473924696445465,0.1245858371257782,-0.13807694613933563,-0.16009025275707245,-0.11883000284433365,0.16775089502334595,-0.06761819869279861,0.1110415980219841,-0.13562960922718048,0.0005542266299016774,-0.18045294284820557,-0.10090192407369614,0.09015271812677383,0.19631917774677277,-0.19399966299533844,0.026463182643055916,0.05944567173719406,0.024927517399191856,-0.09122735261917114,-0.013699593022465706,0.14896510541439056,0.06641604751348495,-0.13538706302642822,-0.059664856642484665,0.0678359791636467,0.17284807562828064,-0.007829826325178146,-0.003919131588190794,0.1213601753115654,0.040862489491701126,-0.10859695822000504,-0.09730871766805649,-0.19712255895137787,-0.17951437830924988,-0.1666863113641739,0.07693838328123093,-0.04561837017536163,-0.08180690556764603,-0.0011214169207960367,-0.16413240134716034,0.18686392903327942,0.17070478200912476,0.0010263329604640603,-0.09973243623971939,0.04517213627696037,-0.12207195907831192,0.07623227685689926,-0.10878748446702957,-0.12388021498918533,0.0372549369931221,-0.059428926557302475,-0.0030092799570411444,0.13282343745231628,0.1899387389421463,-0.07487355917692184,0.14403122663497925,0.18055982887744904,-0.06452187150716782,-0.14274080097675323,0.1942184865474701,0.1094999611377716,-0.18961156904697418,-0.061589475721120834,-0.006483692210167646,0.07060875743627548,0.16100893914699554,-0.015477526932954788,0.025619428604841232,-0.153147354722023,0.11227403581142426,-0.14199557900428772,-0.13445450365543365,-0.046143822371959686,-0.16650588810443878,-0.18731734156608582,-0.1302298605442047,0.029631679877638817,0.08532258868217468,-0.16451145708560944,-0.03486699238419533,0.06322869658470154,-0.08557488024234772,0.1768125742673874,0.023977017030119896,0.13064827024936676,-0.0858888030052185,0.10097239166498184,0.0940597802400589,0.14676479995250702,-0.014506897889077663,-0.1519801765680313,0.010591994971036911,0.020678680390119553,-0.14355452358722687,0.09614779055118561,0.1470128446817398,0.1739697903394699,0.06945672631263733,-0.11609158664941788,0.1488310545682907,-0.11679249256849289,-0.17084822058677673,0.086308054625988,-0.08291581273078918,0.13770519196987152,-0.08718448877334595,0.11952511966228485,-0.09401486814022064,0.06938818097114563,0.1320747435092926,0.038991399109363556,0.12412355095148087,0.17437401413917542,-0.17108973860740662,-0.10760548710823059,-0.05328310281038284,0.18598030507564545,-0.037237729877233505,0.16657237708568573,-0.10178057849407196,0.06661450117826462,-0.055701058357954025,-0.17940165102481842,-0.04686889052391052,0.03224942088127136,0.16545818746089935,-0.03282622992992401,0.009904911741614342,0.013981941156089306,0.13686347007751465,-0.035995855927467346,-0.04467270150780678,-0.11831153929233551,0.049379196017980576,-0.19390951097011566,0.06614750623703003,0.14973238110542297,-0.18827533721923828,0.00841919519007206,0.1772569864988327,0.15993325412273407,-0.0963311493396759,0.08539576083421707,0.07687179744243622,-0.014090859331190586,-0.18708652257919312,0.048704843968153,0.0708339661359787,0.15104736387729645,0.0362527035176754,-0.04056018218398094,-0.09341790527105331,0.13403667509555817,-0.12745478749275208,-0.1784917414188385,0.03472588583827019,-0.19071029126644135,-0.016834605485200882,0.013602285645902157,-0.18393102288246155,-0.16161662340164185,-0.05941438674926758,0.039789240807294846,0.09506456553936005,0.011454612948000431,0.01576869934797287,0.18764156103134155,-0.04060832038521767,-0.055389583110809326,0.09574439376592636,0.10062834620475769,0.05969712883234024,0.11537585407495499,0.04424295946955681,0.021351389586925507,0.1820339858531952,-0.19585949182510376,-0.07885688543319702,0.15862059593200684,0.05074390769004822,-0.05135871097445488,-0.1099756509065628,-0.004371779039502144,-0.07609324157238007,0.18759647011756897,-0.13422709703445435,0.09219349920749664,0.10181495547294617,-0.13077828288078308,-0.04485644772648811,0.12438404560089111,0.07412536442279816,-0.17244598269462585,-0.07181749492883682,-0.12242747098207474,-0.043826282024383545,0.07831433415412903,-0.10035243630409241,0.16776293516159058,0.0036844382993876934,0.1815706193447113,0.047761235386133194,-0.12663882970809937,-0.15871691703796387,-0.1554400771856308,-0.09105413407087326,-0.07869192212820053,-0.18357080221176147,0.0926993116736412,-0.08623939752578735,-0.1279441863298416,0.12684032320976257,-0.17004777491092682,-0.18656356632709503,-0.17487116158008575,-0.07861632853746414,0.14268386363983154,-0.00048064248403534293,0.00455487659201026,0.07442750781774521,-0.06648299843072891,0.1360355019569397,0.02963864989578724,0.1322144716978073,-0.06310686469078064,0.022040141746401787,0.17621737718582153,-0.13784632086753845,-0.11186078935861588,-0.14499448239803314,-0.029006334021687508,-0.0969211608171463,-0.10735582560300827,0.09660445898771286,-0.17958635091781616,-0.08150025457143784,0.13317090272903442,0.15376897156238556,-0.06375523656606674,0.0047072903253138065,0.052422259002923965,-0.18120236694812775,0.03449813276529312,0.17444023489952087,0.016124380752444267,-0.18471795320510864,0.07876317948102951,-0.14510253071784973,0.05539824441075325,0.08883828669786453,-0.05187395587563515,0.05816325917840004,0.13696996867656708,0.14935019612312317,0.1374737024307251,-0.15628229081630707,0.102504201233387,0.16950920224189758,0.14521938562393188,-0.018171794712543488,-0.01261110883206129,-0.13863521814346313,0.06400889903306961,0.02042650431394577,-0.11997218430042267,0.16816255450248718,0.17796587944030762,0.16606271266937256,0.16593460738658905,-0.06991386413574219,0.07801472395658493,0.16481293737888336,-0.03648172691464424,-0.12561994791030884,0.12816229462623596,0.17371200025081635,-0.07755722105503082,0.06489726901054382,0.18666861951351166,0.12648390233516693,-0.14015769958496094,0.09564890712499619,-0.1505613476037979,0.12267506122589111,-0.16324545443058014,0.16400647163391113,0.17129899561405182,-0.09575445204973221,-0.03615469112992287,-0.143362358212471,0.05752044543623924,-0.0225385632365942,-0.1397305727005005,-0.19541342556476593,0.03471408411860466,0.1669682264328003,0.17755180597305298,-0.1046781837940216,-0.09254609048366547,0.07463110238313675,-0.15550565719604492,-0.14646758139133453,0.15301860868930817,-0.08725490421056747,0.12205721437931061,-0.163523331284523,0.18595752120018005,-0.12343496084213257,0.10368193686008453,0.18568922579288483,0.07148249447345734,-0.07693024724721909,-0.1250172257423401,-0.1424867957830429,-0.14199277758598328,-0.1867779791355133,0.13708916306495667,-0.03964625671505928,-0.10907960683107376,-0.05474222078919411,-0.14152710139751434,-0.1564672589302063,-0.08123298734426498,-0.10351841151714325,0.14214462041854858,0.1136418879032135,0.1250951588153839,0.18367594480514526,0.02489163726568222,-0.17401200532913208,0.01788320019841194,0.004131102468818426,-0.023941533640027046,-0.11177168786525726,-0.03750063478946686,-0.00786743313074112,-0.17144756019115448,0.009849737398326397,-0.0025246182922273874,0.19825026392936707,-0.03805914521217346,-0.10868729650974274,-0.02899123914539814,0.025441063567996025,-0.1342584639787674,-0.05276176705956459,0.11340156197547913,-0.11435436457395554,0.19549667835235596,-0.09790423512458801,-0.006536860018968582,-0.06683212518692017,-0.026600336655974388,-0.0629630759358406,0.1444311887025833,-0.017867347225546837,0.04449836164712906,0.1988493651151657,-0.015676885843276978,0.009471269324421883,-0.19659832119941711,0.005005300976336002,0.12445510923862457,0.07957683503627777,-0.14864234626293182,-0.06875750422477722,0.08628968149423599,-0.12050627171993256,0.13677360117435455,-0.19081233441829681,0.1622450053691864,0.06472566723823547,-0.04213101044297218,0.11746301501989365,0.02273607812821865,-0.043451789766550064,0.14360728859901428,-0.1382027268409729,-0.07153399288654327,-0.17770367860794067,